,0,1,2,3,4,5,6,7,8,9,10,11,12,13,14,15,16,17,18,19,20,21,22,23,24,25,26,27,28,29,30,31,32,33,34,35,36,37,38,39,40,41,42,43,44,45,46,47,48,49,50,51,52,53,54,55,56,57,58,59,60,61,62,63,64,65,66,67,68,69,70,71,72,73,74,75,76,77,78,79,80,81,82,83,84,85,86,87,88,89,90,91,92,93,94,95,96,97,98,99,100,101,102,103,104,105,106,107,108,109,110,111,112,113,114,115,116,117,118,119,120,121,122,123,124,125,126,127,128,129,130,131,132,133,134,135,136,137,138,139,140,141,142,143,144,145,146,147,148,149,150,151,152,153,154,155,156,157,158,159,160,161,162,163,164,165,166,167,168,169,170,171,172,173,174,175,176,177,178,179,180,181,182,183,184,185,186,187,188,189,190,191,192,193,194,195,196,197,198,199,200,201,202,203,204,205,206,207,208,209,210,211,212,213,214,215,216,217,218,219,220,221,222,223,224,225,226,227,228,229,230,231,232,233,234,235,236,237,238,239,240,241,242,243,244,245,246,247,248,249,250,251,252,253,254,255,256,257,258,259,260,261,262,263,264,265,266,267,268,269,270,271,272,273,274,275,276,277,278,279,280,281,282,283,284,285,286,287,288,289,290,291,292,293,294,295,296,297,298,299,300,301,302,303,304,305,306,307,308,309,310,311,312,313,314,315,316,317,318,319,320,321,322,323,324,325,326,327,328,329,330,331,332,333,334,335,336,337,338,339,340,341,342,343,344,345,346,347,348,349,350,351,352,353,354,355,356,357,358,359,360,361,362,363,364,365,366,367,368,369,370,371,372,373,374,375,376,377,378,379,380,381,382,383,384,385,386,387,388,389,390,391,392,393,394,395,396,397,398,399,400,401,402,403,404,405,406,407,408,409,410,411,412,413,414,415,416,417,418,419,420,421,422,423,424,425,426,427,428,429,430,431,432,433,434,435,436,437,438,439,440,441,442,443,444,445,446,447,448,449,450,451,452,453,454,455,456,457,458,459,460,461,462,463,464,465,466,467,468,469,470,471,472,473,474,475,476,477,478,479,480,481,482,483,484,485,486,487,488,489,490,491,492,493,494,495,496,497,498,499,500,501,502,503,504,505,506,507,508,509,510,511,512,513,514,515,516,517,518,519,520,521,522,523,524,525,526,527,528,529,530,531,532,533,534,535,536,537,538,539,540,541,542,543,544,545,546,547,548,549,550,551,552,553,554,555,556,557,558,559,560,561,562,563,564,565,566,567,568,569,570,571,572,573,574,575,576,577,578,579,580,581,582,583,584,585,586,587,588,589,590,591,592,593,594,595,596,597,598,599,600,601,602,603,604,605,606,607,608,609,610,611,612,613,614,615,616,617,618,619,620,621,622,623,624,625,626,627,628,629,630,631,632,633,634,635,636,637,638,639,640,641,642,643,644,645,646,647,648,649,650,651,652,653,654,655,656,657,658,659,660,661,662,663,664,665,666,667,668,669,670,671,672,673,674,675,676,677,678,679,680,681,682,683,684,685,686,687,688,689,690,691,692,693,694,695,696,697,698,699,700,701,702,703,704,705,706,707,708,709,710,711,712,713,714,715,716,717,718,719,720,721,722,723,724,725,726,727,728,729,730,731,732,733,734,735,736,737,738,739,740,741,742,743,744,745,746,747,748,749,750,751,752,753,754,755,756,757,758,759,760,761,762,763,764,765,766,767
polarity,0.009839492344044114,0.650669019372184,0.12853580779255805,-0.8476927159886161,-0.016629509910031322,0.21851119010680356,-0.005013510088509124,-0.9330126133165771,0.5510041638336317,-1.2950489481235874,0.7859939406896962,-0.433226031501046,0.6928054092044531,0.9075444037754016,-0.1981265078225403,-0.014218488747964724,0.4521905542200247,-0.03863626386448309,-0.4869149513142062,-0.5053867391769817,-0.42638545527609406,-0.12672430165866563,-1.0449563521108645,0.8497646350309732,-0.7090277071657145,-0.9246570120921869,0.09145463394565005,0.4465930113017865,0.947553217342675,0.0036429278132420052,0.6497737144335635,-0.2796511708924154,0.01784582967699339,-1.7915661540807497,-0.858338564069442,0.1446236383546395,0.05887069907142162,0.16209148447390376,-0.3883891073075359,-0.12444140172239393,-0.5647700107172111,1.0700418494931951,-0.36582022876532116,0.3625368645977833,-0.23668206380159318,-0.04379171397645712,0.39458033809496756,-0.8969796569743766,-0.8259624068501065,0.026675423113779167,-0.32063928550419374,-0.32376190674364064,0.4970322345961351,0.13899515794094142,0.5851357056902216,0.16194271929208268,-0.3774389522042869,-0.23772268108258482,1.6618006412969866,-0.589198339029381,0.0045313150522197304,-1.2379657462053693,0.16075416454088975,-0.3168622844273905,0.017493847412035916,0.5171023791662782,0.20796879772300908,-0.009367312422472863,-0.045998943645676416,-0.7685562079033876,0.41463507466445265,-0.34629115505694136,0.4309784829221744,-0.17796923843331117,-0.9036451327071001,-0.10848786896429433,-0.41352125127803463,-0.6362457700681714,-0.21859722400325152,0.2037656988389572,0.48331763662147065,-1.1864169969559542,-0.19244235520975156,0.181966476750114,0.2943866311108738,-1.056049386572441,0.30123596932849656,0.014514382694936387,0.5145125536190941,-0.45071363401672737,0.10301604713841617,-0.5431870613514974,0.1443013103664453,0.05939322622959759,0.44549499413296834,0.3051387747644472,-0.30518646254441856,0.43343222005206317,0.8934074094616827,0.026598182863187513,-0.24404361190809878,-1.0645521060974614,-0.0467605983377111,0.6906318087159261,0.3423854844139645,0.5294287156488048,-1.0730662106256013,-0.09012502812348615,-0.42013644453668264,0.306928575538144,0.622740878338913,-0.15157335531695712,-0.08075203791195816,1.0808048800685894,-0.7618959759687747,0.5557196036848537,-0.1998166612018674,0.520407336366413,-0.6501375854286493,0.6333819439062408,0.018814024824236646,0.8870421147368633,-0.14798616040829707,-0.42358046091709567,-1.2258514226769786,0.33490218248370013,0.18127628727142572,0.0029755628118233756,0.06581875189146248,-0.07178929081801291,0.08635841852558136,-0.5893662857976746,0.06885673983388699,-0.20930139313911209,-0.029387255584593052,-0.12408042746851869,-0.7356218694418384,-0.17740996087406638,0.16512003623050395,0.20789110254101636,-0.2066784070882357,-0.021036112741751895,0.11404712616299698,-1.3456472657515097,-0.6853755932900709,0.14613281373671597,0.907535830349162,-0.4751678245374893,-0.5867783061933277,0.07046181505660316,-0.3443806129868855,0.8518570718744464,-0.2989723622524068,-0.23960042898292966,-1.2150647356049142,-0.10507339865028491,0.7827843226413406,1.0333612327387438,0.10551092691801703,-0.08530693961254515,-0.3456948105955939,-0.1556724438967137,0.7764454415007841,0.23999229588093704,-0.28729917446461345,-0.015810875187432478,-0.7260302655210399,0.24301592087754886,0.008374003076192387,0.08912682627424597,0.38558796142394197,0.5037333568271799,-0.8506677041904491,-0.7953707670372032,0.8130264453177851,-0.04051721295100073,-0.20522837435817615,0.32767441019730464,-0.685354784115175,0.07879521165595003,-0.23177689250019523,0.27861211534750313,-0.17915017048024537,0.8447812093932722,-0.49673118702284674,-0.17940304153893455,-0.27853831476001584,-0.7589843321353427,-0.2734381099764253,0.2865585734556858,0.2802063657379993,0.03556930320433312,-0.6556171188641616,-0.22226687473241064,-0.2304644970717071,-0.6463552307864308,0.24267841293930464,0.011606217893730267,-0.361761201698602,-0.03986209115899153,-1.1358203680086056,0.5171600344995457,-0.9163790815184366,-0.8140858341835183,-0.5384980050107238,0.8810531160474967,-0.04402690911298171,-0.42041654037212617,-0.047416479954472984,-0.04000708661650268,0.12987353190909776,0.8554899394173777,0.05278898947079086,0.18206413162776922,0.056004184995911345,-1.0451386825038096,-0.5286009256121879,-0.2649771185156419,1.102548463733401,0.7295316537777152,0.6109920085795678,0.3207543840589958,-0.06500024917481892,0.5239212017781858,0.6218156441522388,0.14392695952993614,-0.3441200153163484,0.5936654016781089,-0.004465964438585673,-0.07182807815752693,-0.38160730957830424,-0.1931858614897684,0.4453555918083667,-0.9587130277826694,0.5562198014896543,0.04333504376461958,0.8210957566091268,0.23698867660772024,-0.176959622669259,0.276298754150951,-0.10432078078424267,0.600536081212303,0.182778949726193,-0.6999223376655949,0.6395090418029702,-0.26492388164045605,0.2253513989647237,0.173658481287202,-1.3260839082262446,-0.8906157231426445,0.21395148536896888,0.25078983762355017,-0.3596541202137446,0.10766998434662925,-1.062022962740511,-0.22794582244558134,-0.11346321278030257,0.02034703250489969,0.1399718413082104,-0.041711616355484885,-0.5547485128329231,0.2277667361460744,-0.26291475062636793,0.4038758755727458,-0.5335973826836495,-0.21597637231913633,0.029562400704216035,-0.21469868867236055,-0.031247260090927806,-0.22938008101968582,-0.029222994557043313,0.1327938933343381,-0.6086135065353881,0.9654420286763193,-0.5077339479330367,0.1964442020849801,-0.5383227755739546,0.5975493860454049,-0.03719043064657624,0.04316542763120481,0.6657470104466765,-1.478185216384811,-0.4006275831916273,1.0736330449525147,-0.6591786890274914,0.4883526137909978,-0.42873849740633035,-0.31502289432749,0.14108132233462162,-0.4444731345448623,0.06626317347417215,-0.22126649994185882,0.03450225903179272,-0.25036956508527647,0.4855176124429503,-0.45490711756858127,-0.3802032841280704,0.5136104704416994,0.4707311837221286,-0.22690928058188392,0.9347807464323314,0.2332589237707748,0.0459382713039067,-0.3345727043852118,0.48751415548233173,0.09193763814204324,-0.23296307803720503,-0.43577541540514064,-0.11441229691238017,0.4266773791402542,-0.7427914741389056,-0.13520896832695292,0.20161990579047515,0.09066169913933754,0.0026954934414634593,0.019900850820350185,-0.5624054274069799,-0.06375473535262886,1.2199615235982555,-0.20239901597352397,-0.39082865974937336,-0.23412522882076278,-0.46375846540684973,-1.1856245390082496,-0.586436983703525,0.28924394044784124,0.26720253685477263,-0.0936933408442701,0.561062245982973,0.6767504952462634,0.18605181187185246,0.09198606510634756,0.06193223585493136,-0.46391237500311294,0.37404046458701073,-0.27011182968925435,0.47606994594030666,0.6771884840230854,0.6713900449370293,0.8405308470236376,-1.0439002466345992,-0.19247233952994564,-0.14327142412178687,-0.08565500499852709,-0.4150686240680643,-0.4098767438440266,0.04577579040449655,-0.45068560775429345,0.16583423610178838,-0.4282747454470081,-0.2828065028779588,-1.0866419138544914,0.10863369321646081,0.8294579949053915,-0.9912950717110556,-0.534887821028147,0.03706024333105528,-0.7570530461210101,1.3404441072608073,0.23510241929374717,0.06625898143926534,-0.10824318515005873,-0.4130277213076744,-0.13062843672490587,0.26891196902937387,0.02015233136027191,0.530745983412542,-0.46806299956110925,1.2004805828096523,0.5992438614441392,-0.11085381880575078,0.022439458761265765,0.23351571936239054,0.1485330839759038,-0.014891412775413119,0.6973152942265283,0.4489674948974463,-0.39172075437869225,-0.4173562335123534,0.17207905136928897,0.951571779231118,-0.43892668203259555,-0.8121285982934487,-0.944187702071232,0.18255632422648904,-0.0988212870075391,0.2820849632677324,1.040459406878874,-0.6028518945307898,-0.32197865787942775,-0.1084886318959463,0.0432882254176865,-1.4622539249779956,-0.06370754412355474,-0.330961270187152,0.8925872833407897,-1.1115381482946132,-0.03234061975320766,-0.10372719049043243,-0.2348050199324498,-0.8400420497338614,-0.33618280603793926,0.07587418911714339,0.5650444152125668,0.4370826504524066,-0.10398395475837964,-0.45027115342490237,-0.7526717408810405,0.15014763554736674,0.263587792717758,-0.8423498882692152,0.10559750183149806,0.20469649975539084,-0.5008756338539158,-0.09919270938918685,0.4387121828463816,0.3450112557289578,-0.3523612335898486,-0.4211768381608066,0.8505392236905477,-1.0638631142041477,0.5070988365537069,-0.958448612332856,0.1440978087699282,0.1736174564171719,0.23343978814205388,0.28968207475889585,1.1085067325771982,-0.07602924751097394,-0.5644668381482641,-0.05324825465309511,0.08214981990005703,-1.698531621747088,0.2405930396700845,0.2789824005804141,0.9989608332063559,-0.16345594310874745,-0.40209380160269653,0.46624485940850263,-0.5355707395861172,0.7831555893323885,-0.7117009182922648,0.05365041927042116,0.06387173732856422,-0.016326598206167425,-0.9645021426924139,-0.7072529488516184,0.18497320845735318,0.178515787715643,0.37855110263882996,-0.30169563606343003,-0.08377372584800422,-0.719120791396892,-0.07084804345037947,-1.0659922908470496,0.4697233297563985,0.3257844647734117,-0.7099180771304054,0.00675119778256349,-0.3056465118000258,-0.14174408883472486,2.2853697103149924,0.2166028043205597,0.03437016291110628,-1.3225821725406577,-0.024157198918751874,-0.07341416218292861,0.06415708017790245,0.5384893492983223,-0.08251720613902203,0.2552944235518333,0.12850538630492064,-1.3150379506630916,0.18859942729372733,0.37259242315549623,0.18554900337589714,1.135988730502853,-0.799744775830251,-0.973656414837342,-0.14389827750198644,0.012494216518137787,-0.2634633893623275,-0.914601833362889,0.8430949407587909,0.2213694597683537,-1.735052031980309,-1.2946823151960818,-1.4588497604359585,-1.1919331651563185,0.3863874880231694,0.6052980549754533,-0.10823289694718988,-0.6487577187233673,-0.5836731542173885,-0.6260888090068146,1.291906972477734,0.00023432546417706722,0.2905917354150135,-0.5862141572737465,-0.9804563496907986,0.3205424858959136,0.20775698244676755,-0.7600066633632062,0.22078608963423058,0.2353989303847834,0.15997103876879512,0.1593302777417476,1.0035586721387784,-0.8262105252620546,0.545880038543586,0.22842288286852258,-0.4265521204965847,0.7462845781591414,0.3168393247722045,-0.12271990171232099,-1.0998004094550515,0.01665754172611575,0.47950088493752063,0.1559912919908814,-0.4014511248555177,-0.3038242066144793,0.25545662545356457,0.041510112007291294,-0.24594272358786426,0.4814258017166507,-0.566332381503846,-0.2046360928935155,0.19929921776027493,-0.0030471570767389954,-1.4011019042346875,0.3578599678272997,-0.17990398629914456,0.9989776579359736,-0.590268582199589,0.5136997904153752,1.3939803877367636,-0.11135520844230003,-0.10239152259736362,-1.0467920874740841,0.6381730029369184,-0.06376265820341076,-0.8969470752008093,-0.2497757888748171,0.3206545310098579,-0.96052216969092,-0.6291295748692264,0.829245421895455,1.2262439090648998,0.14836568749849424,-0.31716462659617795,0.4346553400948177,-0.32367224950485585,-0.1492005952893993,-0.15006227284163665,-0.5596725325704394,-0.12259870774305576,0.5179625437997957,-0.23336370692569544,0.6243061573447356,0.25394719246989195,-0.7236087274461223,-0.4542314853290226,0.696485396937515,-0.0613086502980657,0.3380203023976595,0.712734376448557,-0.4311707158133327,1.0555359750679594,-0.320580847198186,-0.0699443397557166,-0.3911469680064535,0.7346894989830856,0.6585279193290476,0.15272016789463133,1.0493301455656818,-0.177654023601832,-0.2981310096009842,-0.19394414728217513,0.12802083917314147,-0.44057096140959623,-0.5631541305961334,-0.07506097585304755,0.602766860180578,0.8380145640401929,-0.7830129499700572,0.5686618406782697,0.3102816513223383,1.1302398043650088,-0.1997363809899272,0.9713697028335933,0.9904549146453563,-0.6780140836923207,-0.056078296362325974,-0.26139503769767913,1.0686078153411125,0.10297578403491355,0.5592806292621982,0.7706716673040114,0.8649377131510775,-0.7953551589461997,-0.2524219340786422,0.38483887938354705,-0.3840608859327281,-0.9066101401647367,-0.013218242928636713,-0.6327991443745358,-0.26629635687312714,-0.4921014705856666,0.3040713638558087,-0.5450935588028143,-0.4661302908061931,0.08775228398241332,-0.8105519885134159,-0.44375475707261425,-0.7181272725086261,0.3553458771347638,-0.02928972974490573,-0.38035657756590524,0.0873574502535009,-0.06797536261242557,0.19192002240939715,0.3263453940556058,-0.142079483053277,-0.03366511528175851,0.34644332889319046,-1.1830344519030753,0.4086835387787131,0.15585400338055297,-0.16685235194750486,-0.5424683113046388,-0.042997761089318576,-1.307174985898071,-0.37962182671383393,-0.37828979494705456,-0.3763763694704447,0.13857722828066257,0.18641130586631524,-0.1288309856394221,0.1658364928509335,-0.6137943540778033,-0.11200247346325916,-0.46164268234882483,-0.41511077761667886,-0.11677230530225591,0.7049520073704046,0.26695025343580875,0.06509241741309095,0.8678687633222367,-0.31077269582839406,-0.7840668301964401,-0.08804401165687524,0.9079755189317453,0.03671180374454733,0.723879429901958,-0.244555524935325,-0.7127559640620195,0.6827767853315322,0.002673532482205079,-0.9016977185957602,0.5337917838217777,-0.3514536217651009,0.6528132151587466,0.8436424811496649,0.11829171860635972,0.06911471848659179,0.9642153693702109,0.6311904509760465,0.08349737010417728,-0.0021282189464512597,-0.5012756871632145,0.47031368913559696,-0.2805930705083788,0.5721443980152724,0.40335669697655613,-0.11007074347940174,-0.9960814934280232,-1.0378990638690317,0.9437627114798248,0.37742583425586623,0.8866794531028243,-0.42313609225751925,0.0062374569270778,-0.4458781091219956,0.2955436488238543,-0.013505191494357062,0.11826348645845518,-0.4844776257078813,-1.0164119362844448,0.7135798242459336,-0.13813318954704856,0.9324984019966914,0.5137289722122899,-0.05006743056853776,0.866271126195468,0.12736073687300242,-0.9422250365848167,0.8551754368870977,-0.3192703456038625,0.45470886454522175,0.27537498432536395,-0.14625696667332036,-0.007995705345998421,0.2620644321873883,0.24982348565433005,-0.0218383886776768,-0.4352547863079413,0.4666693224214538,-0.3382832198728617,1.1140545252779324,0.050775207951619855,-0.3698980313582321,0.3724648073662898,-0.2570647361229712,-0.24245781633354022,0.09086285304402095,0.8449512267296857,0.8892960720163424,0.37843145137695927,0.008348722359644253,-0.3037853261294659,-0.07453880209356027,0.8193945485621638,0.544227720046532,0.19799040352877642,-0.21222951025207298,-1.0132891374216129,-0.13420305858688203,0.7653550810922607,-0.33724960167554896,1.007067947027863,-0.12291523233949854,0.07244110874048922,-0.18953750689913013,-1.0554786537956973,-0.43038168642186986,-0.16495140957322268,-0.571316744403347,0.23351883449035116,-0.8453127205643789,0.039439166398381346,0.6559205507601242,0.39687715296893905,-0.4059301233352535,0.3055362208008024,-0.324438788315333,0.24636790755215032,-1.0217873276679934,-0.25966485803234984,0.2593799725383881,0.13506074982388955,-0.1445762128907807,-1.8400323937395462,0.1561681748042472,0.7277270917041515,0.4354409730188397,-0.7408240741405271,0.13762849627746396,-1.6832572819989834e-05,0.4230855847809191,-0.20718292320322393,-0.12791054021168372,2.519666259738925,-0.28455726473886395,-0.044075203454006714,0.4229670226054648,0.7104312748776686,0.12541651583600763,-0.9606490897038434
quantity,-0.21269926654721585,0.22575660906155676,-0.5473992425481237,-0.32194057010776517,-0.20235866245841125,-0.016455054870059927,0.5745836597574464,0.7234060777377436,0.12445033619073864,0.23302254488901672,-0.38187687949283683,-0.12426743764432849,0.008498441050015603,-0.45339467047584225,-0.05783907335257864,-0.6461991644342225,-0.2857973522629474,-0.025486996751711004,0.002215010625562335,-0.17398295681643444,0.02405553579315341,0.42690909332052773,0.2917768946800566,0.1288698970951805,-0.5424730799491767,-0.00486208005686108,-0.20909159851670436,-0.506191534389174,-0.18502889534497927,0.0983566889610965,-0.6915508580576528,0.6001292840610822,-0.35429948808126205,0.48888143546133794,0.25303679109057253,-0.4391060712105347,0.03980102914005417,-0.5669606178526246,0.18141255539672974,0.17883819253239477,-0.10612955004642742,0.0933750678952249,-0.08940845656902226,0.051469901673202596,-0.21367926659579475,-0.31697544551420714,-0.1730145360002456,0.07290822472090058,0.4956197283926156,-0.4027375554138532,-0.032646652508329765,-0.34440968922265075,-0.20053619981331303,-0.1490811358341942,-0.30961459320605234,0.089811392358168,0.005198323800215174,0.29788714586303827,-0.4791499603083957,-0.2631213046872082,0.0650886145282377,-0.03861626337674801,0.03847745920891294,0.07443306784328785,0.0027788960334246887,0.021771040638952598,-0.06151202176950596,-0.10461343593267253,-0.2766899272789972,0.17808712005404684,0.09914156183622212,0.18525615433592396,-0.7591286577643266,-0.2715161753308577,0.6741674042198954,0.13472189138880467,-0.24114742403097425,0.03698363636912984,-0.2066805477817884,0.1064307315702911,0.33426428114639684,0.5318054449157393,-0.4639195100479524,-0.3899960822755832,-0.09738340759740305,0.10192135444967408,0.5350628432775437,-0.0015473281337968752,0.16414322370099366,-0.40712938699411505,0.2912595006392257,-0.25020373531871265,-0.4849370742031454,-0.2994917766642326,-0.25229411357547304,-0.29434741117993596,-0.1582788235403563,-0.029747186863187062,0.06953506645144568,-0.08119717914907722,-0.3627985662809639,0.32043283065880435,-0.4230331071715765,-0.4885778197215654,0.2352670487352704,-0.35827924329338556,-0.10052646987892135,0.4792124201049617,-0.16221587769382237,-0.5869523559573733,0.053809732952785565,0.01991714418194675,-0.11563485203447972,-0.036571004553851386,-0.4245141347875885,-0.3733949955624868,-0.2640642029690327,0.5222932376895207,-0.26848023717579905,0.21107163354424857,-0.549478986012394,-0.34233868150473623,0.37326030946591665,0.34689668708391325,-0.009492538983745786,-0.5583841169182987,-0.1773757387910139,0.253183936124643,0.12229727128032312,0.08133561407252839,-0.06658131434081065,0.15713406535179275,0.3447928251974435,0.3435914565256226,0.2690626522593288,0.2333853138503884,-0.2684610697069987,0.028744071430372317,0.05391550612732382,-0.34573736894968243,-0.13847742055877535,-0.6024646416655967,-0.4060853503823697,0.20473806581808213,0.2542025865106893,-0.12028303079194355,-0.18779743770932814,-0.33813473046276743,0.06678359101832008,-0.04387168837954848,-0.02694723763427162,0.1849518752943759,0.3753638548899991,0.4714936982007669,-0.2213674606530357,0.1822710353920724,-0.8265494773737756,0.15683727477212206,-0.004823460864272967,-0.5059031212569366,-0.5953509072009646,0.10103731608623803,0.34943815522839006,-0.4457895722603509,-0.1806153833330307,0.28456864867623594,-0.058181136467249595,0.1774079379805289,0.5364697582674639,-0.20202481809284792,-0.24593965039905727,-0.43254546898585333,0.4589767574872821,0.34400593109230493,0.09088757330265536,0.08374320401951137,-0.16394883233980784,-0.15571935305809728,0.1606668771088166,0.13351908401402274,-0.07809536699449014,0.23484915292627154,-0.23669078707154795,-0.008632312736891884,0.6692472914027597,-0.06280569455301693,0.07347593589775395,0.34482289548999284,-0.016247399699697324,0.29663277606165556,-0.6093197400758289,0.13485658006826326,0.41132015480340994,-0.12197989265513824,-0.4267666407827869,-0.20131597491152317,0.1468705339625186,-0.04591559865262947,0.2668383832058597,-0.5749008264703432,0.26721754329143693,0.07454444373886378,0.1581933253698916,0.3757337596590449,-0.2043727358325805,0.3700574170870483,0.11538607880527886,0.15208852665807715,0.5394058867097632,-0.6208196358200967,-0.036256146705439134,-0.7565470823435787,0.12833019294888334,-0.07346532736598163,0.3102603691272862,0.6477725239684308,-0.16955052871469506,0.6601189768436699,0.17152402314005027,-0.6422491937465792,-0.2119137751890428,-0.3634541877122879,-0.27766402463928064,0.21644855419383172,-0.22309013166215316,0.04246633039406359,0.3315387159340414,-0.18206470940468664,0.18448609771087515,-0.06313649884387386,-0.39397573047804746,0.39221236125654285,0.8657165286215812,-0.13618414367378814,-0.4077669451795966,-0.3271221227881516,0.13692510043038894,-0.6986117475106427,0.5524963826534932,-0.05173869070175989,-0.3806007214855972,0.054884427177458284,0.2744119043023155,0.30065623765929467,0.04978616456153329,0.023083433659201694,0.35920633931048507,-0.0908809178856556,0.2311329432762304,0.014995903179687936,0.08688785024512492,-0.44399493401047013,-0.00027441241967316013,0.013516826909041576,0.5773136825956049,-0.15046001092782746,-0.0576446868143806,-0.047583041745907516,0.09428500461629048,-0.33490099756430675,0.4156693511977575,0.061474248114861955,-0.006670655860480697,0.03388219502368487,0.38809233508806723,-0.23848878239376073,-0.005842083820863986,-0.09181491795654997,0.04962390793514734,0.16190833611184588,-0.33237101735863045,0.3504338712602177,-0.6113681022817922,0.3268287719036766,-0.11647318873149133,-0.3681538303755161,0.2809443556830193,0.1913325346511372,-0.2514891680861423,0.302346828252581,-0.19854139152767064,0.27006508288489955,-0.3050846606125442,-0.4620282948389716,0.475485212454118,0.06391479681193578,-0.3321239378155879,-0.16750699832518123,-0.0018949520933001082,0.08876120247599305,-0.39408926080785933,-0.5215422030414264,0.12572706367461908,0.20768037999272687,0.010649658760279457,-0.17567937715101428,0.11732137968765749,0.4515255037508418,0.15047025091787897,-0.023640470867433504,-0.359846085201109,0.1528871817121638,-0.10676228673804454,0.11706026037737696,-0.27846012655267943,0.2732637136160376,-0.19817720474344555,-0.052236444852753444,-0.281399787395872,-0.19914745375726708,0.1277803721465302,0.4207601124149408,0.5582961179860622,0.12532288917846404,0.05132259097830496,-0.06209220409458726,0.05375499885491275,-0.1481206255280173,0.05652795182737599,-0.2488995635016296,-0.27992624816747075,0.010735889266183067,-0.06264996296796574,-0.3173990908101942,0.11714646128353223,-0.1960368350753233,0.1676400374271621,0.1800021464359815,-0.01157929237233417,-0.21419887508796817,-0.0650810519882831,0.27100120291058133,-0.23955329779818038,0.5421502367009031,0.45337690923267115,0.4311526256343639,0.2748281435899747,0.044823101759939796,-0.4503997667464237,0.5956800861772449,0.5101454774601472,-0.5558856581978511,0.5182737180838829,-0.35893989508848584,0.2758545717008358,-0.46536292210128594,-0.04237169859302363,0.4131379305557896,1.3374564226524635,-0.022337576188369585,-0.7603259200384735,0.026967654885915484,0.22465738050744113,-0.2871236039992594,0.027791688190558255,0.30107224570183555,0.20942283042891177,0.7471696952805404,-0.1331682373554469,-0.6872207418853697,0.6134434207975662,0.1266690497566824,-0.11441887276070131,-0.1944571453277536,0.13180033692170406,-0.39708263178923126,-0.041517872570297334,-0.12269787356157956,0.2686752464010785,0.4499501934572337,0.5235272990547256,0.11002270807067906,0.5280913564809622,0.02551064808110678,0.10477157396277241,0.04384753291965455,-0.030736400872635353,-0.15640029493981464,0.03665348465204529,0.13761781819429936,-0.2526794153125015,0.5076496348072125,0.3611221060584346,0.14196495947958174,0.08776152041939128,0.11210109935704098,-0.13975692959659047,-0.46822220024037337,0.504418352172397,-0.032686489430129126,0.3383308505996748,-0.5168938110780046,0.029515135677841798,-0.3742451977764077,-0.03141644704438408,-0.15814452777257515,0.5685927394825713,0.00011812492633864324,-0.1651009497505783,0.09716465402374404,0.5633514856553293,-0.004987973814272566,0.34881878146356465,-0.16782705678164017,-0.4634480743907137,0.4258626725046903,-0.014888439004461369,-0.4848373471942214,-0.4855819585797738,-0.32112599198916675,0.4290124520990638,0.569258106101905,0.08757204062388602,0.029986579010985618,0.10045298388515035,-0.3564956731933571,-0.372137021150864,-0.03911958362309926,0.2100085915564259,0.07657416621623683,0.28136373601325904,0.26908812170522206,0.09692678030526349,0.3527344386062619,-0.03785924374924601,0.37224729524581585,-0.1286536390863717,-0.09014045519539718,0.15806807634795067,-0.4019789890316691,-0.025534656453140875,-0.6036579246048559,0.13670960294714601,0.03527701292246649,-0.01811733519412388,-0.5080444101730274,0.40059872466086793,0.08761861571688513,-0.18357021138187624,0.4386012844749412,-0.041413436946238044,0.7610984686422344,-0.10967503788302167,0.4399494548066957,0.30517288800412756,-0.30408762958113145,-0.5164787854187818,0.012895289624224898,0.04342576822093195,-0.1814387238350017,0.21637833538780438,-0.33080441669929217,-0.002488561161053147,-0.4052961154995606,0.014202735083307353,0.08130963573040863,-0.5963469433817583,-0.19793717574691205,-0.08728274326428545,0.4347849723797899,0.1277678733432648,-0.5181478025263574,-0.3196048411109704,0.23801412242162845,0.5317523519611735,0.4210472488251691,-0.1892270205013759,-0.5481498992923117,-0.1541940298377468,0.18286988245182917,-0.27811534308900837,-0.4254340744241897,0.020601634180205025,-0.026884822521235408,-0.0760816703796679,0.048596418450140885,-0.043369799451968165,0.5384630025477506,0.3625217560148022,0.38484264043786526,-0.004630247599871434,-0.02422474632626377,0.15668894377142406,-0.3937744973195957,-0.2081140960266515,0.6287712954543132,0.009394984003875761,0.24949485277866248,-0.03919635594848096,-0.5818672949519929,-0.5620747255321715,0.08873290786846846,0.4635855120482839,-0.26380220672283455,0.21057159194166147,-0.6622181250124366,-0.0007059722845541424,0.4036906318402691,0.7458825499653047,0.11819708498583921,0.08014524134811646,0.004986549884197792,-0.4939629974130238,-0.2383580536575529,0.13880043854823057,-0.29981454488418774,-0.5109901489665658,-0.11447816339723146,0.021458255015530087,-0.9552438334231502,0.0642868947791255,0.593355006250324,-0.14242457660796082,-0.0009304913776122241,-0.1632776544289466,0.5423498262770552,-0.1695409447699126,0.44156574762116274,-0.31311684628753583,0.11141299256357821,0.5797240549547763,0.03650644985554241,-0.053053188099927394,0.026144826105394342,-0.3911920216503165,-0.18523610961285858,-0.5853466080661864,0.03807340368566336,0.02840882731019055,0.5497571401435584,-0.0935321012090774,0.3444914850460311,0.1879611401000065,0.25145531048509684,0.24049161083423162,-0.08036816966246894,0.31948888478625836,0.50145387701365,0.40691422365765395,0.2572387649022227,-0.10786567414138941,0.2008059997443071,0.2424299179610094,0.22124739402871973,-0.13084923238948498,0.05445221566595259,0.36927846173568074,-0.10359832017058515,-0.4132352859968906,-0.05838655623230156,0.1053805328041075,0.35031563512737346,0.17411327472723515,0.3785197880057428,0.5053536832838315,0.11727928433801076,-0.26608700035955735,-0.030700594396836485,0.5972227896731588,-0.5094634941800166,0.046325709614147025,0.12339023226043577,-0.03664179257142534,-0.0289927259454056,-0.10131388494543887,-0.5287186552630003,-0.20395685750860515,-0.17140888035656748,-0.4442366903761951,-0.09167863538077992,0.06203559713473197,-0.16043950389283512,-0.49320137550695053,0.11441670203098667,0.20092552556848692,0.012870369405615305,0.315830279382937,0.0830144746858374,0.1340189991572487,0.3056449600609429,-0.09026063751707486,0.0777318856722169,0.28874363053371443,0.27215821022244346,0.22794352449427555,-0.46103139024453244,-0.06443421382284059,0.14744121737478552,-0.5504030356319097,-0.30601559745350326,-0.20389869415500575,-0.5001015332328386,-0.020171434326069854,-0.4989556101414289,0.005152849717697373,-0.380009262799317,0.258884863807175,-0.009099298364762651,-0.4260427773067021,0.1502792309484884,0.29175758887839515,-0.06051048599322084,0.2837590941806624,0.18024130268407448,0.06269763268500772,0.025834133047217624,-0.17797477962682967,0.1606506735648665,0.44355934161737604,0.29378262716976117,0.16886847447644585,0.19425902109022464,0.006317775752085693,-0.10096123273891597,-0.041552845981372856,-0.3761019254315453,0.024668726656372972,-0.29662799440902543,0.19561132476675303,0.08558720978275512,-0.17747286493561398,0.28390870339099467,0.13237426414335493,-0.1707889890620803,0.4557643627336327,0.15634165676925396,-0.22482696078560943,-0.24067536835491968,-0.08584084910859367,0.011242183905153432,-0.7171004622248326,-0.018349484501158312,0.206358905263574,-0.22905396595922306,0.014835835467876757,-0.4047033103419569,0.003973489179538684,0.04435318060560562,0.44531251829657975,-0.2531014326191536,0.7729878931859121,0.6014310552760707,0.10896221514258479,0.44884594379435877,0.11042561124595354,0.11244973713741559,0.13077658915632914,-0.21959299801779938,0.498238916280219,0.1160162136992596,-0.17846543244426516,0.2557948452816565,0.12921796193566812,-0.17841665019361977,0.3721888895341406,0.06989380747458768,-0.25843579289991664,0.38551240966306416,-0.07879583700597702,0.39083845794703287,0.4843847769138752,0.26799986584568974,0.2536604372714841,0.361911125233476,0.34390007340204226,-0.1555663841169506,-0.19418805221194943,-0.39321166392728757,-0.04492490992384879,0.1788590280976634,-0.17887213330281335,0.02676708444834869,-0.06831241878293545,-0.2912737066176539,0.45930563166361976,0.04576053524084122,0.2103988836125728,-0.3420991990226941,0.4515352028828772,-0.195323467685604,-0.45944892154975175,0.10521712822217225,-0.26031426752886044,-0.015393119332644986,-0.16210431336747871,0.6939624078568244,0.4474605986710459,-0.3003688909310597,0.09139074490358799,0.19735990270315926,0.2634100646683054,-0.9116233828797894,0.43375108772735405,-0.0904008432774584,-0.1676071312222884,0.0875217142796912,0.10695090519673159,0.29364381168168374,-0.4379019524469155,-0.6058236245204863,0.09682402403787592,-0.017352344079433077,0.16126464838204768,-0.21478433444859593,0.24145544785697787,-0.39054268144335874,0.03792119708782415,0.06979275214113691,-0.10812214800672024,-0.48518340136829213,0.11968820970281968,0.08242290920776126,-0.4620383477349726,0.23665217277738465,-0.13914747035579617,0.31185841693029986,-0.31378193696258105,-0.48929227983425505,-0.17992580397806182,-0.17961986111102862,-0.36963883234953177,0.5365273956124192,-0.6968237174355374,0.21885770412498942,-0.3296983834104245,0.480008682499974,-0.08489309298905931,-0.5674634975899894,0.11375888126360972,-0.29159464988953576,0.19456797043435278,-0.2759969559964159,-0.07237804122282393,-0.08220120175760937,0.34735418412953856,0.44042498576181704,-0.24027987490458355,-0.4414554377893189,0.09895961222402294,0.5611477064329728,-0.3747632587074274,0.06884722380824798,-0.3091147984124564,0.16993128658726162,0.19699411295406855,0.059887732129796,0.23872326834522273,-0.37875531425231673,-0.29976158492727584,-0.18046009204884256,-0.7165538832851075,-0.28400911383967103,-0.11077160021684394,-0.31753533793998456,0.3323570146938463,0.06167498996394261,0.0873950814139917,0.6328957267252663,0.4420759299248128,0.6967182044205097,-0.15457796392428128,-0.3681940597108201,-0.024233015629459616,-0.12160218367569156,0.48672225944951,0.15295708641510514,0.39642622556133733,-0.9598622022244923
intensifier,-0.2676222216004247,0.016439145736467507,-0.08260779599594355,-0.15632842977038633,-0.25608453500901557,0.018496786333126593,-0.1959604867122151,0.02494173786016641,0.14341695835426463,0.037564888944986656,0.005463325806782782,-0.12674290667054997,-0.19637444279457694,0.29123745078341984,0.14505298301761904,0.15777618101894622,0.04788483829019565,0.1908281030011358,-0.15711361456753067,-0.07224288419085845,-0.04570815934034585,0.05512684662774389,0.1546996274653985,-0.3638125469081111,-0.10733843270560349,0.3179162810181322,0.24159691857623578,-0.2927783473353596,0.038068716028224,-0.13804219172903626,-0.14490350634956467,-0.06809933761611704,0.08143545947771283,0.41668738283710915,-0.15193184544912536,0.12055590528469673,-0.062165054946874514,-0.06519881361632904,0.0014583849573482667,0.02352036549197419,0.04383768378890309,0.0766968930932513,0.13891621387997363,0.23384041433828792,-0.09421777036615302,0.21539492648977943,-0.015913750096297703,0.12021454115649394,0.150353897683336,0.07388705383897691,-0.44489695465585116,0.08207860955572585,0.209724183703138,0.18242420832867207,0.005179597790857425,-0.11247376178889366,-0.03573618913170914,0.04970271273001501,0.19127647764482514,0.03879572937670885,-0.08062652958576987,0.037193782270163366,0.08032294502414138,0.32360470219144205,-0.003617300290348924,-0.1284199889440995,-0.2618923227535353,0.06753223015603525,0.6255540197723831,0.24131422034195577,0.08599281857438458,0.03207494082096316,-0.007025767017053305,0.1372828068496322,0.09296159478607763,-0.3006333210622827,0.24117241599035644,0.5542776241363178,0.33842640447650346,-0.0020384500479977336,0.06552903003512252,0.20870465208431377,0.06100545388288438,0.02047584599198524,0.0622607404064579,0.16339845676595682,-0.4377424810614419,-0.0022138533205385484,-0.18078977410994385,0.2639663888242445,0.20557300018028787,0.05946102987085158,-0.04038350372258827,-0.20538513182756205,-0.05272001674428345,0.034932759259013596,-0.015555405803811767,0.07844370988982877,-0.1334982575871198,-0.059158038156263096,-0.31667064751177965,0.4429490010413921,-0.5074713697843071,0.4343291716353457,-0.3203193385138057,0.07680009478079715,0.18492292418527012,0.026467126114038397,-0.03685982271997315,-0.12208558626946396,0.07234283351859486,0.15822058828530777,0.022305134862162155,-0.32510072974783305,-0.011618500654336696,0.08155625649381151,0.09323570232443915,-0.2159487926719251,-0.010635652584525222,0.21869726381336904,-0.17225835929485833,0.16170724747799806,-0.08655619481147889,0.041481601470108126,0.18924626584825782,-0.04263468239444053,-0.12299941400909715,-0.02196138730644106,-0.25248050991440263,0.038660491606985446,0.08611556002169632,-0.05383309042823245,-0.30361174070344676,0.07476433011682439,-0.027947405344505648,-0.04849046403619517,-0.06629489467554306,-0.22139518655292992,0.0027825182095793186,0.47341006430311533,-0.025312532925115337,0.12468291752454327,-0.24672634222622503,0.09298810630697348,0.007481161309650368,-0.024371820025796073,-0.08541461585702198,0.28102622558078444,0.18753984858705203,-0.14989887067086097,0.20756830727382056,0.07378354372526279,0.25067462089005793,-0.03653975301286024,0.2855726624873675,0.16431773490426924,0.28320813027199276,-0.12564918254287472,0.019724907294934826,-0.12148854303066359,-0.29015009377703366,0.09787282570400611,-0.056927582021704094,-0.1495205753449266,-0.10195786668488559,0.08434926039453366,-0.03601500913518156,0.13383753998486098,-0.04990150549506303,0.15700838764478495,0.20264909108068366,-0.04194467042995511,0.1777707436793383,0.10814404811327172,-0.32776846453821457,0.04789764430400961,-0.8261167098413423,-0.050801682913695474,-0.2609924233472731,0.1951895601318335,0.16531577322165314,-0.19482837026955804,-0.14938333081217847,-0.11067785420857704,0.12161407203651312,-0.018186391088189587,-0.1003335782669095,0.3031719813017299,0.1092813734333256,0.11768917003404292,0.3324220544383058,-0.3829075292818905,-0.016747744126640752,-0.1451550393472581,-0.06032624840078631,0.09203341552377202,0.05425969884348347,-0.3349052396854559,-0.13043655578181246,-0.10649433819634643,0.06112193028450461,-0.14000342032761648,0.09854738304172268,-0.06714369740457146,0.018789306596668377,-0.21696701485996167,-0.04689866957063454,-0.16888094115354543,-0.4662809880474008,-0.05867839112945561,-0.18873870208191645,-0.020564255712964982,-0.010316981076682896,-0.244734207653255,0.015726189526640125,0.19948829178851554,0.2239051595901428,-0.027233813956947548,0.07016198397982205,-0.014565438139985206,-0.14907009213856529,0.06163487785666599,0.2686822484088638,-0.003762876000941113,0.23363783917476996,-0.008195864068201816,-0.008473852269100524,0.22740820702039885,-0.04931014014239565,-0.08876249467758919,-0.05341490213394102,0.18186714276847235,-0.17347268629947277,0.14262691781323736,-0.5167991419102475,0.3592183002698269,-0.11853302995940973,0.06346480699683239,-0.3983091606626922,-0.2995663866901858,0.13524639649258974,-0.10190857954623996,-0.2856875620619237,-0.19832364518560888,0.01889498500871409,-0.2583078072536066,-0.004611914688026028,0.01964508261538547,0.34466748977669254,-0.06186665085129235,-0.1362649695947358,0.1774012137644765,0.09961514666371994,-0.018713479749234232,0.23559494562071145,0.05343345991363309,-0.2482025382839291,-0.1536028289986146,-0.07460743276508867,0.006742274493726178,-0.14018469454713062,-0.006243296810859286,0.11173621207077515,-0.31028254436055935,0.11050500631046513,0.0021634200723503797,-0.004908609462878718,-0.17703053792113493,-0.1342564767457424,0.08261449751969818,0.06326576923601708,-0.3221244500209067,-0.20371471897393695,-0.18464860341577624,0.27908943769410827,0.23207577722119763,-0.017985140161877244,0.42662376720275463,0.27426704969351323,-0.1350608340040211,0.06496660332489,-0.06960666537788698,0.17806276277399596,0.07130541958927006,0.15200326859834956,-0.22944855053401803,0.03097746841105518,-0.02393016773772089,-0.07173293774784444,-0.6470073847186806,0.32641678879620406,0.09709721543738457,-0.19363028609838343,0.11051152512034662,-0.37034231981299975,0.045959970735872324,-0.0674102560987462,-0.2082182994844292,-0.09392312575307231,0.17573902667695177,-0.04832065244771094,-0.04839691077372968,0.08395429699314172,-0.030512128283280274,-0.24178346955403093,0.0335719691075949,0.26203571223132666,-0.23688410977392502,0.07257013415586219,0.47192855688035795,0.19868027276071076,0.06444752424078144,-0.1892878046430765,0.0904749888131714,0.04062815024092779,-0.5309838817920869,-0.12043958552894804,0.02002898648926554,0.06693217498624986,-0.00018378450151487606,0.002069832469189975,0.3520547761803976,0.20142931549465756,0.234876389246084,0.04836130868531099,0.058897153534465466,0.354510751665808,0.24655935747774393,0.1980381418979053,0.11724514905839571,0.17583616539842584,0.038121933918987314,0.2153708379262191,0.13881412430415233,-0.12240155892646963,0.014384857702431829,-0.07474328293480642,-0.39582805335856436,-0.19780018571700111,0.17695288303457066,0.2191128684757608,-0.3467938972085491,-0.1511113128367164,0.4032175434698228,0.08340211432466639,0.06879837956814913,0.028272626306098773,0.11261209191578875,-0.265873990562147,0.2245086060285124,-0.10377662669643409,-0.4310168046534416,-0.02100080764148045,-0.07957046566607422,0.03883439858640662,0.33328350051537314,-0.012265109861611452,0.344691978595362,0.012443242197962704,-0.01183347445384223,-0.254971140967388,0.09012595940452348,0.1078718884393236,0.1434074278452071,0.150419037512678,-0.16689702523724298,0.15447063095072713,0.1432291189422136,-0.06698873213021525,-0.07565911461230766,-0.2763000275613681,-0.051268571043626365,-0.22122074488789087,-0.017390025900434206,-0.29638560676182335,0.14687791881987722,-0.6587437108495775,0.10041366519350708,0.33043648812963644,-0.2930276239935872,0.01901716774764291,0.23126284911554493,-0.027353747059239833,-0.44243600580363973,-0.2321284051063037,0.09942700927176525,0.25041702113554387,-0.030160009301952444,-0.11943857719044351,-0.4713148831529292,0.18618018909245154,-0.03317593407152678,0.062301026809297486,-0.22085853705370964,0.1826901681210035,-0.11261056559593205,-0.05599744356241339,0.12633951150528375,0.038989241515947674,-0.028941595384573776,-0.1985268714200133,-0.01969844295119792,0.009092914829436667,-0.11490052169483164,0.37424039564354605,0.039467879570924395,-0.06215757109486914,0.0656811703834483,0.5060794449655631,-0.32981955874666213,0.0956403577922725,0.1411207822546025,0.24594972799269735,0.14049194432740433,0.2599898927576709,0.1437521597399969,-0.20380872578349768,-0.001357580395669124,-0.07574854440561965,-0.09262997117761973,-0.4320078397371178,0.37995651885904524,-0.04034622508162201,-0.10379186346602742,0.10184403843681267,-0.07370705431987956,-0.038355316446911064,-0.06959324982701262,-0.040112874569513,-0.2217054286390128,-0.15039057754595161,-0.1971661478454905,0.06997248244763794,-0.09630933697157196,0.13078853415095915,0.0016889104685723201,-0.3693384023594363,-0.2655303521691024,0.4060928470421699,0.16892029753259236,0.10243831330341782,-0.04372189197028899,0.12709981972649287,-0.3729130836783098,-0.4684283164190023,-0.13259094916483977,0.35077391181312984,-0.011584811396317828,0.14653653292274502,0.16279914161058365,0.08534204784973558,-0.2185002417390562,-0.03245217254839974,0.06713246903336585,0.22180367153370187,0.09423557190331715,-0.22901232738740082,-0.028933377317035915,-0.12686543656340032,-0.15315457940166355,0.1344314561656783,0.26511147383548017,-0.07675676117768554,0.061291692975210595,-0.09417568139257779,0.2140505301785241,0.04767506818055365,-0.18514910115775327,0.32032805585158375,0.18278741780929686,-0.1755904786313795,0.08101050337448998,0.14699399307686636,-0.17023502976893698,0.07207730149030454,-0.19111057515543914,-0.3760920272020726,-0.12931944189255454,0.27211371017110764,-0.47520672886335574,-0.003744474009461947,0.022871449743957297,0.12519899376809207,-0.19772279455060157,0.12987778451496898,0.26187668237537365,-0.06056460020202398,0.13284631989758233,0.49533958684664126,-0.11628288397691619,0.31421465932175546,0.004619440671437123,0.19810875911356007,0.2702397621205504,0.012204305422626656,-0.08918989121705409,0.14523561236347096,-0.4695157260362162,0.11727689672670279,0.19433876754972626,0.3338621651120813,0.023331352678902278,-0.02111412961061496,0.47825858746049954,0.33854253476072,-0.11671560633940263,0.1110919313042793,-0.32123676080866026,0.23327305789094036,-0.23838142819003408,-0.04981808263628851,0.23568213258946108,0.11796354867385381,-0.20155207264433503,0.25997404300041266,0.07261800529492952,-0.04275204785265345,-0.05556404939510903,0.3928934849671433,0.36869713299037393,-0.3027401834565902,-0.04699943518947395,0.1389025247342582,0.1475104830911956,0.12294493481866946,0.22095615718339567,0.19023601420340622,-0.25958948860323894,-0.09849389774716326,0.22057070004516066,0.040378117028325174,-0.025116058221264018,0.001985276994228176,-0.38804486942577554,-0.37805640267496826,-0.2444445160899907,3.635307670499033e-05,-0.07188027973639563,-0.07804139344560794,0.03769958639839295,-0.11263441686477367,0.2607009089840387,-0.15406907733493788,-0.15647852504952137,0.21602217585595263,0.05909586061396382,-0.18625731280008798,0.12550682362707993,0.4990289300289061,0.06117355794799926,-0.03507534447447943,0.13876882364333837,-0.12850661818166162,-0.18664505474907267,-0.20141294224717107,0.16597672318817067,0.0647177992671165,0.02492394524213433,0.0650168788807595,0.002927494228709835,0.008743229073156892,0.006887169907815448,-0.11318358625005935,-0.0763290424317618,0.0825899077585546,-0.08561044315541282,-0.08686474418617439,-0.0925060913040586,0.326939428799756,-0.08193173123562134,-0.16492450875583042,-0.0730058484138073,-0.2917285033878968,-0.15325489346117155,0.3819234070424014,0.0012116425616782492,-0.43732775173637584,0.04647391240180605,-0.03155970380314055,0.021068211038181496,0.06494307376494199,0.15429904486849003,-0.010349263171363731,0.2008604076808643,0.07322645822187031,-0.010886731464255905,-0.1959558119924902,-0.08132507858265986,0.2854261864038342,-0.10637083276139818,-0.25271540829206424,-0.11128838968563304,-0.09044840401156866,0.014125426645582844,0.13232107218855915,0.2220216650980436,-0.041611602252742616,-0.45612372726663325,0.18319961365811085,0.17190992392160215,0.2732553606504189,0.19229279998267476,0.10761421584589294,0.32710808822909143,-0.22918343602959107,0.383068825230022,0.09308585382572762,0.06410439635682576,0.11394757889751139,0.060519945200103745,0.045791043915684525,0.09567610915368963,-0.10259155845095687,0.043380406664521844,0.18129944640536125,0.03270179208718337,-0.12688533563764667,0.30047525586043605,0.21021355418457066,0.5074972165091886,0.06703305859038744,-0.0577251030467185,0.12391142602272408,0.1391165853046187,-0.08896665850178566,-0.016691091696240293,-0.14865318098606967,-0.1778724381801414,0.040299550424400574,-0.10037038865889895,0.23215498648759378,0.11494615363661695,-0.20617213912179064,0.2985649970167927,0.14703167791792596,-0.41041498441834984,0.04236614304271897,-0.097487299723229,-0.03196011160317485,-0.10003633698462278,-0.024010986297104474,0.03445358522909052,-0.15904033711276971,0.3193754786585316,-0.1986001094337345,0.014033247670737044,0.1713672915052556,-0.12596984218769666,-0.02853825959963067,-0.2675911645437637,-0.22213046066447836,0.10134834294210802,0.06480613623890868,0.3492118947832695,-0.02772469823418505,0.44439798278847925,0.0897627521617492,-0.06277144272284745,-0.17052652672303772,0.22545256481934975,0.19271610927912958,-0.3857908876168759,-0.22433722415610008,0.029751563263558125,0.1274766278504804,-0.30377607879073665,-0.10200306763617165,0.0242574461364319,0.36808765181775976,0.15558480545406989,-0.4956166958198262,-0.22898906156587778,-0.21014727627782337,0.035696402680868024,0.016290979032564466,0.1186557949535583,-0.008173294724616913,-0.1329760307476208,-0.01931410252758107,0.26120264155023404,0.014653396090906587,0.2818219475455294,-0.08009838119380751,0.03341582120318898,-0.09015408698149237,-0.3177541393353047,0.0186138270414641,0.4174198325643174,-0.15064736692830902,0.2302950902072839,-0.4484769833519105,-0.17083465158739486,-0.022601912776665022,-0.1140839031786642,0.16912614234792175,0.12985468886254872,0.1278869140453024,0.042802705437014324,-0.12609128371828845,-0.06336026663475781,-0.1015008195922276,-0.016732476898581813,-0.05756934614387481,0.3176522821182895,0.05089429010055782,0.15623512206478032,-0.46015848618365174,0.3431232103137927,-0.0622040226720548,0.14751858225477604,-0.10208593508152818,-0.21933794767675382,0.22934736347019666,-0.14491496967025697,0.24525213663831938,-0.34807090675767016,0.047285751893506346,-0.015248190020735491,-0.19503893766898295,0.011793408891436713,0.13577094863347286,-0.0909007736873011,0.10383138726577133,-0.2716291144648188,-0.563416794490276,-0.2016958357899584,0.04218142914968533,-0.061554958738671825,-0.15077874515912051,0.022321730548338626,0.3098832900229961,-0.23492725009123638,0.15551025029109897,-0.28022560410198544,-0.012215820233648703,0.019789218060358816,-0.12653594028476126,0.01942950642415949,0.021731668644307294,-0.44255875433403946,-0.15546300082631762,-0.05041929849105027,-0.5191518784540268,-0.09046065884723674,-0.10034002926843878,-0.018237508809672072,0.0627964824029724,0.18962673492815915,0.2754935370376161,0.16052295405089229,-0.013225918011609595,0.4712766356417617,-0.2450201101780903,-0.05465720698628482,-0.2473228972078574,0.09591239794532153,-0.34455298534420326,-0.17197451737385558,-0.08574892290393063,0.4441392136957649,-0.006541290623651388,-0.04586100428614764,0.44331640078917744,0.1495165052816785,-0.19398425262449367,-0.1779860378875501,0.07009718324629693,-0.19228866285117785
voice,0.7026380501884402,0.009384529817574592,0.10258266989487362,0.3590517990425896,-0.16990563970229652,-0.2087521559018155,-0.03151823241248254,0.31395587837748606,-0.18066491012122546,0.4780118880364866,0.14476992252008017,0.5065224645747725,0.0849166333310292,0.3823917160856952,-0.6817857314895719,-0.0728867330616433,-0.3579407766464586,-0.1240605893915112,0.0067013135890504555,0.24996090486160868,0.11469821807930827,0.1952562112359335,0.2147960053649838,-0.07152758977689477,0.24739363729501,0.14116430084188608,-0.03362030016181513,0.40041341148002,0.15403635339249414,0.2138856112394122,-0.17493616569264006,-0.07879422715860648,-0.2889037542370583,0.16545997031652152,0.15604138831511408,0.3320282807103299,-0.07050142286906413,0.054798743814693365,-0.2190755010190858,0.1797405376568491,0.09211906554206005,-0.14443197544565795,0.09836590082251666,0.2723674197124618,0.1925531237831103,-0.015352890655797919,-0.48311009892672707,0.04837794061045623,0.013119703885967142,0.5788067132971245,-0.11438189768852226,0.6619044320032947,0.4603517056925189,-0.031483706157868024,0.6235061417024371,0.4254169822590349,0.21681027790634064,0.5537152633921516,-0.5349502649292437,0.756518535498365,0.09965973971771927,0.07366028456345611,-0.08082276257749395,-0.29624232217282925,-0.012860340113745136,-0.18466536606763845,0.14737846710308736,0.20989310435613226,-0.19390897011132524,-0.04423265457170752,0.302353091344715,0.4241124894157715,0.1635235793072267,-0.1729789436549864,-0.18693041823270418,-0.08062703704581774,-0.05957310710898762,-0.2579049160509123,-0.2533318723267355,-0.3163126267831601,-0.27836581225960333,0.3641645063002487,-0.15377295819001044,0.34933706783610186,-0.3645608773713765,0.2066421718066051,-0.4077508087743048,-0.007941034494595671,0.15560627909044636,-0.18709300238398494,0.15320708235417477,0.26595378894403454,0.225314786857949,-0.03677985908885345,-0.07448388565093135,-0.18371381413889867,0.2020931533281909,-0.2209907456982665,-0.09820948597135722,-0.015348725263036466,0.09734363122692974,0.4777916668096127,0.891026210865634,0.5129643597369279,-0.13816120818401045,0.049569760455266544,0.3689756492229443,-0.3351414534153881,-0.052953263853936,-0.26297089662446926,-0.5507788861468613,-0.04864101886881821,0.43535218875357795,-0.5844600002773941,0.21728071906445792,0.2676879491771225,0.142803033520045,-0.18954003853368206,0.16588347790560268,0.04207488581076763,0.1756985118854063,0.1722405702785367,0.058314661084686664,0.03755701076005842,0.49281157974779194,0.08230975085217215,-0.18926668884840267,0.26476411894399215,0.12742738508607418,0.24437842723982708,0.24253807080295028,-0.06722948506147121,0.12371074392807334,0.3091408886394132,0.14759600146669116,0.30778727469751277,-0.009531725803585536,0.010115663055063473,-0.04959022405359464,-0.3846926810543287,-0.42392340340654544,-0.06511606333608044,0.8222919010377759,0.33033272879220094,-0.27984665415796,-0.12769847898554082,0.36260844061521696,0.11614708592588872,-0.1323702615042961,0.2566518573693327,-0.25884604418864904,0.12346773647107098,-0.16628303530824748,-0.2700895809327193,0.26049014272224347,0.1178115727735523,0.6623142395046635,-0.18035049199944275,-0.15564363327196803,-0.03644010649138649,-0.2223555672393563,0.015253357388129088,0.10369567939682435,0.39539693042428814,-0.03512394355153951,0.03553706794565094,0.03593340056096877,-0.47571546116987334,0.006771305867336593,0.04517535360371689,-0.14899681671573872,0.11340428155630976,-0.1217350384570776,-0.004700353712716475,-0.7671420229726611,0.1734739532356345,0.004170959513481746,-0.3311015629654943,-0.2808066882599341,-0.07550277115257588,0.03204236702465905,-0.3414099124751701,0.14540858183829447,-0.13382889634537204,0.07029203250863392,-0.021850760180638692,0.2998888936714566,-0.07802128830006665,-0.18359800088737782,-0.3076032996769947,0.20834342573503734,0.05058594652683009,0.10810943477901604,-0.34389590564420325,0.1902297093950439,0.15143577212924425,-0.17458497535916187,-0.1611728294939585,0.3856698270375155,0.2791983441429437,-0.04964224889510782,-0.011862333077253182,-0.23523808078997993,-0.15643679462948068,0.38363087132386997,-0.34365737098006527,-0.027417273320784905,-0.08698358935774178,0.12196221720392966,-0.011694633673277784,0.3372672920049772,-0.12044758087390156,-0.12487587003451125,0.08409684124688596,-0.5450172613114151,-0.1702360779302971,0.15927874456243107,0.15413953193990068,-0.40236424702766294,-0.14078696122135095,-0.3947790704235014,-0.13566959062710232,0.31485876808523916,0.10110862712490983,-0.0232877085407541,0.01744682276547618,-0.21692558243805302,0.32031254180126933,-0.2534219226493252,-0.3390542449713993,0.23419477477373393,0.09991431553070444,-0.9174605491273895,0.32149331164653755,-0.40889451967110624,-0.5583535003516453,-0.0062360824871634255,-0.22651238692956108,-0.15517377774389807,-0.8337193259309637,-0.38698011376847485,-0.2355889049197765,0.107126820693651,0.3414691993235738,0.0026257266656385223,0.10207539125607064,-0.22128291376912165,0.3799617143671537,0.22892652602505204,-0.10541169999634795,-0.15550089409426282,0.17625792486652614,0.1437952218493738,0.2786958561645201,0.5046167558355591,0.007364434525189256,-0.008714473320587113,-0.2994236088282778,-0.2592886659084412,0.13914754933870552,0.24856270807315778,-0.0005409325930612808,0.19583142473607154,-0.13423949473268135,0.4287267049799566,0.1152702829904079,-0.010777895265896084,0.2146487456589858,0.7954420441876946,-0.23199950181893017,0.4496649864489731,-0.0054353987908256395,-0.0823549234660008,0.15443337512331107,0.13848542380381265,0.12807946048335866,0.3984531645470587,-0.1577117525720702,-0.29594513040755654,-0.22963833447219262,-0.3397409239593731,0.14638559535454537,-0.024034422837664597,0.015152499441257712,0.23688555585926743,0.2781073743624243,-0.09750865597195248,0.36405940783789703,0.07403101820650897,0.0030155305640458836,0.2789521168578431,0.18057172511714276,-0.38618170611288155,0.2366340362050513,0.019664245826452865,0.16920670929419646,-0.1966429908932224,-0.021259704583931803,-0.020581760323952036,-0.015108746694131705,-0.5129934217647601,0.2836022340118821,0.28281673029585147,0.40629542238313193,-0.17375399425172872,0.21167722318156423,-0.06084281913197466,0.12380900340672268,-0.9163914832197044,-0.19982117663690774,0.438283675589759,0.01766881217161338,0.017323011170896165,-0.49482333814275703,-0.06031767203683296,0.15630175169711136,0.5751621787766391,0.6335088492659106,0.36175314371467704,-0.17464325590192878,-0.08227325046984246,-0.10173183022860148,0.4876829666937267,-0.07979875902147675,0.04233534746114929,-0.16468297203275722,0.27752458613916453,0.1165930669712252,-0.29357983341025345,-0.016948231821781155,0.30593775092397774,0.06433653806007013,-0.3158983397806457,-0.01991672454131499,-0.028676984430091354,0.051620021733898666,-0.14628980444443557,0.14312941347725183,0.12607723797716747,-0.3462169346970456,-0.13426448551664047,0.06511687761621715,0.10638970529445461,-0.38267284547741215,-0.056725362388353795,-0.052836062790180854,-0.46336137873200195,-0.09547156783354077,-0.2996594126950696,0.19832808938519078,0.2720009953711078,0.012081624427004166,0.06364647514195679,0.056130222414964015,0.13460864461362465,-0.013524789434615301,-0.05053247589664076,-0.3481426285761642,-0.1461045664989794,0.07471260701099992,-0.33519590119348036,0.1665467830466577,-0.43398186391722,0.31936759747047416,-0.021845932140270446,0.5151933068100946,-0.16222637601647252,0.26676771772250796,-0.47197280333431635,-0.1712223848330545,-0.3353407239361758,0.4880853046278685,0.22441100361927177,-0.09867554077372498,0.050974711103654834,-0.17339702649488464,0.2528651375035029,-0.06750663625823916,-0.3120654149996766,-0.024135726357132587,-0.02332321305461778,-0.1318979350141612,-0.22671624427394962,0.5004888829071111,0.3368880502815377,-0.18465328445006743,-0.1819902743051745,0.13417126006452149,-0.05457058300491854,-0.04959349540582107,-0.10173668017608091,0.4935567993032932,0.5226844112797688,0.13859820435647416,0.029204605712046763,-0.05831769943811648,0.4693609918913762,-0.07576217861997907,-0.31391058079353795,0.05445630741613744,0.02581841225167089,-0.0858808629620718,0.42544111440127236,-0.07889691027640108,0.08394558420125355,0.010884949614287464,-0.12151054568787559,0.21823492175696857,0.1351383255290712,0.04580290732139991,-0.01738031150711416,-0.2925200814032677,0.0022499714857406304,0.3070503872232247,0.5291764842364279,0.1250991495601473,-0.1980781783517506,0.0021789851728493993,0.18756859134332377,0.02778071375410736,-0.27489058518769033,-0.600627168513894,0.24028121413741865,-0.2483812012190796,0.3689582848102798,-0.025939906607224755,0.08678114067562913,-0.2109682360511771,0.11354139556195217,0.01968428547941419,0.134376677761194,-0.14567075363990392,0.10706405746981713,-0.09688430592110561,-0.05929953651290203,0.3021504865085345,-0.09615474419674634,-0.33565525895180287,0.09344739427148505,-0.04701405411659132,-0.03175821886038327,0.009177678563322635,-0.2126088754048265,-0.4265300601051115,0.07154123863391434,-0.17300986825007594,0.1963812897687193,-0.1212915327985882,-0.12450415061801054,-0.07215140339091947,0.28445687908805084,0.0776984744994452,-0.27855261950349225,-0.20536220944271044,-0.4450490026453399,-0.06038486040330855,-0.40450855971443545,0.13680283647617345,0.10173134194260011,-0.061823628648551815,-0.04717595833251974,-0.43106727976311193,0.24561005064119287,-0.4337397188648024,0.33914598762571485,0.08415182035315474,-0.3295051164428525,0.31576461394364613,-0.026108575138874834,-0.16994538079729893,-0.20065548879463066,0.19883012051973212,0.26496910708316307,0.07044873668869009,-0.06635672255238655,0.13016433283300521,-0.443353376383268,0.21619350191308984,-0.2505011372934336,0.1478407202167662,-0.008219518994663189,0.09613534276057749,0.07087388537673854,0.41379986529534585,0.33259356248063926,0.10652349418706442,0.1629884150674736,-0.14279273336088075,0.3897674352055036,0.21667433864442165,-0.14236241625154492,0.6918415503176562,0.11916052935356684,0.599840480626384,0.06571919590037384,-0.040696677367904874,-0.01897521027580255,0.21627213169619577,-0.21241513610513135,0.31609055096436445,0.2022218118554246,-0.18129792962204389,-0.09590368470069624,-0.02559901406972842,0.2784655170989688,0.26612167418935856,0.514944959786918,0.33686287989445385,0.5565143658256392,-0.04321284460996399,-0.059871159603665416,-0.20224988343593545,0.09103326612126356,0.06738269316789262,0.25752382861950773,-0.16221485188823043,-0.03612992902933197,-0.37671518272150634,-0.26301404912841264,-0.05598834960182059,0.22448748360325346,-0.030881450852258012,-0.4072139874640139,-0.13315327254500234,0.12680475482165832,0.3376867211612513,0.3470879974214409,-0.0064291216973244,0.021937845133550446,-0.1816387132639975,0.2710166162071469,0.11825785447717195,0.259189861211818,-0.13114969996439332,0.4766960667216029,-0.12469225831091904,-0.19106341745179173,-0.23162490189667312,-0.1890195076038889,0.06618841218226122,0.3402442695876343,0.31894847874598464,0.02833108837768732,-0.06424584852930393,0.167096908829667,-0.1636589046637594,-0.25458330028425835,-0.0474625607069244,0.02054723486233107,0.03423957697129037,-0.3219422565943379,0.08937090699045902,0.0652904017464693,0.016058626767648333,0.17795520925539166,0.10158165334918369,0.0019507141546780261,0.057940318812115914,-0.01829241158675238,0.343082577249189,0.2810344457208483,0.21325606884358952,0.1966200583983573,-0.015157636414449303,-0.1534488284608501,0.1120086491726968,-0.08963085398997654,0.2690319201976408,0.4485296658892569,-0.06405740475883272,-0.15389026128608335,-0.2989769856773661,0.07152436823519212,0.14245499722489124,-0.32438506366983305,0.10460378972198196,-0.07345665450178598,0.3183283317333128,-0.11355101948884551,-0.3048761366682409,0.24276134094487253,0.13585756965703832,-0.305973136249469,-0.1565067294137116,0.11726191583061746,-0.17298512201459945,0.08776595500115046,-0.14274406687513677,-0.294944391783411,0.09953853543857209,0.02482683015420175,0.014804094828252687,-0.03042086129947165,0.006581417073074144,0.0928672514134488,0.05661829569416413,-0.1569526174530721,-0.05674565053804845,-0.18122283990247212,0.1827742543265947,-0.1489644872548449,-0.39848558731222616,0.2381732367097688,-0.03707049284373733,-0.00016910763209127184,0.05567733313662245,0.06760963102111635,0.3079504087205797,-0.5129768214136318,0.4609107100933153,0.19558429705303548,0.25814652612983674,0.16741829458583057,0.21035336399532817,-0.16722070001754097,-0.19707601674783798,-0.40720638971342826,-0.23376334041770308,-0.33249745687182075,0.5026480775286211,-0.11385031481429717,0.5268874101068346,0.23431675467485955,0.4464363741134716,-0.5161769352631832,-0.1613812084658488,-0.11198448773846029,-0.019731123336348504,0.3878155144119638,0.0037176750218465638,-0.17624576212516527,0.2694421112976789,-0.19385404978235635,-0.10155683635940001,-0.21403427342822523,0.5559488212548772,0.279199003854083,0.07175114508528992,-0.03802558260812211,-0.17466165787884336,0.0024740169121052692,-0.02819337672470963,-0.21242969176773893,-0.47344085926196283,-0.11691692244443293,-0.3800115948606794,-0.08814572233433139,0.21192017066025706,0.14736120012030385,0.39214116079775924,0.10358253865305748,-0.10645969878541302,-0.3422344217337268,-0.08054434601481078,0.07295973867622171,-0.09181507499805544,-0.14041778348819053,0.01996131606917286,0.2664052990088858,-0.25136598331340765,0.05373862282561677,0.18321041169735924,0.056349358978672805,-0.40803341011874716,-0.4473683628499527,0.01820695654524866,-0.07816306110417291,0.05014573107883815,0.23902035965060695,-0.16658999486872803,-0.14980565677094307,0.1361319422286351,-0.05778926946573657,-0.3557983945501263,-0.06277518548180949,0.12281476814512211,0.3698751841309663,-5.083155882358317e-05,-0.10567805939880069,-0.48606632377811876,-0.6104356716340347,0.0218115157690213,0.04995264438096479,-0.2655396716657447,0.22667586000930465,0.2906756536552649,0.13483850538144934,-0.12070624063194639,-0.32247352937777146,-0.32576275618763545,-0.26085036094139397,-0.2465635945505186,-0.3923930366569583,-0.2506088386908489,0.11316197468959835,0.6303875476837748,-0.05468979059178858,-0.00209570253769776,-0.3213490577685452,0.020922938386449166,-0.12364940474943513,-0.1155834857025062,0.22427220207998036,-0.17438006000744577,-0.2954633740947329,0.48469344269927717,0.5812103386049927,0.232004084051626,-0.16840662228570996,0.4842321704297672,-0.1023399182472918,0.09582459021675517,0.25754759036966823,-0.0947892016305763,-0.0007620798549228454,0.016640916910477616,0.28811367386203335,-0.12304626649398721,-0.09853650414821094,0.018398310419628264,-0.07437673939276267,-0.3054144355197976,0.16472183107264413,0.6752021420227792,-0.17581637762184932,0.03172407865928974,0.054783279872864174,0.03275585592411314,-0.12794273206401383,0.03232376695264664,-0.06057887651044897,0.1725388111163992,-0.4370896183805927,0.2352140153394901,-0.1753905278289296,0.22195374575008592,0.025370167196649782,0.19646621919154983,0.009157082362019977,0.30551031589031014,0.4630897772556267,-0.4654110341502792,-0.20740814487393602,0.0415183875305716,0.35652043067348804,0.6226523357551454,0.0072234381799613015,-0.29110819747461,0.14105409288377713,-0.26186214955713266,0.2053477075716807,0.02358634380029321,-0.2117449290395415,-0.18468436552007456,0.034842943323805914,0.4256132408203177,0.02632550881507114,0.11148956252473455,-0.27460829637362616,-0.10602443985476642,0.058926825503714315,0.08758091006970987,0.029221748721137124,0.03231583244456304,0.3345619959128573,-0.4587675280186374,-0.01300871239556663,0.12950727638199477
synonym,0.7434617607165684,-0.16089055239005373,-0.6220737027227148,0.21879325854584664,0.20378451966097622,0.7038001984398272,-0.20188445713506784,0.07375743425239543,0.0060798839343287146,0.07062212193408461,-0.15935222997920712,-0.15698550762674252,-0.5964129940502231,0.2208800836951642,0.02094069453960719,0.2698494313906099,0.09525430553547873,-0.42522524586578797,-0.4146920083485153,0.19165089266452345,0.423881085053739,0.49937484144084904,-0.30247103129534875,0.4005083852864726,0.21677284481311068,0.3686790834762461,-0.1865569847864856,0.04159280157908588,-0.2528663263405264,0.04515913203714044,-0.05015190818371354,0.284118292339479,-0.07319562022536812,0.14662002415631964,0.30707451930652147,-0.07718589872132504,0.05742537730623801,0.5708938147913493,-0.07815829300222063,-0.24207241436729046,0.3675733962367777,-0.24814686244282647,-0.3050070515257981,-0.15419563937568523,0.5217728887264967,-0.016703430930160548,-0.17034069707676386,0.24641828662427537,-0.07907659653854308,0.3023021690868742,-0.05593748853448687,-0.3189946543418189,-0.0018177854497750993,0.24776148150435565,-0.3626863363589814,-0.15078009476803214,-0.5284689199569449,-0.2989177305304537,0.08004536667447121,-0.32983404331477034,-0.4874221556448655,0.5201646964683871,-0.2927297242079608,0.37097757684720906,0.0005270190521921217,0.12714002849666634,-0.2200924242581128,0.08454541346926633,0.0010130321781735509,0.027846328674339,0.050107549260233676,-0.27539455155620196,0.10399213744427264,0.0917749277512541,0.162230686599404,0.10866789586001427,-0.09387412768580901,-0.11287476091873969,0.08358705299139357,0.13774836069112295,-0.0718641686998887,-0.35852213996477666,-0.3286595190526908,-0.2998178256624957,-0.22387154654375532,0.22995655691529768,0.007198465955945709,-0.00021093261484711646,-0.23521825535211716,-0.26868384293937586,-0.23459553061824237,0.2646514089751962,-0.7087644550305146,-0.2673175237913595,0.22430616955709728,-0.09353806836661233,0.2470145366528819,0.09785986945092628,-0.33253763392341595,0.21027182558364718,0.20144113887555573,-0.4355762273455391,0.04727407727647322,-0.6477135001702167,0.33152588226337787,-0.3611846131477925,-0.14017544146669567,0.06806192360410439,-0.13787130693828742,-0.09963527102400493,0.21334190609836076,0.36744532367824057,-0.07382138467582591,-0.0964380241601777,0.4826583649030495,0.023294653451298993,-0.05987288032946058,-0.42515317875026454,-0.2086051206145183,-0.11432993596551397,0.5777905112057159,0.20056010409224753,-0.017628749766751807,0.27103090908410626,0.44928378173263805,-0.0950250729195144,0.4936999952711522,-0.6268756699911919,-0.11296819791074884,-0.44816002863195253,-0.37045573089682793,0.17688480915572896,0.19102231840360454,0.2847465600834994,0.1028269475021876,-0.1188029258570572,0.013991150438582164,0.313386971446298,0.012835293306809048,0.6038086579584799,0.31959693061744243,0.36659053627967986,0.38647274497990763,0.16096017701584472,0.07700006731309282,-0.013681655963273835,-0.7084636807967626,-0.38111786201426445,0.31646773316468124,0.04202651528112764,-0.06367146375043445,0.033940340727449614,-0.40129788632016233,0.3413886645263281,0.166366339679143,-0.14723523769376684,-0.38997935696795066,-0.11857651616472224,-0.30744242926299503,0.2893043645881103,0.11511917828067453,-0.07534481096391113,-0.33073759909781036,-0.08047721213297107,0.17325280062018256,0.42793189139451027,0.16316959962793862,0.3159645507973493,0.19809294529972954,-0.37544773485299854,-0.10899597691258256,-0.34847862525907763,0.10082298281642994,-0.1084462781701667,0.629692786525849,-0.03407648393140511,-0.4649517598142362,-0.19125177357015843,0.12355749273262576,-0.04038768957584971,-0.3764558169927436,0.037738489998051766,-0.15022512223013318,0.3441489653161479,0.49775546044811625,-0.5790050433705844,0.28579216206864144,0.27434357600396375,0.2543398555848718,0.27018041209476035,-0.31018432504773585,0.431529322021364,0.5416153863358396,0.36163342251300096,0.31339638569504574,-0.15227935929387207,0.05178251336887863,-0.11726911218391278,-0.34365343855884306,0.03720308105493665,0.06585569048251293,-0.13251133426981526,0.34083363442161735,-0.3781749331475844,-0.23354079710974765,0.47220868390341214,0.7776895971389616,0.31219234562807757,0.35536875882505126,-0.44617888416248197,-0.014418744602818173,-0.35463063743240025,0.10716100714440276,0.2461466720031264,0.05218117352123463,-0.011793183437737505,-0.5116757464013353,-0.16136250097896856,0.366154967141669,0.5745172031623469,0.35886735834618627,0.4601143286222659,-0.6896332019571272,-0.21064968594669137,0.03434316786036661,0.258538894307679,0.08836892752332916,-0.640402685085775,0.12349057643407615,-0.34798744056878816,0.536810565524938,-0.050517319317766436,0.4474237250165073,-0.1765094515067658,-0.1732551702215872,0.16202044904774385,0.3719976643526423,-0.015001490003602189,0.39019252940401905,-0.12370994218179783,-0.05998044125613863,0.05437844560712432,0.028192645348585354,0.10120866122088379,-0.2971215402665945,0.32959905051561805,0.05786523223790574,-0.19014168368725723,0.42247468070291916,-0.18438759900735116,0.019882582677782163,0.03635586757900258,0.2057333518878816,-0.08257738416426315,-0.3104767174239935,0.08375327110439626,0.08501243302979165,-0.27563985396021373,-0.47353110948618443,0.18356776155184767,-0.10768510581764877,0.17579638448737933,0.3548096417346322,-0.0818989356037374,0.26798259619445897,0.5030417654037771,-0.00391310363882707,0.15408647354786395,-0.500012047654008,0.0048970470792350455,-0.2581992223573096,0.17657698184521062,0.6113183966791375,-0.03676330361755834,-0.37228866163474666,-0.3774093610857837,-0.08447745565120923,0.017856460246482922,-0.015800786042884804,-0.06485628763930018,-0.009586744402045697,0.24073034662723616,-0.6031466687803344,-0.45022304746231434,-0.03190220224203137,-0.12902682334675272,-0.07521889899027509,0.15615230751527465,-0.3906685287792088,0.3634230462821747,-0.33675550151601,-0.039144361055460944,-0.28293037155570616,0.5948075356203908,-0.39096938519577684,-0.314951338856224,0.0062781678618523094,-0.4069104041516925,-0.4211006100242759,-0.19161204476522425,-0.044762506067795256,-0.3032519541574475,-0.20780010004133093,-0.17805584822772028,-0.15166717419772086,-0.34006799509052504,0.3163531373194912,0.4008380687627192,0.26302013635912697,-0.30810971138414023,0.1395428314100939,0.29669086714095966,0.14526038331727434,0.624190031306919,0.003783181502827806,-0.173017692465234,-0.31139677787043996,0.14964116886975526,-0.3314674649536312,0.1475373940782813,0.7534478305217268,0.19965362791574962,-0.39895067290656505,0.15396921318466358,-0.17122396971292783,-0.12276913009982905,-0.10697877770994445,0.1914495454643627,0.11322080705887881,-0.046192792165560013,0.09283030336489505,-0.007405131998173118,0.2748001891334539,0.013272298018630571,-0.3762603500401385,-0.17585066435170685,-0.0885559330891182,-0.04422220249346755,-0.23045828831793722,-0.2475501116763225,0.24098022769585806,0.0022192304070405818,-0.20927365362790232,-0.42037202805205237,-0.0646787690398267,0.42520792387897643,0.36802014617454504,-0.20282578852371833,0.41429301736173285,0.13569467579007352,0.054515806270733096,0.6110592066979355,-0.10187832509754026,0.15365122448150006,0.6736695311467785,-0.1963224406040684,0.23429102560226386,-0.1664916167724714,-0.07164897373760024,0.024869049935205403,0.4948336517098453,0.3585317046308201,-0.06536237326505778,0.015188215908839902,0.17304912683857987,-0.1813411932940778,-0.17381503885492286,-0.07372944448850823,0.1814528148625972,-0.16729744741187955,0.3115005512650525,-0.2503792563312094,0.08257805506962737,-0.0063643031725655564,0.01612065420335725,0.3569331826934185,-0.05430412932173278,0.10816431068059074,0.23812415330842512,-0.020472505135975577,-0.16791208487159345,-0.34691332641599315,0.19733146928959297,0.1644607649781546,0.0874016222081839,-0.037858171807352445,-0.3892201737212565,-0.04871146240330035,-0.24385576836761097,0.18090935966735927,0.21178794808523582,0.3712703999716532,-0.044101661379787105,-0.21420759249448051,0.06841254437249128,-0.16900964350329448,0.2796195113579347,0.1404393348153598,0.4976388109655141,-0.14971589745285027,-0.0031120783866933235,-0.020844794749790556,-0.08523058469219313,-0.13144064443327186,-0.027926583361274588,0.1091108109516877,0.5117064557142793,0.27516472832085015,-0.3575639831777952,-0.4275571629621449,0.2109734959331906,-0.11829501830173025,0.03372629211337111,-0.44192216496528697,-0.5504830242497885,0.11179218775725301,0.07568326159127287,-0.45351660600384086,-0.1832071516210765,0.03731485692228852,0.24840613259351516,-0.012031987770583993,0.06975172910786466,-0.041466558745257204,-0.28208360228150653,-0.37233833631918034,0.10577820442370643,-0.16769619451262963,-0.260233716364485,-0.29600234974527256,0.05099617672021044,0.6282861183005097,0.12844243226191568,0.12768394615847617,-0.02891803504562688,-0.3977324372682538,0.0258272720867909,0.058413426151229714,0.10042124234639546,0.0627029178912285,-0.28712915009896633,0.5278934893871098,-0.08377414328511133,0.08503575029678485,0.15791058372213543,0.5046892805046796,-0.06914743777779551,-0.006992454032780228,0.526972865357247,0.137041291827619,-0.1789929474712101,0.13056161678351016,0.795614624627457,-0.3162827960483846,0.6726862417988054,0.01576799132054734,0.12922267009289182,-0.11088763022441561,-0.2817378310176453,-0.07677302282846951,-0.09241513312903545,0.456766300437699,-0.09766607416945153,-0.15318672613501744,-0.2983297187214166,-0.704817935425342,0.402424725997889,0.28052122741355756,-0.553789061756351,0.04296305973463363,0.1427879333085356,0.1267879880041394,0.16178372675764,0.16260883941600265,0.15793067288955065,-0.009301564689036163,-0.42020550913636157,-0.1892993855708047,-0.1982119056704904,0.31354768185774473,-0.0010622091542292547,0.027740255641301385,0.6426655628955178,-0.4807800773179015,-0.2549225749248861,0.4274642768003502,0.08588566781837231,-0.15393830438916764,0.03588115130917456,-0.09216384209719142,-0.1653993606093519,-0.6917362001315621,-0.10593668585277978,-0.5705677395933233,0.3000486490883056,0.1580138448788465,-0.022767434241325116,0.3352137332308843,0.43733070560509674,0.014482898689358113,0.11913231253043487,0.0948045674298528,0.3079579120578892,-0.3035534127702631,-0.41972873727751375,-0.3989392534770032,-0.684833160075211,0.2903113046651831,-0.11575171625028718,-0.007713379563140098,0.3525057944055074,1.0038022168976461,-0.03632996976389249,-0.23590699978695884,0.04542928066492147,0.17622060567383654,0.16103810786422335,-0.032679497047889076,0.23684433144287317,0.13846006282991807,-0.09262129775410503,-0.03340861071345146,0.9372385653969685,0.26436222602124176,0.12162599499917422,0.0975172106653243,-0.3695826364958797,-0.528878915268506,0.3395561860119628,0.37285477767318187,-0.16271058824705692,-0.09251304095392822,-0.1283437781823476,0.2137238494820323,-0.8343334527007152,0.18146466990332133,0.3951441534477856,0.2651994660787222,-0.19656219423994983,-0.2666207861518797,-0.0954854288939857,0.27915517384831384,0.24842904057693435,0.26920259771362187,0.19985917120958907,0.49311807028278054,0.050660691981628564,0.009703801061812916,0.16320536576927525,-0.08551123605894675,0.5662832031340417,-0.06693549909543689,-0.08018702260998234,-0.172529896016141,-0.18394249410375568,-0.7320507160472699,0.3403092378367721,0.4437095620895726,-0.12181205207325241,-0.39562597973264113,-0.1814464101130545,-0.23816131616498673,-0.04888148700616139,0.23876228096154842,0.14761065104723406,-0.1086754201360485,0.6488547008248018,-0.2658700111675655,0.10677629095964285,-0.4622498601227056,0.21079821274899943,-0.3424411349557642,-0.1426413246421395,-0.1255942690700147,-0.3450761778525077,-0.15464746790404651,0.15849136339684355,-0.005109965403321468,-0.013993680876184017,0.08848466064280627,-0.28245400439875973,0.3866067134637543,-0.22704729780035485,0.16014009116887187,0.011251152542778158,-0.3606298085795669,-0.12407334164902237,-0.3230056790014248,-0.21226739086781732,-0.048746623610970555,0.010245406523623919,0.6868829703315236,-0.21821550772263185,-0.30085014718890263,-0.11070697085258183,-0.2429920912017202,-0.4012187165373186,-0.1242191520194682,-0.16371765671645963,0.17125016175146818,0.2655573960406348,-0.4599623119692778,-0.043041730086486554,-0.11998460141283715,0.3099688020370487,-0.23490076997760742,-0.035771580998042014,0.007072657275557254,0.09872425484204961,-0.4220882030711287,-0.2967235997974709,-0.44960210618759555,0.3445076834244088,-0.23076625089737238,0.046525980371068934,-0.365423417988156,0.1425662085099836,-0.13373773878362802,0.08397772313032704,-0.03736178291522966,-0.23842716247899917,-0.6693442205317609,-0.5122352795933632,-0.16370353312213254,-0.04370463167604912,0.018711274162715022,0.44405923241891526,0.10692250376066659,-0.06854184423087736,-0.30328582754549227,0.45905745652684327,0.21774224882386928,0.6369578201255413,-0.13682174862419175,0.394478004918642,0.05231640029049227,-0.2217311309514346,-0.07942276898998189,0.2329949236588313,0.05846173360320721,-0.5728233865635338,0.505488092153365,0.3569135553808185,-0.03968088919085158,0.021787825008911094,0.5833647431624573,-0.24104870006769674,-0.16792917433617896,-0.031257374824623554,-0.032950230702796963,0.2609139064843358,0.2326248732088923,0.3749483201412922,-0.5229688851127456,-0.3865408736223503,0.24751082490407314,0.12338109460733035,0.0529778164111846,-0.026929248957398896,-0.6828719092479778,-0.2265733787238125,0.23232491723979817,0.3665948650546512,0.0840120773321884,0.09975809704395336,0.17645085286909246,-0.05357060503894747,-0.26276427983689205,-0.37558197854582703,-0.127385105283444,-0.3137367326272712,0.21552632715665493,0.10213237271580902,0.016400505594586993,0.4634669885350482,0.25309467805052305,-0.46209210394233663,0.05352004296035337,0.3847247073701876,0.38508269762026665,0.0302717728314755,-0.22171944807997723,0.3662910572080554,-0.08438148705754099,0.17473582011337224,-0.6257037497100622,-0.1728718025645269,0.17361456637378903,0.2624375842730988,-0.1408796116666608,0.4618982249146903,0.4584259823071246,0.4526703939300517,0.47610763306544474,-0.1858193650967646,0.3635077237527042,-0.009003076190746369,0.2825154042630732,0.4639614344905432,0.12193462736792618,-0.6329921767724125,0.4802850416044536,-0.15205360059350836,-0.21187092577588532,0.14910899468145075,0.08440591153496765,-0.08605994479688306,-0.49701601809041474,0.15011694422470107,-0.16816939675428266,0.26269777777794884,-0.22146165681811317,0.057962526148541096,-0.2149935901761777,0.06431524294796075,-0.36632363188840855,-0.04552174692971993,0.37185628836391654,-0.42042500453682163,0.6115255627325882,-0.2386715616169946,-0.45275439270047146,-0.16234827014489608,-0.25261135924059214,0.01565734984813064,-0.22019982308669445,-0.011214506776327219,-0.7035104736013263,-0.48567681015354597,-0.21488394127351515,-0.29379486904680374,0.20017811363495747,-0.3953623921837682,0.32674656433100535,-0.12225947835129812,-0.37125788289453726,0.3279162941277206,-0.10086664926979923,-0.07727463066490083,-0.40160832063737506,0.2955944254159134,-0.0927638123691302,0.1207274075807546,0.10213332482152304,-0.005948775846895391,0.4776118759127385,0.32135679908975956,0.18988982873490934,-0.5489982672695447,-0.25316702603203844,-0.5388276716887289,0.19833111605138037,-0.14788437043573657,-0.15128462736667975,-0.14439424780067645,0.35672424349839355,0.15677391585290265,-0.21273651042425298,-0.09816002660195802,0.0728478525299181,0.08559769279846577,-0.5477617729236887,0.17070940619967304,-0.09481268125167067,-0.4029414554394105,0.12671255466918996,-0.06805652766233196,-0.42308411958879044
negation,-0.012312295353399234,0.285865820770262,-0.36300607563996345,1.085952802910958,0.044206552414834004,-0.8185048507110558,0.01972499577491709,-0.06083254068266428,-0.3048059280591127,0.33936107005269356,-0.17490060882077746,0.20561481026700087,-0.06309269924965635,-0.23103259675693286,-0.3768234921925695,0.06581612231046366,-0.34820559418275426,-0.17618053912927517,-0.199987884998819,-0.14030991476381785,-0.1462066278641145,-0.3451939701472293,0.06984350429320918,0.1253372275994647,-0.021738375858646138,-0.14278926532534894,-0.12263315052268418,0.4680547018387884,-0.400360542559897,-0.39953323971595023,0.22946171256889694,0.014590892635231677,0.48241474234632065,0.14907050597074756,0.7184409654252499,-0.0013551127693336306,-0.02597941704117247,0.2774087975032262,0.2761638747516481,-0.4227732939129861,-0.0031604555268735296,-0.6972475727179606,0.037267919290959586,-0.1419645337761992,-0.04932599551516473,-0.13680806236412277,0.5765527248491198,0.30371212512339196,0.0838087043374288,-0.10587479487254077,0.11914004507688596,-0.12242506119158142,-0.45335771091652605,0.18984259833226969,0.06248330463635005,-0.34252962137599874,-0.46373224457777185,0.5728981484910961,0.05289453351656514,-0.11031189297381243,0.7152230232968718,0.23949278910967362,-0.031845733901191435,-0.3647878140317637,0.0032710385237064085,-0.1803578969154867,-0.2492830420815974,0.5103872973946031,0.6648712690871681,-0.18332621859985138,-0.13962418893271816,0.28332691521913445,-0.32459201497920337,-0.06591708214412087,0.1981968843063954,-0.2867587075258708,0.3940211375209139,0.6055178756111593,0.19457542070542289,-0.3912118182488099,-0.16190271109989926,-0.09849977395518932,0.1973281342168518,0.09328510140885743,0.43486308262285556,0.31743501183359046,-0.05615407514784312,0.0008333413734123468,0.017483038898755836,-0.21176448026567127,0.009010491965164453,0.7909836105038756,0.6958709178823502,0.3214799341142963,-0.09654049234869477,0.1862855349892609,-0.6372378609627717,-0.40540130913662836,-0.5160741352085658,-0.3572602750341415,-0.1286333838352459,-0.24289488276103363,-0.21222997118383727,0.1182730823926143,-0.19789543369149787,-0.1163419272001292,0.35042343315149754,0.16219522708417944,0.0777345940693939,0.8798241608655806,-0.5721518727307132,0.06602200408023205,-0.07416623705494402,-0.3646818777382535,0.5532253571600749,0.04459312649931475,0.47702004845456214,-0.4095243453046682,0.21666811970557423,0.09073413573538835,0.021430537123674202,-0.3803549035780456,-0.6252180787380877,-0.27117380239985617,-0.06567792357607607,0.024904753350716218,0.2577925276574372,0.6301730296919809,-0.11180123333696576,-0.6119891566478661,0.5886403969673923,-0.043015216170897416,-0.3767486672337386,-0.05681668335394947,-0.5402698153954111,0.476605434709016,0.3343224489465084,0.6506812229200919,-0.030543269372984076,0.48501961563158813,0.2916739203416884,0.3883461787536492,0.9454955906371667,-0.017647652087760396,0.15423710284747424,-0.09515171987829879,-0.6366573145891661,0.023860018182488677,-0.3015145722777955,0.08709091164075085,-0.2536034044601034,-0.09623187792110777,-0.03783135577167249,0.06705351968938367,0.3819501060670211,-0.3110601362618278,-0.011977451337099806,-0.11939922594600919,-0.13223890944413538,-0.2154383695952928,-0.06923595590226853,0.203812055606225,-0.18154425631289403,0.1133291386151854,-0.2541489858257508,-0.7090819896375082,0.7850282980871324,0.026522941366904175,0.6107925214010316,0.2600678123135681,0.5599259725281077,0.03080599836273173,0.17750487185831956,0.31812485149106057,-0.46046037733118533,0.3059777408743437,0.7989796187271101,-0.20512473987658797,1.0950528246149118,-0.829845850780394,-0.14474419321810167,-0.11669261482807618,-0.4290066865653821,-0.11828815980179765,0.18671413135374568,0.049811877170580866,0.07681434151363298,-0.3845142079505868,0.13928950653030947,-0.20272848872616628,-0.16007085538786725,0.12798505462747806,0.14443565720258617,-0.21475423477830305,-0.4498837728181753,0.02912605194574074,-0.7923864273814389,0.2811531524844483,0.6254635493877683,0.21438304792866525,-0.03966157280383536,-0.22868390234269093,0.22732480108232406,0.13854008049326,0.26514694045969023,-0.32371720631261575,-0.5707307455848044,0.05042616198464726,-0.05401033053303677,0.40835011941671867,0.32867421987264583,-0.25970054202116566,0.16097521520208666,0.4483046505486058,-0.08534043460802265,-0.44244437408120363,0.059028734584835846,0.2618610447225272,0.03466672971052385,0.2905847373157879,-0.14371012722045592,-0.026652730818068314,0.298837721692462,-0.12998232387554956,0.15994650775751776,-0.17447305834714147,-0.07196064624935192,0.07323411858843841,-0.2293236120616247,0.4023019235550159,-0.2705310988680677,-0.6563207163431949,-0.6844368852486356,0.271002148571825,-0.003215831750443094,0.7436462279058229,-0.12032644288152619,0.02882113452258983,-0.2238647480112161,0.14014319528516694,-0.4906350624080626,-0.25561518213673695,-0.0435389755707269,0.01682790953363376,0.28427245317970096,0.11688184799075174,-0.11761999665688436,0.4568674739634949,0.7576201945981033,-0.16971288202040163,0.8320105216612464,0.0010284049799938852,0.3472661831133324,0.1915635852424982,-0.089643575053297,0.2450370401134735,-0.15250677058214762,0.1408744929171827,-0.13752990785892047,0.24452870525911735,0.9041042138912769,-0.840563112116367,-0.29100571794505975,0.00527063866573726,-0.4904080903619787,-0.24146785710763793,0.0007970606969036275,-0.13861699415884132,0.23098491864683784,0.3456727792813729,0.41613582960388007,-0.13773394953874352,0.38974966377046827,0.1467894998507711,0.3129735837490609,-0.13461515157972354,-0.7074655610998255,0.09346404762354021,0.15745476590345653,-0.03173165826803349,-0.08178270565325005,0.4307257888049134,-0.0365858200797315,0.6688039690672118,0.06446204141977398,0.05360887854299188,0.09869159971796765,-0.05089583751509603,0.7194711070395162,0.16340807758358336,0.12866932308541398,0.434151534093311,-0.28955426973420645,-0.27977675845210526,0.4771020027400423,-0.01500291795058365,-0.23661044728407363,-0.4485661794715987,-0.18793331168911667,-0.202109284324488,-0.6442658228395521,-0.23858933094821075,0.539054910214806,0.12282295689998143,-0.7614796047091839,-0.23722374438189725,0.2552209937595482,-0.5517072006711781,0.4791244534164357,0.19204285237706392,0.2824401596362023,0.2190434619347042,-0.09854962739623802,-0.09890776811677397,0.11943750406350795,0.44074090316772774,-0.04878889827106397,-0.32880524190931654,-0.29907134455114376,0.2771809753042481,0.7455282294533975,0.12782403662537772,0.45498119524298686,0.013449507283954158,0.1672135754273053,0.15764109420712646,-0.40118941466550717,-0.14284601935440652,-0.2640097885626046,-0.5598493956316124,0.026068469110913397,0.05950017873562434,-0.44309454106263957,-0.12621414331988678,-0.17561842856421797,-0.12967763205771318,0.4073165916472923,-0.06268133243693517,0.5661573833304263,-0.38536168077836713,-0.22152038275487912,0.2744232025278218,-0.07061752301867254,-0.3267786659512699,-1.058722760650081,0.05696670917713428,-0.42442718156279946,0.010952222829306201,-0.4219568759381553,-0.46429972132403785,0.11889726042436953,0.5184955372917912,0.030420767473072846,0.061019808266022955,0.08135616133375759,0.23809707280462183,0.032742808719533355,-0.17240299305102316,-0.2103916793106802,0.5381533658306789,-0.39370702142796565,-0.8452541510507511,-0.273218929645842,0.5291970212263728,-0.28194057222770547,-0.13343130942888806,0.19082496790082218,0.16960369643301465,-0.79278488826071,-0.4533280691966128,-0.7618033996680322,-0.08393798474930304,0.20415785558132363,0.06343057405359107,-0.130562916216695,-0.24969589137535225,0.044452153478773584,-0.28740714996940864,-0.12822367481658276,-0.3977477438350198,-0.6068969709606978,-0.1644099189370347,0.13345964344442174,0.14941252228050894,-0.02228528301585515,0.06858836230419636,-0.6155484860196587,-0.20824541253970963,0.028033848401958484,0.41461135528931886,-0.15790326842345673,-0.04323516862617614,0.38638372532974874,0.32887305785975407,0.05007637205874477,-0.0011457939112252745,-0.3420808244730326,-0.49892417211506973,0.1222812416721857,0.23996313598210128,0.13201269479540012,0.4062130572323988,0.24193906682080538,0.1105266362448095,-0.31137448596725764,0.2581927538589162,-0.33515249363242233,0.5870124523611036,-0.004719989230163286,0.889981615429514,0.11337540432589727,0.24671258375580296,0.49149072967780727,0.1819464258436795,0.03368138837957777,0.32074268420911384,-0.11296347978667666,0.39081646429434364,-0.8796129277901427,-0.6830876141638207,1.037843639174315,-0.41366829695384605,-0.21501464600080825,-0.11552018217628882,-0.26320101340762847,-0.24131679779398027,0.38856562898528707,0.12253249142174247,-0.15151501127726436,0.4906397914459825,0.09290209457204332,0.19749796310861226,0.1398744009808905,0.10195756850913971,-0.2219889906562484,-0.5752161405933767,0.024862977977611857,-0.10316038605636164,-0.24849753312838618,-0.826401228561533,-0.4322272528124128,0.03275800324958856,-0.1207316214159645,0.16199416929006732,0.31811039932842144,-0.12149222654411078,0.053695009743397436,0.07327705203834374,-0.11318495542861554,-0.3935194061992662,-0.4288338246348024,-0.09737969814547727,-0.3069923133134864,0.6150099186047262,0.19409435870357863,0.08693524183380066,-0.06312128437763719,-0.1401403233918789,0.2735469933891517,0.2998663059429418,-0.24458993676652083,-0.7005720747044193,0.33826190905772036,-0.0989048035777733,0.8296805907752169,-0.3457080138846374,0.3019011738976207,-0.1831966657118295,-0.35073208918043036,-0.33463113020850555,-0.8213304944566941,-0.23101921024849592,0.1653596362590924,0.457263701932065,0.30165872181267345,0.12067129625520574,-0.0998120018645032,-0.3056759715507748,0.4921901895508057,-0.22327126230340816,0.00523982626604284,-0.04185830932691019,0.14258514822367582,-0.31438745212152447,-0.2223606900369294,-0.15932969877534728,0.32001570375457183,-0.0009930471142261376,0.33458862415747237,0.5935339201729775,-0.45749822325324874,-0.07348065651791004,0.14105366521021118,-0.3297826023740213,-0.1087622777237725,0.03756080394539193,-0.06072279137140381,0.18987493419216595,-0.04496207033472806,0.5638253554520354,-0.27616809549281807,0.22593014892232996,0.6170759957443589,-0.017674516158878103,-0.3611380996579527,0.01864118500535514,0.417719279977182,-0.6050328967549747,0.15218295950283273,0.12363277842824703,-0.22839706774472088,0.23911596599759605,-0.05418343102529047,0.18510239649888444,-0.42791094310321526,0.15468238028495332,0.1297840418594995,-0.5023277344671627,0.25241352933731476,-0.27002479346068897,-0.7265330133246192,-0.1718759677711394,-0.9569749354963324,-0.1253590622743314,-0.3391190770994855,0.07072490887151976,-0.3325855213000409,0.4662849112730734,0.05657672841535729,-0.10307264164314855,-0.005157998791611115,-0.21280870768448498,-0.6843926912537118,0.17018289552781354,0.27883231648282547,-0.22683504371953947,-0.32262123428046596,0.03882618204673866,0.272585131944588,-0.03415003227219339,0.22110766841153504,-0.16605362724813014,-0.23678913686068864,0.1785393238888304,0.8827835903206417,0.0005424898857650468,-0.05149532444687664,0.015905682372706488,0.14760407968553801,-0.1589064339239016,-0.5011614225296706,0.02453293587388598,-0.009302689236087765,0.3273760398437865,0.08711985656973975,-0.5738920010952712,-0.7364760746314257,0.09989206472837828,-0.4104001886442746,-0.3741338330430042,-0.3758040058579473,0.15158587926056005,-0.39123543295736957,-0.5518773434233816,-0.40665151420685847,-0.060432997017179454,-0.3577301031896294,-0.35126628320147973,0.720440667355657,0.20059802082357495,0.35694883250862547,0.05005915858787379,0.06094650921178416,-0.016615599496412746,0.06369904433168402,-0.1991809006030147,-0.29284044615613697,0.1516027119066631,0.28750070911328923,0.007732421193115109,0.3019736659254655,0.292764864601325,-0.4075635509704698,-0.45770097431009105,0.21202016136416682,0.04356122099746293,0.20845449156803175,-0.45967696311819706,-0.010750048720562693,-0.13572451786745682,0.21853607784472495,0.32549980626477226,-0.08424074961872777,0.4404774863531772,0.1458207185123868,0.20316500236477203,-0.5425828193365916,0.031880321538998474,-0.3884315134326731,0.059294794218957614,0.3577245584373847,0.4760425923148708,0.2320458649949908,-0.0600225509505754,-0.03361204977234188,0.5218926552675544,-0.1475683398365624,-0.06918532919653395,-0.3813998617142191,-0.09647991811990321,-0.5760922405089925,-0.16032082431817704,0.5098073964355352,-0.5276656412049446,-0.3882816370976473,-0.2776196846797255,0.5412164250298512,0.41949938293085504,0.11948608761501871,-0.4220465886838469,0.6239571788119497,0.08700648947849329,-0.030331440078122426,-0.5829741967507075,0.05507699652502041,-0.22188998834644527,-0.13773459913739047,-0.05567092004177751,0.28300870367837366,0.23539170689745104,0.489093141057845,0.7268770626073848,-0.1863800668247224,0.17884038563801272,-0.004078899796503481,0.8935582538042895,0.35953736301425077,-0.06171185124556285,-0.11191152734263714,0.1713747585081538,-0.43037748671757126,-0.17957900773637317,-0.45269273716593644,-0.18650465713166103,-0.407908213184927,-0.292532646507287,0.16595522351775793,0.322527030677706,-0.3280621292801311,-0.2409214413067408,0.210176408539908,-0.39901618189536037,0.03672741362858163,0.008658327257561039,-0.040170048186802164,-0.1766375874456136,0.2872309345742104,-0.41960980247844065,0.30747765910948494,0.017731666326136954,-0.14580229503492123,-0.6696846705265775,0.17430033708991635,-0.6018142445409588,-0.7878649787388277,-0.12516827563027277,0.29573777455237665,0.06437756072565326,-0.29695246419701976,-0.08389778745883245,0.13455486680814768,0.4676488152044668,0.006856223239251852,-0.2500394399240093,-0.1966672965188604,0.18627193217681504,0.4562059050607879,-0.05928849320941906,-0.36469985177271147,-0.37414658473788287,0.25714333992916005,0.2623306903433667,0.14221662276274358,0.08829728840068023,0.13432204974242873,-0.5990336231190373,-0.32974769646434504,0.29733245741842607,-0.6946882171596706,-0.1274595430865676,-0.12384990934053368,0.25264732067153595,0.3338450870062769,-0.3115414461490052,-0.2902387412168193,0.42299393015370274,-0.03660428060115225,0.3380366048187035,-0.269928892905839,-0.49176983503346816,-0.05105709723176302,-0.29620827702343383,0.07616135553463402,-0.11737929132610678,-0.5641138091489147,0.1735733607385445,0.3725314206631464,0.3293931897947847,-0.2911427904987902,0.32630246930854173,0.20742649821824757,-0.14423815186273867,0.032311075267974804,0.34274041432991253,0.1145333984115395,-0.07293299271113964,0.09344344183324767,0.1817428754860108,-0.07004638722768623,-0.29890719444729347,0.4560749129196495,-0.0038631215724708933,-0.0033213476793842816,-0.008483347221373881,0.646130120606449,-0.6426995624660324,-0.13484258874913296,0.08368918396311147,-0.6665568072170169,-0.06901395670990294,-0.5408321080699168,0.031835251703929486,-0.18052687198045714,0.22291652798408762,0.37342217593753474,0.06093687254485402,0.1852039670571373,0.003146734233799418,0.893959910109112,0.49886683232119544,0.4876500425081095,0.12167732247267826,-0.20121508174115793,-0.21913118793318812,0.20292815658288424,-0.47586005605723014,-0.25355526146497864,-0.03916540390746447,0.04961010436551606,0.19967463096357083,0.3037917242657871,0.36828162522078856,0.02614413711276449,-0.5372524913838108,0.39605476078744895,-0.28085134723049016,0.02319633162477472,-0.28107340566799116,-0.3139146166877972,-0.42842690058662897,0.17115661847609967,-0.3738550641342343,0.03664469657057658,0.2362682036937287,0.11187773305369246,-0.048466635735507385,0.04125622185391897,0.690131499855758
