,0,1,2,3,4,5,6,7,8,9,10,11,12,13,14,15,16,17,18,19,20,21,22,23,24,25,26,27,28,29,30,31,32,33,34,35,36,37,38,39,40,41,42,43,44,45,46,47,48,49,50,51,52,53,54,55,56,57,58,59,60,61,62,63,64,65,66,67,68,69,70,71,72,73,74,75,76,77,78,79,80,81,82,83,84,85,86,87,88,89,90,91,92,93,94,95,96,97,98,99,100,101,102,103,104,105,106,107,108,109,110,111,112,113,114,115,116,117,118,119,120,121,122,123,124,125,126,127,128,129,130,131,132,133,134,135,136,137,138,139,140,141,142,143,144,145,146,147,148,149,150,151,152,153,154,155,156,157,158,159,160,161,162,163,164,165,166,167,168,169,170,171,172,173,174,175,176,177,178,179,180,181,182,183,184,185,186,187,188,189,190,191,192,193,194,195,196,197,198,199,200,201,202,203,204,205,206,207,208,209,210,211,212,213,214,215,216,217,218,219,220,221,222,223,224,225,226,227,228,229,230,231,232,233,234,235,236,237,238,239,240,241,242,243,244,245,246,247,248,249,250,251,252,253,254,255,256,257,258,259,260,261,262,263,264,265,266,267,268,269,270,271,272,273,274,275,276,277,278,279,280,281,282,283,284,285,286,287,288,289,290,291,292,293,294,295,296,297,298,299,300,301,302,303,304,305,306,307,308,309,310,311,312,313,314,315,316,317,318,319,320,321,322,323,324,325,326,327,328,329,330,331,332,333,334,335,336,337,338,339,340,341,342,343,344,345,346,347,348,349,350,351,352,353,354,355,356,357,358,359,360,361,362,363,364,365,366,367,368,369,370,371,372,373,374,375,376,377,378,379,380,381,382,383,384,385,386,387,388,389,390,391,392,393,394,395,396,397,398,399,400,401,402,403,404,405,406,407,408,409,410,411,412,413,414,415,416,417,418,419,420,421,422,423,424,425,426,427,428,429,430,431,432,433,434,435,436,437,438,439,440,441,442,443,444,445,446,447,448,449,450,451,452,453,454,455,456,457,458,459,460,461,462,463,464,465,466,467,468,469,470,471,472,473,474,475,476,477,478,479,480,481,482,483,484,485,486,487,488,489,490,491,492,493,494,495,496,497,498,499,500,501,502,503,504,505,506,507,508,509,510,511,512,513,514,515,516,517,518,519,520,521,522,523,524,525,526,527,528,529,530,531,532,533,534,535,536,537,538,539,540,541,542,543,544,545,546,547,548,549,550,551,552,553,554,555,556,557,558,559,560,561,562,563,564,565,566,567,568,569,570,571,572,573,574,575,576,577,578,579,580,581,582,583,584,585,586,587,588,589,590,591,592,593,594,595,596,597,598,599,600,601,602,603,604,605,606,607,608,609,610,611,612,613,614,615,616,617,618,619,620,621,622,623,624,625,626,627,628,629,630,631,632,633,634,635,636,637,638,639,640,641,642,643,644,645,646,647,648,649,650,651,652,653,654,655,656,657,658,659,660,661,662,663,664,665,666,667,668,669,670,671,672,673,674,675,676,677,678,679,680,681,682,683,684,685,686,687,688,689,690,691,692,693,694,695,696,697,698,699,700,701,702,703,704,705,706,707,708,709,710,711,712,713,714,715,716,717,718,719,720,721,722,723,724,725,726,727,728,729,730,731,732,733,734,735,736,737,738,739,740,741,742,743,744,745,746,747,748,749,750,751,752,753,754,755,756,757,758,759,760,761,762,763,764,765,766,767
polarity,-0.36970673030920037,0.4720192849233607,0.03725371580165068,-0.116080356251799,-0.8037134713331742,-0.2234113234961491,0.16071865099066485,-0.3598213064206801,0.32497187220949375,0.1875934253602361,0.059214690527574554,-0.5986229635992012,0.1610007164219236,0.3271808192231264,-0.44184232290398434,-0.1550134685773881,-0.31853638187712174,0.7017919136543213,1.006831640613184,-0.6451451738509182,-0.41823973574251816,-0.6229341166803618,-0.22015692698386666,0.63961557122628,-0.1982302186525891,-0.8340189889875353,0.3381556468175084,-0.04097886162055527,0.23695193207997753,0.28192324498447247,0.0602408577745858,0.5703862188310547,-0.2655358662306265,-1.2469735650223495,-0.1051459145436744,0.15821866663174122,0.042147819435333904,0.41412258907010274,0.06523796702483205,-0.0932903480065714,-0.4055965676817125,-0.08052265509230046,0.08896814835546385,0.2529298114371915,0.027497132508013764,-0.5860867809791168,0.4408823783273707,-0.3841787842674228,-0.5654670500941839,0.08018566928875002,-0.5739629046187735,-0.48169925496572114,0.7238003574021901,0.1875842279170301,0.2700397990639013,0.32189832567125753,0.5175745667824512,-0.9898516304833928,0.9807415307796636,-0.41276163288917295,-0.3347473100674596,-0.9225260073935265,0.6256750263744442,-0.035784836716475324,0.014616615972503478,0.6035198161909772,0.3790068011779031,0.20808551608984996,0.4683301686866133,-0.2769451203693411,0.34181444819388973,-0.6874119405518772,0.364519287192905,0.3748729090884621,-0.28439584770144827,-0.11693240492629532,-0.17241625388243786,-0.5906197104893691,-0.2544047774029531,0.6246240118010035,0.29866037254351124,-1.5170376991769359,-0.14180624964566177,0.2040673306216432,0.20285988033728192,-0.8520299687609426,0.28108378866787964,0.008582082839609012,0.037651429841931004,-0.6094588449984158,0.34476900090666907,-0.32764283988470927,-0.1473471578112982,-0.4511158547646259,0.4414987501521878,0.23336271724839464,-0.22105025373040194,0.6992456571513826,0.496597492458185,0.6248396889781984,-0.021936970739646705,-0.704351383431608,0.19304445539367482,0.5835368638181547,0.24625824028953633,-0.6552312624969959,-0.06903497022747913,-0.19933823171377077,-0.283092546563221,0.25069297386066747,-0.19928045296270033,-0.19873429804673776,0.13303061152934315,0.7462908085894656,-0.5900325418694485,-0.08806197538212714,0.05892724592400738,0.14101715648578494,-1.0751721747521183,-0.5913566315038712,-0.08520970841019122,0.5479135531281725,0.19223116974954452,-0.6634626193908669,-0.46481945282185133,0.9453724579032834,0.37293967639508624,-0.12227615454202097,0.19332810069668271,0.2085299633117635,0.1059321111273287,0.517446546477767,-0.16738646824201037,0.01622756412576164,-0.048546018077714366,0.40616646429910047,-0.06124326066878386,0.11834489520388157,-0.010512272258553558,-0.2464675813561987,-0.4910034115297499,0.5802850297894867,-0.12239077592737137,-0.3239407852018157,-0.8371943273880437,-0.4936403124119051,0.574383008554226,-0.4686333067862335,0.24793753428656498,-0.8196810518651754,0.2760888837598108,0.1816748498123486,0.25630499132538287,0.08601888649284854,-1.0028800585766373,-0.15071507212587257,1.0626594049930498,0.16616395145220347,0.8574992101105203,0.04495469005813572,0.04701633903571708,-0.5601972673647931,0.7990193884450237,0.08985232174310323,-0.18954144342205184,-0.21357151346124192,-1.317381232953847,0.3172566323062818,-0.5517213982451313,-0.12366151027713825,-0.18639986362496608,0.4143915960125248,-0.5437771584090001,-0.27283215301682373,0.6829473912846739,0.09488326272356365,-0.029277612475627556,0.30833331648484574,-0.577718567611791,0.4090764662291393,-0.09634181127747952,-0.045674834653641874,0.22767428321915353,0.40665477744356643,-0.20742428813468014,0.12731376750379877,0.5596208255676061,-0.11661125811285131,0.5726529782511559,-0.16974261379704134,0.49901828353198796,-0.5011357040143891,-0.3062545640832031,0.5378679117605089,0.5988684423888073,-0.953093562824663,0.12864648807682796,0.3233973909375219,-1.0665113658180634,0.7061987675276145,0.13146855219810516,-0.3589395273627347,-0.4725147744530174,-0.7387156804491174,-0.3967312399583899,0.9489818756790724,-0.1388695636883797,-0.4350377008710612,-0.13249653872681355,-0.018732772950779367,-0.01293367368339186,0.7480030982814716,0.4613470518074934,-0.22673476010490112,0.22506090835363704,-1.2809519953463764,-0.8201060834273634,-0.010697873496247115,0.7249285201398882,0.002968794778954145,1.200045248799285,0.35215468884492923,-0.4919653551361761,-0.29514997450797736,0.6627924987182183,0.3021678211121857,-0.546401294479888,0.4468441724448518,0.023243665593180644,0.45383764775599306,0.07586022552224786,0.6011948858504049,0.5170138546083797,-0.47058766742482994,0.4745532979995273,0.5649652544920511,-0.31782486636508833,0.07624834870721905,0.10630450801084547,0.09279694497494591,0.597142396231871,0.2589705281821116,-0.4948190154219953,-0.7220920024389917,0.5784367614496798,0.22080997255214435,0.41505004042714333,0.08008666227838783,-0.261396439995383,-0.31198247568620946,0.5262041012723818,0.3612741500264427,-0.02508132169975361,0.2726493448550406,-0.44738164343723624,-0.5097828822507149,0.04669817116755549,-0.024593144517806396,-0.23932478468074497,0.8001883941730137,-0.7688071408068922,-0.08468234122550647,-0.4630225864074477,0.05067247872278167,-1.4378743594097827,0.07946156516658953,0.017721867464595725,-0.03072730828022917,0.4652960769887311,0.33639548013000165,-0.5422485253267493,0.3323091262719425,0.16168512987879943,0.6027223012792498,0.4448613337883097,0.35972407261027933,-0.19332761836987364,0.2856741806371411,-0.09781755949232734,-0.13621762932973341,0.27912290663556066,-0.4996922880451699,-0.744231193579379,0.09351363498846993,-0.09693274516453716,-0.5188151022616048,-0.580428903209706,-0.1313326011699208,-0.013496027882974207,-0.4855696277918054,0.034281108736365515,-0.35600875802025206,0.20284105898455357,0.5242038857075162,0.8320478821141797,-0.3070732194173425,0.4852649291903285,0.09165932249054405,-0.42051272993930755,-0.1593003006327328,0.40886924860676055,0.022973559587584295,0.24916790125794322,0.012368569304293696,0.2784832777477091,0.14237083780381188,-0.3882363710617322,-0.44482194583521245,-0.6298760893345047,-0.3590020752791644,-0.20224494546469304,-0.42787484645949314,-0.10368528002626676,0.2691047839887714,-0.0014276578454058095,0.016327326115046493,0.03900438299689745,-0.07598488642704083,0.18111001673029595,-0.40987076815548107,0.09438201568690219,0.10403922090376404,0.18976707164860557,-0.4060867776432072,-0.8365399078625566,-0.5499349038027642,-0.5114989175381136,-0.1191863957036287,0.49553396466363664,-0.043978013113813885,0.400989056624382,-0.056183614046105626,0.3589587099159661,-1.3168840138666877,0.48413753043862784,0.07827827557007117,-0.09722168978309513,0.0249874096648773,0.7217526245296508,0.9593434432694657,0.13260567420351152,-0.01902578325553934,0.29787367981783236,0.1354153237521646,0.8039624523889651,0.2122115902875195,0.11160628969475618,-0.7406355035785498,-0.04632337233622478,0.16739484834368634,-0.5609051049908572,-0.4895759916307005,-0.419226621576833,0.38150960597319816,-0.8147105588800011,-0.8862851584511472,-0.3734366149980348,-1.020874587948801,0.6301325976323425,-0.07146803438916045,0.3276185326883684,0.6195729491120033,0.40010122908178714,-0.5965132318323831,-0.01807437373821373,-0.006030308378792089,0.06220907757370944,-0.6791180502467695,0.5206825320886606,0.3190078950088272,0.5338156192780524,0.2106063423179118,-0.1258525627142369,0.05498649023116563,-0.04250653829264701,0.6799100293094198,-0.06769411018072427,-0.2982525422037173,-0.3930479210126958,0.5263157315827462,0.6296178977675527,0.07394594701610667,0.3129409264530491,-0.1692163091666581,-0.6012167135373016,0.07931761192298713,-0.1209535735282503,0.4632724212673376,-0.14015980394121638,-0.5121497780391157,-0.2090518025178955,-0.33616118946622975,-0.9679373538381492,-0.11318983832312812,-0.31370937614965516,0.30309854480336046,-0.08011185647582807,-0.3003145988334232,-0.4368935599971939,0.046875969736105305,0.05386166134729338,-0.46271498666078104,0.1254939110735455,0.10941615833295473,0.11740053327855701,-0.19782566591286385,0.10718329153584343,-0.7121639638215158,-0.013013175856846675,-0.4450589145459616,-0.3340868959794261,-0.21275842715961577,-0.3817686941387844,-0.21178018222834172,-0.06038924493931574,0.06278359334795591,0.6830642095299732,0.3666980093555207,0.0045933737353740026,1.0582377090140422,-0.14212170362024165,0.7521711254987149,-0.46400485665392543,0.23585668478536545,-0.22188600148372334,0.32455952195689136,0.30498768021822537,0.06683770223869766,-0.269614894678286,0.20437627994744553,-0.033037176306972234,-0.43110095860121056,-0.2753329277226914,0.3153141209351744,-0.00514137037104574,0.8134104839121863,0.4704940484273055,-0.5661224307471318,-0.2883401296028305,-0.0015131626094547859,0.72709884286643,-0.459750712193224,-0.06884744889584724,0.028590452043485485,0.34877971823407067,-0.8224587666240931,-0.7445540115750041,0.05128154886964236,0.1386389233754027,-0.2591981850428166,0.21085495948855223,-0.5840398394534387,-0.037974817312644446,-0.2414477120079187,-1.22999426978635,0.5600964060474694,0.1951774654374711,-0.6096553673572239,0.11299239502341518,0.1024371092725136,0.4113330542584627,0.9077125429535176,-0.011311325773747986,0.07524864976131113,-1.1934452854499948,-0.19791165316885698,0.27484286357612814,0.1708627292470745,0.4141544103750253,0.007703380638932896,0.013449737764536606,0.6003924517404796,-0.9120222121788142,-0.4741487250960594,-0.6782601655510642,-0.06063529843689118,0.8826340240398873,-0.2823275173354076,-0.097209355536057,-0.14976364925710273,0.009254674111520055,-0.14099177887363104,-0.7848423122983554,0.1350103063343408,0.3043684086261557,-1.3737877049957081,-0.7959189615983714,-0.9615761845068983,-0.8705254593734516,-0.4531827497618507,0.16408829059106975,-0.5718556598618642,-0.1583150278512314,-0.2825539282481998,-0.615940430672869,0.40248022685313434,-0.015656678654025077,-0.31679196284903166,-0.2518839147700569,-0.9039393809634624,0.5662007765531434,0.03883962142339604,-0.015696693019562176,0.25531543089599257,-0.05362752962399906,0.39126482830538756,0.9383590663511541,0.3585703174340014,-0.5252056753847196,0.6196778425438068,0.5160686665355387,-0.1527985078869845,1.2128725288439346,-0.22801329322249697,0.26155478734345217,-0.006037276462299082,0.12939069929389735,0.5370725260524251,0.5393364292930947,0.3346908228374394,-0.21595244842656788,0.9504666092586185,0.012252296869331644,-0.13186425903271673,0.373350805362698,0.6478661736065193,0.2082052723986812,0.011593128649522843,-0.5751771464792391,-0.6399876204944087,0.7308151287648993,-0.05439026807453487,0.4892029904402725,-0.09479943279853052,0.3153145505688417,0.22276830788756324,-0.0650386145248861,0.013964591118874709,-0.3520627005892131,1.1130210623390322,-0.018150689744420377,-0.20032107603197566,-0.9561192681315079,0.22191005588598633,-1.0630215315125846,0.13156621944810207,0.21669113845506702,0.14742552625319433,0.17901960142611523,-0.3248673810766009,0.9730428758564017,-0.26301767354533123,-0.1012844280605174,0.7347107233565613,-0.060022443589430645,-0.46129146837828083,-0.6201383816005168,-0.18819406506459874,0.029129103086548366,-0.3077355323178948,-0.7140741033046875,0.05871987541176643,0.5782822370661292,-0.3101476698483213,0.6111491237723627,0.9430501194075246,-0.3783533593205508,0.6218390393939538,-0.3660059295710184,-0.9343738001322407,-0.7070417135925436,0.6053181003834863,0.058839273425927346,0.29712338272614186,0.45634174348405504,-0.00222288175483173,-0.04546265858143894,-1.059145911878868,-0.5081537360768361,-0.07659245990057895,-0.012014819640467717,-0.1275486360152363,0.46912952406034647,1.2130607087381309,-0.2209729791666184,1.0648791529962074,-0.016716039271706153,0.9058800632973899,-0.006664490339063641,0.7081548670499868,0.35018276397102194,-0.14936769290915164,0.39017454559180836,-0.016481979151544448,-0.09854225866099287,-0.32083866203912786,0.5893801078877137,0.9615127852537527,0.22828385388282477,-0.6538343390884795,0.12159074665225707,0.23527162646024352,-0.8891618128773033,0.08811631050432556,0.46341182292752336,0.25569856238074534,0.031395719551907904,-0.22771396825239482,0.0028166645651313054,0.20087629638291124,0.06218242006562931,-0.3999559912941995,-0.761449197747422,0.0043605593555594005,-0.5515192161279963,0.2518067761163739,0.035326794834844626,-0.6247838951165499,-0.07810849213876121,-0.05384640600760332,0.333603304343526,0.43091771277310403,-0.6381945730797084,-0.10779444383076103,0.24350444985633699,-0.09604783771411937,0.3084944170212981,-0.018422600518170018,-0.32370933246639166,0.14744805236845956,0.012776263158493293,-0.984117010932939,-0.18509077499518378,0.02167086431437695,0.2213416827893447,0.48194329815736653,0.4904508141187892,-0.2513245007839949,-0.2369087198844531,-0.2306052620736207,0.2999608876079995,-0.10333475316948668,-0.38082194823235294,-0.2693441198287205,0.6778183246308229,0.536587631891311,-0.18038397537221781,-0.3579531739306049,0.6698836680473148,0.16153854454370759,0.18819305788062923,-0.5253476683667031,0.12712366579609466,0.19126850782884916,-0.2515128657887679,-0.6934443516745045,-0.04854901127521768,-0.2097121313747145,-0.5253736704440197,0.41771256393215245,0.6463025205819527,0.4565189546721454,0.05496811257850421,1.3418242717213196,-0.29068448051343976,-0.12151198843598253,-0.33649490743186977,-0.4283622996755927,-0.11801675419132218,0.3670520494021926,0.8233245423417764,-1.1731322554660688,0.31271627321911893,-0.5274487602213134,-0.6504563269188671,0.03666894604913205,-1.5887918269856836,0.5949450313469498,-0.053058829176795504,0.3442471846803994,-0.14854727828337785,-0.3929037925982844,-0.3876936043892145,0.1615660596875153,-0.15647312462548388,-0.10644681980048218,-0.4349658192728279,-1.0002135487751278,0.7205325483610693,0.42136212434882164,0.16605383897452725,0.12856709030103639,-0.5459194286462647,0.27326190322328936,0.18251777796938917,-0.7030677853955891,0.20195776487481784,-0.9743481776574721,0.3985496010279761,0.20880260128019956,0.33775870496195115,0.05820614004516998,0.048449279345452505,0.13758801502902307,0.025485602643247212,-0.4994184392952073,0.21170511531457845,0.24678166209123484,0.6569919568525842,-0.3040371511535404,0.06604990537880129,0.22709003382005677,0.2126420166764284,-0.08908544013211858,0.023181778155433413,0.39148179717245973,0.22942338822693664,-0.27376814544595324,0.3806671902337948,-0.05064282921115526,-0.8587377868056344,0.7473319224231151,0.5067606224023513,0.7412253412791605,-0.028989048530721918,-1.167008806642172,-0.16021486962283435,0.7934727304633419,-0.565552105121714,0.28340071949772383,0.18378322095897287,-1.0463649081149442,-0.2901987755175522,-0.7294348800730482,0.0023009814099374496,-0.47535239057914136,-0.06594939563029852,-0.08212363102845685,-0.3223771532165352,-0.38507681371415436,-0.7267929688024816,0.039363004092972165,-0.106446684472064,0.15765029379364406,-0.24737857512763162,0.43511391456632525,-0.6138232462349804,0.05810963321084501,0.2470976273414862,0.4940886618204368,0.00325061030507021,-0.16572696267651443,0.38280330652968764,0.32716330388896303,-0.37016901980551686,-0.6591760249367252,0.32185561412483815,0.14424887904037367,0.46961377931285997,0.5328257418564121,0.05327543578123886,1.4836265087403153,-0.10866359491403899,0.029953439536958077,0.010901700507117263,0.1254994681977632,-0.005966363812765716,0.356389804819325
quantity,0.037828630094537394,0.32349789267502543,-0.9325691395118475,-0.14730643108997418,0.351056632903173,-0.3689789758027985,0.36178867952344085,0.5283328748134136,-0.024618783861781103,0.018695782257777627,-0.32528723062598563,0.11099935577476283,0.05272867828564351,-0.25763279217657775,0.1845830789560469,-0.3262995715837901,0.11758833442233248,0.25117545326371643,-0.21781202203310723,-0.027749132352441714,-0.13266139560549128,0.13370304259198446,0.12454792938350831,-0.03993436060975166,-0.32334227940071114,0.26778266187124805,0.30760324079907747,-0.5321604045963503,-0.09141360443389376,-0.07787870472432198,-0.6488242362840084,0.25132541563776145,-0.40742366398645097,0.5252979614601533,0.1457565569458557,-0.15430190333174687,0.035094258169513365,-0.14250768291233254,0.6278809612058285,0.35127706360751093,0.00027599409363882185,0.1886585264723541,0.08369315070483156,0.23324954565779307,0.226380923842381,-0.05268292639750405,-0.2836463704011234,-0.1411412714769455,0.4167099542866563,-0.4370053052062099,0.19017917609054621,-0.31137040852497794,-0.25183000254181553,-0.31530557933453907,0.15748141417768344,-0.1282357164676345,-0.09957120369322392,0.4015593922589578,-0.5223322752580183,-0.6032118250399571,-0.276060882369395,0.054564590762889505,-0.1043911798976428,0.003168154754386482,0.003348710646493041,-0.22407650130325757,-0.2534189149280438,-0.29443396560978646,-0.48572111216879044,0.0814479489583414,0.04237573301031779,0.4522553664152733,-0.6559869184060534,-0.12524348595878573,0.36954473429830675,0.5392665799077128,-0.46821201852456207,-0.43216494177752723,-0.06265244843057022,-0.25991742096144177,-0.07972897889007,0.2891919861572497,-0.26524282742952593,-0.49065020032082873,-0.10945512087936589,0.2854068601541142,0.3155132817245694,-6.287023962849691e-05,0.1566601809839891,-0.3201888440940568,0.415020831589906,-0.6238794999819913,-0.28855742591598005,-0.13529551686468727,-0.13492160588346555,-0.2878516454418493,-0.30260143378261173,0.29315555047103714,0.10665335785380192,-0.3988676233533435,-0.21791124009167412,0.10186293798915393,-0.2392718556944227,-0.40701703915614196,-0.09451484141442333,0.22647079801457212,-0.19015033417510785,0.3626193342094677,-0.14035791383420068,-0.4414694666246511,-0.10512171222087532,-0.08106489655569818,0.03968922552318081,-0.123759981841404,-0.3339170502448844,-0.03936435143562071,0.026663166607996766,0.13167468184172196,0.25531568379408776,0.27322565950978633,-0.32051110363349056,0.009849054491413023,0.09398899578939245,0.4814345042728348,0.08266000940495835,-0.4501272678048841,-0.3966172982698486,0.23314526557990303,-0.2076260327874028,0.11997023511933791,-0.5055497862307091,-0.04380302931839479,0.39557701582964466,0.30851540137660594,-0.006667903386295671,0.18755143589404485,0.016090240310837063,-0.2039420748784549,0.056659752473512716,-0.053332553785866425,0.004911147155119887,-0.13133027158134222,-0.8572715296804853,0.10018376814219788,0.1294393614004176,0.5328756941904241,-0.10318710243400274,-0.3178482540332918,0.10517164476781127,0.46502405256697277,-0.24614785500606476,-0.30056107668435056,0.40239288796261385,0.19508629554366705,-0.3728429951233721,0.15637709220250995,-0.22975072382996664,-0.024235260019711373,-0.4073906464532289,-0.3861981189637242,0.22290619713004167,0.16392781704912399,0.39660667139713046,-0.40985565584941414,-0.12190213513801125,0.22829754876243452,-0.09307803752155763,0.20224368721539676,0.38328760478037743,-0.16618125541236287,-0.05032907011263697,-0.044016287710489155,0.05740967295290219,0.1298636338903978,-0.0526901699771307,0.1326234731194551,-0.5371080731905599,-0.27219616428011123,-0.30340158087934066,0.11051587605225766,-0.27473956458443183,0.17478498096331152,-0.4159382356485003,-0.15871491365882634,0.26085599593495407,-0.12853605842074964,0.014733886653156442,0.08015458390986739,-0.24918649210045193,0.3990252049195515,-0.423561678203111,0.16395240237729827,0.5263277706296643,-0.5309477545093885,-0.1331144982300327,-0.09677174002577188,0.22810198570561577,-0.04487740947264646,-0.013870421130547967,-0.6153939157648536,-0.2045405914939849,0.2834789105690204,-0.03876402817357762,0.5851265907750085,-0.5919505715270916,0.1381866400525286,0.15663051187766167,0.09107473701444854,0.6054050991357399,-0.32431512548733415,-0.31098995158982373,-0.7167478392361953,-0.05995666135492245,-0.43172068511782236,0.7806125650074954,0.5684642143381332,0.039386845905699616,0.14485772584735387,0.09529660694709961,-0.37846295780641875,-0.34843400652839274,-0.3957684752292527,0.20374868165581603,0.37252261835435135,-0.35925114288534304,0.17936838507061967,0.1861644980810659,0.1170153114487808,-0.1993449068041947,0.02376087098921855,-0.5207017207090816,0.04666252966870828,0.7714432716533834,0.16400350632164992,-0.05185370385174289,-0.6648461948579444,0.2859818094186037,-0.7622519575388189,0.23055249319630985,-0.15977931449304547,-0.4208737989742319,0.17855577957029423,0.0872583840289706,0.1699112235476428,0.05770375925092069,-0.013130405589450386,0.7685781782075742,0.06133658665196267,-0.24290148537159453,-0.0691037624592452,-0.2535819837329237,0.04133888142321637,0.11197930870484954,0.13302356065395501,0.21425992040940864,-0.012940233545685506,-0.1869859428242853,0.04230031751955683,0.47269941591458103,-0.23155322630134456,0.013114191931105527,0.15808232048990548,0.4013347015533788,0.007401702453930446,0.6000136727971126,0.016548609420740698,-0.002768313498588334,0.0956596107152683,-0.2622675930368679,0.11664222125591381,-0.2858811409238422,0.323334554828605,-0.20522883994568775,0.002036483873855035,-0.04323404071601725,-0.4093562733071511,0.1920669487877606,0.020894313826766243,-0.3998400033435521,0.6458093425324797,0.27816850763479545,0.1914093004738373,-0.3373293211611521,-0.630963044732321,0.04011160265809021,0.43457504931274454,-0.05330728480498706,-0.04890133060622541,0.06574820587406345,-0.08012813068646085,-0.3160817314959097,-0.1295895874872741,-0.11845587011144555,-0.13538306075253254,0.006853477327423127,-0.0531889629635739,0.007519859863198906,0.2718203642119434,0.39875378741108086,0.21511033956771541,-0.0354980841253923,-0.17637412998945487,-0.646280085853332,0.19528749130535566,-0.0896855948996893,-0.032017847349221855,-0.24332792656706836,0.14523545337946722,-0.0031451086539813424,0.4373660647823335,0.09647589028391833,0.3337517518575107,0.6223736808556904,-0.061089753221711826,0.009865016820900586,0.18522838204016456,0.1678401462345055,0.06772962083524521,0.2381869126500984,-0.10529890486652638,-0.30276374003986833,0.22606901546378275,-0.04780911054428757,-0.3555438853357722,-0.007462899572684569,0.07686519563174839,0.38906630633831435,0.21343456927846338,0.1917277061812414,0.20233968681526002,0.007504958377537422,0.07780375927450923,-0.3935742341067571,0.3001678951720383,0.08643773832054603,0.3503346892710837,0.25042232667168146,0.021396329219751292,-0.5110610797336367,0.2166141001381785,0.14763463729227277,-0.381065869491106,0.33628581285627446,-0.24462421212667604,0.15472882808712396,-0.16026809101374537,-0.10857275169887039,0.53555311590284,0.9975862995913656,-0.17359542695352478,-0.48175325668845315,-0.2881083162539939,0.23893220759742506,-0.5418756553151504,0.1847237090568138,0.6076387980534969,0.12872060485048703,0.8610290676910471,-0.14533352505344405,-0.17766148615781133,0.5633056395887852,-0.13610676016196174,-0.035621616572160036,-0.3807936039707848,0.05212482820922088,-0.3660507602716514,-0.10011149574534609,-0.05843442371130219,0.38577614280741873,0.24222466148938457,0.4422274379027923,-0.3085806501478472,0.30506477150609945,0.026369130800968817,0.020460850673645344,-0.04101406737338775,0.20052114225394807,-0.24047903910012078,0.18271430189946228,0.19366322625409046,-0.18594044186193912,0.2928349441176485,0.037294003245980055,-0.11262917077249261,-0.022442178818237127,-0.34751102167788545,-0.11427313592688802,-0.19445358345902133,0.46351619058973126,-0.296258727187414,0.49335329505199216,-0.26583936029904637,-0.07267989838064434,-0.19834485730037033,0.05829543460923935,0.05721747301910485,0.17482688872973548,0.393430040039137,-0.13083017679352937,0.15711708372640779,0.3732066947378534,0.16732396613390832,0.1885660367015574,-0.25904508454290054,-0.3145756073533189,-0.12441691477240235,0.15377931991825064,-0.28160298445120396,-0.5846352193055208,-0.08534093299227276,0.5266877496890706,0.4473384878853587,0.06365483540445303,-0.15019936097086223,0.21472315454931715,-0.14804028678779635,-0.40269604054536645,-0.41127285997042523,0.12023362224412966,0.18120256701578122,0.14547620122190566,0.18985816222652138,0.20989478461066632,0.05152266410311695,0.10221250439635828,0.2913003724894159,-0.3716877936467623,-0.3835847680197059,0.2447104319265955,-0.354542109148933,-0.03802066609485474,-0.08809296547728791,0.21026490322402994,-0.021507509790238064,0.12694629145638353,0.08126413722620807,0.33719058738349506,-0.1814251990783174,-0.029167629131694347,0.3077860432497968,-0.34918508847500296,0.7459518088995222,0.009616127414823086,0.30047369775809285,0.333938925688054,-0.5669772699176077,-0.5544896779267684,-0.031444483138856824,-0.08379112822155399,0.05335377617612701,-0.19219630569579874,-0.06040288936739539,0.04971050409865108,-0.45461895173645067,0.12619858750985913,-0.08059153612339104,0.0063727554422449186,0.13528678091288526,-0.2647263771138056,0.3804211966679919,-0.32187055737477,-0.03256994546604132,-0.24100989267653938,0.299348914365099,0.23493764640063364,0.5292949165980231,-0.3667341784907366,-0.3673860695717783,-0.2832834893655889,0.1693214236842498,0.27158460994121436,-0.2213879245905266,0.011044910830576545,0.021552697082382104,0.0976615436368238,0.37509968302379887,0.2518347121400312,0.2780134433826523,0.5863722263071202,0.2962844054435992,-0.003076819311417683,-0.017984777594865903,0.11843514101214905,-0.2918027338085101,-0.01956975454165799,0.4331058459460725,-0.12519485895699758,0.06336179114551481,-0.27334963474441115,-0.3279076911525556,-0.3064720222795464,0.08091040461949488,0.32691358763089,-0.03226960575427,0.24373797343418233,-0.1998478971325818,-0.0001951603546247923,0.16753584713042818,0.30394851546924095,0.05975830779735483,-0.4443352067826142,0.13173244986930113,-0.5516076133937295,-0.17414961518750638,-0.28356758832688356,-0.4009471074648202,-0.3280730168954714,-0.27976548176887817,0.0997861468605491,-0.39087888610781363,-0.3272817352038249,1.0325471132637445,0.20378892745162064,0.16228347927981446,-0.19137670112733854,-0.037925164984044434,-0.23233748117684022,0.38660150509899954,-0.4333435660015209,0.26651940079369074,0.49853667668843105,-0.13469971784069243,0.10146902215936052,0.26042248504650883,-0.399151563752336,-0.20460981987326263,-0.3963694034138066,0.05088763610575189,-0.016742703881717565,0.4941981562887566,-0.23758123571383907,0.2105618370436664,0.15139559642673747,-0.04828436138811102,0.16169486452439286,0.38786245087557875,0.4523937684074469,-0.12896216991267292,-0.08649240993845249,0.06759660177580815,0.05797918951077408,-0.011836273066687733,0.023271731917346175,0.1307485486045025,-0.09492402646582458,-0.3678552654759199,0.24790793885800816,-0.296543392956466,-0.34439281591562,0.3927198345492508,0.03174008136377999,0.25138480285928855,0.08670410263960737,0.08415500722288283,0.46490692677992757,0.19953391846315408,-0.06417695321434135,0.05847074472981483,0.6075129948454816,-0.10611008204879581,0.45033797545792137,0.192911021787016,0.011960121674517224,0.3938148894215033,-0.0571364728280906,-0.1350692967296646,-0.28670874779195393,-0.09944172481734781,-0.08838438871517601,-0.13767786136256915,-0.07135868823816384,-0.19175243584801063,-0.0880031666436254,0.24076860533192682,0.19560806662878294,-0.4596127057463354,-0.04462545580847036,0.5023910815652066,0.4940491395296965,0.06829590018500731,-0.07105633676433948,-0.05669720151774356,0.2627246243027319,0.20242582054308106,-0.07233258214026517,-0.0736152996136686,0.1221591423185131,0.5011373080245188,-0.8027980807978312,0.04027672799268087,0.27242299769081774,-0.5832778189069893,0.17675993903699055,-0.1347640002402952,-0.029486700096033835,-0.05260271841450517,-0.06008388618359376,-0.37496248440305135,-0.11627974987165274,-0.08386836467457329,-0.08457453372780013,0.17359592662584086,-0.041285213988411666,0.05312521541358379,0.1387149878607494,-0.33292488454710023,0.027187924125967766,0.02142996528187823,0.07092164151558973,-0.022091205746011318,0.41312369360960977,0.5049615583539291,-0.12447170053072575,-0.2538051545784335,0.2665723133038904,-0.2953839659821565,0.15993123607656257,0.06007379477398075,-0.33740815432164806,-0.2930066221119162,-0.7220771195487241,0.17918226224192574,0.09574775867772276,0.00842460131550394,0.17798233472706249,0.3623894695753727,0.1087285977186767,0.05227973422226539,-0.0024724509803854973,-0.138210674586797,-0.5721699489814003,-0.2079520059728316,0.2817678621023352,-0.23418100098032224,-0.5175612369259908,-0.22941416499795672,-0.23648592270465207,0.05088418450487191,0.009305636121463866,0.13922023255493468,0.5996130580240009,0.25987872443230164,0.2286487867702167,0.42820311166320313,-0.16831465267943443,0.353988082564742,0.2975299294739005,0.010107710268558166,0.2896718016129869,0.5460248823686937,-0.022797507891600236,0.27231401617041623,0.15858259429748917,0.05345477896517074,0.10562471225293935,0.32052508744772534,-0.2576512047570559,0.4481555257010491,-0.2783115415459908,0.4535624338569527,0.3395238637353194,-0.14586653933890315,-0.08810408346865035,0.24161128638704465,0.2845990209505882,0.42237918032794686,-0.020550590073760415,-0.126018509548493,-0.29800224692346244,0.20080526203509644,0.007922871675746448,0.06482888907773852,0.14857394704052046,-0.34069147125359067,0.5282990064052303,0.08568540859245435,-0.1132006080155364,-0.2550652490307174,0.6390710993493229,-0.21058920763846822,0.11819161443670255,0.40611961841956395,-0.3400746119663102,0.0662869182558121,-0.3436282451268631,0.304287189734024,0.17821638526980457,-0.11242194072898726,-0.25115921601396723,0.1337589859233344,0.12059586130178063,-0.41729463455101734,0.03736155652023492,-0.3329221905843715,-0.2740035876244519,0.1737662596406688,-0.2467267102905298,0.19006553289111253,-0.2856152541610162,-0.4251744321047524,-0.11291104789729081,-0.3472539610162763,0.47329543052740136,0.011446283334607047,0.2693461407832535,-0.24297675931421459,-0.3724739028728973,-0.032139452164224695,0.38543817823599824,-0.28847478327689063,0.04830989960593066,-0.05729659171055287,0.024452169906823147,0.2519336731145935,-0.31627243362928065,0.19333115325300895,-0.3078950559686109,-0.548898400113909,-0.18886420799224593,-0.07758460086046536,-0.1261250890309157,0.438133927501904,-0.7059870337815921,0.06740699528506691,-0.29190537542523726,0.6999549018272175,-0.18550641174031254,-0.5172660025853723,0.17823328247093842,7.475955136709144e-05,0.1796020856062746,-0.1608906896971362,-0.08401427816430475,-0.4613254216864524,0.2697732029914824,0.38306213744152406,-0.2664155107439929,0.01051958533759032,0.12807750949590727,0.34738026357287227,-0.029109054181736913,0.22537302134056642,0.017316017571549287,-0.09132333645414367,0.4435977454008694,-0.04420117879473224,0.11643519250904162,-0.5444670311094859,-0.08994653725198552,-0.1658858669561423,-0.39162403372996635,-0.6273820694555039,-0.3235344731709419,0.19631827805423135,-0.0010182955103654097,-0.07604345797519628,-0.22784688345149648,0.15585511691311774,0.6653975217862771,0.15352750377507962,-0.1883365747562101,-0.3800611707082606,-0.19845417188955639,0.23521858624896,0.41085859244899336,-0.3660245885441175,0.29758795071583555,-0.8977012283216274
intensifier,-0.43469623580216205,0.12214950141234553,0.07126626159833176,-0.17188435847043648,-0.2664277769974946,-0.03853048582201914,-0.15967076499817762,0.12167574592897938,0.05171286623425827,0.0008501772367547399,0.06483726283626365,-0.2244761121672343,-0.15025891994055263,0.24588297411206878,0.3072096775775561,0.02491738243609692,-0.04718259806148419,0.19337753776846603,-0.028274834691890377,0.11123100043723301,0.09216476370176466,-0.08192366094079678,0.11271007937546676,-0.16446207701891552,-0.2838404216130784,0.32537554274563685,0.1551022959028886,-0.2593912224434576,0.03159291264218576,-0.14018697317780507,0.06901814450737946,-0.1783581742531043,0.09870254759187384,0.1621411297382347,-0.33639761887622466,0.25676672612351215,-0.1138219523375217,-0.18047323993548092,-0.3383770153689198,0.015984899651200403,0.0283607824528698,0.2304263883759993,0.06506012911335547,0.14337897413830153,-0.09081849343418141,0.3841933452598173,0.02010935125564507,0.03506232002879674,0.05190613206194624,0.1785441629592392,-0.34521603481772467,-0.0284605881229481,0.1829241688289167,0.2671083963785549,-0.06963746457232452,-0.20279580778965114,-0.20433628655285344,0.1710953963487765,0.2351288242549456,-0.1392233890459499,-0.10757949698865873,-0.04044723688288761,0.16252408189936873,0.10795651723770433,-0.0020567571601403044,-0.10913216927704544,-0.08262507727128936,0.03918967988084923,0.5654501610038195,0.24315187658390244,0.15413079367779633,0.3522458411791512,0.09854685328404807,0.1304932617071594,0.02826851124719848,-0.20606097418046973,0.2763464522960385,0.4289944224204546,0.36675681730515397,-0.10762664127803108,0.15939082488924422,0.3480224706051575,0.012335377488310456,0.08481853464342679,0.040651391703552045,0.35030053436075,-0.38510998409992026,-0.0008785761080672173,0.007486731322975424,0.29856300816108877,0.3879830427374678,-0.19447507582000773,0.05711403173775518,-0.1701498691416708,-0.03676087154841793,0.09828286531491073,-0.023869044452252637,0.09392543582652954,-0.15956028861081945,0.025830575938567666,-0.12340858321488975,0.14025374940638438,-0.48282038980701836,0.14375543748542133,-0.14983012629463757,0.014302279112650916,0.17837118751672962,0.04903965925246409,-0.05754824351623555,-0.17511759954791378,0.1460671731048438,0.0035429807651688626,0.06348851190836509,-0.26530653268049675,0.039794011078179516,-0.11517066054523727,0.006633551404481506,-0.3352756934165264,0.23048752647014364,0.13051564087956552,-0.12309258924913428,0.20714339631328083,-0.0900420944781679,0.051180185427046804,0.03382946621408203,-0.0821477872215097,-0.2079177051343665,0.11932041176442255,-0.2828348944692872,0.19332541803501943,0.17308402681460497,-0.14375958681022843,-0.40290872769658453,0.05273311696009218,-0.09955487335232431,-0.3474389662856483,0.055703086790497826,-0.10971242567978927,0.024950803639454736,0.48214435556151264,0.057941572086339654,0.280311229567702,-0.2083815942557195,0.12528674293925637,0.10462022518052705,-0.11330787101546584,-0.1250669362824591,0.21325253242644915,-0.0006184173630088901,-0.09802446442461558,0.29645521585247686,0.2856688888773821,0.07670065305673186,-0.12470232526129472,0.17194211511843668,0.306306054577564,0.3260604237681684,-0.07047838922125035,-0.13463022971514585,-0.023679401955981366,-0.6676722659888554,0.15521937789542228,-0.12069397735822837,-0.042360369796434254,-0.024850096277029006,-0.22060775728940216,0.05771203560766388,0.32141654537129966,-0.06286168008685146,0.23475087684904156,0.19724152890689853,-0.281921493711137,0.3018989922875986,-0.025876663069519575,-0.18494722430661206,0.17618598580024292,-0.534853136992639,-2.643187957983043e-05,-0.05219538214007061,0.26069683329743176,0.031915677016510796,-0.16071721884180218,0.15972231334838932,-0.17976516024748235,0.0026249701182041838,-0.09609772464859015,-0.16672498942218036,-0.02898023121026235,0.13350609587491755,0.2211543788420564,0.5134646188115614,-0.36934487986326037,-0.2542338978404796,-0.1501802577166446,-0.004169359009991885,-0.13785124863764134,-0.07389459426405644,-0.38598043381389296,0.12804178002042685,-0.24878192462369517,0.026623339229096397,-0.029300277719554207,0.08506760686263296,-0.0670905815783664,0.1376836587527576,-0.3411676455259709,0.043719992150168085,-0.1314043682190361,-0.48336288319238285,0.11040338378512189,-0.12842451030300978,0.23215922281255139,-0.15639082251751626,-0.36515651743073413,0.004144671591336908,0.2263657467522188,-0.07052798384976193,-0.04598547722461985,-0.18015678936298737,-0.07412526769697911,-0.33378662320840113,-0.16318118609067364,0.17339059466412593,0.14445995085690005,0.3809817966852345,-0.029641060927620626,0.1214267973310398,0.1988440993441423,-0.020344621931971698,-0.021075122772929295,-0.18265348834374362,0.2583839744847113,-0.20446434265619184,0.009318752035364196,-0.38204420934500344,0.21748046488243178,-0.2310379250969486,0.045202199970276004,-0.16094939039786782,-0.12856358457834688,0.1975054722535219,-0.13654810069931422,0.16061173542723411,-0.03665586012619555,-0.020351846349975885,-0.39105655855135996,-0.07345841941333305,0.03194444853459766,0.20983988916715468,0.04512136330427142,-0.2104396804872404,0.1968079207213102,0.021938304488710675,-0.03595330214150741,0.1837421638319063,0.0249581552994283,-0.2795597083086222,-0.16837732905968017,0.07715457953282692,-0.0860277603713008,-0.24510943543274277,0.15595598943175729,-0.1348119874310627,-0.3576337181190868,0.20318246797624837,-0.1434478634892179,-0.004058586008033425,-0.08625762836440112,-0.2702911087260298,-0.0515481050255346,-0.15572578229704861,-0.01752513111458922,-0.3908868218705874,-0.03937601877884645,0.3249120738748436,0.12202177230740954,-0.1915108769113086,0.4075701594287422,0.299866323330539,-0.16867963571546624,0.08729602725409169,-0.134313234684854,0.3203757170857292,0.05634012877728385,0.07008889253369731,-0.17686974127561572,0.10721359421056778,-0.059415851900410065,-0.08093664051564702,-0.45374637837983084,0.28702461361212356,0.2701179150064205,-0.03830885541771987,0.1781016722461329,-0.5631505916230101,0.008321324747734622,-0.15843937606861436,-0.054397586636385234,-0.17191743551930735,0.042223436272616564,-0.07055054760346298,0.209203394014008,-0.0711778336687831,-0.19580233550485493,0.15381542383730462,-0.05856926574805397,0.19747168625039835,-0.23887884286749492,0.24394252143792425,0.47809772756376634,0.1966560551250145,-0.020659734179901915,-0.15244055590760208,-0.038258204248229025,0.024955280581294977,-0.47814005301641876,-0.1955613685341324,-0.1367570860000758,-0.02270136649250166,0.025840371490879692,-0.014446527995861389,0.22346436592424446,0.12527473013883617,0.17317033133298718,-0.0798930881596844,0.24499448424573325,0.4011460093066223,0.2182506587807966,0.16017722200214018,0.10798635223638367,0.10111418301967164,-0.06871906852589912,0.2571239282397722,0.1505228311816514,0.011896087004490302,-0.021326332661380624,0.07117604353964595,-0.19174534370046928,-0.055358840833124104,-0.10752201900338898,0.10540922084975167,-0.23175175512664023,-0.1569530919976561,0.285984966194744,-0.1343009345767327,0.022009211623160198,0.06080850177953394,0.0418980732213924,-0.21735781288159725,0.3049266484568742,-0.1410554683404099,-0.32834130180317495,-0.02533747255459978,-0.03034893569067309,0.01245952883138717,0.18170855526430016,-0.03389269663258761,0.48576334474110194,0.04171683635967334,0.039451565569966936,-0.1941605455903903,0.09501360820314436,0.20925003566857434,0.09049542266806121,0.0908636109413906,-0.06551921493063223,0.228869114379007,0.04842850826300342,0.015122928355337434,-0.10982491131567884,-0.21521205763321813,-0.030183546266693298,-0.013450768766685769,-0.014035829351148778,-0.1851111820943644,0.05431100393935974,-0.32652178633585166,0.09151338155920088,0.3275334203949794,-0.3141878387413418,0.04857247274082787,0.2116750557241478,0.01919458428210152,-0.40399026251127196,-0.25554109674595715,0.1334131252436277,0.09267938745974792,-0.01079589231545262,-0.04563207599638943,-0.09843977238977931,0.29091076878085986,-0.25545318638277825,-0.07568352849977375,-0.11032628005401682,0.2200627675785329,-0.11531420196790403,0.45906497264438423,0.14712631129902,0.0951042461119151,-0.05262644056612049,-0.3354311272737933,-0.03227629415065088,0.140224665247649,-0.23411494520422485,0.2551190229437467,0.18632172958207,-0.104850370465079,-0.030985271764763726,0.6015027610936379,-0.19686126325017478,0.04908835316166722,0.2998882331543534,0.2636693411643613,0.17664477387917668,0.19752344593566712,0.3284663488519646,-0.18756362451436703,0.048602256253327356,-0.12558283889071242,-0.264035991842854,-0.4002126969577252,0.15391815891647456,0.013787617005408185,0.008353633666248927,-0.08924774560670294,0.10159064684728035,0.11375664154313203,-0.019786203347003893,-0.1321413083602516,-0.1486041120832755,-0.11488738165574157,-0.22598278137951713,-0.08259085898035386,-0.15948904413296972,0.3318805589845875,0.11616258431578443,-0.37283333310029665,-0.25909064755431677,0.4369194981797506,0.11227826398717769,-0.08053111559020817,-0.08926154941076109,0.238560587674543,-0.020429664989894274,-0.4581288251049345,0.10512477104945829,0.39783758349616116,0.0037274952607591755,0.05373471095578482,0.09316636526215463,0.25966074117813365,-0.29940248432655264,0.11682565039571441,-0.17652773695321117,0.29747536859662055,0.11275565462964908,-0.15648005167400028,-0.058062188188773026,-0.053102319400695784,-0.44686625417661874,0.12081503514711955,0.1341424563043263,0.0504418312901427,-0.008893605201934114,0.0016726086959749271,0.13681624957916885,0.0999967801464915,-0.12138074785499092,0.13976364932725693,0.11133919022341794,-0.09157798692043492,0.08883403612593663,0.2149574259600078,-0.14095495802434174,0.261402436235095,-0.17654249364972813,-0.3178386899468543,0.05952917836781293,-0.012305280477571316,-0.4670906755734193,-0.0024864207432873688,0.020175277440325514,-0.07740474377318386,-0.251122334751795,0.19870334423245672,0.3441561933970759,-0.08391563507413013,0.3149122970265822,0.24062490045255844,-0.10020204846737413,0.27307435031442123,-0.11529464755795439,-0.0736455802824512,0.2421944105859581,-0.004339856503159864,-0.18213877893422417,0.1330544957581417,-0.3425186842541493,0.037465196127772944,0.3097663043698249,0.32954089158908306,-0.07221405935064104,-0.028333273320983884,0.48308654621757424,0.24535382719925233,-0.08483862643316747,0.08238132628682886,-0.20641805320584408,0.13828305863032989,-0.4058310651199198,-0.03901933319001089,0.2736651098772155,-0.08133729112396215,-0.25373517713527355,0.16945422610650937,0.215929496354591,-0.04268411281258506,0.059857013692597875,0.16332332065905159,0.1691905563308246,-0.21040442996206152,0.08976516797976296,0.23324571924545792,-0.037094334654431294,0.15319999286140687,0.02007966149635542,0.07603977584600706,-0.5814670210443245,0.018825710239508613,0.22135608213140823,-0.018047895757780468,-0.035054335385620264,-0.15074546329736038,-0.34741329121556713,-0.25798336511665637,-0.4939000959042344,-0.06177295167209431,-0.28887280912185076,-0.259992586735587,-0.08324432535568176,-0.2712218495223164,0.312934085425471,-0.13143324102771836,-0.26899163865305503,0.15114864189104862,0.007542910852616309,-0.20095760795353515,0.18972989528711068,0.28740038620001573,-0.0020501956784577543,-0.2527624732083089,0.2595432763388818,-0.25536199023972905,-0.28535268441211636,-0.4003931396233746,0.1853344160038984,0.06688873592688344,-0.027036164805542575,-0.05111472722519931,-0.05930842077637992,0.060012997013392765,-0.01874072730428904,-0.30796713650777213,-0.20964178034994116,-0.12966388150609942,-0.07525437857635241,-0.07899855328837323,0.03346310874307728,0.12011886656275286,0.21006501348850654,-0.1458122007323972,-0.04576333494167169,-0.07501091591818095,-0.19728656586287546,0.3796961871269253,0.04424211789550855,-0.4403048886811077,0.16617325879025166,-0.14996815562376706,0.003162904233048862,-0.1269357771072976,0.19719186045419507,-0.13488532896533806,0.22130715606773077,-0.037299623753070756,-0.11267479102919643,-0.11522069264444446,0.067191834084157,0.17683554790126568,0.04069675009711963,-0.15556624710086284,0.10064592937509631,-0.14724195722429667,-0.1072105776238128,-0.012623192781670785,0.08720764510994909,-0.00815938958903156,-0.42087992121221385,0.1778263560770464,0.12324397359844266,0.33465402084969686,0.3274649974817759,0.05891773820254528,0.10107075928453715,-0.4441331771316984,0.2560959338776111,0.07660229299518828,0.13691929142086368,0.03779339162548978,0.14903351711799934,-0.031324790609673095,0.20733886187896575,-0.139490570153056,0.03844334770156055,0.11619682323470658,0.018908917574472824,-0.09275577282441433,0.2651599029424491,0.2391789579185101,0.348599882155363,0.14453330324359512,-0.12021836275201925,0.025336535648324818,-0.09508573939102834,-0.11006524527091491,-0.036685760460166326,-0.39880896721084774,-0.15123508441858916,0.11028792096665394,-0.24518704679560285,0.2428608843847708,0.11247427505617942,-0.292970517544504,0.22799922813789414,0.3005941855324177,-0.5268858921384891,0.18905468782004295,0.014132324332762474,-0.02884105021978859,-0.08933818299597128,-0.08892264611278104,-0.027628047597276818,-0.09025553698231449,0.3642689753644856,0.10814647944128049,-0.05416467752534206,0.13429752146912116,0.024125864133271918,-0.04500509810351496,-0.3404494137265708,-0.2693955078764368,-0.040505441957137754,0.09311562149596815,0.1287779487755935,-0.09770175706058937,0.25395611958887454,0.22397930981622444,-0.015466803178869861,-0.1410901201080145,0.19523131658861895,0.06079111669582329,-0.32218731931448474,-0.17432003020515516,0.026157612007886997,0.2596682805862928,-0.2862313060347868,-0.06605760264011894,-0.04883186174826755,0.5781390217183455,0.2775670490895605,-0.6087766894755011,-0.18515382409302406,-0.18833708595262708,0.15815715371372682,-0.021959487430779474,-0.2064971037577168,0.08155717899065139,-0.17733248963540266,0.19589739768703368,0.4386532125174483,-0.203281309542156,0.3391433747907551,-0.18714813817756643,-0.009050019330480875,0.10273719379336571,-0.05235010851810552,0.10610627054200367,0.3624068672838214,-0.12015176013901092,0.14551486370473563,-0.1660486632062815,-0.1442689147834701,0.004782955641823016,0.04530485521075689,0.060526599009306715,0.01439870768120743,-0.09679057742726015,0.04730197026963156,-0.0447802470908441,-0.011651456491317247,-0.013679448203623401,-0.04174868876544676,0.22662637611813682,0.34439943275899315,-0.10328673638195972,0.18772963829094,-0.3566948307722878,0.32106441422938775,-0.021173896462186845,0.13414558269882812,-0.34604653577701333,-0.13241139440871197,0.3569857755680578,0.1635188858004227,0.2980766559323717,-0.1281904072682108,0.036468320287845225,-0.07583050101355199,-0.29284158324305565,0.2229628447213646,0.1361162563929178,-0.24498640433449054,0.0982693501314743,-0.2315895288959084,-0.653580745465693,-0.15624902525501386,0.03131112207114118,0.12182823935777345,-0.2205101976731841,0.12495245915778518,0.02592638404366074,-0.19897584313361172,0.300108061465551,-0.19079378843275763,-0.06094730415264396,0.18584852238785715,-0.04571458485071469,0.031176884864016822,-0.011356462986028024,-0.5469725465394224,-0.2761461786098669,-0.07811535013659258,-0.46606991042993806,-0.03418315834679001,-0.11355792804863234,0.05525297009242569,-0.03384355908651007,0.24421026998986128,0.2577875140386316,0.08118216830123437,0.07959578781537627,0.4113611071966319,-0.3431904026102381,-0.0065174575118720456,-0.07764361682070367,0.15601198279728734,-0.10766596838680387,-0.0004972526520427485,-0.03283945082064541,0.32636816682785885,-0.017811873741272157,0.08384898824451124,0.2976859781692083,0.09649751355802318,-0.3164102850491997,-0.18313810689408325,-0.04087330631506049,-0.18788498546953888
voice,0.6539900691060717,-0.08658543950005096,0.0809428394804716,0.47956423125542363,-0.293258133531233,-0.14510394777012775,-0.023461183926322283,0.2479376366709712,-0.269103468082435,0.25823999940346837,0.136463837768745,0.21366636878016515,0.23535060560934007,0.3318676886633825,-0.5835078849092123,0.1213217287460227,-0.430967933875343,-0.31888392331930926,-0.11695458188234233,0.11604101381968122,-0.10320144514044965,0.09268658039392161,0.01646527201156686,-0.017736121190228032,0.2133547106552561,0.12315770480263738,-0.0938806972930062,0.3017839881675894,-0.20756128136722124,-0.006289174732883356,-0.1685912306219488,-0.13314864823657177,-0.35299276983776223,0.05435802283389349,0.1404241241339416,0.12953690358819903,-0.0002748911560505143,0.05441783800966279,-0.48990626435067613,-0.08767100828356987,0.02586838449632265,-0.06086253730516008,0.01558007106185547,0.30966150437917156,-0.04641482984454884,0.09889750439628552,-0.5272423272530119,0.07962715826022472,0.21083432100539706,0.36835394691176865,0.09517303246121907,0.6418445970775315,0.47078798069455646,0.1887241158861994,0.2834955317964215,0.6317860359213894,0.5494574014103517,0.5043218881247016,-0.36826506961482874,0.5514294906392957,-0.02642055308410624,-0.10340917979352796,0.04226382897534857,-0.1895778081482399,-0.011727450995710844,-0.23725726982030104,0.24711669159077337,0.29314941541500467,0.01430868931061839,-0.18332504407430017,0.15316144506419505,0.3946139747542519,0.2572025980771257,0.04688403547407244,-0.37365938484585687,-0.017405878024302084,0.050521376888334926,-0.5057699319343033,0.04278105263545597,-0.2560294468729377,-0.47678169542547477,0.3373698603430688,-0.14204723714157327,0.040063659845790675,-0.14724115385954145,0.0654275429673043,-0.21614995384631266,-0.007605234731916357,0.1553653755987913,0.02851343039501391,0.2390937032031674,0.16639871681521742,0.16134566916984483,0.09273480427260547,-0.18931753301241197,-0.11078286039741582,0.04922520137597253,-0.2612875983781923,0.06468742823908392,0.1434232346889226,0.007103865356233142,0.636423553831448,0.6014371858456294,0.33804002576382636,-0.21065648196761735,0.07533957188543539,0.28704744984774877,-0.18317063434844508,-0.12245557385034508,-0.18748570469720016,-0.447078259647807,0.22385274555187615,-0.000688490617668397,-0.3032385897549404,-0.13914327269683266,0.2582136608293332,0.12496592490667754,-0.1086147091254446,0.1683792241587383,0.17789145242433757,0.2275076409845189,0.16624371721858208,-0.03854487670523704,-0.11162131741787479,-0.06624030714533559,0.0743668627498806,-0.20662390562987085,0.28728157185437303,0.31208793207447694,0.010312968186123631,0.18661209657847103,-0.09119543222648537,0.1543127231453125,0.33874134671228573,-0.16068630856481453,0.209117986295876,-0.3151027125803568,0.07132581763841346,-0.006914867203359075,-0.5091094414318146,-0.2820189201652845,-0.1636105029179727,0.830480825120732,0.1667563679343206,-0.326520204074717,0.1782968666693402,0.17574621404341093,0.05359331209015719,-0.34526985123653603,0.1991138800480189,-0.3930711516093281,0.07846499665900868,-0.06962745041679685,-0.03267527127915529,0.10983281398714242,0.040923377662368934,0.3284044409628543,-0.10050385328092584,-0.2520859998041148,0.34184560488217836,-0.14524139043417858,0.072002940255821,0.1928300421615348,0.28421659031593044,0.07775739660488816,0.30826542943254154,0.00335740871195764,-0.2724295824896275,0.047193927054533014,-0.07841646996899625,-0.12157951648365307,0.031925302524855245,-0.18331175257495144,-0.22765569306410208,-0.8454139299584783,-0.11406348284765393,-0.11549303034259915,-0.21328658466428607,-0.08583690370246322,-0.26873938262507147,0.07641825081294461,-0.23964945288349815,0.3394653984849235,-0.19197811645496707,0.277941101037322,0.011400075226181665,0.16952442039285148,-0.2860079481843265,-0.3272230613590193,-0.1471921094968104,0.19880286351113266,0.06445479142970414,0.0605289154916226,-0.26096353195651745,0.13016616425403157,0.08017338563681155,-0.2510719873923218,-0.16760692767491694,0.374911573568864,0.03548827944338436,-0.2288635426943277,0.1919493391761348,-0.08816304457822777,-0.13127240377026816,0.476899483661647,-0.2563461105398418,-0.03197996100548513,-0.0921100606023473,0.09268859395438608,0.030339348745884582,0.3962004175045899,-0.22743537445012776,0.02829128667334334,0.12398207504939308,-0.33553463301398423,0.07269887177361539,0.15287615200729252,0.007243572579113893,-0.21007165208728892,-0.18741702189286477,-0.2740087080284496,0.06842267704752583,0.2350464686414637,0.06710738525247488,-0.07133468403551993,0.2112471324687073,-0.31937628924134204,0.25123500843220076,-0.30691135517210955,-0.4569008737658656,0.30247109581766596,-0.11643618939783996,-1.1175090067739262,0.1666806582364182,-0.1583120925940649,-0.2391519780206433,0.2212829961990393,0.03325760673360394,-0.10031868349228878,-0.6424444027091097,-0.04448763364741046,-0.03846053108557173,0.2419480556153121,0.371381354716154,0.004594211993908539,-0.09198056165215354,-0.4841759679151177,0.25666749880585565,0.2590154699014453,0.11062888320328719,-0.06419786034286304,0.13035703938531362,0.13617630070362502,0.35450038344360707,0.37759048284166047,-0.0823534194963283,0.29265960316980566,-0.2520442823858096,-0.003492182646764692,0.16708446750978492,0.5275200616373622,-0.00164485021573038,0.2561490716894303,-0.06268360816421696,0.43126959802351367,0.08358161751739673,-0.009028159482845775,0.26171714603266527,0.5758569456256287,-0.14354359895666396,0.12078627764858356,-0.1255735705998519,-0.17408849779144683,0.10497885785111184,0.030418865769320423,0.17745787754175715,0.11786683547360108,-0.1280849289804113,-0.1226237582449008,-0.15297330170773998,-0.3480537492263511,0.11190865116031415,0.2616013197140514,0.24728108947785574,-0.01777622987590448,0.30530505292296883,0.07028362668711027,0.18776313308719086,0.08530475486211149,-0.07330467841746284,0.2687904072769018,0.1920791945677019,-0.5270009537117821,0.15113797091057068,-0.10299222935862333,0.1003034060505289,-0.06853827652900545,0.03128909412833449,-0.056487389667754684,0.14477198310293957,-0.34092449417106635,0.21095546103103135,0.19383366992577694,0.05528460040955074,0.01835720378124039,0.25546707898365895,-0.1405862659041067,0.3029129112091483,-0.6486351842139227,0.11718425820271933,0.32882780114097226,0.00037779773811342664,-0.04229796729913415,-0.5829365419730781,-0.04662483254170073,-0.1097062368709371,0.5428310206643525,0.521390969251322,0.07048495117833815,-0.15389927424017943,0.1142795896192836,-0.09964712951869961,0.24692044755644774,0.1683143917398265,0.05190336960887003,-0.029141315784870277,0.4087776477232198,0.1846817208816968,-0.2516988518827272,0.038007218815143254,0.15216784069040715,0.19394334746398698,-0.45031424275116083,0.05751686424275321,-0.15812585199026694,0.02940259766478736,-0.4393488141741746,0.378722382954193,-0.10440850041747754,-0.17943307784537002,-0.10943675936315146,0.19922054463296493,0.06775126923889077,-0.42967371094680984,0.23361650391203537,-0.1314064447638684,-0.21900143404529085,0.13387524176914753,-0.16170917386197892,0.033521213847650555,0.40000505559401833,0.0016604721664566582,0.17202141297893672,-0.09173154416291962,0.10816090379065703,0.16678804745186612,0.002430564750863357,-0.24504341858062142,0.10673180919259682,0.18695143844988016,-0.3139068340029642,0.20900990093939664,-0.2089942104519753,0.1904052885272343,-0.03759178014222664,0.5062737246826441,-0.0921455586427998,0.20274317950046913,-0.4835886428232145,0.22991200957547478,-0.36862837037979246,0.6455958604002604,0.5557838909298521,-0.072255475183436,0.009326001441818603,-0.25908964332511425,0.09984633666999068,-0.058241028928568354,-0.08242733140145478,-0.006889440506625172,0.0034280143513520144,-0.024765232444800084,-0.23450327270597418,0.3579462876727437,0.14005531822505227,-0.04770859622913878,0.12232801037142914,0.3304548000800402,-0.0021578683994015655,-0.350012873168423,-0.08483993405916374,0.40921393456166005,0.38623583260376715,0.03761723308938074,-0.06567030509438147,-0.19041948907026948,0.37924866841701205,0.01861025296015347,-0.11233224223773258,-0.001342911248613044,-0.05802960494984552,0.13626281596848633,0.38795392546204055,-0.06939934684249828,0.10854180160375536,0.016761868675261464,-0.37814046717370126,0.3315972412886969,0.06077114982985002,0.14576055167339763,0.051566660182800365,-0.11749481251987615,0.09946607800817629,0.2964591529118358,0.4274821737759356,-0.11905079333814295,-0.03476246044662061,0.10980594760837138,0.29184735390973365,0.0421616237943648,-0.47656684011648154,-0.4559073313613225,-0.13079064197472842,-0.3061317453155108,0.2763242860902363,0.07004628642772603,0.1807956315540818,0.1225869440396885,0.05397026240030007,0.026998593958777073,0.07770313848858115,-0.30420767172925056,0.23616530720082007,-0.30263710451832554,0.04123150594843079,0.18159218238357913,-0.47360068559725965,-0.2794716211063668,-0.1270474094600347,-0.01768678193165915,0.10993039156166906,-0.12498522315559192,-0.27957176520650545,-0.42736849957279893,-0.046338090712822556,-0.05002963092647865,-0.12787762478594555,-0.09293567214802326,-0.016215064999555412,-0.2280390337622954,0.31624377015692073,0.022788243320022675,-0.248434113191392,0.06054263222909996,-0.093980527735816,-0.22032170385259214,-0.31745272230636545,0.0557217639434864,0.2611347460995874,-0.12251957899117487,0.21797966536727292,-0.410319308141162,0.06647027957258117,-0.3400365875852522,0.2512683271385378,0.015392910187111046,-0.3189371988325755,-0.027997624683796806,-0.0002630360894030785,-0.2942179812762157,-0.37594834267723604,0.0687450682935022,0.022714172957751636,-0.015197105436596279,0.13398803295761239,0.2877016968680832,-0.27240207247044185,0.38862332372935204,-0.27673838732208617,0.09292744229118721,-0.007101343073284496,0.08604302210787178,0.07079295056250443,0.31883663945314733,0.16196487754866423,0.029054803011165135,0.27720690697308376,-0.29393355973421514,0.34957299501355704,0.28884313741349665,0.04287397094044933,0.7226447136114605,0.20009226287527063,0.6091505300191195,0.2569185309676644,-0.026695180320009074,-0.00406348685042078,0.047144800806082264,-0.16554188689364277,0.3329319092347445,0.28537257328043275,-0.23748565563754281,-0.05920046944330999,-0.18351486881007525,0.1814847164024004,0.2343392189211257,0.5813788525805448,0.18893263767166268,0.31943393595265285,-0.20213337283312408,-0.05858954766603698,-0.5084963706888135,-0.05854610870428011,0.158328318298355,-0.011344953722225989,-0.6184168998211257,-0.028165968896186788,-0.5165981555699505,0.025716406961074585,-0.13967962733387043,0.2446341996738229,-0.08110538748502653,-0.23664619387798264,-0.26495023221112496,0.27578287963889386,0.09512264298849946,0.1508628562559605,0.30176158469378866,-0.06947908550354112,-0.15766904937972354,0.16572869389150732,0.09819807942575484,0.19812265086961195,-0.2170435179911049,0.10234577450965994,-0.08156899841703237,-0.030853921427188763,-0.19028930187011156,0.0423247368152156,-0.23548805812480222,0.3048674863564188,0.15051608588457596,0.20520105242805844,-0.05812421418036224,0.21857499055601912,0.02397990266903162,-0.09539903462880452,-0.1383623257289578,0.10137410524122588,0.2627399636706179,-0.48377103180937225,-0.017374445812542397,0.17365138673562197,-0.043994133726946015,0.3944070778798626,0.10247733803659996,0.06763386252035475,0.13345984883919365,-0.22040259354360392,0.3893099244762016,0.10453862489956176,0.10806716278817101,-0.12491337505830771,-0.21055965432544171,-0.2420446792794501,0.1677586589050437,-0.25797742370304916,0.15470026379237395,0.3368298627762958,0.10787051606167332,-0.14985919232917508,0.07736255299924046,0.11875809372737267,0.22546526438515882,-0.15664170695474444,-0.06418939813140133,0.047599733988960835,0.2985276486598385,0.061926353879040434,-0.19901631592701247,0.22204460956772068,-0.00710138224422283,0.13080376917277986,-0.14393488702017207,-0.025732416090714805,-0.2631929130590107,-0.11967088366925444,-0.14698928686295368,-0.20069240167335972,0.21622407465125276,-0.2552383066434798,0.18155238454041425,-0.08192698187961299,0.23022329735682187,0.043810174215382885,-0.07546289419847514,-0.21576333784277732,-0.17080791302289383,0.03526220708681499,0.21526062425255751,-0.3376779355921175,-0.2120529801297245,0.3344189401277426,0.043399490201641466,0.1404619776273835,-0.06526922941760772,0.04505874537321632,0.24447537221529195,-0.5000711674693683,0.07181042983036257,-0.10308493794794334,0.11183920522011101,0.10723681918686641,0.15356804461893858,-0.1462429237810358,-0.08836254246960944,-0.13862997855855075,-0.4093191526047181,-0.34584304975540103,0.40147099523995916,-0.03320112241464158,0.356542005191877,0.27899331397050076,0.5043212184187786,-0.24496439017516022,-0.2657289676574173,0.0839426492901512,0.03409426493242452,0.39219209317987536,0.2075790447057557,-0.09388708110486312,0.2888327420325966,-0.07152529835500454,-0.18593021176060806,-0.3441416806180184,0.5072037557010068,0.21814760418587795,-0.1345476905845075,-0.2527624145672734,-0.46989690467228357,-0.18746013173549292,-0.04344414557522555,-0.17417030492055327,-0.6779273606144668,-0.08350516114767076,-0.44069879543441803,0.15651304268229324,0.4772687866340296,0.05161356569805354,0.23291347713220997,0.07287146954338047,0.16730555820076265,-0.31848226145290875,-0.03754810876969076,0.04489289603894018,-0.4350048428185835,0.07516783555755258,-0.2063224685938478,0.14375746608654558,-0.17533543155298978,0.10759486888731529,0.0005371977611874231,-0.19266504733112366,-0.618622832402161,-0.11852096084319723,-0.021012127318794333,0.007334536303311571,0.20464172111250872,0.2869478579898206,-0.09684376682967014,-0.03722364689032716,-0.02671098358973156,-0.027075557197004513,-0.11707044918708719,-0.04410167973630124,0.05619587911166238,0.34161859679116025,0.20334860469830635,0.11080887538337529,-0.49606464930102256,-0.5932749968257246,0.3029165685199549,-0.07345875771529392,0.022130112103464376,0.1821963412113937,0.4924928271658681,0.08915388608558827,-0.24486977418044498,-0.045344379175412335,-0.32008429829511265,-0.15034342779715323,-0.48774723423628574,-0.29359629791229297,-0.22238872174933524,0.14961232210763356,0.37494610512980847,0.04913780490836255,0.09362663909109534,-0.40993853667956764,0.07023201601030148,0.1523804653631226,-0.017362711876003713,-0.10487744770188294,-0.23035620314571437,-0.3821192751841549,0.30064521468782646,0.39674765551344626,-0.028616044902544303,-0.028679560912559434,0.4000259082037512,-0.15141537931088433,0.11330330791447722,0.15679845556408514,-0.11776380035773404,0.04386547163460736,-0.07653424974256123,0.10486619066092476,-0.014658438811550763,-0.2728946072261487,0.20120527954979256,-0.10015946785057787,-0.041137036818040595,0.06267326193209245,0.4716768647659552,0.48144878910481625,0.27811236445988174,0.1390845271605077,0.02029188096715058,0.013019343215380178,0.04494805380310461,0.163135593646442,0.24698869956395125,-0.4136877462876566,0.35066204941041135,0.04673677733902357,0.36109136006367903,-0.09990352477145434,-0.049785470905305156,0.1494674332092642,-0.01958072908397469,0.37491295947932773,-0.4279898711331289,-0.17364492452242433,0.028356385236921525,0.40524062510053377,0.3040335498815436,-0.21944544562005155,-0.3170315983183354,-0.015211529836260571,-0.21899978971436085,-0.12816408218047126,0.18079528442207712,-0.12843106079269004,-0.13649421518832736,0.11616878776318865,0.24408550871425566,-0.2624361637776432,0.036569990767623003,-0.31051982441162745,-0.2629113406289511,0.02835558910305468,-0.30198290695807356,0.007267172396318862,-0.12061768773794944,0.11247565051843762,-0.25184087240943337,-0.04190988780116228,0.2943707160477027
negation,0.5064459375419416,-0.11095423736413536,-0.494384613629521,0.05233693972501278,0.24788496946819466,0.8323593376714156,-0.0963493277344763,0.34759328149470564,-0.4651932197205094,0.16110587405946208,0.0370006303311992,0.04882141829213816,-0.17606344604230428,0.1819051036788598,0.2438849918067227,0.026536785291505875,0.22110541505760545,-0.5729485510787258,-0.2872926140255378,0.2860411917942502,0.6059079344997745,0.6384913653293381,-0.2679543156902546,0.26983753208982025,0.01611132871723171,0.2866898071783562,-0.3957604430793446,0.27824094982054215,-0.23859488900774561,-0.007097940318251091,0.15893110145601522,0.2721709345306642,-0.03566188721352149,0.19920888858807848,0.03770588786380419,0.18896220326559696,0.04623042198964858,0.20023184265881633,0.031049559634706844,-0.33154079188738644,0.4577930106171035,-0.0050638705570715216,-0.49276343017773844,-0.29625157454590384,0.6237067517484157,-0.027867018652139235,-0.1343046305089675,0.0740709468829041,-0.11062957205249432,0.12319233274093018,-0.03147344003186748,-0.19946414760381634,-0.25286496033932904,0.22444060087744344,-0.29901925317577527,0.16983722998051565,-0.5356303011012279,-0.2955640692517599,0.2752550502091224,-0.072946402153904,-0.45508667816625703,0.6139183815065183,-0.3004913299472154,0.13626142989615586,0.003801377180691915,-0.13722675821324554,-0.03926441978481965,-0.02654256221328702,-0.05330330061942786,-0.07827239909952889,-0.09647422690761456,-0.29619475181852617,0.060729789481762234,-0.3507723897226135,-0.03265459155337304,0.2841932935879819,-0.25401945454220076,0.08944082331333231,0.1292770284279863,-0.16143845912867522,0.016357792684855887,-0.12704341013985426,-0.3196455777550061,0.17031721744089112,-0.05758171057507353,0.17768720670794808,-0.0918406564853926,0.002297668549366243,-0.14095792036482147,-0.2673466003022079,-0.35659203932207995,0.07563544003457555,-0.48247533000491366,-0.012585259210777253,0.26503522276160285,-0.042697317221132285,0.28839590386350417,-0.2430370770317945,-0.07017863063639485,0.052838700869746694,0.008041945754095954,-0.18654373005585492,-0.016792434880219205,-0.5234259078158876,0.6170113189409051,-0.13483482122521182,-0.023818393657026697,-0.16058627335051864,-0.17065955392339083,-0.18153133404617652,0.2671501846929759,0.007569988848879285,-0.08319443945272384,-0.13266051031349096,0.5044460371615206,0.13459766859992414,-0.09123713058258479,-0.33499251139308656,-0.34179420420226053,0.18307478103234437,0.2330658572074398,-0.04135114852124161,0.10120647542087438,0.16862207935852275,0.41248575059823006,-0.10891194413183004,-0.07319799459897011,-0.4011058611600662,-0.09280771213898002,-0.4490445062512418,-0.13877677162418015,0.029597051311267903,0.44181301462583994,0.4260573669658764,0.5954456017807522,-0.21818018174072262,-0.14457469243785098,0.08252785124407715,0.041483283185576626,0.44427296591525717,0.3855315594753356,0.14277172438984867,0.3074009733395778,0.1202307588276645,-0.1324121971638337,0.015568394906022538,-0.5112702250184257,-0.25013228243335905,0.21459498896809562,-0.09368578646543518,-0.23953721920927104,-0.03887000943706725,-0.35939936710140824,0.25172025296193495,-0.1062348149984396,-0.06983258888425818,-0.37065582683490744,0.0496207359193066,0.0035939736280243243,0.32843007399598584,-0.15475498161174212,-0.22371914839881193,-0.10908717784975044,-0.30796660037025764,0.23573083040224957,0.0889401095279873,0.09668282517646597,0.2959045077060973,0.3776299449812818,-0.263042519123157,-0.017255818460406684,-0.01779811974937715,-0.20847796940519986,-0.008675643637247666,0.4071416522895483,-0.13039282481519815,-0.20750472057477604,-0.17806627074607576,-0.19314348994050368,0.22035547749495335,-0.13260370874372207,0.055359271747022376,0.033850142528459005,0.47410333384342224,0.07624849696342341,-0.4418618990113066,-0.09933345373766268,-0.20762020000396028,0.39201256266045836,0.23090130874125264,-0.16204034969081788,0.2719574408810752,0.3415512066930712,0.29859757208293036,0.13794232499675893,0.34696875510432545,-0.2213554005899429,-0.15113100125321638,-0.30478206397208796,-0.17650889533137534,-0.18074507339680965,0.018485454947970995,0.2942263790216266,-0.28834918407949817,-0.24166468487586693,0.34299349036328486,0.7611454307719806,0.09329279646410438,0.5226940331185769,-0.8129558924026233,0.16758102205503825,0.13398554961656522,0.01733464562577199,0.13186754146844104,0.0068332545315967375,-0.16845649307239882,-0.4292434390257281,-0.4408309227238361,0.44227716263564937,0.3545017695389639,0.45186468659571705,0.4572711342369963,-0.5265253682646032,-0.20872092575322193,-0.010577794936933796,0.25131954784824345,0.11656756614619236,-0.5141856633743166,0.2462322580682041,-0.26833573234523844,0.35404512041435116,-0.051062714335484184,0.2787310058201506,-0.15935976689577994,-0.22976819222593833,0.004616772144998627,0.5251402291352648,0.13062862982331067,0.2551583966907811,-0.19296385661943855,-0.04842824864477937,-0.1406591807841945,-0.012185489469416822,0.3340891427547734,-0.34337461670854175,0.24088222885007415,0.08689022271707564,-0.16331109303583324,-0.058828957648068385,-0.3139028868031048,-0.03051748913718106,-0.013807081112410352,0.21086409873504006,0.061302182743707384,-0.14310067068711999,0.35376350408627255,0.4445439623820641,0.03017941446435395,-0.6879308027810256,-0.03724668823522392,-0.09569587774423971,0.07838763893763367,0.37284904902861177,-0.0330304561430714,0.37878116785399724,0.693059341867207,-0.000540457088025581,0.0916902360916943,-0.4980412545007146,-0.3665114739563882,-0.17897908746047808,-0.07091272054883346,0.540324455142383,0.15685251186343818,-0.49940564913449215,-0.3975991968571168,-0.011305084932697962,-0.12708302733304655,-0.19672400751519853,0.12713195717809134,-0.11885865511725174,-0.00645963032904121,-0.5414119580685538,-0.4512265186092593,-0.07283387211571643,0.1996645405872978,-0.05759035954874045,-0.21388605012798165,-0.232659539467518,0.3815965679481551,-0.5210787192448778,-0.1406847049013503,-0.15624631227534272,0.21877717442867417,-0.19614391862780378,-0.20309905371684395,-0.13304955510985458,-0.4171556775284826,-0.1733154050131349,-0.2837712767007268,-0.11777313315342455,-0.37090892599944064,-0.607332806452176,-0.14618065468999775,-0.09410360553500466,-0.17438679138407326,0.10696342714460431,0.343832842953415,0.12768283037202371,-0.2199617015855063,-0.0816923436435181,0.31846452656426294,0.126923907252509,0.2196880047046659,-0.00310811246146568,-0.3732640141310005,-0.28277216628463114,-0.008611501788673209,-0.20489178607329106,0.09770841474783597,0.2337351790667521,0.11425272445649484,-0.43326241732801246,0.008745548582695188,-0.29331098167424136,-0.19269329067683663,0.05586108626118356,0.2966750711949573,0.007569438464317415,-0.0952918876497874,-0.27768615071002495,-0.03661441261326832,0.23320928696254611,0.08619303505843724,-0.33446192984648343,-0.0950621607229264,-0.08335414810569912,0.11554406629106091,-0.48990710537505744,-0.1037106276168858,0.06974478154810909,-0.06810622206090627,-0.08693492349520938,-0.38227732635467854,-0.00284916734781328,0.13385198362928755,0.330505937633572,-0.024753425675760006,0.32706616897746765,0.054762445642971,0.27699145885279103,0.3182645352301002,0.10568568232292617,0.17363234558089977,0.7524349891647739,-0.1941588283417034,0.2903876152261818,-0.010840327193046648,0.23432941086739462,0.09671632607269345,0.3051114424437352,0.3207671230269358,-0.11449077395793547,0.26212724982793717,0.10628354575501708,-0.1953240549094724,0.05767831930684498,-0.2082512864589943,0.2178634134909691,0.10723957279306803,0.3605157096227196,0.09472337968058771,-0.28732717407165953,0.016573040610431845,0.08474328908875044,0.07563336244294473,-0.019985323123661924,0.17749355961176796,0.10563939146212578,-0.11331655381492442,-0.07143924044362522,-0.28185526676570843,0.255308044817371,0.07933136971835485,0.051624950716832034,0.16621728889000995,-0.007617619738547463,-0.2725682934526546,-0.13094306889461316,0.269895586287129,0.3609010865825203,0.3256367607372583,0.024603424383377467,-0.06729980460011604,-0.12562022960833918,-0.18765787921602894,0.026944781257879295,0.07951804927006605,0.6227964376895718,-0.18996971477882596,0.10152691784077823,-0.4139230337014703,-0.22145523177493484,0.11669657894763923,-0.2522021123472829,-0.04532408708339431,0.24741070891376976,-0.04152370339332284,-0.31958233269405334,-0.17288020189632733,0.19961062361400617,-0.10668083112014103,-0.11985105761905372,-0.17899430389943077,-0.2602795180133256,-0.21660028569684675,0.14280044722926,-0.4442699139137341,-0.19815134932464307,0.06928449379353081,-0.025358666659964304,0.16829222148527906,0.379570258636194,-0.10856979621728681,-0.4071308099920023,-0.3399998430937772,0.04033244818594161,-0.13516151380034042,-0.223343942714441,-0.2829625314471699,0.06773658695096751,0.5785411887631605,-0.1544255669316556,0.11927024564814048,-0.19806662454868493,-0.6187254117524025,0.2201504887173038,0.3332637046883029,0.09460309798215845,0.1605507836261455,-0.45597662951037704,0.5541344024950942,0.03341071749875983,0.13615340152440308,-0.13385808473423058,0.3331899005492995,-0.0687249432525149,0.04647245075686145,0.5512677308877257,0.4126136570633006,-0.06196983478768103,0.135260790218592,0.48798361081658004,-0.18082219071653893,0.8141878045359984,0.036006817919639694,0.19820445119602628,-0.23652079050101124,-0.27997685736832856,0.09937030159667343,-0.24588675658473208,0.09230868344235968,-0.0932683181683223,-0.22229284228085588,-0.2744309366352458,-0.6548904441124407,0.019888734883677497,0.19227023667836207,-0.32857780548588406,0.16794575667838363,0.3356208782828968,-0.08638243908771244,0.39193794858720354,0.27688453758423537,0.15322158715290177,0.013237796190724864,-0.35124500742723513,-0.38830312755173685,-0.46855815679912494,0.1090742753575994,0.00041464723037379467,-0.01791343370633451,0.31041309499645703,-0.2720980779252397,0.030169466873449683,0.2855111912995972,0.35313570555337365,0.12336184146663542,0.10482984187587499,-0.03058790248840262,-0.06520811965994068,-0.6633927371018352,-0.2572765892781157,-0.5019978988976451,0.35087985910150266,0.34503685356188724,-0.04477829254107083,0.5775101137960991,0.3941715429852187,-0.07832467475245493,0.2355509935489343,0.08691055053330528,-0.0006676117752076856,-0.2775733535425567,-0.39384155245781616,-0.3935857080729287,-0.7190819148988438,0.5248777122747572,-0.18459543217353064,-0.06696836779244059,0.348380965871983,0.743769527109014,-0.0013247061999446515,-0.3450478470356686,-0.27109408682929326,-0.0010200182726285232,0.20030159308371545,0.011513853620844589,0.18365596520274743,-0.08532455106047244,-0.15035039327779268,-0.11696123667581629,0.9316652171199777,0.1697420110964907,0.2329617683177581,-0.0978087546187176,-0.4085178619678911,-0.37829653626177506,0.7324089387292875,0.35451951931562564,-0.3381837254725294,-0.06159471696786567,-0.06169646082808495,0.4241371521306864,-0.6852743526429595,0.011129839544515224,0.0947489673825892,0.22644180423053842,-0.05692266200163381,-0.07078397560421203,-0.05190592747773332,0.33840535405915684,0.1529417472821651,0.5980969010704983,0.3442013220335976,0.286260411210524,0.06592299236765202,-0.32535220388671615,0.0154331865688065,-0.018213792553583744,0.824307204607203,0.04616644604988616,-0.2254530115182448,-0.41724726527205175,0.07214311338220675,-0.6860212148214515,0.19750006991092156,0.39007547244116464,-0.10377754718158537,-0.1661559340519897,-0.22001269689864242,-0.20364323095835812,0.13084873139576117,0.10101385461546211,-0.0015425184584540992,-0.20312402194920517,0.5121964519661186,-0.26927380648508403,-0.08498399770989191,-0.48823526387641186,0.012390880486827387,-0.13992451321827595,-0.3317684067941654,0.12421972089499536,-0.3167019063833092,-0.2261981433281402,-0.012900038458214712,-0.16477163617523277,-0.03774933505519281,-0.2522793062664163,-0.18762015282288813,0.22759730765532207,0.24156361854278227,0.037487300857520924,0.01735575826385552,-0.22928807399034945,0.02692818686400564,-0.28160945547681815,-0.1888012432074064,-0.19532378753120347,0.034487220131927114,0.3792043138943808,-0.2524669048047747,-0.43947225249013994,-0.132688119929797,-0.16318570768455604,-0.12061029168320753,-0.04347192318134327,-0.20251246285608418,-0.023912682976026986,0.1705154944415892,-0.49571202736114595,-0.0277309038190266,-0.29211315641874114,0.14496668677682736,-0.41482044783829775,-0.08398881196694592,-0.3400314938321563,0.40434629561599317,-0.14410870604013976,-0.1904444968113035,-0.08685710585732943,-0.03587931142627822,-0.08685845568270906,0.1399512255866392,-0.250895968823695,-0.14764642062791267,-0.17374322282400437,-0.13636027860348068,-0.21132902429716086,-0.3301348463893824,-0.487338068755923,-0.1679248393435669,-0.3475095923013743,-0.040866286144524394,-0.25528256852010656,0.3688233534155656,-0.12003812935263258,-0.04493387829636618,-0.4796160696870395,0.36562025992754155,0.015397898302837542,0.3964523210325895,-0.17172684778798855,0.20571521326357567,-0.031714218739345906,-0.21664572510220434,0.06244398831695338,0.4452725489949575,-0.04641887729203571,-0.34429686167951223,0.29314536089117327,0.24483034422718125,0.12132390924475456,-0.1300447949433296,0.5273363779221535,-0.18082063275133886,-0.37156518545734085,-0.05928479358696305,-0.012091763143215348,0.2091432742897783,0.1259236814260278,0.10926751184386534,-0.745895061117919,-0.1818386541158743,0.1372581337415596,0.07520287607514738,0.05938366423215654,-0.005406434392144662,-0.6690254764088112,-0.25434499172184305,0.2867199736325332,0.3046953635835156,-0.1467664706608296,0.07876348499293291,0.4944450317120764,-0.3007062428613426,0.06635181298981262,-0.16707037400198022,-0.12238344728279854,-0.3658392038628876,0.3599754958972414,-0.09961296186253957,0.3644032126623668,0.04669919759547794,0.17516859733668338,0.048069210256052,-0.20802433263238954,0.02168695860716093,0.12846221915390477,-0.04769985198304557,-0.2907351665795563,0.3260037753746124,-0.29241764518929614,-0.04966564131636139,-0.41493847989535027,-0.029914630927179692,0.3433285359215699,0.0821927337166653,0.2638394786643345,0.34747640175298594,0.3222243526080755,0.15359521813938393,0.3327282417610532,-0.20167976958497447,0.06673137212735385,0.03007164152254905,0.3332128929596023,0.5515573944976959,0.5326955478753272,-0.5600890171821018,0.46230012881385324,0.07109219362324141,-0.21795614370007696,0.528693701528672,0.4376417148985077,-0.271933511603227,-0.4246365286284081,-0.09305928277202098,-0.12569289493610702,0.18943745835596557,0.08968504213661288,-0.24743041927914405,-0.10882129849783843,0.02555391853105755,-0.05419661551431346,-0.2428671362821806,0.5701045197231767,-0.42348498675339136,0.45795459938283073,-0.018425912223387898,-0.338746054119922,-0.11662211724434902,-0.25684767878954406,0.2065117370102878,-0.25635719526082057,0.1554956065800766,-0.3543300979031871,0.05875418016735692,-0.10529234695114473,-0.20697869128651894,0.14281949562421742,-0.4543949628488861,0.2662113504688458,-0.008351984790540017,0.1085991591492504,0.19970563163661498,0.15901706879331035,-0.07771053994504033,-0.0601517042536558,0.42668788200979,-0.2524264980213633,0.30190986001253306,0.17591302080116025,-0.22698730446145007,0.3272579177629021,0.37241838396324983,0.09713319832407068,-0.4395625212569496,-0.24225870976786648,-0.443141989093047,-0.021941804539624247,-0.2937098944972061,0.0016346474466651894,0.16235096232696486,0.30452299602624733,0.053441798755808186,0.06017196166541777,0.1731488966658349,0.24067045971774986,0.2531127092212822,-0.228418989716744,0.03708034988774215,-0.3391124035006778,-0.19047921852918023,0.2924570349939489,-0.15919080012252698,-0.2982309784621032
factuality,-0.0931707301108487,0.4049091930735027,-0.20303735450108767,0.6566280884251077,0.10350758276922443,-0.6702221588219156,0.1422808876136484,-0.15363724667777184,-0.08544775411087956,0.15218375368617865,0.07632526366513925,0.10337078707581392,-0.10875529483273168,-0.3868558080962961,-0.4773188433155552,-0.10784726105968664,-0.1714004139718034,-0.34092602694082674,-0.04802532596202765,-0.19260399570098496,-0.21972284859406788,-0.11959782580354301,0.14215347853010174,0.07659746020281018,-0.07220494968223509,-0.04578964612118632,-0.011635156110081219,0.2348548188357129,-0.19933883639054395,-0.19577278996117736,0.19527268877579576,0.009959774492570943,0.3382649289465961,0.15311999880290872,0.5550536800723079,-0.2521998048699999,-0.014423637866257347,0.41505618687663504,0.22452388525015193,-0.06925486995628485,0.1845219430916324,-0.12765728102713977,-0.09367367657993539,-0.19528061112627268,-0.16275691614224752,-0.18335166264658134,0.7361419660444029,0.5534479576576848,-0.02938625307182208,-0.14939646328876865,0.0507306201590476,0.09347181600043368,-0.6364927222043254,-0.023618918640182215,0.04144528494454398,-0.14833008549899668,-0.6950940742240934,0.6678954603854564,-0.016009419315322213,-0.07535302009629126,1.0050232555197407,0.14993902604497358,0.11743836081494795,-0.0449370942187766,0.00696337280288198,-0.029242499005076257,-0.5067048734193362,0.25973316565182936,0.42076878462034384,-0.43324022835284504,-0.35321773919970434,-0.18081970486918275,-0.13354487657541572,-0.08089428789142004,0.039651961293634144,-0.23451499563523567,0.2419883122780386,0.5198011640810755,-0.02563204791070956,-0.4758628318731893,-0.035646707451252466,-0.06995522073473899,0.37250031200926864,-0.12270726787979964,0.2468403980313465,0.06547825019741323,0.05466678082245123,0.004205129632631675,0.02827087629709614,0.013633345034082768,-0.009099979731402077,0.717209477862205,0.3160291646656854,0.3721269108957633,-0.31908846420002157,0.3212712081690687,-0.4733605712583101,-0.24503147274476483,-0.4590812084947692,-0.2505836716532449,0.07879101864959188,-0.2150224804465546,-0.15735352221560575,0.04358025371526259,-0.129971960896764,0.16525090051715544,0.39422148499931386,0.2046309916164871,-0.040595181190702136,0.6075139130200897,-0.3863075431299764,-0.011659486647562297,0.1506493456112547,-0.4259855485111979,0.5293405660581584,-0.25660850094946486,0.4036326597701299,-0.15427360428939113,0.026104858526999404,0.17639781133748592,0.14185987936603278,-0.10387346818421195,-0.6029710712223578,0.01811823669652117,0.08084695311288159,-0.16235627324506985,0.19054840045749444,0.4317632187032291,-0.048593306031206276,-0.5682828143792966,0.48021256567530335,-0.13870588891379468,-0.16060600933598682,-0.15083883977980797,-0.32108275264022196,0.4191014963638666,0.21484114035532953,0.5922166253853626,-0.0014333081024583802,0.24527118460685868,0.21231592080044875,0.33119612148843847,0.7970562937177689,-0.2499758552141853,0.28229960920020314,-0.29694433201851583,-0.2033246534391991,-0.04459570268169726,-0.36235215534135545,0.026220849394562207,-0.10561965455132367,0.4298679685468939,-0.1258745255245035,0.122257235438722,0.48349185632406394,-0.6901088595078942,-0.267630678987112,-0.03877675627789402,-0.21359555620723839,-0.3140452351219052,0.10008275926199761,0.14671113476496525,-0.5210513008834413,0.16700169133455955,-0.24719712896739343,-0.4836713367851453,0.8400675455045573,0.09087005007353927,0.32231552236767214,0.33494401802052826,0.16844427596964076,0.07730094982715573,-0.08424041027837087,0.29074036224162614,-0.11791577515051484,0.34607744546846014,0.5138822821037707,-0.16884802626439593,0.7821705332110818,-0.6732677897153222,0.0038757883665208907,-0.058382354594201644,-0.6238640363819535,-0.2247591396225224,0.11923411968088521,0.06338614908239087,-0.06113391959155548,-0.43798007540245115,-0.20259606477238198,0.01462196134376786,-0.2618394333048065,-0.0005127313523075566,-0.07327745444984858,-0.13063500005802997,-0.4353274786553542,0.10985759490386943,-0.7452072383166857,0.23087915871812395,0.7140660134134122,0.33972754837401914,-0.11662277318486577,0.1481728737474332,0.19528655158344244,-0.1602961958195902,-0.028108185932434943,-0.45837711635575407,-0.33413927614312455,0.24107167048404476,-0.2452284094491412,0.3521265313548134,0.04452968632463776,-0.35794519939850433,-0.1431952035564554,0.499158707235686,-0.5389652992712594,-0.5862319482860593,-0.07052160208638185,0.36544534973984866,0.11372958875187061,0.3658990619450191,-0.02229518731398179,-0.09271126140234034,0.3143256808402442,0.32611342596660753,0.355825127313152,-0.36360568458598347,-0.11704891313359456,0.054431581630753116,0.0635271849785757,0.00657825567821329,-0.17354083138942752,-0.5080795058759567,-0.6012879798779148,0.09387119219693033,-0.15121253559282097,0.21797628408378067,0.040081186191426456,0.19898637955565057,-0.3501869397095958,0.06779308593721962,-0.46964015666453635,-0.1563092628316386,-0.09317205220374715,-0.16121170437075225,0.42365507385146023,-0.06820623528253963,-0.22938371025863943,0.6616083914419328,0.6429512326417732,-0.22453860234437553,0.7891927632465641,0.14207531983784663,0.1009317725674274,0.08583059925043932,-0.15492978123974813,0.38409119203457004,-0.22198514384550164,-0.04774946886342581,0.0668865754781994,0.12738992789175732,0.8899043908474586,-0.7579998701981782,-0.35401083712979026,-0.013256540607476486,-0.3003392899937153,-0.14331237586885728,0.005821973487380187,-0.1375471912868784,0.31769346001703946,0.26251970870242675,0.5226645466227283,-0.4233327758514426,-0.049072971419332444,0.2382652489420299,0.12437942043976342,0.0965741895663471,-0.15670451451938863,0.09591838893684348,0.1515089013976439,-0.04746679675430975,0.0768606817572864,0.28421190328986035,-0.19449313160298173,0.6810589127570549,0.06626289768984774,0.06741301428983931,0.1257186247614143,-0.10261201513291637,0.4953439576311993,0.42683691878144053,0.3902061567088212,0.1293877682818718,-0.11857046006863063,-0.5592349835713591,0.4624376292676881,0.0420391558741187,-0.11112872284680408,-0.25444604087447076,-0.07395612264907303,-0.2497047581535721,-0.5098382103297854,0.06409376719749453,0.8543909255702385,0.1489077441523205,-0.8597817940839552,-0.21927788958731623,0.16810651746139643,-0.44076544868182876,0.47327380290445703,0.058685215937786264,0.15312037071891305,0.20404346372608223,-0.22714775525265601,0.06381154764054617,0.07351873331957982,0.46392343678908476,-0.25569856526909057,-0.12137031217335396,-0.10352990886056991,0.31800094292581266,0.4132491764171633,0.04756760087721529,0.4668312852993911,-0.1755830346182186,0.17339441632435257,0.15568049347282487,-0.30332971903358646,-0.0776532101189532,-0.05579332361528583,-0.29789838582431094,0.07779306935557855,-0.04096803957494592,-0.07595624700780919,0.005192651255517885,0.11726597162191749,-0.09602000200276951,0.7073806136480961,-0.08500401245891205,0.41758488157298473,-0.41126415903784025,-0.3511849579663618,0.3100605243716789,-0.1908467444328099,-0.07284892565518591,-1.1598581500535448,0.07880690994997704,-0.5478880375644369,0.00526171470866293,-0.6656154489175075,-0.3280775690455487,0.2495165945288377,0.8061795234525955,0.07448498168134922,0.18562812260917658,0.0971269211569461,0.1513846362554959,0.06594488465557864,0.02003847776418402,-0.40821649484549055,0.4066525258760282,-0.4373841843359276,-0.7691500690194323,-0.4231632873729972,0.6117299454523013,-0.07210147251563714,-0.16532256381526966,-0.030689510280914614,0.40689398926588444,-0.5943520169911215,-0.5622116336531311,-0.4996122544715207,-0.13650689231815966,-0.22889893084996274,0.0481363854309252,-0.05330596302182904,-0.17234052707519099,-0.06547812312219077,-0.2127869521806723,-0.22635076220085673,-0.32074348871461045,-0.5117555575930552,0.06511511775495953,0.04839505067979725,0.15841828282263282,0.05575128643916554,0.10519999968176019,-0.4661628304483189,-0.18692908492718469,-0.19266533719139237,0.32846275114140705,-0.5046031894784206,0.28797631793562867,0.07333413051322302,0.08461465259470759,0.149035632454286,0.13912173108976952,-0.447775184227031,0.021808768362107024,-0.05686731882520234,0.269907501693441,-0.10354739089974449,0.44948953099185834,0.11463846234663042,0.1478390009426031,-0.21519433551055114,-0.03728866496725345,-0.44517263957401676,0.6487568311834055,0.08038525390974145,0.6327595044181379,-0.022759799304242708,0.027006728673443114,0.5034390781017847,-0.1082849581628631,-0.03666699684162188,0.14488263021202596,0.012774367509237631,0.39504824052073106,-0.736077711612361,-0.39594510456496884,0.8839210162136882,-0.5653947200385909,-0.14425195886701034,-0.0873087498876772,-0.10058925804168585,-0.31120495946504056,0.1869471494658204,0.05694360964470252,-0.1284365448751875,0.3372233427264038,0.10623010919536169,0.33984651216967804,-0.09227252549219515,0.0018655377437691142,0.026927347017422623,-0.40096589828340556,0.1749117080911017,-0.03562344858706081,-0.06406265938086467,-0.6529932800770245,-0.2573043204864695,-0.162899305027339,-0.19589096213020696,0.0650323543512099,0.4056694534244742,0.13045422326953884,-0.10058734522499987,0.11793691474338924,-0.12661688718890823,-0.4264081901039086,-0.6257835274717432,0.12586114586608,-0.5578642800105026,0.6617917788701193,0.3263418094043834,0.1880206701763866,0.12427139104114655,0.04776268786098615,0.15162147246909402,0.2983085796072466,-0.10748332744114718,-0.37362195805999193,0.35890752141731047,0.004307428408464525,1.0799076432284318,-0.2484390077356266,0.21304935877484477,-0.31456262468157814,-0.24819243489114154,-0.10646774296478007,-0.47980843342190044,-0.09173274780080856,0.23926950649723164,0.5796498884619684,0.17032722052399804,-0.1159821860033356,-0.10985947305096541,-0.368168836254259,0.3194798287863308,-0.22345373535372906,0.007936170815707522,-0.053548633411636064,-0.001386415400130451,-0.26424380577835827,-0.08494604946792202,-0.09986847110300598,0.3206160193309543,0.06930245202453932,0.4866884225516599,0.578890522510612,-0.47459346801865826,-0.049601733708112085,0.16906233731622014,-0.29245738040804103,-0.22732279519281362,-0.0370653193291925,-0.07508218670711618,0.4322765651606197,-0.08163483097484305,0.6310773157698598,-0.26473536607367487,-0.008783095848024504,0.4614418970268481,-0.03697499346745889,-0.1619360829568776,-0.08494600074618103,0.2565681967541551,-0.25627172311780455,-0.11254920977191099,0.12262389960641595,-0.31176318462159436,0.22476674928396362,-0.0850595342191204,0.24526066177201142,-0.04999664608016056,0.20923052669213274,-0.36653031331537245,-0.3062842631610097,0.24386595858849772,-0.3705083654199825,-0.4148190186683495,-0.025686343148243845,-0.799785554675924,-0.3412625375042558,-0.49462780482525,-0.20417715467543718,-0.3713936601858606,0.6636253022805104,0.052223588279930545,-0.0656215279732607,-0.1109196397377418,-0.07061461534255331,-0.4312295748553196,0.12428444704466714,0.184519574938997,-0.30925935811286737,-0.40009018884905106,0.12826655127853598,0.40961316203223225,0.042572612816278194,0.059326397411874864,-0.20875027895735054,-0.2033891423844038,0.13120624472397865,0.6481088220090092,-0.0955601386632608,0.19500752333777885,0.02107684579617505,-0.09743377011974531,-0.19350763930192325,-0.39352708420705584,0.05982335392074495,-0.1880364292225373,0.054060684644089856,0.19912339866288017,-0.5508903310254262,-0.6490939375766146,-0.08638667574949503,-0.4757365625829822,-0.19104833937845125,-0.18713703841922383,-0.05570056070618406,-0.2655394334422092,-0.46652872933016093,-0.3931991376237703,-0.23031424449207313,-0.20343818715410636,-0.3921492534876843,0.8759299871233585,0.5095218005987968,0.3821997070193928,-0.15083182928820255,0.1705655499183779,-0.30407983120460164,-0.18433981652417752,-0.21328408302863328,0.10560607377988837,0.284255270163594,0.5675457507407096,0.1312156071465276,0.23526813425884924,0.18653437553911986,-0.4679150340293079,-0.5553060311495223,0.03974245792303443,-0.07559462397311438,0.03602575978536327,-0.47853440402876585,-0.4960422608094828,0.02171390752084279,0.35910182910433003,-0.15962822459707096,-0.05366652921574624,0.232720676374245,0.0401564964285874,0.15474475041642455,-0.6382980946256365,-0.19009441263860846,-0.42451706695571023,0.14984726393565534,0.054009364696314094,0.48319608367852845,0.16031804768606,-0.21143611560815678,-0.2985690877138505,0.596332386689246,-0.27945792479977893,-0.09864553255331113,-0.3923105537085789,-0.34174004547221515,-0.5914191051605737,-0.01949640721043437,0.5901178136131462,-0.527054143309757,-0.3550885582052551,-0.07502327312837861,0.3819218896177682,0.3187439827797427,-0.044975623977052265,-0.5334111006058299,0.5254510551558986,-0.13092111960091418,0.13303907069673723,-0.5340568181752765,0.21272238152226794,-0.22682650391262288,-0.34815759431072835,-0.13638710392873277,0.2226671597008259,0.0006452439415247818,0.16418613874497068,0.4373090303516541,-0.2709338338254332,0.2792931364944272,-0.02736188556320214,1.082037291886447,0.20958503159011302,-0.14460663244613656,-0.3232116495005259,0.3671337005123996,-0.35494168086800426,-0.1550627297552057,-0.37708084481708176,-0.23154743011388537,-0.06757275110419819,-0.16385814360055176,0.2092589189214289,0.17299881661329655,-0.48442349042041283,-0.5211464622492734,0.03126893245311476,-0.08587298595437429,0.11326741538612867,-0.04752599113839718,0.04013032195809177,0.12585535460418407,0.26502938832793005,0.05469213881607635,0.2857493980177425,-0.21415089886595265,-0.409860718163696,-0.18827172445455567,0.0882832728049479,-0.6633082004767104,-0.3832313323345306,0.3445020326928612,0.39144348575818033,-0.09363575202560762,-0.1348644995356819,-0.10512742440171005,0.2620562850978122,0.4676661418047403,0.07416172354089376,-0.44018294046751344,-0.26492628802077034,-0.061953064048234495,0.4642193893994047,0.04012412878734488,-0.5515026943681325,-0.6744015318596175,0.06122453148680413,0.5353171853872122,0.20208009708274713,0.3738293783932181,0.20107271443334782,-0.7749704179878507,-0.15949399627041802,0.05196184050957567,-0.42097482131000935,-0.2103438917453396,-0.2427680038450588,0.0032664515630894753,0.3559703810376993,-0.2019791841474725,-0.40044002089477393,0.5782509637625288,0.020590867558659343,0.3620207790295358,-0.19057407169642995,-0.6533754483553937,-0.09333285466786367,-0.1785869512249776,-0.02786841380647929,-0.16614306363510079,-0.2834418956183186,0.15301338389441801,0.6031867010577096,0.11479751158301123,-0.12680880978080997,0.3462567696814876,0.11843800356775507,-0.1390983397195667,0.07067208030569015,0.40520714669677904,0.2986359915004179,-0.05942261431127692,0.33031447739839287,0.13718100360397728,0.029314528402012055,-0.41677359651066487,0.1873143110557779,0.25101114157296395,-0.11930222949840058,-0.027523773131751778,0.6494675778520015,-0.5404631224527872,-0.08166350241345605,0.04924862573818225,-0.5478959384806071,-0.02815223342812462,-0.5550775445853984,0.26072134539719705,-0.055497022700244474,0.2913019944647131,0.23406718323557762,-0.09256546062433435,0.29227719858786083,-0.08636374954860852,0.6144483340563358,0.28525786214180066,0.7073401836213221,0.28999270675749095,-0.26145096202273177,-0.22767198602179187,0.018388911890040084,-0.5661699267525225,-0.039207507181556536,0.07074935240790495,0.15668339993798006,0.3782531451837119,0.07495633450535459,-0.07799241312282805,0.12666637883024068,-0.6142665860882109,0.3724254056772756,-0.3603481535830857,0.16198967858600175,-0.17889818573567712,-0.3560853247729883,-0.35752622915338905,-0.027168172867372647,-0.31044037883148085,-0.12372835886208734,0.14054300822245633,0.1077247299836356,-0.18547542104671322,0.14213428931408917,0.31218834585308236
