,0,1,2,3,4,5,6,7,8,9,10,11,12,13,14,15,16,17,18,19,20,21,22,23,24,25,26,27,28,29,30,31,32,33,34,35,36,37,38,39,40,41,42,43,44,45,46,47,48,49,50,51,52,53,54,55,56,57,58,59,60,61,62,63,64,65,66,67,68,69,70,71,72,73,74,75,76,77,78,79,80,81,82,83,84,85,86,87,88,89,90,91,92,93,94,95,96,97,98,99,100,101,102,103,104,105,106,107,108,109,110,111,112,113,114,115,116,117,118,119,120,121,122,123,124,125,126,127,128,129,130,131,132,133,134,135,136,137,138,139,140,141,142,143,144,145,146,147,148,149,150,151,152,153,154,155,156,157,158,159,160,161,162,163,164,165,166,167,168,169,170,171,172,173,174,175,176,177,178,179,180,181,182,183,184,185,186,187,188,189,190,191,192,193,194,195,196,197,198,199,200,201,202,203,204,205,206,207,208,209,210,211,212,213,214,215,216,217,218,219,220,221,222,223,224,225,226,227,228,229,230,231,232,233,234,235,236,237,238,239,240,241,242,243,244,245,246,247,248,249,250,251,252,253,254,255,256,257,258,259,260,261,262,263,264,265,266,267,268,269,270,271,272,273,274,275,276,277,278,279,280,281,282,283,284,285,286,287,288,289,290,291,292,293,294,295,296,297,298,299,300,301,302,303,304,305,306,307,308,309,310,311,312,313,314,315,316,317,318,319,320,321,322,323,324,325,326,327,328,329,330,331,332,333,334,335,336,337,338,339,340,341,342,343,344,345,346,347,348,349,350,351,352,353,354,355,356,357,358,359,360,361,362,363,364,365,366,367,368,369,370,371,372,373,374,375,376,377,378,379,380,381,382,383,384,385,386,387,388,389,390,391,392,393,394,395,396,397,398,399,400,401,402,403,404,405,406,407,408,409,410,411,412,413,414,415,416,417,418,419,420,421,422,423,424,425,426,427,428,429,430,431,432,433,434,435,436,437,438,439,440,441,442,443,444,445,446,447,448,449,450,451,452,453,454,455,456,457,458,459,460,461,462,463,464,465,466,467,468,469,470,471,472,473,474,475,476,477,478,479,480,481,482,483,484,485,486,487,488,489,490,491,492,493,494,495,496,497,498,499,500,501,502,503,504,505,506,507,508,509,510,511,512,513,514,515,516,517,518,519,520,521,522,523,524,525,526,527,528,529,530,531,532,533,534,535,536,537,538,539,540,541,542,543,544,545,546,547,548,549,550,551,552,553,554,555,556,557,558,559,560,561,562,563,564,565,566,567,568,569,570,571,572,573,574,575,576,577,578,579,580,581,582,583,584,585,586,587,588,589,590,591,592,593,594,595,596,597,598,599,600,601,602,603,604,605,606,607,608,609,610,611,612,613,614,615,616,617,618,619,620,621,622,623,624,625,626,627,628,629,630,631,632,633,634,635,636,637,638,639,640,641,642,643,644,645,646,647,648,649,650,651,652,653,654,655,656,657,658,659,660,661,662,663,664,665,666,667,668,669,670,671,672,673,674,675,676,677,678,679,680,681,682,683,684,685,686,687,688,689,690,691,692,693,694,695,696,697,698,699,700,701,702,703,704,705,706,707,708,709,710,711,712,713,714,715,716,717,718,719,720,721,722,723,724,725,726,727,728,729,730,731,732,733,734,735,736,737,738,739,740,741,742,743,744,745,746,747,748,749,750,751,752,753,754,755,756,757,758,759,760,761,762,763,764,765,766,767
polarity,0.02174446158532773,0.11179015209725959,-0.4041250852214713,-0.1829056895311219,-0.0345104717597555,0.08305829001323659,0.9562716722287739,-0.00280962623735657,0.028702677207271304,0.07200897369321928,-0.1637943779489923,-0.22368534494636327,0.03859669111280486,-0.039983694033562354,0.045480820579382165,-0.11399140085927878,0.027389145300293842,0.07432706655125129,-0.09924376827447663,-0.49659854873240095,-0.03523908076546685,-0.050929767379080344,-0.11871967203915333,0.01845694546355516,-0.10588288760451035,0.1831247830767172,0.04944960643796497,-0.08434027739153707,-0.028979981258116055,-0.13733619086231974,-0.2350325773342581,0.11663017512744195,-0.19845913742800456,0.14440295900293826,-0.20324098840615104,-0.20463515885643732,0.20968280308099727,-0.1833901513764026,0.3042710029269327,0.3297340565517224,-0.13956393055104416,0.059561228216208115,0.04087522921834346,-0.09128573774154335,-0.03025582742534618,0.001722414090434489,-0.2542755580408309,0.020166838919459508,0.019049512872222785,-0.21095558216213064,-0.10757904049943887,-0.03887835393670818,0.01448271236615838,-0.18123929417970563,0.15169646573600645,0.009407185244406866,0.24247559521281106,-0.06111833956318821,-0.16180217598878024,0.031104171509977407,-0.02961282961595134,-0.1628286376928559,0.24144856386654595,0.06754791292510322,0.0042003036434750006,-0.011579224735094358,0.03221279849616066,-0.08930922344588028,-0.11182316579512515,0.012712064856202519,0.20678658429732313,0.05848874852728385,-0.07022375417781776,-0.1475242533177446,0.1568263729752589,-0.0920774322737289,-0.21482186660745736,-0.2583246994211016,-0.19919712506778872,0.05762296757679532,0.2680552113063491,0.06038714134094654,-0.30545170443630404,-0.09417486111270706,0.13638362176915356,0.01284041436069923,0.2854502130407883,0.002295510599315795,0.26710843438216114,-0.04769215631255789,0.1132446421527031,-0.2899378310667327,-0.009613588801262266,-0.011423271405341884,-0.01817199768345275,-0.2754865535590687,-0.14234726189617655,0.24112608042539316,0.2220967388369823,-0.1404800978501851,-0.11567517141132588,-0.026786316252748934,-0.3814900080792882,-0.08583241414070493,-0.024469176173839893,0.13912321441154019,-0.08585159550807167,0.4411645066082928,-0.12295635658854569,-0.23746502204017036,-0.10141356651181621,-0.002752758135653976,0.07412183119279968,0.021997424114923236,-0.33164381621975814,-0.16595205586298573,0.061029843459776655,0.06999455631621924,-0.1478951370402256,0.1207158982359388,-0.11545471449774086,-0.027166204232425866,0.3398642376278374,0.1743621964993668,0.015966101671179598,-0.1757844465367824,-0.04498094217113903,0.02760180709795437,0.021418761928273772,0.37354288737264146,-0.08918064255050669,-0.05536350843901782,0.09948287250611343,0.06966080112226317,0.12458410046970941,0.15928087287134057,0.007419714554827688,-0.18960452936557862,0.020239835904218316,-0.1846741007610605,-0.025281238141465878,-0.19135898015614858,-0.3658576354257184,0.0035145996923257898,-0.0978160890731565,0.08599492493533997,-0.07437624547630026,-0.09683453243673854,-0.08646284232520655,-0.034982468933149116,0.09986314981184347,-0.30963833938438595,0.14590136224786124,0.14331702417909487,-0.34807645672750875,0.26287417746357966,-0.0006995495616952233,0.004889263590599205,-0.011327841816756449,-0.044610482670672566,-0.2917541044280315,0.01641415981660379,0.2544111311955237,-0.25560886959649676,0.04539385894186689,0.1294674832748509,-0.3241021808292126,0.5971116594361185,0.10978281946216718,-0.18939000850041895,-0.02563759258714554,0.20827163962845385,0.024894683255540735,0.04680231779662044,0.062082284257811725,0.05473172658511483,-0.1358716937438892,-0.020922823562378658,0.058505183458472845,0.3065493355015332,-0.003824470161816041,0.07717390488378992,-0.14892912690589008,0.09431711977847823,0.17087651386006641,-0.18019077193317062,-0.19357775313257067,-0.02438157807934301,-0.12144668841261119,0.27193588549708975,0.039943967560487716,0.03459243126033043,0.23478380422701048,-0.12945346237277205,-0.11802920087476568,-0.3275880167554527,0.024696974292160116,0.016023009820985642,-0.3408011780431925,-0.16329310104616082,-0.17211400284404466,0.1618542702938641,-0.1475608517591155,0.1286896424040478,-0.10901583939185253,0.2516462708061514,0.07615650368043843,0.18241392981686774,0.038381210319620815,0.08013017495028239,-0.13804275533644364,-0.11093910419093445,-0.17640792399166738,-0.3838312001865998,0.27229991601045606,0.037482215298057245,0.006655017032479835,-0.043008116230567314,-0.03930849344468143,-0.14148925670597584,0.15360991178054692,-0.2030132351402382,0.27214911325531893,0.22971089884788343,0.37174788848877377,0.0023429415350015694,0.07967917928194507,0.03200164951926807,-0.12204058213143162,-0.06768595486516948,-0.10839251231318979,-0.06019909856724969,0.6354778245710221,0.13992709946882598,-0.0548805670637779,-0.13566409851819375,0.048612059475611265,-0.23638063024098252,0.3674423934786703,-0.06709057809221074,-0.33552696625401585,-0.0523422636451565,0.18472034436536902,0.012945009430672226,0.08285562419574911,-0.015471126232406558,0.2107764940411518,-0.1076519119361798,-0.05067189614072849,0.02158177972250443,0.16712475032434537,-0.16790213630511833,0.13005830346266153,0.12070924715338734,0.11722177932334374,-0.04419589237692726,0.02843976238280282,0.007707791949926842,0.03668123472054993,-0.03258919863141666,0.02258601995240667,-0.05261355428306481,0.1451046028933104,-0.028086642634217975,0.1836629690812448,0.09973003308555732,0.0028785250645362763,0.11714648393657584,-0.09865575192486237,0.03791930686021706,-0.13562659925976245,0.31009136641503404,-0.3012216348558392,-0.08045585919611266,0.05189876027667511,-0.10893861434633219,0.21734964713146737,0.16946119749530786,-0.1432840709018728,0.19939926764664978,-0.012697576284941437,-0.09296096437603574,-0.15850772301624394,-0.11211284987820046,0.007974370989506582,-0.09448541917631915,-0.07009004798425225,-0.14410465880594345,-0.33602211506045465,-0.042417144041264475,-0.00986551394909399,-0.12801347255222423,-0.1269227342205405,0.04595581963564928,0.0762753382512291,-0.1317293276742658,0.172543572577856,0.12286092433504633,-0.02117787093076145,0.017491365919918376,0.21213421001577826,-0.06384635091727146,-0.09870055464157075,0.02143287705159305,0.016698627669248383,0.1384106914135974,-0.1361177951697266,-0.1297344983851379,-0.3636795423659132,0.2138452347105527,0.14717697589584172,0.23355394946724317,-0.0016157729811762062,-0.01948438468543419,0.1616701091582096,-0.28197795071539206,-0.16642364337790644,0.027787151561037483,-0.021198664366290372,-0.011828129675671574,-0.37442898681810044,0.03944454733754066,0.0092931028725475,-0.030732414144260336,0.20241650918742804,-0.04551158222627389,0.09734402628063064,0.06136468071134194,0.23418005735538464,0.10006334309892236,0.09798530116720836,0.053045953119055494,-0.06129801437167214,0.16951970672884678,0.09559352772385776,-0.03415621911945141,0.11830978151105347,0.03946577960973519,-0.1631588568835509,0.14595109220880553,0.22307399182627835,-0.32119630914413433,0.24233665874884908,-0.04466207816773382,0.49021447399222623,-0.08286403427959622,0.0868167942712389,-0.030931109937520608,0.5032056338353881,-0.13860608298012395,-0.34445359878863896,-0.2116865905003689,-0.06316954330645413,0.047027053228286854,-0.1958162409819208,0.14888009312256173,-0.02922659557798876,0.21229337296441192,0.10602158323645236,-0.22043695939702118,0.47313051204519485,0.014825174514520329,-0.038642342385905644,-0.1856541905173403,0.24759719626932558,-0.806289018145473,-0.11426020940920756,-0.16261787672965441,0.07575207855470717,0.08097504539781829,0.19807951458114892,-0.0064855760943473804,0.05715040015909978,0.022175159969351075,0.02755645222283185,0.029485885434263295,0.03359411680165952,-0.09134347906858276,-0.022598403043993957,0.09771811497177463,0.21813822393022725,0.16547670385963034,0.03746425204004166,-0.14425020654527088,-0.2264526517718622,0.08327863309421886,-0.13778697513829552,-0.04860330523571288,0.13057878466719416,-0.2775462603943311,0.18456969301075166,-0.1933493044284946,-0.13921992224563753,-0.1164618107622312,-0.033250426481584966,0.19687647671236877,0.15905063759156257,0.09369615591491538,-0.06386625432610336,0.11653983930451906,0.040832635948510686,-0.04880543758484262,0.13652623437130748,-0.06596165266499124,-0.15264577462347884,-0.037224756558123566,0.16774559011456455,-0.1802206589795687,-0.3393272148988154,-0.2927345710012388,0.0485434966198057,0.21737887094398134,0.08884171484548034,-0.01656099900829633,-0.12052833135520288,-0.07691076892802239,-0.0963900909657727,-0.15127220700135613,0.09998840621074327,0.05057129071491841,0.016389979637213906,0.25855512989205715,-0.07938731597503822,0.0038474057662149738,-0.01738275779154203,0.10290274229238396,0.06570650501336424,-0.0612060877053267,0.17713240978005418,-0.19056359770790265,-0.04665126575092284,-0.09090035641445078,0.13960299896997674,-0.09955600168685762,0.04403453809444819,0.08901883123718868,-0.07449030293555657,-0.17268422229712965,0.10371087503683811,0.3034864011104649,0.12086960159115663,0.1340983500375319,-0.18187349182382287,0.1148849386934428,-0.15449200019493167,-0.14383476227893283,-0.14084970913570843,0.011559213285784289,0.012844539369038751,-0.06762230046971476,0.13144306851713267,-0.16934067878048742,0.016346385647336183,-0.4207891777194909,0.1776169655642586,-0.0922393383172585,0.12455477031219712,-0.01865249774906668,0.035071096774255725,0.22616179598904004,0.059543650564150265,0.23800661389859545,-0.30971623099161444,0.06392417233480209,0.017526869378139312,0.10021864835363849,-0.2857616831531779,-0.2379064540005829,-0.018388831719098497,0.15858656510607774,0.09307000385683027,-0.23870886584115814,-0.07535087368173043,0.08650691322072289,0.021618757498378088,-0.1137519296550042,0.201724923462647,0.24841160807497717,0.2760009629658289,0.3135313050913639,0.00021548562199827639,-0.02531664058802459,-0.08518082031949896,-0.05422009146236625,-0.17719108989236823,0.12898148120945238,-0.2613309708464954,0.09033478525286845,-0.23604026385642757,-0.2535628772821719,-0.10785905491107939,-0.12842311582653318,0.13091991546660928,0.10098180534653338,0.061643512280979196,-0.23229158295110477,-0.029740428155125034,-0.11809981577714429,0.18402745717657268,0.08557540408040204,0.15646094455670667,0.08984480493314428,-0.30074331916225094,-0.4041533993964482,0.06939025181405523,-0.04523463722297542,0.03214276644404706,0.06325054735724335,0.11279729841856469,-0.25787613348744226,-0.14224619752767853,0.33643131849259966,0.08987229479343022,0.07720771887476921,-0.3133525375868464,-0.011915407184914193,-0.2891754501438704,0.16923106915728797,-0.13193498394828324,0.2307242582902492,0.17579888352353915,0.026650211520640867,-0.2102876919355464,0.29710133208475237,0.002558885197816494,-0.13352195818358978,-0.11554353651378767,0.1368424994425186,-0.076354425500335,0.14267522364672705,0.013795659651914994,0.055407893926924905,0.07401461608745218,0.019100534711014118,0.21431012745374228,-0.05874570284396627,0.2991278085444713,-0.3312687071223844,-0.06849225023640913,0.11187115892106582,0.04728454364596596,-0.040627686008741004,-0.19983414189555804,-0.1368973835746722,0.0666408162731404,-0.053358636165606925,0.23002385896151145,-0.21609483389855624,-0.26395214044463905,0.08037904749235618,0.022282553111723443,-0.025798396070022774,0.006581380472759788,-0.1040841341447077,0.2149089152684053,-0.0864072642171954,0.019584997962635325,-0.07750990353093881,0.3060098902360692,0.003545839135782501,-0.016085652571835585,0.005708503194680835,-0.07261550650159757,0.046990000528874525,0.08096375103299568,-0.10992562914025254,-0.4875838596297483,0.049626756622819415,-0.289805539531174,-0.30380700878939315,-0.09385119687472322,-0.10189661399149016,-0.013687349267162294,0.10319003685947438,0.11646320595382689,-0.23903763733289063,-0.15985068365823357,-0.103982532175467,0.10471909189740462,0.05345362126999955,0.038542830215477594,0.015090939144068852,0.34621361046528315,0.3806242953738981,0.20118710540835746,0.2414478602899036,0.10605264218891353,0.3625824647315017,-0.44388350997566084,0.13020365770490147,0.0638213859013007,-0.09300709830445039,0.14613580039718296,-0.055345560402156393,0.03839183853338347,-0.13538235154978912,0.15569191035288615,-0.06340909461007865,-0.1470584741429797,0.10851025313461873,0.07966673484877686,0.2114454777078261,-0.024568190641871535,-0.10231619875328536,0.060329833228941025,5.42488847515249e-05,-0.13279059528188306,0.017380171573286068,-0.16528811977392746,0.227724939300118,0.06983619404214823,0.1135118984931944,-0.05731970511217941,0.19818376358741235,0.0500499773162699,0.025087656736137925,0.011972434338180574,-0.25781531874201025,-0.08534262187836524,-0.23311707835792062,-0.31913446468731355,0.22909032059455212,0.15140447573259985,-0.012622815801491372,0.1742565010161114,-0.014859653655377501,-0.17830610216928544,-0.40491622972030866,-0.22137692196630027,0.07155169819423395,-0.30128004871452907,-0.19118446176753082,0.17470572083334235,-0.22224487247809332,-0.2999390067474682,-0.5796806737431475,-0.1827196999026678,-0.10422796162620462,0.17472151253974028,0.06948647860142658,0.19234505736619012,-0.040622569151582334,-0.07027933564313554,0.2285838894615437,0.035301141861821816,0.2542559105197697,0.1214225148898811,0.19380551755322314,0.24879339389943125,0.08848936360533843,0.12925853997563627,0.20049077808432597,0.20046255890682793,-0.08988049775778527,0.1391132947733144,0.005359270860019452,-0.14763042345374539,0.2667911442107921,-0.2723909850394997,0.38771022475444705,0.0885045986407027,-0.04579082363571952,-0.13716895074931126,0.2988789470774028,0.11380610856548797,0.1475249432783284,-0.09109053438645749,0.05441200332844544,-0.641144949159848,0.05786127477684054,0.14296288980297756,-0.17433288324526197,0.024389771037685946,-0.21151915689992995,0.19045775289959577,0.07536028890354458,-0.301560903005092,-0.07953714861533476,0.032537657875278785,0.21984534294176802,0.04254829358445139,0.1783933637778676,-0.3359874536723843,0.16456557471578517,0.01945680672105618,0.5025699587873056,0.04727917337527629,-0.3387807037479755,0.3287500675234382,0.025259601094736513,0.1827896277075827,-0.31712173880806854,0.1359649256750001,-0.16790214484401036,-0.06926200273298909,-0.004494220195374427,-0.036203963316160506,-0.11234094182904024,-0.15644787999882215,-0.05421280103291901,0.09716719898984996,-0.07423534244306122,-0.0005700439013818064,-0.03480552685924496,0.02651733146982698,-0.01142371816643719,-0.09141245847681544,0.025597210918576068,0.35643262110475166,-0.19048578038684266,0.009078434648461385,0.11012085624410509,-0.13788978440702815,0.3009840690567862,-0.007550656199547021,0.22658454196545194,-0.2239464448806617,-0.20407785332058767,-0.18044509756055238,-0.08782608742060782,-0.24619727132511043,0.3431258335882337,-0.2584683052362243,0.1578170956251942,0.13303631045755115,0.1622448287210955,-0.19742966936500128,-0.09371406905411638,0.039248416202216106,0.18484741099720914,0.07151986892805032,-0.259871761746951,-0.06247589689404864,-0.10885689650377073,0.06153854800772581,0.2397431893008049,-0.16108974803685375,-0.032008732304450366,-0.24121286981274917,0.0009666082467105295,-0.03688623144701981,-0.31112790369513205,-0.29908323113277896,0.11520039673618467,0.2599322911719186,-0.25425705926478553,-0.2161355142961535,-0.10662497751429911,0.06346441649055093,0.05639262459360958,-0.28194655476704333,0.010391126653396698,-0.2143595327974911,-0.13839551870869612,0.12941639075674907,-0.02087314110852992,0.09234574961834455,0.06570600181205724,0.3225617033726558,-0.05615438522216646,-0.16491643684737184,0.10895796509610209,-0.46292337800894384,-0.10920582821548258,0.3434638125480457,-0.0632229310526181,0.007130998472122011,-0.24027528793554875
quantity,-0.18846092836067485,0.06565144839663269,0.11272442745634466,-0.031166854426868867,-0.05655415689415544,-0.11423264253155095,-0.04732709841063037,0.09686226539493635,0.1842690961458474,-0.013021599709102143,-0.015274036592469044,-0.15951615604790642,-0.059963021006770326,0.005724001356494932,0.059740723953973056,0.12316381617823897,-0.05389143352770372,0.12426979006607398,-0.01800337535110389,0.003941243055230578,0.04632256848789495,0.028426411199586547,0.04402182916650365,-0.27161151622350244,-0.038319117706514604,-0.00596485249777682,0.01591031036468991,-0.050301869967667175,0.0822031925195853,-0.05389958731090767,-0.05199382109073336,-0.12891372068196974,-0.003986730822657501,0.04485554463300512,-0.14343405317273442,-0.037835612585761236,-0.1089154056528828,0.052942573132061375,0.04828231223491434,0.0920292599896195,-0.01809398599992112,0.1575012118949927,-0.014524218647714571,-0.018060956655139467,-0.1339281549829438,0.062417604206251726,-0.024351958924416234,0.05698028015828317,-0.06929606038990621,0.23535103197046192,-0.08429872110891748,0.032522997177340855,0.17257748216148916,0.06344135588099056,-0.00799594204617063,0.03935518578911909,-0.08973819600671765,0.05242162471139136,0.07931715399493373,0.023143469460408354,0.020058261722805247,-0.07265131970636952,0.06107387329673053,0.0020885366098620938,-0.0011263132007805043,0.013109857250463413,-0.10049545015590147,0.06324380804747891,0.340822502013539,0.11358259202830563,0.08628105123848741,0.014405067940273443,-0.1308961367694857,0.12051688598747673,0.05271809268717065,-0.03226237041457643,0.07239139090695072,0.13162011007546817,0.08392272161788873,0.012114162501583297,-0.05313356159218518,0.17745083909152193,0.035707006470504524,-0.033032396637676216,0.02151573999324575,0.11345148381923137,0.09270985084437476,-0.0008312287452336302,-0.09526503289906822,0.00918716728557902,0.026645301158224045,-0.11654152207601255,0.06965125813472614,-0.06547408695341349,0.009509350985163383,0.08165942084202556,-0.03381519848115891,-0.006785051551669024,-0.07217257448658934,-0.02562702822556782,-0.05789655377760392,0.09020468313355352,-0.14129105477743406,0.10420747519282242,-0.12560444516799155,0.03132190093762445,0.07283069710539089,-0.13789179314188799,0.028926192034408986,0.03393214539425736,0.02308665789944855,-0.031007888326403124,0.0508517058372487,-0.0014839235552474885,0.03168764672378828,-0.04614132836267253,-0.011939048128383816,-0.03800332584369654,-0.04027547890864418,0.031001004804237918,-0.01535478644424816,0.010550859295041019,0.0007440265135725934,-0.13062441301939984,0.06684992738020487,0.04864241175499833,-0.05952702288586435,0.1497452516614947,-0.13669715133166455,0.06168189606318263,-0.017746362368805498,0.045370046543880896,-0.21243143925187813,-0.04607418614096078,0.03520633804938045,-0.10875658174117159,0.02858641406098038,-0.05862004569515911,0.004345721466343014,0.15445944772874645,0.008396457994107305,0.083617680353091,-0.011691825075155244,0.03258201940508471,0.02317172005950842,-0.050174853775018596,-0.05705516671959728,0.12074123749017283,0.025413572157122335,0.022064648557668903,-0.043609564607161214,0.1906598560771812,0.15468822937788448,-0.01960881949270362,0.016481184942062313,0.13453947757146154,0.032050483535707996,-0.06193515830646989,-0.012133378550896823,0.024400703823743083,-0.20612580959719728,0.092319244555314,-0.024654384773335605,0.08879925142931955,-0.06919186767153808,0.07806151871998283,-0.04372224138861303,-0.0019167630917674783,-0.06489788405536981,0.08107707591971289,0.035943960487864385,-0.0399662879479914,0.014536237153185097,0.10254014110362607,0.057496599648383016,0.0264554160007848,-0.5196269337169248,-0.06109389808324022,-0.0812291296693123,0.1173602071588181,-0.056111391423471546,-0.03149714292551746,0.04563665977060656,0.02445182482585094,0.08380598976034925,0.05379054866395211,-0.183494647501508,-0.04615023209191898,0.03599559717501705,0.037656421030872654,0.10363281352239803,-0.31331777637181524,0.10490310279814398,0.012102525368601185,0.04628045120039702,0.05465911107641841,-0.051425580672127,-0.06838445227537006,-0.06320554238288394,-0.23136545949940254,-0.11933091732497945,-0.02445714336097666,-0.01816614567463323,0.05038572666752945,-0.013772094512107763,0.08944852446219308,-0.06873598876974633,-0.13807384439426598,-0.1426713729510569,-0.059705117142009045,-0.06557809027054413,0.057601716695856786,0.03231441871675752,-0.07664120508689463,0.02500162865807366,0.04919016359102549,0.09154441294249915,-0.010170632615449347,-0.08974798710511757,-0.018540327701114898,-0.06150539211129673,0.030505039594221,0.011860532707872577,0.1156516700334508,0.11541064743107167,0.0022766043166649605,0.12894757864468798,0.09690828106086398,0.07689593917158383,-0.04957585273391485,-0.1376806120573238,0.02080095479834163,0.1454686951953638,-0.07723975508239242,-0.11445638121861895,0.10346153824572188,-0.07713926366770607,0.007646762895955185,-0.042544222728399465,-0.0779128760509836,0.0048648754999770375,0.08852341365193564,-0.03057527934098192,-0.01646141785636111,-0.0009678069499994329,-0.0709019310948172,0.04368455061811331,0.028195884429814036,0.09395487876773914,0.06453333461120168,-0.18429203465561306,0.1670071514141733,-0.016284135441744063,0.004536256869791921,0.017011002342601566,-0.14126777508361252,0.017781385933048663,-0.028320091635000398,0.000921509153671921,0.11095646299751807,-0.14847965282531664,0.07011458681823898,0.06271416088735603,-0.03232651330684144,0.01201906850139523,-0.06842661485006843,-0.0004829178375712252,-0.07666670365474568,-0.019748542222696185,-0.09006165514889744,-0.03225682756895299,-0.2892841826442148,-0.13518287769381476,0.02492849883689153,0.1577564140538516,0.018206168222798656,-0.024321603852423695,0.1351685487390997,0.1582571249923547,-0.04610341058633317,0.08181948637948167,0.02343887109403561,0.06953278481106032,0.15420722893543576,0.05378720640700682,0.04519175803387846,0.04806601590576851,-0.035809289708075835,0.001896637712474163,-0.11680376440359874,0.0046145454043081385,-0.02275113637955772,-0.04189011058247716,0.03463677555298822,-0.14293751634464852,-0.06324478354256066,-0.05598319553702914,-0.02151208828092312,-0.05308986900801075,0.07486677978942721,-0.13192110716925476,-0.036177813826401096,-0.03991265593635907,0.07042213119678557,-0.0020128561668331466,-0.049338660150454315,0.1463716689178877,-0.013108564059381413,-0.05173525075842757,0.10532651394650912,0.03250497329851576,-0.10369677509097036,0.05986113380160226,-0.03160075828582253,-0.044417888841861215,-0.20340120507638146,-0.056125202216365924,-0.0992709469865916,0.017565444510724074,0.05838332639247587,0.01328185181503113,0.18653601349847784,0.07869139675549264,-0.09439392304596808,0.0648306696986381,-0.0748224011149582,0.12416135509425874,0.09655716354118977,0.10498822299684903,0.04091492869081645,-0.040227837818870134,0.09701800993859534,0.023132925777252688,0.008533793871657126,-0.0008831599117082164,-0.042251264793757154,-0.10109816051387317,-0.1235118099470522,-0.08965024599954685,-0.025929538949291522,0.10083109465718723,-0.0074905267767571,-0.011369642262808084,0.05683090699534387,0.07367471260564086,-0.07570537813663147,-0.021292863608895242,-0.01835809966533417,0.05566611426375394,-0.0035589061538584717,-0.005053845804967128,-0.20205692550093401,0.0075259108432812446,-0.040987010802172805,-0.008577129836843372,0.13736223715320683,-0.020313665094878145,0.09201192448262802,0.002204421103743126,-0.0017477438696976036,-0.03485296228981601,0.02850151078123324,0.04010781211613454,-0.05546289781160276,0.038115965224555515,0.040295296783313075,0.05077516297275979,0.035541406451983615,0.018615478767663684,0.006245305829442982,0.0871220089210086,-0.1314547132322826,-0.047234084049176575,0.004459185477504406,-0.17835857669221727,0.010902751012913063,-0.13391179184000943,-0.1015972423490576,0.054744756102980886,0.026138480453822544,-0.029342608511069054,0.12941380883587209,-0.04130387027528865,-0.09353348048527668,-0.11285977010509832,0.0010543943555082714,0.03305366405506373,0.07352848935452073,0.054773954292264046,-0.09577963064349125,-0.006629596986070066,-0.08461844636539582,-0.035232602196766404,-0.06279027134742757,0.17292527108296438,-0.015098478234990756,-0.022795160723612186,0.0751717339643717,-0.09094636300734193,-0.10056357354711358,-0.1575233077747902,-0.048559219153727816,-0.012745815706631431,0.04404559899722063,0.05693180365780351,0.06930194299401683,0.05917244817712291,-0.00965832565985451,0.44318877099809145,-0.02647579828581887,0.04346139440776251,0.05177786745392844,0.017245656942239947,0.030745598139011572,0.15187408572315259,0.0988191087277481,-0.0277681282965358,0.04891101739683284,0.0031776953873369576,-0.05139285937384205,-0.19053798662205013,0.02522066736653741,-0.09381588549590555,-0.04609166922175707,-0.025494574011062667,0.073202813511953,-0.04410967247788469,-0.07499607304363409,0.004319881118894846,-0.13256142229659185,-0.2769294170925965,0.04955596551219456,-0.016182258127140615,-0.051862032323526375,0.09149142387229425,0.11387863731262171,-0.053364411472956196,-0.08700241100472945,-0.004224193840909396,0.06922510378536785,0.06558043831556028,-0.0012198315358312199,0.3943222938931751,-0.08543911343711069,-0.1288461840134127,0.003959731228638886,0.15495994503974533,-0.016003377296847542,-0.02311791923521682,0.01428571438443171,0.0705147316311925,-0.009442553088110484,0.0009210934972672382,0.051591765384462175,0.11716194584505786,0.08074705843410246,-0.08991416084396185,-0.13157547726991844,-0.0516173664471522,0.17534794503869144,-0.010169925619165892,0.1280299768162924,-0.01750216251036842,0.05528014203442679,-0.06219137012525668,0.21270146091560735,0.035493130731557423,-0.01420762609439735,0.15423306927840275,-0.18277716183069093,-0.015399675969534513,0.10486573307552129,0.017239236158737372,-0.005074620882173059,-0.007275648484039261,-0.009797735524526324,-0.10970009491234316,-0.025805222933257526,0.06691224818661576,-0.9467531990409135,-0.0012783874903315407,-0.009567504228312566,-0.035227761245299194,-0.06352315020511567,0.1499436239661296,0.12619339238757818,-0.14076648682967308,0.0424115633548801,0.021532299192451382,-0.01568074952137628,0.1464271954087066,0.07729345569365237,-0.09120847639608344,0.07850643500883656,-0.022843981365654187,0.09692053692293254,0.16535033377296582,-0.07028635774326784,0.05823415402087953,0.009243385968822022,0.05747063343676686,-0.0668995366748482,-0.11042915960198484,0.237538482341974,0.14001354105029853,0.013204944241348665,-0.022419737379604194,-0.09632972062356059,0.10287782700119347,-0.08386042138168565,0.04226312909505275,-0.00561957203746896,0.02250427862042363,-0.004292292733260546,0.009649244738776075,-0.012564597979777388,-0.12186504660916259,0.08897005223039342,0.1265492284715509,0.13077681491992607,-0.08434110197539366,0.02857857003333365,0.11560281135139593,-0.057691545076373786,0.009583244523198729,0.0961715986836616,0.17042932009059503,-0.3008057960267832,-0.021707091252336812,0.027635673571215102,0.027319011828297712,-0.09512050330107742,0.00905184477466541,-0.061774632359343835,0.031276458251164034,-0.07181109683902012,0.016725631040654297,0.06542307816763877,-0.016515817499418002,0.037804056433287096,-0.014631281829400199,0.01814529143568694,-0.05708037073471306,0.007945650716657305,0.0009740965729035296,0.052389417921260575,0.01794621681387175,0.13463755305883793,0.0903622513549588,0.0005503359116395666,-0.08306523603999053,0.40081680387651647,-0.021018991724139173,-0.12086618143555848,-0.18860797611461788,0.02746458242136687,0.09524792434276803,0.03605630132171229,0.08479125199282349,0.016744229229800376,-0.050639518864393315,-0.027002396035740648,-0.01876828520900897,-0.0378990053201051,0.1263922648653493,0.03271516991305099,-0.04134314248885075,-0.01830490758250486,-0.09238587887692623,0.08804313902536397,-0.10933444235768083,0.07704135368706788,-0.10589684691015268,-0.022178617869147047,0.14944660664240905,0.09875991158518606,-0.05923143862693114,-0.051590413851663866,0.06238012497084744,-0.021406439542504044,0.12234176636316371,0.00761918023164675,-0.00601098719910489,0.2165201497658552,-0.1319853201912799,-0.011558523431216973,-0.039020926307643644,-0.06785627596053265,-0.04840307526217897,-0.02886572430388053,-0.049886458650221364,-0.07776976716200322,-0.018536391641750857,0.05027795658739424,0.019689549142859284,0.05035126654967304,0.05407930262642358,-0.09187723358690024,0.010764740329728784,-0.03831813043601444,0.15349341723609342,0.11135945310514411,-0.015962846788140573,0.07845152093161754,-0.08502252386241665,0.23657415433365492,0.07552808105648441,-0.004536862124347907,-0.053623566767121114,-0.014648318587969507,0.05969068044799971,0.01748795273917422,0.01511820935862929,-0.01568477174638999,-0.058330594978377504,0.01943089677620508,-0.03868635464792219,0.13671906876507803,0.06563867683510645,0.10636534178134031,0.013650716870503496,-0.04735481889453654,0.061503511858100025,-0.09538558474841516,-0.03223687077126993,-0.04130233691116252,-0.04435438155323497,-0.28933131844620436,-0.05713200314084939,-0.07186554519193107,-0.018161240056785825,-0.12982782316316854,-0.10206123957600838,0.028298698832125196,0.10452709642823016,-0.10409756389603476,0.08790741168819914,-0.011981887054859546,-0.044734290955543245,-0.14876158636277295,0.08764227170158445,-0.003019155294062501,-0.07176143455910264,0.1312891580101333,0.06651790081718201,-0.06447457686805123,0.11306057095527239,-0.005411311023211727,-0.07710030342293837,-0.2236537540697488,-0.06618110037329214,0.009733331224076533,0.11508748417047561,0.2203131922263638,0.04148757253254281,-0.036960981417306596,0.13919838743823748,-0.020113459704723537,-0.0734873236365293,0.01037357613485968,0.05967020782637608,-0.1545157359202389,-0.09966836972061661,0.1311530880800663,0.1359713825223638,-0.09151450905776344,-0.037222198225736795,-0.04129813208055102,0.03427317060480606,0.08495497341929563,-0.15163585362810847,-0.04416161924950221,-0.03855652761818808,0.011022590869680915,-0.006961940880282857,0.06280785329214318,-0.1315615726441878,-0.0037654000071422264,0.01492214302630913,0.0910663727161922,-0.013239642671986442,0.12879089282412903,-0.1150726165134799,-0.03038977929556558,-0.0989444014316798,0.04765964418234455,-0.008525308736454107,0.10877586824518183,0.06116997890318235,0.11789819898954709,-0.08336177386706665,-0.1267957455533494,-0.04130432568859492,-0.05200616187666734,0.04844234775564756,0.11840050671195458,-0.07183729091541084,0.0005553338188871294,-0.1295478531714325,-0.008590456799474133,-0.06987071630560855,-0.04598464248551358,0.03340268099073134,0.3249539776768969,0.035312821248597144,0.05550069485784785,-0.0017524379639786971,0.1349180414437608,-0.027243941963327696,-0.025422922649306262,-0.020265390621848813,-0.06872263761809104,0.09342402805320582,0.028393371703300224,0.07379471336495373,-0.0006593864292783934,0.0013438167249900238,-0.01688547815632484,0.041463691867583495,-0.08429796713814426,0.028236325726775598,-0.06251509387392228,-0.0242091190187345,-0.08433273586717902,-0.038926978995235575,-0.020368820907426477,-0.013800305312549072,0.027794607598345802,-0.022124015017196717,-0.045896250130811785,0.14912349354392612,-0.16963440783069397,0.09037984222238744,0.010653977745474717,-0.008257246566742512,0.016833442862373444,-0.006142790119775155,-0.03260198232813822,0.14245391043659,-0.1382195256187677,-0.13462064902132448,-0.017809696185115968,-0.1316926463389078,-0.05292195704294878,-0.1361835215697248,0.15241813424018757,0.05064965572632492,-0.006286163854275119,0.004958233262396741,0.008239149015673342,0.04922458343056044,0.09592942543735745,-0.09270708779240655,-0.014476370705959392,-0.09356682803383909,-0.05191989447670204,-0.06950321498261049,-0.040677960620789946,-0.026444570449153416,0.07254199485179393,-0.04658012740559676,0.03569699803470763,0.321415175658561,0.1541871297763208,0.020412430571003896,-0.061721261316380456,0.0547199814341735,-0.04677471235954318
intensifier,0.2786653476465228,0.10557752628747201,-0.17886874812515724,0.20620767122568784,-0.1546912891011281,-0.1497399314144807,-0.429581390668788,0.17538979278569017,-0.20161313010702464,0.22536367230444126,-0.06867174765175788,0.3806295819093202,0.036591396194262944,0.20465751386011985,-0.41530997980876216,0.10196175267033618,-0.16777062626951023,-0.027516930171576047,0.2019501748824089,0.20077149899372804,-0.13106835833572625,-0.0349662998780545,0.08028323831701399,0.07761397455513887,-0.03183562963124645,-0.16915350142812008,-0.0008558492018449512,0.09603793878805289,0.08743501792751211,0.04041065407346549,-0.0526872006242015,0.04583974320469533,-0.3213750573064857,-0.01557131363995041,-0.2569378633226418,0.26921886314552534,0.05081166868259449,0.03068117044982947,-0.22305770127238053,0.13518175218819567,-0.02312349668044087,0.06144959076777563,0.045556726033404354,0.2621482955078252,-0.025873153492587255,0.08871169019503845,-0.19626659390585605,-0.16245210525331855,0.0012489351313156797,0.209536347238601,-0.15479363380566263,0.3567350427672663,0.24514459007374784,0.09642970656277022,0.5389736632287272,0.6865126285507472,0.32828763248657195,0.4863203065204154,-0.13596036173580586,0.37065550059147845,-0.08108435821216368,-0.19039650797882923,0.03637889037359936,-0.1012070345317893,-0.004543306326851615,-0.1473952768552451,0.09655263375781327,0.0576295121624934,-0.09592202068069813,-0.1920896373579046,0.28716872195157517,0.10882573044813976,0.06898230356474547,-0.029456986821650582,-0.37492801357045935,0.054089244001436255,0.02926246417258641,-0.4317882121411306,-0.08851858331666619,-0.24445868351854147,-0.17429930153592998,0.04371134265591555,-0.018371419003046383,0.14092800015010962,-0.2515246938335191,0.11120561359813386,-0.14548293508618856,-0.0030346718962990546,0.00808283922355525,0.09003094273030639,0.20516098533106575,-0.02478247192607895,0.2714072867215545,-0.039433700312051546,-0.17481470803532992,-0.05501063389809225,-0.11645179163378439,-0.12669770047025405,-0.01966168308205979,0.11609104007311251,0.05256368756427938,0.3241730374523381,0.47251079186606293,0.19500629899004054,-0.07330706312082175,-0.003149512961590766,0.2388711378435639,-0.25252202970223964,-0.05045990473149414,-0.03834770777772457,-0.4270411858138925,-0.0019219149627798932,0.016399596733454473,-0.18787867510673556,-0.13448769463432905,0.2636699653557655,0.11726443825361728,0.03726305550069873,0.027803363842227015,0.19458455831652985,-0.004990242300738995,0.03692399803326141,0.17113593987987724,0.04094161635238844,0.1198607156039809,-0.08323731186610993,-0.12383000070080898,0.1415011965525684,0.18502283446004564,0.11257259238586496,0.15319584130253822,-0.13860966135302114,0.07646299655614333,0.20554554890108936,-0.10573791016731376,0.1678154603504407,-0.206585389543699,-0.010442342955721176,0.008198355487139364,-0.20194435734427726,-0.24814153003062342,-0.07321005136706067,0.4571019868028719,0.12984422910141974,-0.3367417066741202,0.09256957203565121,0.2672138561597228,0.1182323240266918,-0.1855752503154089,0.10999203115778793,-0.10381351854782421,0.27989386056787974,-0.1880284234677781,0.04220058941067512,0.25147033278118375,0.16350116231158188,0.2974861953109138,-0.02067961104607706,-0.08099657877172677,0.07089626260229467,-0.17530423744501844,0.04781289396072031,0.09277645069932229,0.2312556342272031,0.004306625800311409,-0.035742676983850134,-0.05326803579045711,0.1592643298237301,0.09977821783745301,0.013845380141463436,-0.11798792481033211,-0.0961561501916129,-0.10258676516681169,-0.1831959234909914,-0.6064527903229685,-0.006545832237253292,0.035030821602070404,-0.10147590329393268,-0.23747674534595173,-0.14170482060940853,0.11344818701836883,-0.20486535641207732,0.26181194499417304,-0.13685366619030245,0.10269465318456694,-0.04509190229281604,0.2079916647525596,-0.1798456719727227,-0.27577999237749695,-0.29087232533599666,0.23967449630941318,-0.05268801126442193,-0.021732884205173185,-0.13660023053213174,0.3072363678532913,0.17995129610262822,-0.09632944134478132,-0.060774075657243236,0.21735804603814718,0.1096974277412215,-0.016437630441557417,0.1277453483641986,-0.084018543568943,-0.06787594817700664,0.15059124164384152,-0.0660373718865545,0.02212435533431246,-0.0847446494968495,-0.19749675981804707,-0.10476367448355012,0.23398267414131016,-0.050500820778762126,0.1520194834895164,-0.014032043637094089,-0.3639248069423113,-0.013670991675556209,0.09217373543236271,-0.07765985283947037,-0.039550414629896495,-0.050597829947150064,-0.0602560085746028,-0.026862558662690068,0.18042747586247962,-0.06760493673721954,-0.057842069119299934,-0.055830777914343564,-0.24840050799661823,0.22990538740362876,-0.3036282232703584,-0.2712587904028762,0.1427696639411339,0.0681560613914759,-0.797316149206662,0.016919905577388587,-0.17383608446253868,-0.2281972117186586,0.08471702694816614,-0.10176387770300688,-0.11961241705069026,-0.36767961712360514,-0.10635082757304176,0.13988329273740233,-0.07165760063081243,0.13436806915406382,0.0027581750489871926,-0.0056946656284519795,-0.19305578138802987,0.08351884788201093,0.22187705421719087,0.07484097672153843,-0.1912055219433593,0.05382509498923281,-0.14951724886796514,0.04383966149629952,0.29774661853407974,0.0025216731632559442,-0.0910560037558511,-0.051275597382530916,0.058038386235921224,0.20599556339994174,0.15612897462178932,0.10566938378771555,0.14618471156388244,-0.010463470800990474,0.30378959176518705,-0.004561547446413911,-0.0034503294894948867,0.17434028236555962,0.2907137823154665,0.13868072020789823,-0.11832176421896688,-0.18430958650032508,-0.10907584753830414,0.15701226753647216,0.038420736608825536,0.0869338335645663,0.21010916134479582,-0.005856251586034874,0.01933063113754708,-0.03415415553518961,-0.26270170245452357,0.016803019457753483,-0.06177069114652865,0.026523658352198998,-0.011455075992420329,0.23389747156309476,-0.05747419668174598,0.1557165416170486,-0.01733958935674115,-0.07351228389661132,0.30915619744852374,0.09804516558995183,-0.22801950844131058,0.1112356158746062,-0.02809637547990848,0.0073815521508275184,-0.16051588217871335,-0.004313461502748708,0.0874799571130481,-0.03400814809752506,-0.41394537026056405,0.11535540972907474,0.23484175946922156,0.0756902916216847,0.1091088903910056,-0.013788884759497534,-0.2854530646202237,0.21406656675793978,-0.6661950566189639,0.010619276465141873,0.26661340053344734,0.09603335353609764,0.06236852984635157,-0.3291731664383676,-0.1232360135594567,-0.04310633858104062,0.3524599328671154,0.31634105396611806,0.14936298107414056,-0.1642543642932793,-0.07478381699537817,-0.06032301415699908,0.1411714403945032,0.03061619767567374,-0.025370185533889103,0.026828939429664758,0.33875270701357746,0.035365197878061555,-0.14611917594365223,0.14317422145218425,0.16627560071713232,0.03381608810777931,-0.1136801916500557,-0.12155912255234352,-0.09433663054891651,0.23887101879693814,-0.22096947143051884,0.2584836415253214,-0.06151272012545707,0.12576399734035631,-0.12038644865288427,0.07609474402860184,0.04614231578638951,-0.18105263504915092,0.04444426508829875,-0.0457495687128656,-0.34811956889054196,-0.0790444461590855,-0.03212723369289858,0.20830069815036187,0.33985879028074684,-0.050318803153939724,0.06964217984275979,-0.0327698726067032,0.08614277204769437,0.16121218873198764,-0.10532744122634859,-0.24475759166954134,-0.011273910215545208,-0.04675993289873245,-0.08401258070418868,0.2013764717932532,-0.10513247766335693,0.2369676671434982,-0.024236188985520355,0.6921076078743558,-0.07937452164678359,0.08170887605637332,-0.12133711103595188,0.05271104343873421,-0.2166200818722622,0.3555256330425269,0.35723848211402126,-0.04389640374752179,-0.03977707553152465,0.018869172727982424,0.1191080644445997,-0.2788949856484846,-0.2365627887453756,-0.25828837882636624,-0.02113063545258661,-0.04766906866103777,-0.18040564418312688,0.35187387299462086,0.024968445994394024,-0.10961748280406672,-0.03311991689662656,0.2881452236965215,-0.06605718802555718,-0.582591891315578,0.0688133007562287,0.2448518447085402,0.07007189262991823,-0.04359079801761694,-0.0021756918839502364,-0.03428884663943771,0.4013326250283834,-0.033995784982771664,-0.10294675115256274,0.06517136689280288,0.1471276790578239,-0.0482900483962695,0.30208978208251547,-0.017876623290813225,0.07118598478647277,0.05156734689970159,-0.24048364087794144,0.06114483923714296,0.01753380184303572,0.05053716570610154,0.1257625969190907,-0.25557028156341854,0.1782484456204114,0.18371603392366004,0.3762615229915392,0.05423213147505138,-0.029940068665870265,-0.11951986560975009,0.09887082174528974,0.15388069181776215,-0.47341823777971487,-0.2243355090080557,0.09197414488870807,-0.21961115015022706,0.17597584352944912,0.004441010240712381,0.07113605080647924,0.07225227050371144,-0.05485956437303702,0.18055311275969155,0.06711520978383911,-0.2621048718303746,0.1163464611943318,-0.05214657558802835,0.027661560600803214,0.38879806035536896,-0.16808346217086031,-0.11816470879558316,0.008732268441659103,-0.09739243966466378,0.06984405826840683,-0.1275510022055251,-0.24772293531815337,-0.24849924128446846,-0.044271556644187374,-0.3247888663975638,-0.17416344805498477,-0.05008508035256453,-0.07713836255239856,0.02809487785660544,0.17890779773380608,-0.016088403648386887,-0.28418706582858566,0.07835161204325342,-0.5332650941493984,0.005340927402659316,-0.29080936163735466,0.0015260323292536242,0.10379524407430044,-0.1167702995417812,0.1745424727270568,-0.21070291843092684,0.1252395910406404,-0.3480448541421251,0.06813847556828156,-0.0014936800081635675,-0.28682040088677613,0.004496360649958411,0.014198902264082944,-0.269763015637912,-0.2730394696604342,0.015231156302496522,0.10221301476114884,0.10301132736861861,0.1678477362872091,0.21188500038772842,-0.19929887355435771,0.10471075410093193,-0.15164776787019024,0.17625773163273845,-0.0027699354958726575,0.04604802976241302,-0.097594500002206,0.2893010065197706,-0.020195915488550337,0.059618547421362536,-0.1598867404833545,-0.1730682732920454,0.23368691358908147,0.07295546864560674,-0.038246232838312966,0.26129747046860646,-0.0034497653726572887,0.1938091056179507,0.09019890559527247,-0.004193855920251233,-0.02810221447523609,0.24538811659919932,-0.0653064404291015,0.17984741143468758,0.11100486121970446,-0.14313494434215634,-0.029407539824356174,-0.18121616023005366,0.012382096910277538,0.19786711077459015,0.29663540540720446,0.20240012148093786,0.2149017370540629,-0.24173826544897115,-0.03477410522480371,-0.2919782411035788,0.2647921560310405,0.13844697175195098,0.21888839023668138,-0.2712258075764911,-0.015800364241346773,-0.3106563594788552,0.0276252264844135,-0.22548448257520526,0.15077671636525883,0.046424834498257225,-0.2026525033596092,-0.018868095385613105,0.1084872404881298,0.04821510615898628,0.0888565895654106,0.2158867309512713,-0.0956338109486313,-0.18488528201502652,0.17865090016605395,0.09929851801958575,0.1432093992166955,-0.10424851398809802,0.1390562420927704,0.10329132232832165,-0.11241467483665613,-0.27154829051853374,-0.27640065564709054,-0.13751510742518372,0.6263853732269331,0.07784835986183489,0.12088303500263582,-0.11547516295118304,-0.03485149588163226,-0.127467271670194,-0.2763502042334549,-0.07562806294410854,0.11948584732460696,0.09439834340501536,-0.30617075552538525,0.010620440007320613,-0.004004837204756761,-0.0042066705970805265,0.5123442046506126,0.08785008362143248,0.16092859359062414,-0.1411509243423489,-0.023950768470485148,0.22444673201361443,-0.12734580366111853,0.12855912387087218,0.13074570719021433,0.04092531727346906,-0.11909484433470119,-0.0187997561140006,-0.03436037215306283,0.1282249653931112,0.29439375412550955,-0.04616409820896573,-0.04354504991332286,0.015093561051189322,0.043815378661516476,0.12376276006543706,-0.0777793561677628,-0.12357754095420573,0.05349375417765652,0.12549874086304533,-0.031349078347335184,-0.23683709913832182,0.10994656280216727,0.01927422734273926,0.10657589459148441,-0.04253356001547999,-0.007684616710682717,-0.1382278032526904,-0.15327080281218092,0.14038937737469698,0.09581341998000753,0.2965007979917554,-0.028108340165726796,0.11097050937939376,0.01808084337332599,-0.08857647188158849,-0.00995693065123227,0.01993276534356127,0.057510641786396616,-0.022266135895791087,-0.008732421558076117,0.21522667947173135,-0.33451342306042864,-0.05790137129358164,-0.06625444818438458,0.04371258425010984,0.1762457167534798,-0.09663554452387396,0.013186407777943849,0.1672789471011414,-0.30111613445061125,0.11910398710717877,0.11465071497956894,0.2640179153034535,-0.0039027190561039,0.2229860844461687,-0.15900246689480085,-0.2171325133872362,-0.1399277180574403,-0.3200407698819235,-0.13250960495703318,0.29886381920627675,-0.008003503759773132,0.2876683293495401,0.04875130214906388,0.13839668432379135,-0.2872413115534548,-0.1651384575028084,0.18177696645651606,0.32412355123003334,0.20387899440561053,0.050905762455282805,-0.13336917030649492,0.14580967882087267,-0.04071915914620634,-0.061854956614349324,-0.08438856414798969,0.5566646880142198,0.1616823373151236,-0.002535996872181327,-0.21845691343623963,-0.28168400972185875,0.07536696485334037,-0.09391200095037451,-0.25622626695469997,-0.38406234351473617,0.005952983589649103,-0.34954599304777273,-0.07476971685322335,0.3832877718573079,0.0814982833264926,0.38633926849435113,0.11330218336052567,0.1272279516937555,-0.18432391045790358,-0.24014502117880895,0.01474517647271599,-0.222035587221259,-0.09468119359871162,0.017822024246524588,0.1384294941051056,-0.12175156882597378,0.03074470680468834,0.06244712312849553,-0.0006287384408071756,-0.26110176317559763,-0.13405993879892075,-0.02777288840857845,-0.09361604992669956,-0.007923454616121157,0.340906096759865,-0.03391283805568119,-0.21767592530032673,0.07371956385437471,-0.015074237719362324,-0.03719918632529915,-0.317915589851847,-0.04270802165501807,0.12562958353383072,0.05190678630829704,0.17775839555257975,-0.9407692481203933,-0.47872371783473916,0.05170608973945486,-0.04997739176546291,0.061808375072687785,-0.01806630296257864,0.3001412427054148,0.036413826876663447,-0.2180630953343366,0.03121736975037515,0.00554508437011989,-0.06923349172432008,-0.06311659430709211,-0.30278709573504947,-0.09059728631704395,0.2005022725626516,0.23184775328942853,-0.045060029326527876,-0.04651028851442673,-0.044755433498349546,0.03113984436021448,0.12062973774654762,0.011303798613119784,0.07750758777891958,-0.10078826418839919,-0.31493292946527535,0.18441722933654062,0.3481360651773828,0.14076315814262966,-0.08482475224165194,0.30226281908240366,-0.16819436033227111,-0.00999255107032102,0.35789619398159483,-0.15216125902814423,-0.11559326964581346,-0.023016618501484412,-0.026830591061481356,-0.1640204075389416,-0.1144618747401808,0.17869182381953705,-0.1623330739825934,0.22979415318513793,0.11844103990568051,0.44535710083595065,-0.00198454784288877,0.06282189292520228,0.15641886646493164,-0.04343964570705826,-0.1317182126545193,-0.035838189386204734,0.20262510184747545,0.1403995460597102,-0.3305389849870855,0.10183786857396862,0.06166186218966647,-0.0034262963546232107,-0.09048764851910494,0.14672526262424423,-0.15836174456128913,-0.057584576050626946,0.1729453013063931,-0.19997111839461615,0.020029420613091094,0.036203361517572266,0.3056156344796677,0.4874292533851885,-0.1890314580350572,-0.19547523053233726,-0.028527916546804154,0.06143436227894046,-0.004833870302678808,0.032138673838681,-0.08685200293178648,0.03127322713900547,0.044683306362010344,0.1911115900859771,-0.22732508135877263,0.049097680429649244,0.07348523845234921,-0.024742835916339904,0.1143535880821854,0.05034559960920148,0.11683146895441382,-0.06318704343278037,0.027483287198811133,-0.22935467417413133,0.07221906638988891,0.12745622840224508
voice,0.5902940558806341,-0.037200897762328426,-0.34432429233028894,0.013677772599437749,0.007791066837584195,0.24850456373916643,-0.06520187481224927,0.13102203269861223,-0.1722521893573706,0.07239805689710888,0.14873046424873,-0.14990936733288154,0.0192439075166612,0.16815868910201537,0.12515676132293746,-0.14990701494625386,0.13452468297667455,-0.20352739890920665,0.15247870237060981,-0.14545984426610178,0.3348785379556808,0.4147518257694039,-0.23425938426996268,0.02723283068460047,0.03896591678568279,0.07798416486837466,-0.1493019648234828,-0.047969617982247886,-0.033961211789035946,0.1177878337563391,0.041978101318666236,0.1948241689819793,-0.16164393610389968,0.05347355570514541,0.11710267928065606,0.25458689744540103,0.155620219763493,0.13218945334522636,-0.22302349270887764,-0.25462054952411484,0.19864268935276394,-0.025903023686863872,-0.27851573618956266,0.05659144111087138,0.38155792603754324,-0.13860030173758928,0.16501755650298192,0.0913493314515399,-0.07692185106025881,0.19416876189206375,0.13931061308392825,-0.2064671700388474,-0.08822162427713312,0.24621658015027276,-0.44094270895404675,-0.09630972691429118,-0.09645690155591957,-0.4512547000905525,0.2067485745213258,-0.4199489197642373,-0.4140048547274572,0.35393545636177964,-0.4117769117387939,-0.0085430264889618,-0.0021351538103362515,0.05698178971316215,-0.10010709052245872,-0.025973689795274334,0.07647311343078246,-0.2773967422634969,-0.19305049814688321,-0.2326218359511223,0.1658969188573611,0.18208682609270896,-0.11049051893585371,-0.020373996846980637,-0.10976248229523697,0.1296962646729671,0.09987205068237924,0.04342992163926975,-0.10873018258789562,-0.37160194693749166,-0.16969626628907192,-0.015277385511698655,-0.08097219559254056,-0.22819777150963075,0.05323536465714036,-0.00046656066770624205,0.03745727277621979,-0.3595694126129119,0.17723259711189104,0.03129214612249591,-0.5936770221478976,-0.247777249702773,0.268016839561756,-0.02070898256869502,0.19489937193215126,-0.1010019656864607,-0.10817024559824011,0.04018130366779244,0.09529471603471437,-0.15935871066394058,0.08318676099447248,-0.08696045111405994,0.3465654290861327,-0.29675809716110685,0.10175618643734109,0.1293935009614244,-0.22051411762616713,-0.09883120292912877,0.22340122819594058,0.14022283322406986,-0.030387421236002816,0.11792192586322026,0.289524737272986,0.09867145620664347,-0.04447642720485293,-0.25405609072989177,0.029115115327001912,-0.11419395281080089,0.26025695427680345,0.13218830037992332,0.12393470583196045,0.12576087599140742,0.11004453123087794,0.014187246277368367,-0.01807889589006003,-0.5299600676470005,-0.025037522901443416,-0.5732546020519439,-0.21418072989940712,0.07944163174782765,0.3237051380102733,0.3386920894639776,0.24089212350916733,-0.021206705229059698,-0.05635500390436685,0.2570030170181453,0.02581397805272796,0.49555130349180715,0.10371373294028259,0.08838945694382236,0.2824740971378885,0.17085424665200352,-0.1449217685534902,0.0066665639804726895,-0.24784055773448893,-0.2352501017119158,0.2647040245767067,-0.20758989271622258,-0.08085966030601788,-0.14480734414313043,-0.2173017074540343,0.1429008142014604,-0.04801676395652028,-0.12464713252956221,-0.09394846886597454,-0.12221022243523677,-0.07659551975174546,0.17763561825657784,0.07570266608460857,-0.17230835440684328,0.019269085468215104,-0.12828003726551437,0.2496653487192251,0.39200994909796955,0.05287251473892805,-0.29260501761774665,-0.06560937889578228,-0.33127745968884564,-0.08207514425802365,0.059454965248006704,-0.17900663253102306,0.05768025617745851,0.14984667047314743,-0.10878137382913364,-0.46235698151032656,-0.08645670050520003,-0.16239282022336027,0.10284241231323482,-0.3121206834080076,0.10532524976829022,0.021386810622019456,0.300647256519105,0.0039132755289208515,-0.11545321157012063,0.17439630214555557,0.08547599799946433,0.30901405261183795,0.14780565197374695,0.06654565321450709,0.055629149697277995,0.20285365080158207,0.14532234414051529,0.05302988322524674,0.15897177760614095,0.028552793964927985,0.008097849378538968,-0.19300255053055262,-0.14282747082352842,-0.04815180965159175,0.06982437819460813,0.09836972603688043,-0.3701646995354324,-0.014651075852385186,0.29830461992136315,0.28248260670709113,0.07939340668104013,0.5750253102810388,-0.4584035135694395,0.08693620664878454,-0.06618360003077509,-0.029965864724885487,0.1545677327295328,0.03358705967509154,-0.01502975033307703,-0.3916715416061061,-0.17286821522035611,0.2523033770036765,0.2504682974095855,0.279384667957883,0.43671145446548676,-0.5090299084037833,-0.17807361142538264,0.059984187167960806,0.2918866755525275,0.045590441827738366,-0.5590350574076601,0.018189758917999396,-0.07922404171385225,0.2626997923925246,0.07989425282391442,0.268250119250585,-0.2208724804538802,0.1402014781843577,0.1551985013856531,0.266727834141794,-0.15947327171732445,0.3578809628203623,0.21436343356766202,0.07374971913215722,-0.18190696202280374,0.03800267453198903,0.1195841153921708,-0.06610394976591766,0.13269630673225075,0.06821414645366816,0.19292040594209056,-0.06645127762771127,-0.2038731527687454,-0.3187681580783119,0.012375983252433515,0.014954646163431439,0.022336823000221155,-0.04897718650530459,0.050578015476108455,0.2444227419009683,-0.06434099634203441,-0.31144283210903784,-0.03723023087192611,-0.1746974738917058,0.3527423230958112,0.16429105681024983,-0.003467231926003425,-0.1426257672661202,0.3155622041024619,-0.001229553279837177,-0.028386815020723842,-0.295994756941648,-0.27032796573506396,-0.09719298451278549,0.17823540554095804,0.46272495703156047,0.09981428195136882,-0.4673771113427839,-0.11218402072564919,-0.16194746278951883,0.09762329252033726,-0.22860031627035066,0.0032126189411574176,-0.00793995566285617,0.03590047640818547,-0.4589020197876783,-0.2885309972185789,-0.13765972681602748,0.19238364394076238,-0.13582023975639718,-0.14726887803235694,-0.006422390683868896,0.03040475952759962,-0.27622335735849174,0.04420269359156425,-0.008684298735056512,0.013663183106378204,-0.11447880652399932,-0.08116611322540894,0.013877899477581212,-0.11720084810310646,-0.22590900895967883,-0.05233240126951459,0.04751675212136305,-0.11431812864372777,-0.2553400875623928,-0.18680585362472885,-0.03759007108534062,0.025057290857288105,0.07490866995579773,0.449794729684599,-0.07673541010198116,-0.24874942732034155,-0.02621825464566952,0.27626564412217997,0.04960765315159281,0.26165207019673037,0.039654926578877626,0.08552830499681997,0.06886466428461491,0.07510089160937278,-0.14794438429090834,-0.13089498762665233,0.624847074774945,0.11445667685993882,-0.3303588853707014,-0.062217524366967876,-0.16693391243670083,-0.25441142329194544,0.017366788516476796,-0.09989227250909531,0.20594213219596028,-0.008462087336203104,-0.18021377085600085,0.11657690678121785,-0.042109718661381274,-0.16824337774279588,-0.14310890920035377,-0.09917207693918238,0.12636805989257283,0.11732169762792996,-0.1811570930446924,0.20920485571771186,-0.015763616106478008,0.05703473801377212,-0.1327104515801479,-0.18092057258903949,-0.0913432710131014,0.19390502317503017,0.2881410941884277,-0.2707645440597241,0.34180120037359835,0.15581924313441695,-0.1442147054933222,0.1323771011530063,0.04670253191420484,-0.2388326989180572,0.39735165569995334,0.11303514716858978,0.28337849072127463,-0.08648653688228106,0.16721194243131002,0.159049976448068,0.31681149959560206,0.02353650863577084,0.008964666057367917,0.04014952899031293,-0.0515928757020148,-0.7013301301118607,-0.07686862012895337,-0.24273184957793725,0.18632529196748915,0.03592048789394794,0.14805267104971273,0.08310596606401698,-0.18599991518375067,-0.006277226960315381,0.2811869208522899,0.06345154258377915,0.00741127823520281,0.09459101647605174,0.17567345053176364,-0.054093516312691214,-0.10385003708388142,0.07242495294172993,0.11149493983808674,-0.03579364988787026,-0.06092680261929184,0.09856503051686698,-0.06846447400323148,-0.06894936289438394,-0.07300355766127259,-0.11118041731307715,0.24032957813063105,0.21234473312901347,-0.14204318506299915,-0.18160330727712048,-0.25069157352623384,-0.13974805965602083,0.031637545457925166,-0.08100966400468887,0.28328627195027783,-0.11372346422613692,0.06845342914608046,-0.12189573332242465,-0.0747665831831235,0.05308019625627106,0.03976871370451712,-0.1264421753308195,0.23770411516539966,-0.0642338620048971,-0.5770829853996791,-0.06098919127165445,-0.010233326602575248,0.009571541405858202,-0.1425449612884183,-0.2683213944666913,-0.13833579566600832,-0.19797024606171715,0.326895920513332,-0.0732031465510784,-0.004127133603147911,0.20495369981266232,0.14659361910103638,0.20692787699110893,0.044052390202661315,-0.060565399626302974,-0.4406921043601523,-0.016264049480063048,-0.16273973286154478,0.09141244223780803,-0.15167225300892126,-0.13933561142065448,0.07334444694445089,0.2553068248713245,-0.1521245096146441,0.11425641648570857,-0.14866699337600586,-0.27295580806088826,0.11211851952407303,0.15360478653106288,0.18252481740532708,0.35589913971066184,-0.1218634214897484,0.3154341858518747,-0.21123028599411375,0.34091697832839485,0.2578287240472306,0.5072027596144684,-0.15682182961179653,0.004681772846162525,0.44990650868969767,0.27652502507983096,-0.11605756500128736,-0.05234107135791441,0.2193009016286125,-0.12328800470882734,0.39709691938783437,-0.07687956586248293,-0.010771070273848915,-0.2345334201953085,0.05859807682358406,0.013025684267041272,-0.17194977675647535,0.19712728046819095,0.26494411246154365,0.004489688936696152,-0.4502328448673788,-0.3641856115184528,0.21299642831046614,0.19727583914187724,-0.20437817849311415,-0.04906006053134327,0.4868722780255022,0.2915088298547931,-0.05818723071276839,-0.020586728692118396,-0.1416548874954107,-0.2296693043998213,0.006652437879920316,-0.1577148657076747,-0.13550839794327085,-0.039844883211769676,-0.0016163053488558162,0.005628665149325977,0.29010265494937626,-0.08449410012984894,0.08240610136407438,0.207005913528578,-0.02021371715059454,-0.06795134833383187,-0.17274383456894377,-0.03860457292863919,0.012804207626927322,-0.5606764641310441,-0.12151434383073309,-0.4418144144792582,0.13351735304975362,0.28583339935301033,-0.027812249663969963,0.34529463539912386,0.17715682566988591,-0.2867151016309276,0.14463717545883875,0.04833136547932799,0.12396692921888372,-0.1050031696078675,-0.1837928724256697,-0.049681612461483386,-0.2505975608929338,0.3723888266120487,-0.22146670856856462,0.16327577964797158,0.24285698554014262,0.28798721946633815,-0.18560680993050363,-0.35373575623869863,-0.2758675002627528,-0.014760594700715557,0.3920014373133636,-0.0030997678074557553,0.21319307834762777,-0.22928342421018286,0.0025523256083480267,-0.011353516686685649,0.6592497632599739,-0.04781820200966579,0.028474134850036394,-0.17547690823623213,-0.2655415590066619,-0.345522809155335,0.4906005912657632,0.25233130978115337,-0.06518382657813301,-0.07524932357930433,0.17610624559045254,0.051108371265968934,-0.36280525894162996,0.0021898156060654313,0.2109748812700405,0.20884493902168294,-0.13853865591265474,0.009240982929385425,-0.1867660357918269,0.15325724643217406,0.14732764147094185,0.3894693714855343,-0.09237301796204864,0.3286397076023592,-0.03566868924369891,-0.11130936246068392,-0.16723494760717428,0.04112448989028442,0.5965512572683883,0.32610209932098744,-0.11925730717984542,0.004434846211278062,-0.13311226041820953,-0.4649726591369068,0.11603779557276288,0.3506562454007106,-0.058197436219872806,-0.2710707194923683,-0.06515103412044261,-0.20772284407291344,0.07539142469144443,-0.12046902032352372,0.17848207419759862,0.1028105818808902,0.2807416451690152,-0.02256704228068276,-0.14997278273696243,-0.2931976405993074,0.054786588324655536,-0.10156951840496703,0.014085010832990172,-0.1044849883804951,-0.2244269707658783,0.03848659329766103,0.13871851029580062,-0.09498186136404793,0.2563210250707772,0.07870826511699949,-0.13427173174997892,0.13903297035478052,0.14075113438674886,0.03427765915496629,-0.19412156879240486,-0.27702346246877707,0.07114251709771438,0.019206442869719793,-0.048501037957839194,0.23523613328663417,0.0040469726429701175,0.21247982709653762,-0.30049395625609504,-0.36457360606413297,-0.0857708288232324,-0.21554921635956129,-0.11376593623422114,-0.002991147130061588,-0.12027792645338618,-0.2469590959171913,0.10231492108622176,-0.28452096148329725,-0.13056766052211574,-0.31460344394111894,0.2626492376039724,-0.2123999873492692,0.026068133200132404,-0.15705787509957717,0.2858826187822798,-0.08225976610227746,0.0554042748544992,-0.3384970922526157,-0.08692765169389217,-0.18836459267642092,0.144897122573846,0.04432417482412591,0.16764685729268916,-0.08688122116565306,0.031201721097192714,-0.07411881856056315,-0.06513667415328578,-0.42507151559471357,-0.23285285224014612,-0.11255432140369606,0.08695986782635032,-0.14455278071776112,0.14956642719580668,-0.3800112252420112,0.08817705150875992,-0.4219879187418726,0.2303894812216861,-0.13145019475387337,0.34282893718258317,0.06515594776808586,-0.1286646849858924,0.07937275634018766,-0.18643824463251432,-0.12126382971288033,0.09719335280060303,-0.059589688467311414,-0.14050933058460946,0.21830455710776225,0.3970814156446514,0.1297883395673659,0.01822476886679354,0.3776749214870695,-0.11678774904040685,-0.23031198860898908,0.10924702067656741,-0.05496215988327377,0.15125925516418787,0.1198071249064417,0.004271006849934059,-0.3904253069949037,-0.10052976434617147,-0.11736256200612505,0.17099987429170627,0.0635804732203641,0.11710414649240217,-0.36799790264378907,-0.1658708716884819,0.22224788114455485,0.09867608318529897,0.010094405808660372,-0.008033993372995566,0.4854470905502287,-0.3174724645356259,0.10978082173755684,-0.23664295800317708,0.053351585568891774,-0.29856956653782174,0.3450763466394784,-0.20670726143081672,0.18832227408326707,0.12038644537503206,0.31494719222124623,-0.09835537075359828,0.04787037050459787,-0.13921762258809983,0.4288147814302693,0.25736614906002653,-0.2514999611288594,0.17173375541564792,0.005343485937832731,-0.022821511086991837,-0.1823979452985444,-0.1782190901620021,0.0799117823697946,-0.01959958148861115,0.21666739705977417,0.35408586894127675,0.3489122784629054,0.1383635180321028,0.3835234983477367,-0.3578323767832785,-0.21047235110625606,0.0843197882405121,0.283477753943908,0.3217789075069358,0.09898776685306508,-0.2907401852377117,0.08515250779454389,-0.03465898201290674,-0.17850942904810566,0.22725663465498616,0.0007012457413041824,-0.16573783021700192,-0.17285570802579284,0.0415858161647348,-0.17360527182443383,0.1213372984361501,0.08119965459510824,-0.3198822567494241,-0.14609978133012788,0.009819860002461269,-0.06311433930586174,0.04819960889111186,0.2120698750609704,-0.29145372784026957,0.34487496392237926,-0.20149313601658378,-0.2222191556669003,-0.06947924525446339,0.11856580230158534,0.048260740160507944,-0.06328860443057986,0.1627819339905244,-0.10986197321173305,-0.061900491076173805,0.148565874428829,-0.1281872156200303,0.020267671624735733,-0.1973402161245736,-0.05578401866076113,0.12025619619344921,-0.10437226227403634,0.25249584790435375,0.15126412466682373,0.08440537713673318,-0.12322893047807279,0.06063982795116821,0.005000465682069246,0.012836913001190555,0.05037777105143344,-0.04201113547572849,0.32806821000062397,0.2296616831119105,-0.11033209416673366,-0.24987293848281708,-0.2902544052044878,-0.16898235793016306,-0.15832541952767304,-0.08636209624345842,-0.0742371847365462,-0.08188034744151979,0.20480508359426264,0.11009362001218695,-0.06267757497033691,0.036630033015928785,0.17562994394960155,0.19827711498885284,-0.17146663639327783,0.10784125136257554,-0.13964907851852443,-0.025527236367477155,0.06046685978223083,-0.024251919251751537,-0.2877149574834007
negation,-0.11812603028489203,0.13835402769006808,-0.3728423585353222,0.4133031683464133,0.06796923335200399,-0.4860571294546048,0.2398809575223834,-0.19930287478513317,-0.04373445537485527,0.049241134182532814,0.03160992593069628,0.16015733246152605,-0.16721844468259428,-0.19295841309486975,-0.3281538895794962,-0.1875136729308689,-0.17975792762543802,-0.034540415564736124,-0.11520748895476361,0.02165117094033392,-0.1457875424716281,-0.22321290289286083,0.02701935885391045,0.09306791480493797,0.050635033300992144,-0.0027041553767222777,0.17054151904125428,0.26585022667530905,-0.21821738701406598,-0.11602135372549587,0.1655651088272659,0.03011937565363765,0.25077180242106606,-0.023552388971625964,0.46247109699069383,-0.12885387673376247,0.043668249904410386,0.2797251054305768,0.36233080958442,-0.2954984415792973,0.23209076540959717,-0.3759804714922682,-0.10417365850780458,-0.1565407984630982,0.0881015516653557,-0.17946784242993197,0.4271163102691435,0.19252215684043075,0.03555547580894277,-0.17236313587249302,-0.21163698804745656,-0.09159656889631415,-0.17663709861357935,0.004926393137123429,0.1625636259926359,-0.7214224887676032,-0.5508636004431499,0.4199006634423194,0.1482922449078723,-0.2992311444293141,0.5069952151641748,0.12093433369954511,0.1908435877882615,-0.08337152066731694,0.003312154732390647,-0.038959220223415365,-0.08915189423306542,0.3074617472723648,0.8018419971160873,-0.13671002169843374,-0.060255439803236485,-0.0158613366088369,-0.2240682555697804,-0.21534915222947446,-0.09845958943695204,-0.05845342906313279,0.06169536452513859,0.6131881597656058,0.047323772635587326,-0.23809575020967189,-0.1243443548730685,-0.14424946582509263,0.3447669790638775,-0.06009623151408845,0.13378401617622585,-0.04101814884028086,-0.13298443480057945,0.0014189844352150973,-0.005321508754191892,0.03625105665165064,0.011663850352383227,0.3520267925100822,0.2785442316517739,0.2627074650818757,-0.1293480251513656,0.25987055500655215,-0.06727897385375085,-0.038943979947643585,-0.1427546625507282,-0.21019940753966673,-0.025720868972648272,-0.29790221353258345,-0.30812832238003945,-0.09048810806756882,0.021496691056070674,-0.028581633884944255,0.04753347358183046,0.3236531623041823,0.34529384910422034,0.4008454991718695,-0.2001884361526304,0.016108689714301263,-0.024488986812681496,-0.32796438125724126,0.2800317778299172,-0.1667755969753935,0.1821756412217407,-0.18986196962140958,0.07519221772715196,0.2159488035036417,-0.15658240700251877,0.03164782381453961,-0.6412458458205089,-0.08993844992496941,-0.06305313307271196,0.15875070582016648,0.11331278867770395,0.34455563077658424,-0.07395871999112216,-0.49691746182209695,0.24201885106406273,-0.09317204750846199,-0.11235565810523021,0.04768435761861655,-0.26730699976176947,0.24325138915019318,0.021049632378223868,0.23293501545932488,-0.03520488401848477,0.18796389182319617,0.15188872619761679,0.3544180545403055,0.36237402748144687,-0.16056183041194427,0.039568745455198784,-0.2147049692132763,-0.16911345256756197,0.079584130510552,-0.006543231689811635,-0.15594270530314136,-0.010550777695345051,0.18430519300486567,0.16736561945080805,0.12458543318409486,0.17492306711561245,-0.3159456329572495,-0.050563159071521036,0.16276794871299907,0.04370272952186328,-0.18223411799778963,-0.09275824432493794,0.16502866905459573,-0.04550682913840141,0.026789147945073224,-0.25133731574829277,-0.5139874070034449,0.47039696620644494,-0.11865118047165196,0.12954533043728902,0.29998110432977376,0.21668237125765777,0.04171517242481396,-0.01875635565226493,-0.02840272081780732,0.0030262064512510288,0.1799554031065692,1.0312583166282536,-0.032295843765999664,0.6627401524550044,-0.5018840832429883,0.10739093972711883,0.007681656872184734,-0.370020303352685,-0.09243866100688149,0.045261741106919835,-0.07528594810398775,-0.08325596574541187,-0.23110077624213196,-0.025434178509908284,0.06433592028552278,-0.16775535935369595,0.16608099781208036,0.055416675509827415,-0.20715012212777123,-0.07661695858050183,-0.04876683595953475,-0.35112851451717475,0.2167769421163926,0.3549753236276582,0.4122845385069171,-0.0014412094616352645,-0.17117410254461787,0.16948803030606752,0.010381034692061995,-0.01155984975664863,-0.21966098867552233,-0.3298209385594264,0.061757480401798966,-0.2480021864225194,0.26519366724117355,0.0921017316458808,-0.09661003902056277,-0.030110708380879533,0.6124786850663538,-0.28051054302554707,-0.16496048850460968,-0.1061507863454381,0.3060876689908213,0.15779829299222103,0.034352989404849085,-0.1629791709594236,0.027485477827584603,0.2140998040618538,0.3006379849376332,-0.04114394406896997,-0.19931514266565742,-0.2198775099254268,0.16272025196640505,-0.052922786478888095,-0.03227870750641969,-0.1698152945175685,-0.19085407304666782,-0.4625317289898246,0.24041966937474132,-0.11038117302926961,0.35225603705759123,-0.06313734554341639,0.19537334881906196,-0.31685289674756345,-0.09911168006027636,-0.2552761241259336,0.1314999968662808,-0.014818483015995847,0.0026909386848702047,0.25653595413804914,-0.13809059926413456,0.13844859220323646,0.479515150262693,0.3728374006282697,-0.18088917244882205,0.7686696305466716,0.32810393015380906,0.17050986153740516,0.08393998230122172,-0.3017346207560318,0.5132884092541671,-0.07386726344030695,0.014703742215097432,-0.11067747451831068,0.15427724892202016,0.5012566623541411,-0.8595547765624736,-0.2830945560010707,-0.08566955130273088,-0.2712335570692457,-0.10390641135121444,0.002690451744178774,-0.13140554564403698,0.10309446015099814,0.2268902457627167,0.4899065375024638,-0.5117494487709945,0.1240906286671023,0.3274481987574694,0.1074167677719342,0.16491341206719837,-0.41892817459456133,0.044117914519251636,0.24220353686008428,-0.07518026238988952,0.2163440642910601,0.177138477476507,-0.024617695695274236,0.4291728669816198,-0.0597490450833122,-0.012373257986001272,0.17332495037337925,0.06652350412578713,0.3070530378794457,0.5597565874644359,0.23961868833091945,0.2628791789687854,-0.060049785983063375,-0.10931908884890028,0.34863919596623744,-0.1457065273776082,-0.17121068681888582,-0.30034491704618005,-0.052157805470258854,-0.022959073094238072,-0.2225082633016706,-0.08570567978599032,0.4973474019543133,-0.010898006450919215,-0.49251477815596245,-0.15267606981840962,0.04740525894354136,-0.5226830586391759,0.4930766874355229,0.13509649167076387,-0.2287281265128326,0.3028629921328084,0.024668082675985886,0.046192746639311076,0.08382224680813735,0.31300274895374375,-0.1309925842769982,-0.3678413564903338,0.023372271545789337,0.22979254220758497,0.4572952731019686,0.15486698636384716,0.2861204155983801,-0.033666783837542326,-0.22020341253195724,0.1514070380240132,-0.13504686271796218,0.08944225622931362,-0.020536518940648247,-0.30380816631411917,-0.18869899968163983,0.02271013629203926,-0.1698843592675473,-0.06361497116349396,-0.04833766154419983,-0.09324596014096168,0.3246970776985901,-0.10769884212007265,0.27533102593528863,-0.46895184396194345,-0.21734943209684882,0.19691658094311873,0.09826389968914044,-0.19297055063488872,-0.617232135992797,-0.07283958470805024,-0.30406803810071614,0.05935425878196126,-0.2857927367220499,-0.48829056624728645,0.14620220066406328,0.9043470386708363,-0.11783219829987711,0.30967375196156904,-0.021937306501053876,0.009055640479622585,-0.1666408124082027,0.01623412324733443,-0.16829215975655018,0.3389476218772502,-0.3780925848124088,-0.7791094370640265,-0.028990571371423322,0.31741856931803475,-0.07057380838054991,0.10023243350781265,0.2944823136453393,0.24207835050797885,-0.4223478215394527,-0.2242790291736582,-0.423150973914682,-0.07595196129798827,-0.08753353073353985,0.018022655884768136,-0.09551022368825303,-0.07959972218286758,-0.044043937294624726,-0.34924775448572803,-0.17487150044706845,0.010709399754372356,-0.3338665891851449,-0.22300418319892215,-0.03814135403685144,0.14217040392755126,0.175637340231124,-0.13041873478048308,-0.3392422549227458,-0.30407422844167037,0.06058869583037504,0.439943899626455,-0.41073230295413904,0.17581188360590835,0.057364947271695096,0.19446193419724864,0.09670635094581428,-0.025728334354047117,-0.0818251429650983,-0.29751518464913396,0.056896674432385975,0.06264953624077581,-0.042990380005535504,0.24799213012065688,0.2673090118435933,0.03982425088128869,-0.12892774747580762,0.13298721246775966,-0.2795911058578938,0.37969730290597703,-0.05562631720988331,0.43222441631058706,-0.16254985949193151,0.024672093039334656,0.2383975147211558,-0.10743146634212396,0.17017368225013166,0.03148593398791761,-0.08236902399817855,0.27041622243861685,-0.5451051695424668,-0.2809782922766925,0.4852740902599154,-0.24676969221537146,-0.2399083108422654,-0.10833521591706566,-0.20374013750568956,-0.27164149828587447,0.1319224085597029,-0.022281318567418218,0.09553488206039597,0.09221455215867652,0.07399724241680855,0.10331245107912981,-0.008166087812786223,-0.09021147788948544,-0.04598245436996875,-0.42018278726197356,0.17722025959702517,-0.1762577140930079,-0.18409367782034114,-0.7036030459764696,-0.2957938794047253,-0.11528144107407426,-0.4080973886684105,-0.1554729634399575,0.031992954414812855,-0.2082638196226282,-0.04663318189778951,0.05388596501064217,-0.28274316696114177,-0.2600516957263268,-0.0906860715486589,-0.005259070333598862,-0.3906543906895509,0.39183950211838786,0.03216675735376156,0.6389696647654876,0.1004807197824082,-0.07339614834660539,-0.032212944499076974,-0.09653538598883404,-0.06109636481203096,-0.0287376107461972,0.21862133247351584,-0.12282014885114363,0.7620373823889975,-0.11774515650268896,0.2566362066564331,-0.37426869891395737,-0.09655738086785785,-0.014302576117930977,-0.5449648079479277,-0.018577522010300364,0.09515003665782247,0.10093655757253607,0.2570212125336633,0.2248250452330241,0.12869321757031313,-0.15640162513476757,0.23257484337636447,-0.3285338586222298,0.004201261154534978,-0.01986723097956071,-0.08161869495101953,-0.30959472814325484,-0.03131099533199329,-0.31811223909667746,0.3781771992209105,-0.15626960917345403,0.28992735972402284,0.11989868508326734,-0.16679371647188415,0.10366837921440421,0.053358698847783013,-0.0696881264669698,-0.1605967044683781,0.01638584318206133,-0.06582505688397167,0.20981946611836705,-0.0972316821383597,0.39319561323823876,-0.21650189804814085,0.21923271110041548,0.32341455936667507,0.28944067415442737,-0.243472764460868,0.006303876343615903,0.30232990127800746,-0.25715766433654663,0.005229785446458915,0.17990279528996098,-0.17263781299233072,0.5917839216476445,0.1680932055042479,0.229457368691555,0.21286238763969131,0.32578670705863716,-0.11958402453556204,-0.14386246624743554,0.07212924794622824,-0.1497986492565913,-0.3782969042948339,-0.04234998568577437,-0.519710502616003,-0.3811148051883617,-0.17273967365305923,-0.14977834636542958,-0.2047788535855269,0.5458841245705381,-0.36206887311986186,-0.25445162577313973,0.0037875575619190425,-0.2341033244686412,-0.3860694185085326,0.18782824162503162,0.22780693432788207,-0.1331277386272577,-0.19186577483285028,0.10699457664579785,0.4609239273965131,0.06553105203968121,-0.2950828339350052,-0.13094381988521683,-0.2820651213049194,0.12106176412348912,0.30113250776163347,-0.12521038336328025,0.23428982922479882,-0.057705356754338286,0.1647858533395485,-0.12897336631934558,-0.11949861054293304,-0.23794363010827654,-0.057904759359707056,0.29215303411428595,-0.4071165706020298,-0.24075362811217726,-0.4491443690190492,0.05253033564704333,-0.20978512565014165,-0.2993096574208454,-0.25822712769211703,0.03908947065772257,-0.10484361096979962,-0.3399343238184862,-0.5550537375910396,0.109369363400671,-0.44130943879790097,0.00484486748642074,0.5828723667564318,0.3377339460975309,0.2117213039432617,0.058528452581077965,0.07130589018647092,-0.09566773675125471,0.08327743952709657,-0.1810725875517725,-0.035161164841540374,0.23100609882285034,0.21502512768677967,0.023670824521322457,0.1045130068520892,0.248369062353689,-0.327330221454155,-0.2401226176071077,0.03262615894289087,0.0704776100410208,0.1071039041066733,-0.2418937128983799,-0.12317733783522555,0.10056691782721124,0.2879263216849117,0.04828454439680938,0.17000134352072907,0.5422472814357591,0.0005421388927154455,0.2625287125248362,-0.43769163338571443,0.07820929509787036,-0.06393725820794974,-0.0071434935869009826,0.19280014916406754,0.30915610394674886,0.05192277676789897,-0.002146090153673915,-0.21221375351286798,0.399263355590686,-0.035520213883097715,-0.019590754293942636,-0.049963237602449403,-0.17741014041295342,-0.38234856705081544,0.14526855566714245,0.547525191240596,-0.46631704739936924,-0.29227184401886985,-0.16099707627260917,0.2576456762284913,0.49254437383602645,-0.14253028539241547,-0.3564592272678652,0.37479610610389597,-0.040165589441821234,-0.06645136088453438,-0.24528667144114144,0.038847521970731054,-0.09955197116865003,-0.06864826487572018,-0.2119273783752182,0.015939251643077395,0.06365554946409556,0.3367379405264423,0.21037408480145048,-0.4166559918140436,0.3565717242550919,-0.02721141225689968,0.9430236292465255,0.2733969737095779,-0.09205449626546029,-0.17889471409119548,0.31641882274020505,-0.4664328946237092,-0.1747999931393862,-0.19759835240968193,-0.16589833741580898,-0.2587807748554255,-0.0966696429811106,0.04406429673131621,-0.045896617544765685,-0.2031113301932588,-0.027386192378706934,-0.1482305790366663,-0.01821266797478129,0.26169172932238455,0.02503793828054523,0.06592433869302665,0.1824478340229541,0.14682467655525477,-0.10536556888705095,0.07848567950344207,0.049328338952424305,-0.08914245526760112,-0.22238846124060574,-0.00039802774342403405,-0.3145706958608998,-0.3368243392449884,0.0478863306879913,0.22856748941288674,-0.054526708322002966,0.11615468079514037,-0.10006256797621443,0.022636350794622423,0.1032031520515026,0.12248198317322175,-0.38338499480607285,-0.10590725318839685,-0.02889811272338302,0.047412974920679044,0.09221586825659366,-0.01425092383010249,-0.6438680967300257,-0.09754117753900311,0.25416199626866465,0.13044714540415792,0.3357532346370171,0.10410607045942595,-0.3482318599176058,0.04871151727134234,0.14872156910053547,-0.38070993720133145,-0.19784005680367212,0.009434793060605342,-0.04125449870448455,0.18468369206705493,-0.10386127962117503,-0.1782132401263744,0.21393704449932557,0.19731858555378523,-0.07640027238385341,-0.0817926787495034,-0.20396459319466106,-0.06750074758823288,-0.1050456351707666,0.10013449651049584,0.03154552205448074,-0.3104045080212504,0.029712055044820895,0.20908388438546313,-0.06801367864171985,0.04053846250898299,0.1770250464422178,0.16456339098534936,-0.09377826437473764,0.06286393128905642,0.3237099206983043,0.13817849348564418,-0.1174873107650753,0.14083925003226253,-0.03656868059629928,-0.21219347372398198,-0.3008999459137877,0.41905822412036015,0.39933119855263216,0.03411955510209948,-0.2208182146972843,0.5302082776064724,-0.5251882998802199,-0.07888282234486342,0.14394896672068194,-0.40377212811716684,-0.2945394693240659,-0.43057117763419794,0.3093496113930213,-0.17207225791466535,-0.021302759564051775,0.16988546350469375,0.016158371737886697,0.3264815840678868,-0.0957075436989212,0.6702612499790421,0.08666090012397189,0.39180103323194726,0.13648511188978166,-0.18423611817192143,-0.03571312131943228,-0.238102776794113,-0.13453293818867773,-0.032648795873461006,0.14411511930203216,0.0638018205721036,0.1576805642993926,0.05476632467882956,-0.1256218535265965,0.143261709794868,-0.3585359271580695,0.09941069079301712,-0.18732101052281375,-0.24857965174059812,-0.03978523550054605,-0.11983388245625956,-0.21588338974011767,-0.09895463416375139,-0.0012703804670031718,0.04724400196309928,0.1640569120496808,0.11335744686991127,-0.1058043117825766,0.06686559312094247,0.3071290142453233
factuality,-0.3048919412863943,-0.29085228089657483,-0.29843641837912926,-0.10077506339180664,-0.053723471531186534,0.3039907686751966,0.22816412941449044,-0.09882859969119423,0.13307954325893878,-0.08380835641943261,-0.0018990035801001903,-0.08909158680739115,0.039751955349356737,0.1092884906501335,-0.06342122553009487,0.0024107330610196186,-0.25801698485313174,-0.34505759693958704,-0.04132554097971329,0.11159095862427389,0.05984995383375331,0.04566819209865057,0.046318774101066475,0.2013831170739786,-0.08537179406094444,0.01686106270316916,0.22832901414883433,-0.09959435064853615,-0.05832513513871051,0.0872695502816036,0.11513122254555015,-0.26536623645334995,0.06425155445551307,-0.22320367034127414,0.18276026541266951,-0.19096969298806865,0.0239480602043512,-0.021934198039762823,-0.04520547712139581,0.07251184837110747,-0.12140925053026119,0.005024296298209971,0.2315347625732278,0.1267272723301736,-0.23051848005191763,-0.004701255339482917,-0.049131954039126,-0.005986372896283226,0.08536803525128348,-0.32608555109437753,-0.03349639738979779,0.4012984650875679,-0.30385927148249997,-0.20546180989328325,-0.05497033744860973,-0.2658935860613581,0.2656648650300925,-0.0010859567382528106,-0.10383502034257171,0.18468419171170047,0.1440898099664362,0.14879392891257845,-0.2010199023816168,0.3790082831830568,0.00041617926317918057,0.0046999889585307725,0.11892628184350783,-0.10000820542483767,-0.5933028539014514,0.009300025330714598,0.05581597597132456,0.31760475300872937,-0.1386399093703938,0.21868025026213347,0.35127335160573386,-0.05489799222539657,0.05805263062430676,0.07099970736425149,0.24109432257453173,0.08222426178886429,0.25706429238660894,0.11170883616930384,-0.1852319743245704,0.23575617344280225,-0.016495656962043886,0.2794637633613287,-0.6240565228613689,-0.0007815796166160702,0.084292286768522,-0.11706821291509163,-0.4100542122448021,0.11027206344335536,0.1889278759706641,0.2872910054368062,0.017789429323477213,-0.0784833988505692,0.17758102599332962,0.06262237430964432,-0.011963271287436966,-0.033824347610544626,0.16394011805117192,0.06288669639302773,-0.05332693160168974,-0.0286291281612658,-0.38351145700496825,0.021093810270502535,-0.22285738326048762,-0.5573384552149506,0.17140393719932503,-0.1449153591103898,0.1136578793118567,0.0417494017198206,-0.11819369132287597,0.29466165754481033,0.021906243524906135,-0.02723266675040348,-0.3568814299485113,-0.10215823703095096,-0.13500749693156994,-0.08481927363797383,-0.013512630743690232,-0.09294683688278252,0.19387180055527478,-0.09166772720981553,-0.1041855353952709,-0.04554878941093001,0.017084254221721763,0.03633837276568507,0.3091665306300645,0.16412155984171609,0.16377602079175352,-0.07382246249382889,-0.12666196943268254,-0.03724400905715829,0.020325088755024198,-0.21517120781420604,0.08405964066626168,-0.07283527077151283,-0.017949236163582277,-0.35318441481769763,0.10918025158386296,-0.10625983690030216,-0.057165087924100515,-0.011302756479028403,0.41447512918889284,-0.01688933342538751,-0.14471582624306448,-0.034171660967952974,-0.11488807594728942,0.07920997590810502,0.01438705226540976,0.03876713868023563,0.21057825359062282,-0.5381393108827125,0.005203384302940031,0.088436317640366,0.2242267610932234,-0.031164200218811083,0.10557626194468643,-0.054321675600348875,0.0925427263149521,-0.09132225128354213,-0.06949154544694276,0.08134862377530452,-0.0604620888222205,-0.3971374927132003,0.21049349299880596,0.08682555292976397,-0.03336505707813465,0.033892091459933694,0.16782640686469352,0.22744897038696546,0.08804758585416655,-0.20146088013690225,0.1600990199970724,-0.06916576097567313,0.0907706125289267,0.03879315438871423,0.3471372801932302,0.07589315356937634,0.1746846503010654,0.2301197731676918,0.02191476843531256,-0.26930889312973044,-0.2019407700545741,0.09694251664423124,0.12055019748873856,0.0755666201695375,0.1836818494841639,0.22052271379491792,-0.3462820171666482,0.09588560823723315,-0.03263917756824113,-0.0498721747160051,-0.12910664999473698,-0.11754033272771443,0.005321794622978869,-0.1341786142082351,0.1020279034117191,0.04851831512957447,0.32855702213461063,-0.27123577303757485,-0.11938094217324415,0.15208216245963177,-0.15098958781245234,-0.1907522532378308,-0.027041618262667075,0.04753815275094857,0.10559870600226218,0.10541041006448151,0.0042722854330838386,0.15332944619715758,0.05213280771407154,-0.3270493620077762,-0.014043499101855856,-0.04706901127533423,0.18080171409860965,-0.05976807376018508,-0.20979093364825271,-0.017200234520745213,-0.2570148664259089,-0.279586495776735,-0.18248730547096403,-0.32340755174556884,-0.18436163162266955,0.28567142000397233,0.23846673529387125,0.28971243483091397,0.169552814452803,0.164073499767348,0.06048460752746542,-0.15937835809352627,-0.01941080379325681,-0.00607312023999632,-0.009328611025261592,-0.14292870373341363,-0.09494371817731606,0.20091785859816538,-0.32805962543085354,-0.0008155813373355502,0.046080522043921476,-0.26385385419029805,-0.11060667748328448,-0.10603709427991755,-0.3218064184286298,0.010427937424052142,-0.2436983836149844,-0.11560417565408468,-0.18337947164692053,-0.008821233026316466,0.025653374768635034,-0.38108630203585286,0.009030404956204488,-0.1925507453299484,-0.04672813337281858,-0.11949744860242435,-0.18750744725695484,-0.14404035326106374,0.0323483383489009,-0.28400172293774295,-0.17020808584782507,-0.0033852059798506933,-0.2827655784097978,0.2625641592050321,0.0003246250422569988,-0.21172265180510305,0.00018983668592220627,-0.005555119648345973,-0.08314121705037562,-0.3015713649427632,-0.13530287833092203,0.3262882761489427,-0.16152993540911745,-0.47133764612741097,0.12015320086416398,0.1249174636158043,0.08079481692382938,-0.2644051303400162,0.041198535345181725,-0.1450366940660864,-0.003310910518429803,-0.1061933007074869,0.24496678870969602,-0.11683912981540617,0.3394966723516679,0.09133562012340542,0.02546341193723313,0.0702302924103385,0.08112720282520883,-0.2440644352445047,-0.12096299243095578,-0.043322902524752314,0.49427653081533257,0.07211132540306277,0.06353245807129926,0.0045454221067953915,0.04609331342655297,0.08885875040595369,-0.02744698963081404,-0.007704903798044231,0.044104418650225664,0.33688780735574547,0.1160299983468471,0.09985497187110606,-0.09232494725363463,-0.024700279199602538,0.2032661134412081,-0.2656543961553005,-0.08064003304367766,-0.06797028967084198,-0.3159719864974316,-0.08297503829145042,-0.17213171540343145,-0.03692243852772941,-0.07449887869949598,0.15377325608731607,0.006532557664892564,0.14590526312696525,0.3198001780592373,0.00912110338706595,-0.6704857184045212,-0.20613605367292612,0.12585947823920485,0.02149583449960788,0.10440102884603018,0.07328929976392543,-0.2252096554503428,-0.0710272987563763,0.11056305080337059,-0.06397505349421281,0.3143449259229232,-0.031864144604242986,0.19970154737409077,-0.06243992676462954,0.00622120407037374,-0.10499259058201853,0.09907292474556635,0.09359667194743998,0.09569535093872118,-0.002065369223746962,0.1429009162963655,-0.22856246806242156,-0.039813186378634194,-0.07918526071913164,-0.23755639524505345,0.23161465585606675,-0.002606900206990335,0.18701940030144232,-0.2065444456678952,0.023753796767699394,-0.4042189535021829,-0.3549454378620804,-0.060195572170741715,-0.11273475817051876,-0.08824106295752795,-0.4082259961584621,0.1717891610931452,-0.0014247472087530247,0.0757759668797774,-0.13909437580416414,0.0826177340002651,-0.6538229543359747,0.10253684212752451,0.014022044453441657,-0.025173155031300368,0.46033919432407716,-0.10578587311463676,-0.026803553586523844,-0.0624580805531352,-0.07912232322711864,0.060711567769766515,-0.12394449170006466,0.16357032016396414,0.005809490569599279,0.19074998988630984,0.031194030371198285,-0.1251588899659886,0.2967620168267485,-0.003956248230603419,0.12676820112919532,0.1350100719062856,0.00028057572729268596,0.11276776498287232,-0.18208532988497245,0.16633399273145563,-0.3733486676885171,0.01709022106449763,-0.0056985133057384065,-0.009529972273432101,0.7097133956865811,-0.04217501467122073,-0.03241335663436896,0.25111402141653233,0.16879082684314678,0.03824886608497784,0.09864762095310194,-0.5587445500653221,0.23218061886139973,-0.05051348878571296,0.14500036422935153,0.10337422885364304,-0.010240084102958867,-0.23345022783343242,0.09754500486013816,0.14133242553802833,0.06439169914238417,0.07406400565509291,0.021382913533875583,0.22921774901433228,0.02939699346045268,0.04013607669032894,-0.23903616155504895,-0.17472777178183097,-0.018091007657428614,-0.05546624297266565,-0.011442136865313366,-0.08947009832125907,0.07662999374483966,-0.17022752005915912,0.14623521692042088,0.4239590483535914,-0.04986357677667843,0.15265334598236735,0.2016747771401352,0.48139893080646423,0.07526211573317973,-0.08310904695135617,0.014766144687553233,0.03083708498096606,-0.023404319579742566,-0.14559586329914811,0.09177712999821108,-0.3143483120653875,0.08783745792315129,-0.052911816382076794,-0.01927736229993435,0.2557400161054202,0.15312550977303957,-0.18816488893092564,0.30475944216716117,-0.09605570173199654,-0.15588434168413354,0.06257721532173066,0.13207235544365706,-0.006435369917979867,-0.0860512044542055,0.2834077504058271,0.00553334413080751,0.2005512449517514,0.24707548024562956,0.010381302556383204,-0.06635268152722062,0.23703364069430047,0.06722130342689364,-0.3826498917738843,0.08409921291651982,0.11439003199477606,0.1702494876959858,0.19195546992881612,-0.11677582883517137,0.24374408817418572,-0.23951084530031627,-0.1267128339325252,0.15171725072149694,-0.012277864896157242,0.12788134586074906,-0.041795645548337076,0.19226899893787008,0.08666734518072157,-0.16842238719428534,-0.16709409830757033,-0.3985056856775078,-0.15487695420320638,-0.39387244964332613,0.1098101018030206,0.28062865474989596,0.05608104125853841,-0.06483085805783244,-0.009670715044220943,-0.2129458229502427,0.000436706215004303,-0.015203695966594313,0.0486651407121648,0.06142495219286338,0.015844931942571635,-0.05085779092373087,-0.060657440185841065,-0.03662674655495824,-0.17866764579614228,0.23374667061285068,0.10106259536904906,0.2419867246191385,-0.052717163333592866,-0.042460009733904944,0.036323211823180594,-0.044761924271532,0.016503900203603657,0.3307531465533645,-0.10433235015957354,-0.20165562381063787,-0.1302517956382197,-0.035343822814213895,-0.06318311594693193,-0.3288801367798169,0.09704218504098724,-0.06092875693676235,-0.09927824742321023,-0.19369870171217343,-0.03495717900988674,0.2969843449773088,-0.01937576245481164,-0.5073658577889045,-0.24643893031774589,-0.01844988592098723,-0.07176794039316979,-0.15266418856625755,0.053742904761585525,0.20539884118890006,-0.3718019778742149,0.0629899359037034,0.16811422209231988,0.1607200470761453,-0.19143866066321102,-0.036255723809749965,-0.32650212881762875,-0.047649096701652585,0.2640715464857007,0.13050230329828405,0.011541683355181239,0.09501622112631793,-0.036759141692651216,-0.08407437498884933,-0.26475921131142005,-0.2007660790113417,-0.044063087497807116,0.109108031287755,0.04171549228365594,0.009042465300070357,0.010994999209171293,-0.01006676399551653,0.1278161054030105,-0.05635066964006257,-0.08920706779738029,-0.10780464109634104,0.10340283610494834,-0.09579672382867499,-0.07281264439760171,0.22342872741883874,0.08025971439377558,0.0031573171329237694,-0.057434422154757525,-0.14792351275487747,0.126032876921446,0.1250714894221342,0.08873928294676658,0.12600259091159924,-0.07112858351688123,-0.0373382627347988,0.06037594123626552,0.06811662811477578,0.3130028405898621,0.0672044561340973,0.049805540486141664,0.117182330055,0.0313970350320222,0.07846378851477782,0.06127438495204618,-0.038614685738709804,0.047818729428506034,0.29323131813826425,-0.2549765230626094,0.008862634387059101,-0.08946970245962964,0.2073511280646354,0.03441279154630946,0.29646530264928406,-0.04865260297623476,-0.05409763977760973,-0.35952038177455636,-0.2737110724672469,-0.13684916780014114,-0.08925856175869355,-0.17915988162804064,-0.10860138266082943,0.08362411805615538,-0.04453756112535187,-0.206874632805393,0.1315354623592224,0.2969798977795052,-0.3794139441957083,-0.30689795301092454,-0.06244283715740948,-0.005993834007624529,-0.0904532664517321,0.005681759368615521,0.0016916170607370884,0.07668016705727078,0.17178187903633063,-0.02229188251497116,0.12189148479666256,-0.012411029567912915,0.030830857654419497,-0.09796978653200857,0.06013562542678596,-0.187853812946346,-0.017793359055501154,0.0015610999403120939,-0.0010499045399671282,0.09593351813484692,-0.13467848471861685,-0.06882091726582967,0.014459781026169315,0.06512665949781668,0.1436169399226385,0.21142507942834227,-0.12407591506984507,-0.15319180803862636,0.010864843631515539,-0.030949775209251944,0.09227126076635926,0.10721190188749921,0.058730457138632196,0.29482882849998826,-0.27025509829223043,-0.07144131391099584,0.29595762481916493,0.06154297394208148,-0.2759294903018842,0.015329421373151561,0.2171273323715043,0.058664980134282195,-0.01831209789153996,0.1329488145341635,-0.029003566370850123,0.03307111964258008,-0.1625330442302747,0.09314167321010965,0.20279972947638994,0.26873909928998396,-0.10335149314267013,0.05541977537714652,0.2220904083303337,0.15076209996568846,0.49761476242479136,0.02546496561658421,-0.23068038863488505,-0.03511485307252218,-0.15656230997695053,-0.09087620788154212,0.07074576171182458,0.1285037895273893,-0.484088786325645,-0.25150722569871586,0.24805179004416597,0.06386430946786076,-0.1365310417630765,-0.4569204206545879,0.08713351615015212,-0.3462765365101654,-0.19001016385186686,0.17018057670694497,-0.05516376813492113,0.2741981350735309,0.27255030802178754,0.05728124011409639,-0.22441683544552982,0.3183798233063771,-0.1581991171822113,0.3532961925085472,0.0967640723984527,0.0989699742009341,0.08773765306986929,0.03213405932410051,0.21582347483192482,-0.08308139971800678,-0.0021216166786488457,0.0961641952546867,0.027279092863991057,0.013878174523497568,-0.027568274167621094,-0.09151638916924285,-0.10547841286276133,0.2627194068801851,-0.305280129997189,0.04432342675369294,-0.3035784072839674,-0.034057190290736485,0.3188469491405786,-0.13604937959641178,-0.03906131458743694,-0.15301020555774633,-0.07040994961586618,0.10756973073766275,-0.30612847282707795,-0.17133590503490412,-0.0040465250512732795,-0.10006692741724332,0.07781768706904028,0.3130166077036328,-0.29009361296941677,0.1505936691080806,-0.04261412788961201,0.03625508628801957,-0.07720886997846425,0.34636390664059824,0.04889307103377835,-0.06082576281124594,-0.012498972210788275,-0.13664283882929676,-0.10332725721285546,-0.12319199954397524,0.10596286102035551,0.08545475997864133,-0.14655430924174348,-0.23829115068240822,0.017645950148998616,-0.012984624473107833,-0.023823746918122512,0.2751862436460699,0.005458225748662012,0.28182966125108116,0.13724520932189244,0.2710698960290351,-0.2533767861347216,-0.3841882974071592,0.1273589644433215,0.15187271540721958,0.09972806367340213,0.17738243018162644,-0.008819717938515409,0.10348881573572837,-0.22083133554575254,0.04611489305560371,0.3658656212952641,-0.31402889158726616,0.0733552111934676,-0.1840220726792087,-0.2213887587303647,-0.13931885380723233,0.3993216582322022,-0.17829979232122295,0.13915277569417173,0.22988072763233441,0.032342110521413954,-0.156504518397725,0.08342389072982082,0.29566442668791343,0.344966853637322,0.1663018596492599,0.1167094179427373,0.0397700633371265,0.24878950453335602,0.15520697089618168,0.014338244102522393,0.20818276456815898,-0.07459066367543567,-0.07449254389982933,0.14954008579206773,-0.18887656795954408,0.205800670788828,0.006712974492041583,0.10242026790255479,0.11064109045203428,0.19174575701308214,-0.21254189055114117,0.009798010076337588,-0.12010507326966975,0.1560038515045636
