,0,1,2,3,4,5,6,7,8,9,10,11,12,13,14,15,16,17,18,19,20,21,22,23,24,25,26,27,28,29,30,31,32,33,34,35,36,37,38,39,40,41,42,43,44,45,46,47,48,49,50,51,52,53,54,55,56,57,58,59,60,61,62,63,64,65,66,67,68,69,70,71,72,73,74,75,76,77,78,79,80,81,82,83,84,85,86,87,88,89,90,91,92,93,94,95,96,97,98,99,100,101,102,103,104,105,106,107,108,109,110,111,112,113,114,115,116,117,118,119,120,121,122,123,124,125,126,127,128,129,130,131,132,133,134,135,136,137,138,139,140,141,142,143,144,145,146,147,148,149,150,151,152,153,154,155,156,157,158,159,160,161,162,163,164,165,166,167,168,169,170,171,172,173,174,175,176,177,178,179,180,181,182,183,184,185,186,187,188,189,190,191,192,193,194,195,196,197,198,199,200,201,202,203,204,205,206,207,208,209,210,211,212,213,214,215,216,217,218,219,220,221,222,223,224,225,226,227,228,229,230,231,232,233,234,235,236,237,238,239,240,241,242,243,244,245,246,247,248,249,250,251,252,253,254,255,256,257,258,259,260,261,262,263,264,265,266,267,268,269,270,271,272,273,274,275,276,277,278,279,280,281,282,283,284,285,286,287,288,289,290,291,292,293,294,295,296,297,298,299,300,301,302,303,304,305,306,307,308,309,310,311,312,313,314,315,316,317,318,319,320,321,322,323,324,325,326,327,328,329,330,331,332,333,334,335,336,337,338,339,340,341,342,343,344,345,346,347,348,349,350,351,352,353,354,355,356,357,358,359,360,361,362,363,364,365,366,367,368,369,370,371,372,373,374,375,376,377,378,379,380,381,382,383,384,385,386,387,388,389,390,391,392,393,394,395,396,397,398,399,400,401,402,403,404,405,406,407,408,409,410,411,412,413,414,415,416,417,418,419,420,421,422,423,424,425,426,427,428,429,430,431,432,433,434,435,436,437,438,439,440,441,442,443,444,445,446,447,448,449,450,451,452,453,454,455,456,457,458,459,460,461,462,463,464,465,466,467,468,469,470,471,472,473,474,475,476,477,478,479,480,481,482,483,484,485,486,487,488,489,490,491,492,493,494,495,496,497,498,499,500,501,502,503,504,505,506,507,508,509,510,511,512,513,514,515,516,517,518,519,520,521,522,523,524,525,526,527,528,529,530,531,532,533,534,535,536,537,538,539,540,541,542,543,544,545,546,547,548,549,550,551,552,553,554,555,556,557,558,559,560,561,562,563,564,565,566,567,568,569,570,571,572,573,574,575,576,577,578,579,580,581,582,583,584,585,586,587,588,589,590,591,592,593,594,595,596,597,598,599,600,601,602,603,604,605,606,607,608,609,610,611,612,613,614,615,616,617,618,619,620,621,622,623,624,625,626,627,628,629,630,631,632,633,634,635,636,637,638,639,640,641,642,643,644,645,646,647,648,649,650,651,652,653,654,655,656,657,658,659,660,661,662,663,664,665,666,667,668,669,670,671,672,673,674,675,676,677,678,679,680,681,682,683,684,685,686,687,688,689,690,691,692,693,694,695,696,697,698,699,700,701,702,703,704,705,706,707,708,709,710,711,712,713,714,715,716,717,718,719,720,721,722,723,724,725,726,727,728,729,730,731,732,733,734,735,736,737,738,739,740,741,742,743,744,745,746,747,748,749,750,751,752,753,754,755,756,757,758,759,760,761,762,763,764,765,766,767
intensifier,0.07634477927180172,0.045288595746136834,0.8641074441232773,-0.5831466341237025,0.35250578411291783,0.604447151417944,0.4620062649719856,-0.7822229660415237,0.5108803370797217,0.027500824413891414,-0.8110912174429965,-0.6417266657804279,0.12715676750205093,0.44536792798892116,0.3499001704237932,0.3654429991523421,-0.10087364274317877,1.259111616156302,0.42294678561418253,-0.5826801869116982,0.35813011952401336,0.2797746766134447,-0.6101531309731018,0.31496939429336407,-0.771710742639225,1.1138954459200352,-0.7466238621334886,-0.8276566428482274,-0.15141718350700484,0.31108018563655215,0.3319750709629632,-0.5150930599665137,-0.13513033626532966,1.1291841167073282,-0.24479887073503578,0.19382006764363408,-0.9374469705163047,0.04722472005428753,0.8692333785995687,-0.03235853931987074,-0.03279826144629522,-0.10980928790520304,-0.8615880058151695,0.41572816660492073,-0.04768215608358435,-0.28296456555415334,0.7767610734499901,-0.4278644064570587,-0.3628283798618167,-0.08872142387909801,-0.13111872514026307,-0.3917300093734629,-0.08969835987034322,-0.12474310919523363,0.30667991314957427,0.2324859152543175,0.14750212591748832,0.042293081019495506,1.3559206243859006,-0.7034149213547126,0.34480006484573744,-1.0108525986019445,0.6795823062563452,0.10371358234843357,-0.5768159450332568,-0.21030549553662634,-0.5615661773787779,-0.2664572713071553,-0.4675459510498931,0.3817967672493487,0.5959467526797663,0.09977086697703937,0.13566078980196708,-0.4166240453506145,0.36856622229561137,0.3085811980293498,0.4494920487916129,0.9275657069815226,-0.9675253476133195,-0.6590935859356897,-0.5590864322511025,-0.31649206734136015,-0.06173906846615366,1.0215660895432999,-0.2855746256370448,-0.7380446278175569,0.6288320708060535,0.2563629307265571,-0.3519046624756358,0.0694074723930599,-0.11655233490909661,0.2290460707873703,0.2855632844423481,0.8222777437218585,-0.13453454908140616,-0.5901260762420603,-0.5385189204325838,-0.5468889592075283,-0.14490770764631575,0.439569257446225,0.5188267143229779,-0.37300652716288096,-0.06145270136469699,0.7398256419889657,1.1643221542726758,-0.7370712440475984,0.32053754120997824,-0.3064089938213823,-0.6601621286938049,1.011413094661594,0.489323682316384,0.1536171144891513,-0.6413986005968327,0.17629846773097788,0.2388651331246451,0.7980442980113358,-0.36084926665131606,-0.06887030596053435,5.646221899692494e-05,0.027641910519537887,-0.249646944139902,0.9697699534045325,-0.34856861746704454,-0.12197388487489437,0.02332512107698451,-0.32544760578338,-0.6248372378594766,-0.3563976159529195,0.44051730471058204,0.5944695501540631,0.6688920541689827,-0.8044142804072353,-0.3407062436575975,0.07604401090801113,-0.4488999267141628,0.12505963551205057,-0.7443755424716528,0.16340142595300955,0.3292205578685905,-0.3698344036714084,-0.6341282788091752,-0.06596350184462352,0.06669610945020436,0.25300922797712855,0.8311444636797765,-0.6756734144309898,-0.11847696061951216,0.3669351012973746,-0.6554217578037643,0.3101888646015125,0.1285139148123053,-0.4306292296936989,0.03803509274195577,0.38071782738964377,-0.9772908468682048,0.13769462484725306,0.48538005445864396,-0.24380219349872287,0.4517123784606798,0.1271706137095573,0.4466510391372972,-0.23595444663036375,1.3657425600367352,-0.7154080311451279,1.064165008357783,-0.31656982783914367,-0.7372972781085289,-0.10612888970247557,-0.6285991267082666,0.18409735472638142,-0.19961696812388907,0.7518155818725193,-0.7298163253073158,0.3030882365108829,-0.5541077149361302,0.5047830128724976,-0.2889758982771727,-0.27506466915909,-0.8758726625621545,0.10068200324048077,-0.28224679409456915,-0.14628916182529372,0.009075893053933177,0.20633205695138576,0.4551477335484198,-0.20427766517507637,-0.5684985602671896,-0.19631136970748517,-0.24718826799894728,-0.8090448217070766,0.5330032862111751,-0.270247000819349,-0.2873315277512394,0.7831707781301995,0.10549138166595676,0.945435778094527,0.29052014463628245,-0.4488187146582088,0.12452169443917974,-0.1806602048533284,1.2084524288604412,0.18003500205328254,0.3661819378800864,0.4321125785924701,-0.3749187804715855,-0.31127762090041455,0.0955307487281996,0.5556706437976526,0.24269140585241564,0.557354236021203,-0.17692228259803353,0.3938287598396479,-0.2999712277583957,0.13823479514699788,-0.35631301944629434,-0.18175312963378998,-0.40344405715275267,-0.5090649085961201,-0.5636524752133976,-0.04755809512983787,0.7316951673366051,-0.3716771778668183,0.09203205114158305,-0.44427250389155265,0.3063567066437585,0.367995688647252,0.20757606411661783,0.8580331129766026,0.9013969696573025,-0.18954030625548934,0.09666769837270107,0.002784971979263535,-0.1576979164426024,0.18954102602610068,0.27828376282622086,1.2028636339352865,-1.178526660010112,0.4833252978210749,-0.3914492555289547,-0.6231142454816587,-0.0014610744162484185,0.08671941301494879,-0.24546955873148374,0.22060377468260733,0.21250232992549023,-0.034787022303460244,0.6298366631393117,0.27671761407218665,0.2814727179491073,1.3485985312423494,-0.2515844187531539,0.4909842877986583,0.19922426886224032,-0.4908173988944846,-0.16917203643110362,-0.2767646463528746,0.39747219654557475,-0.2533180996274944,0.034165010031246286,0.5265385853328935,-0.35032326170176054,-0.6054276156147406,0.07720885428348682,-0.026750811965170953,0.2961157395693138,0.329200709554238,-0.05314327911501421,-0.10769944478764473,-0.8833622493987087,-0.8154090821011598,0.13616722686154656,0.5400714398900572,0.5375271814594632,0.14661606920544218,0.10020435540541986,0.2634782234228182,-0.8298007369322722,0.8656575777728496,-0.40760998120003095,0.40729039566842923,0.47920906669250757,-0.11160732987745406,-0.4586949829468996,-0.4981508227432823,0.3702244107732257,-0.9003760194325643,0.30817394245667357,-0.7688471049407596,-0.06145991227633778,0.39463827334050505,0.4536705089348285,0.16114493502655736,1.0338436242235245,0.16015867549021937,-0.7314675213126395,-0.6865389070909453,-0.6339795811825054,-0.22231631811556954,0.23035012984231432,0.8849970785495118,0.6092561722077857,0.29464853922387957,-0.2066582771810198,0.1856414359864216,0.09450789444835231,0.039444883504751976,0.15806353902549675,-0.33752518471568765,0.7545382347664316,0.3084107926562367,-0.09175246610548068,-0.30169251777293965,0.031870240495324734,-0.13147581645534195,0.18961968496687495,-0.18138043500701714,0.04551189665295875,0.423265400746057,-0.34461218274655286,1.2144358514960427,-0.30937603667096686,-0.6891024256888242,-0.17517199792340873,-0.4713414407789488,-0.5016871104008765,-0.277370660365145,-0.29025264894431413,-0.36158242096381865,-0.48710061774485114,0.5030900068801534,0.5109985472019247,-0.3509839372289457,-0.21411409022648575,-0.5961679309990695,-0.3920249675039718,-0.388591166360684,1.0374817438267518,0.07332197462093287,-0.22505018014849842,-0.3305860040657818,-0.07871982909432548,-0.18364868310587676,0.017207075460164787,-0.2013418355062237,-0.5618472594816452,-0.0022884169803424293,0.1240904291873426,-1.1927324573171993,0.5406997299462385,0.8769562757129656,-0.45415205407678394,-0.3393358536840927,-0.5588661469638176,-0.5617289415350414,0.8301047537266634,-0.330163406032808,-0.3278094348256941,-0.4060068035106708,-0.3707711370066673,-1.1115748294968117,-0.2971511727578689,-0.6550960837327549,-0.3820881589395895,0.11394120915678327,0.12063696125620199,0.6812225647046608,0.7469135996868314,0.5023974297626855,-0.12338597844740143,0.30556556879872077,1.0732505640072267,0.7275059630087023,-0.755344546270053,0.23565763167081233,-0.21715696544028562,-0.16624059176224987,-0.13924202220527024,0.41535431230578246,0.29380255545656975,0.4222157628327734,-0.008489797465215252,0.5459476184897457,-0.5088130404982267,-0.2861989151179988,-0.3808020841301051,-0.5902869676303745,-0.921104604944549,0.20247991538950325,-0.4701470024090463,0.044639635351524265,-0.29863032553386787,-0.4164327754209544,1.1645153662471468,-0.29963306192276673,-0.4628710545244522,0.08226607031400934,0.5766174283802843,0.3520250410838205,-0.46972507710270406,-0.47127809284077454,0.3416215657010189,0.10452279575395973,0.17538992874213027,0.4779274113268297,-1.0840615154502242,0.7980813292449377,0.4387382651125632,-0.9413089001506143,0.07887122909543233,-0.12063730874470366,-0.1982405309428156,-0.11895661940474332,0.4110147805791607,-0.053262440047018904,0.07879979407605944,0.6176401325573451,0.44419703228272306,0.512953423943626,-0.5941166005089329,-0.11740535260300518,1.2885285392284176,-0.8661243306701607,0.3029788761161514,-0.34332203668647315,-0.2319367094348683,-0.5213655751664378,-0.8426043278887124,-0.2405194017327366,0.8126281258752982,0.3803241778454333,0.17175530596032568,0.05973101194499719,-0.3998103298462437,0.4648348785148653,0.22986072255611872,0.4081382950760567,-0.24931876579831203,0.6710239087096055,-0.3092945832481492,0.5210571703617447,-0.8564297072968403,0.7254882186186148,0.31059441564635587,0.12381962380098158,-0.3946985815167759,0.20437526343621942,0.667013014978578,-0.2699996241157911,-0.7209440464395307,-1.3452392067550845,-0.41723900925256,0.3922506967273428,-0.6161486397037291,-0.7952276708384145,0.6270315275248608,0.3414952827037917,-0.41200497227320937,-0.045254337362693874,-0.12905210954360427,-0.6200132364147993,0.2951356879185772,0.337311223239185,-0.20954721723625358,-0.8432529517527642,-0.17938690984936123,-0.2513500336945609,-0.5542030784717499,-0.5246414103065266,-0.5075652356501666,-0.6818884358884446,-0.5020096072543934,-0.07045606166090965,1.065764741062191,-0.42328258785661615,0.030686278974961907,-0.7437923406164081,-0.7180107868004245,-0.3100499256213817,-0.31356632541377455,-0.21535632383774755,-0.6239405651082565,0.6214809909780674,0.08746649917578853,0.6750031915349689,-0.11604603846300657,-0.8205931497982254,-0.3388041472672618,1.0213203380540026,-0.23270022907629984,0.06060713085808794,1.005864305239116,0.18144245582354718,-1.1364503637989443,-0.6075961927645062,0.012830966581495396,0.7284416501959537,0.19553014083346235,-1.0525205601642804,0.15885090526913664,0.6465413683808332,-0.25776942440176415,0.3442653861469163,-0.7115161447837919,0.10701393302167475,-0.1543312140957664,0.7244396433723337,-0.9789583797830085,-0.7273203869386173,-0.3211270261306269,-0.8153023426651672,-0.22523480417793407,-0.143921014973513,0.09104831463940333,0.05126045244497753,1.2313974108206855,1.3568267535339433,0.4290264461874586,0.12930972846271266,0.32485575883068046,0.5256169605501787,-0.4105736032716429,-0.4998727287990635,-0.5813020256537276,-0.2076389162267924,-1.101172310345619,-0.06969128707326822,1.1133046438173553,0.39899515663068946,0.12503735495437315,-0.8186534156204488,0.5540644526150115,0.29596085354280943,-0.4398354530616016,-0.6712464249273896,0.07468319695709068,0.13934164787599007,-0.6886873066033999,-0.8769623542542336,0.8587295380810732,0.3086535877440483,-0.3008983926881827,-0.23300631433475655,-0.3581413259928813,0.7007210472304743,-0.4304435980201575,0.4001585318297922,-0.1971001707105821,-0.6734138143940738,-0.0255799569452124,0.9872245808337771,0.013500093754001694,-0.21292935284795142,0.01406862569335281,-0.34960654146918757,-0.2424322110726866,0.2894023365852722,0.07609064384454026,0.4261938731681506,-0.1323216365986043,0.1926033118929139,-0.49445863292581194,-0.2002438916306191,-0.6439359543201444,0.25448159249426067,0.3721157432963879,-0.11110716035801013,-0.1477074118771102,-0.6713154192457149,-0.9326679818238534,-0.22417075100064005,0.34663464127286947,0.3382580363531434,1.6180076037579467,0.7243836241789399,-0.4459456589578874,-0.443336323854291,1.2627001333412198,-0.7916542556390291,1.1844926166009058,0.16287642830789578,-0.7116520218999948,-0.779826095323762,-0.2019826419025075,-0.1415679399026602,0.19174690680209414,0.5674865565070316,-0.09297466650482944,0.23177543442732382,-0.5686241686750044,0.5641283822226992,-0.5104034332765793,-0.01840966181431041,0.7310775805725197,-1.21888674881401,-0.6919506424839189,-0.02865626104660475,-0.5191347520693862,-0.25891570208688286,-0.18178030909311102,0.04854076663852097,-0.4030347063718931,-1.401987321898274,0.6328068825962356,0.795668809836337,0.4847983971820674,-0.20801652923297748,-0.11005757002741301,0.3233572293495963,0.6662785960456008,0.0608191852399554,-0.1479675030491071,0.35107927626978835,0.015956868715144658,0.4517256158534461,-0.6209166022297118,-0.03315532555051306,0.3622574597661057,-0.12845440135090463,-1.031418528371936,0.11521882229528307,0.7752305038313142,1.1258931874260656,0.0461154378893661,-0.6592016079745293,-0.008296299640098707,-0.37910714747145857,0.3756300353410118,1.460380945661912,-0.7403961253904935,-0.8273303861762447,-0.49483533202158214,-0.1811904776144909,-0.39488246088146584,-0.05168548755389438,-0.036435318075843735,0.7645051181353065,-1.0749071751429888,-0.5329891673196728,0.19935488569251955,0.9915385821574769,-0.14293409429690104,1.192593949812138,0.4920498173606392,-0.05932279658003362,-0.021772934879899623,-0.5451610919872221,0.11084523516620784,0.725184316268746,0.59996307724594,0.3856849586933271,-0.3844323951207491,0.1836331163379039,0.4309302556439265,-0.3020451415825932,0.48093605231967373,0.0358027084053754,0.2579324169260981,0.7549133993343483,0.3023771916340072,-0.9124784392282258,0.5637311503191896,-0.9942984585980742,-0.2197025658263461,-0.2528895831528976,0.1423872295417493,0.33832942235223273,-0.25796497085946335,-0.004043328876566374,-0.6118837217272184,0.02924099237843688,-0.49058098551593793,0.06169614381805355,0.06945724564189575,0.5583150223220027,-0.3513691208568434,0.00856895736513084,-0.6148437512565033,-0.30250362753319915,-0.3669895215437043,0.35742180243015453,-0.4215771714324418,-0.10658048049655271,0.05149787888798304,0.8117090935961393,0.30561375406824237,-0.5993851975391472,0.8471925404038549,0.7933576561723291,-0.26682862175182803,0.539837200360528,0.34199405631686963,0.5261803895703511,-0.24803075014241832,1.320021213149001,0.08332999427580617,0.3860874038379255,-0.7344401494176933,-0.7237115603355689,0.5915061055022126,-1.0767004490540215,0.3510243129789232,-0.7028560427974209,0.6819845113999125,0.3573895401535577,0.2572641427612174,0.5170011402404046,-0.4259932810138328,0.8983090492194378,-0.7673949908658534,0.043607307117524495,-0.22533168033866416,-0.7050914153282443,0.8427997854194738,0.765348645737765,-0.46525151257813546,0.16123425595510613,-0.11596594813250757,-1.2918202669209555,-0.027195094905175927,0.45010967954267167,-0.021601959677249698,-0.15582626116137177,-0.7532684960868502,0.08466881185877458,-1.1383678889738067,-0.31211749621317797,-0.3470309702389742,0.35036010790105515,-0.5772404685178063,0.5943127158604073,-0.22442312619617552,0.5290392523382066,-0.10181748986821197,0.03812850724779766,-0.005873174307583777,1.1115939377785986,0.17057477834993626,-0.45506219318297697,0.310761290579925,-0.032518488231556335,-0.6902839153975429,0.3990046115594222,0.5042899798241074,0.5380131848810231,0.3747679226021584,0.8412693249222146,0.6975591657567591,0.2925653660969536,0.8964759343925335,-0.14932875366118048,0.2836244493793743,0.310612946788396,-0.6034515226513012,-0.39510825407251515,0.0736122777123376,0.24701075752165386,-0.4292665439204374,-0.13778514044766443,0.6276700859819709,0.00355142530807569,0.6897508186837807,-0.5376682357455608,0.2633026870699482,0.2471398072169892,-0.32837115677569517,-0.4142070416048477,0.12157927686935517,-0.2074986484051359
tense,0.07523791772702254,0.3019826223385299,0.5584826811413414,-0.31432226497371424,-0.044585780939252806,-0.6541711975551018,0.03332603706377662,0.2050838596521062,0.14181842234599568,0.19736657703933064,0.2041565846954712,-0.12992078354524525,0.1617851525347576,-0.19593994687267777,0.026174298794961033,-0.162086935958891,0.13744540806290725,-0.14456294326663469,-0.2630243205287146,0.038460838865360884,0.6120131527585498,-0.010498249715819719,0.41085515085616237,-0.1885449360856374,-0.10186210055076668,-0.07351052858303553,-0.5187945064623037,-0.4766370893031126,-0.04784851573285756,0.23972869800803182,0.1793628302561948,0.2515288695417789,0.2988456505220084,-0.4869054555748772,0.43897614386475947,-0.1687307956407334,0.1173324457610613,-0.061349396847502104,0.31277941656552394,-0.20029457261610636,-0.030514963783075295,0.3351464067316686,0.22912389358376803,0.010893439719212306,-0.06825833271941201,0.24718104343398956,-1.3564716696821477,-0.350151127461343,0.01121939832887067,-0.1876118159005278,-0.09857737615133692,-0.3730955966071588,-0.5262287527254957,-0.12072579446336978,-0.09591285723375471,-0.2711358289049321,0.1417562920194676,-0.10174666276106524,-0.15344698919165498,0.3408604106780895,0.14452513759760355,0.15501065012444343,0.3135984975681996,-0.41388594084889596,0.20603328357694337,-0.12875824022943927,0.06325020987316006,0.45956652032622247,0.5371672390253756,-0.9575494744303704,-0.3209739200592972,0.4625882123090687,-0.3408403879020059,-0.08894537249462128,0.04852730821939379,-0.1415107851720535,-0.23454466980209746,-0.4603563711120697,0.3650090858992382,0.4184345737480812,0.08985478994659647,-0.17714453873545494,-0.2778331665243816,-0.17040999359803854,0.052935054112166174,0.38220562836879685,-0.03573924233613762,-0.36803143541171135,0.024605843197626587,-0.038739131590369895,0.6240329620914882,0.16297463457267425,-0.3326872814917135,0.6921451194125952,0.07425446552711368,-0.0022443854350961316,-0.15523558608919366,-0.23423877339271199,-0.5490177575416912,-0.5200648376684494,0.42075728135953483,-0.44242499374723715,0.4988944523065977,0.43758123610494415,-0.3819359787252504,-0.0967171134939975,-0.4024026678821813,-0.0933555203603799,0.4588939941457795,-0.0193714998455544,0.34654230574702943,-0.43688834731727694,0.40163949888625594,-0.5484248138415876,-0.14365996701067166,0.5114147719420893,-0.1267913282512776,-0.1385245674744334,-0.4047627927168268,-0.19563023440831684,-0.49006214460260444,-0.15860312747925442,0.6058800640946647,0.22509857829265104,0.0858659519220095,-0.3290834282891565,0.3209997538623042,0.35303416112615943,0.09007455135300704,0.014395106522910893,-0.1384222629549412,0.13058283165707438,-0.4449850312755029,-0.015152779955520678,-0.25999932197633785,0.38179467937905903,-0.08504659323967273,-0.3978838539127045,-0.00762874194786995,0.032091223253906925,0.2493486701234366,0.16049419077920182,0.6763546853303732,-0.2603190579080229,0.3396524086526031,0.6068292434660858,0.03917814484967256,-0.5562480566898351,0.37918788481600235,0.29919132510576046,-0.4601739714522076,0.1299367520500086,0.22607211045056363,-0.3212530009085326,-0.0011515546236829468,-0.22579041932648286,-0.12460983636470765,-0.49167876090825396,0.2889308898209555,0.024276405313071365,0.28460695811754355,-0.3706288209119612,-0.2792436500573135,-0.03122380719057429,0.24683204514316393,-0.5171398949087104,-0.38682216623420385,-0.3126599286526577,-0.182522700959326,-0.2793417322418049,0.1464498317878192,-0.08743855248028903,0.4214672324462049,0.3955265706044911,-0.21802368210379458,0.15541269602957689,0.3414299769304987,0.547159498849756,0.41240413108999946,-0.12955912761053642,-0.7835592311091869,0.6776899913577996,-0.13463951310955305,-0.2261965298489437,-0.1269313236735869,0.5672988232254667,-0.05327579431842357,-0.12598888985357393,-0.08841305693592855,0.05113174039529432,-0.015638712518985284,-0.30583458265183683,0.57502709300593,-0.06193766580562675,0.15618892378675453,0.32500128849465454,-0.028684957898658856,-0.23561926373855926,-0.06214822193277417,-0.35233273448006314,-0.4239970487184372,-0.2436389415178193,0.3957597249172981,-0.3751990673329616,0.4186505894827195,-0.24507072970853333,0.5801475111113205,-0.20838449389011626,-0.24641127714720168,-0.49845770406115125,0.18004767761218535,-0.11515221443313364,0.2967631442402423,-0.033853367389446214,0.21680885566572133,-0.39635286660514935,0.1024705646731293,0.4123506634159279,0.17534849988744608,0.4626761056463056,-0.05988976497063882,0.028444414918076644,-0.3374371465856845,0.6279559292739364,-0.4532713739091236,0.45435993952411907,0.01648730412935925,-0.18988835687045091,-0.7528281155799378,-0.320772187527227,0.8644318777036245,0.18227164375120275,-0.25029273766219196,-0.22104572688087232,-0.38586494920982595,0.25037471036034153,0.40080522926258805,-0.39534045083660985,0.2970565279647841,0.06835636219934557,-0.3227847454707651,-0.5336184387646105,-0.1398323903949258,-0.46607555928658556,-0.2261641906341912,0.2371479882806316,0.3988148526267042,-0.6699702603332239,-0.3529046683284842,-0.18025520148844199,0.6296350855263946,0.36883763201748637,-0.06309201883531047,0.01831679247095999,-0.0918037970808672,-0.04143116630748976,0.11377472883146875,0.4687398523757548,-0.10130982229093269,-0.2550566165667625,-0.0792635152365223,-0.07222427293053613,0.21079221426962594,0.4623701829505704,-0.35228793055942237,0.31429378728915663,-0.07876861908282655,-0.32379100033794644,0.4888729427536749,-0.02783272326062784,-0.08268412515362834,-0.37246304666959146,-0.05660762750949017,0.27109609867039813,-0.047500659514938266,0.1935966083014095,0.028293127579430255,-0.35323030769809766,0.3144527463821071,-0.40838610708394946,-0.3603541902019866,0.006134080798623359,0.43409110683856694,0.610519400031988,0.585808878942455,0.7005843254716321,0.41204001988627165,-0.23337643643037484,-0.04309077972978102,0.43073798471867514,-0.2546969389762812,-0.17988080194555678,0.19227119603630766,0.4141968021609197,0.011750252431864987,0.12624876126744256,0.6986673306138591,-0.04939016480128367,0.18353613418490933,-0.4524265552939302,-0.7365810300934764,-0.4417414178971893,0.1562263074860413,0.43725517886693355,-0.24953475354495813,0.02977685981445181,0.09087343463853458,-0.816585679494329,-0.019640260266620264,-0.12690063589179135,0.11707651420092113,-0.6517671190029621,-0.41976294745919135,0.05372998526564107,0.5141929400520614,-0.5174475508383041,-0.4276739903479572,0.3938075488618568,0.12615093766348554,-0.5368970802761625,-0.14484896282343215,0.35789564445861255,0.5265379228346516,-0.18200446223210817,0.06893434437437643,0.07941000558653522,0.13572780393856596,-0.4100791651677472,-0.19235688778735888,0.144463475300491,-0.2357469284257725,0.2768478878469148,-0.25226835732251174,0.09681832792140486,-0.06855789236246383,0.6349959739211862,-0.4070846846711932,-0.14796836542176237,-0.14620017200634491,-0.4585396480803389,0.3476220752399404,-0.44510577545000257,-0.19451974553225854,-0.5800118898903777,0.07406325334016042,-0.04710019538970704,0.051929080025835246,0.31983504964010206,-0.5097064339866989,0.49011396994774625,-0.5991823527768017,-0.49510345601490124,-0.005491772189030202,0.24158191119584713,0.027855948705973348,0.056891265399081174,0.18555772553419733,0.11627422262455209,0.033454450826705805,0.11474411703880612,0.1439036286770669,-0.11778203627781719,0.2582691704794581,-0.19490522076639263,-0.3521230495534989,-0.12289203097912835,0.22204708455558902,-0.2019856953167896,0.19130081934976612,-0.38913410083463223,0.3262169369095208,0.15154261076581596,0.06983578047278542,0.13275303587930232,0.10524275837698147,0.18310780874055838,-0.0544534251730603,0.2585389051820954,-0.20778988799999962,0.11371809776356315,0.06376618985833385,-0.05386020844756764,0.21790419548513765,-0.016147442835165466,0.46140204696018167,-0.07365645710250315,-0.12479154623722111,0.07296354911686326,0.5746439333917533,-0.27649190972319115,-0.041449763774663584,-0.04082977796377396,-0.24310827033401836,-0.31877949805525163,-0.4709115572633825,0.4531842130756741,-0.6168108545599954,-0.2905930291583229,0.08524257745274923,0.7241621915400865,0.27935946705130843,0.10290096189441796,0.5385263998283704,0.0338072940531551,-0.14458445424084687,0.2938889838138087,0.43543654424247996,0.18900877032305677,0.150065206545759,0.008485587067634796,0.6227138669416231,-0.09533145353086801,0.22449010924133855,0.12075443298129107,0.03485814502139015,-0.2979503792669672,-0.03726249420117339,-0.1940693773926651,-0.42499483957798306,-0.14379073432944817,0.5368828263554911,0.9007527325200271,0.06735513039424781,-0.3992614905042294,0.059560471302633894,0.4259014601523752,-0.4205962290311767,-0.11493386970776683,0.0036279101349892882,0.3556479196065052,-0.5052746901466661,0.15849472445844817,-0.18154048461041564,-0.21103570852055012,0.23969269412211602,0.37946376166957974,-0.37942274714322555,0.15348408937877514,-0.35816309959241016,0.48573588512790855,0.5930340742660893,-0.4790090898063793,0.1124318775765377,0.05752059995665853,0.5543523007383134,0.23983500335005153,0.07346124104655073,0.41626333517202607,0.23026048256031573,0.14158453401111357,0.2854090703613864,0.13839246099708435,-0.7549504717301236,0.04000753071531989,-0.6749911484756449,0.41390907575918195,-0.3310030118831057,0.1556777195446553,0.17975692790411268,0.01757341567760344,-0.3347290816646302,0.33939636001614387,0.15553642386985111,-0.9134835949828433,-0.3237070803623972,0.11253224350505577,-0.3916390182246302,-0.4229633915594359,-0.6735202538528632,0.1847093867253832,-0.04969037641280401,0.23122741724765208,-0.5089654254129454,-0.22087738684442743,-0.008900419897401427,0.03163014930354533,0.31425864775621887,0.09550246043350738,0.6925020980149214,0.2014196247363956,0.6832820239891754,-0.13814408343229412,-0.37917009238753224,0.2861735807526834,-0.4705343798540316,0.6190224863880962,-0.45276718461475,-0.25372964482077287,-0.06764258590270583,-0.12776951338168638,-0.014270247594758067,0.17991019115224266,0.24328519467129242,0.5368474432487615,0.01706045910993767,-0.17083977704069453,-0.0031813760846074236,-0.2509760835257294,0.1563293437197712,-0.5612316614852813,0.6152157880471132,-0.08090500271197978,0.3315858666286374,-0.2260019650284265,0.203473305309514,0.02489924770651566,-0.3706480645653371,-0.17464253905646682,0.10224275428771316,0.3180839759286952,-0.933601583819202,-0.09536317861867376,0.4977894490750597,0.12280165938158387,0.02833962329492635,0.038956580969320226,0.19828274936797452,0.08205617776399621,-0.4499687159558845,0.22816978492677617,0.003236750448856689,0.3386057003301031,0.006830130654097654,0.18199856808297393,0.030220425457529287,-0.43645093137072033,-0.6939500461561898,0.2868925145667507,-0.020305712784930745,0.014086115376737844,-0.5157194770267297,-0.41591483571628673,-0.07876482012264796,0.012659339853348382,-0.008200483940810742,0.31259291490263064,-0.3068397605013047,-0.34374496597786647,0.41913926365618853,-0.28772895679222427,-0.6641493073316243,-0.007696584748919284,0.4904348863393068,-0.4130332957417003,-0.5790980069540344,0.01670699103778278,0.11225270443571747,-0.13185426148265375,0.1319247216935794,0.6040289312447986,-0.3815063492680787,-0.12052317574951044,-0.3184947766446179,0.8106048381548008,-0.03661786841263527,-0.3968577567010933,-0.22047878955971315,0.02577128371603848,0.3274331361331291,-0.22628014386402284,-0.2808513219015164,0.37214924519993403,0.045549287464311396,-0.37835655183201394,-0.22327847781358376,-0.15009028801187507,0.10756498640746495,0.3498207513955316,0.1398887612796063,0.17421257051076838,-0.24450563189886176,-0.2567462495669408,0.13785574838511705,-0.36041435527092847,-0.5219820930570641,0.24829913099177423,0.02227799685469334,0.3745457802533302,-0.5102586749197944,-0.37234198581755074,0.02109820900380521,0.19521361111078997,-0.6786264261602724,-0.4615203702561918,-0.16810916510225918,-0.04036961149267497,0.04619171321741197,0.2778487561824722,-0.2730163081194377,0.4100929867951595,0.335522559384063,-0.49830639435497603,-0.09065075405094533,0.44285584786401383,0.29026057142403827,-0.21625486619744957,-0.0588647846047891,0.5244586114262727,-0.2061265903117725,-0.2881244620690539,0.35513954227526506,0.3268833824755101,0.6531035099412923,0.11328767451214365,-0.05375720031157984,0.11220820598763365,-0.04653026372435773,0.6328004550295885,-0.08157453535650203,0.6017819795440804,-0.21706028498616098,-0.21699207498303805,0.31362205249716774,0.24457324223430432,-0.45740457278157565,-0.4596343749887155,-0.2203793858880877,0.7489604921351376,-0.3930335252639127,0.27580887574683904,0.052877265405305546,0.2719392770157709,0.33552462049803733,-0.5816638417446175,0.3135882699876313,0.16998300108406772,-0.5426627524743586,-0.47744220215307076,-0.007579357143893701,0.4027196016498899,0.40316438051963255,0.35222689783385297,-0.6421628186654464,0.6516951351655111,0.3207975263790488,0.2488826451829239,0.5999696580948307,-0.06617298363560117,-0.4951200318075069,-0.535142993983379,0.7095115008157848,-0.6802024349953635,0.3678285742760317,0.07913664789814683,0.5591068028354258,0.03860055881817619,-0.22895866059626552,0.25521875908493413,0.5652985544193724,-0.35720097485131913,-0.46771523246617264,0.07775854469040772,-0.46986100058619035,-0.4186987853068439,-0.7238973517316788,0.5045119412693486,0.8520918970721788,0.13918276293701393,-0.46990828109990584,-0.020514626687826634,0.5219757188292095,-0.08732466597644425,0.37478304143354607,-0.4046761574448662,0.23593872512455705,0.3580205525342313,0.03162149930820184,0.29106846809538206,-0.2614339134559757,0.5428323373130971,0.46233045760261837,0.4492773765012481,0.28687622906528354,-0.38762572243966814,-0.15267914294121135,0.09699795548497085,0.49347403883743307,0.20693262899124892,0.2655370308501249,-0.1045595179273992,0.13065405358837778,0.0017600429512623153,-0.0641573178649822,0.25753324695986085,-0.4556256332246243,-0.5300758376771477,0.22036979037997642,-0.013093147696153225,-0.281661085375939,-0.01194832553580279,0.2447881953225573,-0.08812122633353896,-0.10277778352850613,0.32543132441672584,-0.08539757889170177,-0.6675786715161512,0.08120122386113232,0.12023633395258229,-0.09887485185549723,0.03574705355377007,0.06514739017949431,0.005427368573347468,-0.3814997674639131,-0.21330938886905465,-0.2969910967032513,0.10069007878182587,-0.530761263824556,0.20653629646096452,0.19166738821940768,0.03209148918801778,0.552236543557757,-0.17282945977087102,0.05508683541974229,0.19028545736383515,0.27428466431039045,-0.05537889638259601,0.25899294276564616,-0.16064894360277443,0.43381245578934496,-0.16921972765662563,0.003110109360492238,0.10894898457658608,0.16524030330352235,0.5307634353865843,0.15340799525669682,-0.31336120786133564,-0.06586715194839461,-0.19224478655103097,0.03410355309943074,-0.2894704347430291,0.15995108968500615,0.05511159248228808,-0.10717677258758533,-0.1627029484426483,-0.02619429051618462,0.2616112255974441,-0.2664231197814332,-0.333678680213366,0.010292466305628935,0.03905197022477872,-0.23340944861244142,-0.0596335135998386,0.24322244103421342,0.08384457935321087,-0.07270504135228026,0.06973983612782361,0.33019134370150366,0.2979862956347091,-0.2908717689110208,0.04627996153145189,-0.20863332062389003,-0.19843323939604468,-0.2880187050232234,-0.21787432327674358,-0.13797314762658527,0.4134355158356923,0.054577627017413116,0.17815538288582092,-0.22656743239575755,-0.5213109545790191,0.36627419252672877,-0.30280045687367146,0.4792955560935083,-0.8759198170290882,0.20225084659843653,-0.2268665208953611,0.017086913060584526,0.08845136745037177
synonym,0.1679416909708552,0.049587465640731264,-0.26252679987374444,0.1648768387190566,-0.3431395266600253,0.17211920518027676,0.39560043642524473,-0.23593713055186175,0.09532785918806637,0.24498520869966836,0.08594023488676264,0.295669644084427,0.27757679789366346,0.2968038543802682,-0.18886283934796885,-0.10323729395475761,-0.5780381129644112,0.057028296597843,0.35006885744813704,-0.26025906968765705,-0.777579309763475,-0.0277955312141083,0.23777657143015007,-0.20224779967391693,-0.004114402923523183,-0.03131618376423355,0.2681649727003214,0.23707335076725156,0.07901091621958076,0.13304334365832185,0.1609512093489485,0.11210712991133927,0.3851760219694754,-0.3863856475668657,0.330019142182192,0.19210176893997413,0.2710865436012886,0.01727440618562526,-0.23188183064871912,0.0616694233311534,0.017916501234626674,-0.09930905365966522,0.14993884807778188,0.22179406949507774,-0.15202087726294736,-0.1864046164346845,-0.3156070197180448,-0.0015527267968789323,0.09401008012721215,0.04888518231173546,0.2887681794255406,0.20395229839549164,-0.12064420373139167,0.2715434482186462,0.36979957336627656,-0.08075895723731949,0.7569784484512972,-0.23098128825063052,0.09560389473676867,0.08715890841279986,-0.6588527856279426,0.22112626512542055,-0.36701114385538974,-0.2575829540676463,0.24230271522587393,-0.125479450137976,-0.008269283265864884,0.19889721817575545,-0.3479994021365242,-0.12560458052779264,0.11851939105578421,0.24689707845126274,-0.08498831875750855,0.5033261342791211,0.24351442570046894,-0.16970381304061188,-0.06671952639549751,0.015091832976884672,-0.3174087833378759,0.06009830721773235,0.023679585081109823,0.018350081713275228,0.18632699655863194,-0.18148182501046717,0.07806998509371772,0.23971098591505585,0.21395352934628092,-0.36099094205635285,0.23148176868694822,-0.07761689832437142,-0.15474308229456085,-0.17217030112216625,-0.16275335394966103,-0.4255936592537719,0.136425252749797,0.16808670578004017,-0.17422097763913016,0.39779873324460185,-0.14893291155274116,0.31037086836919114,0.1725445337101692,-0.16877267430572368,-0.2805194006234451,0.12008513683147216,0.009046256364491809,0.09650335431882937,-0.10277109450221478,0.03845017525959383,0.08010385697251665,-0.07048656614975327,0.04975592342960143,0.23164347407323907,0.1816199417233961,0.20800975501481378,-0.1320772934641394,-0.17498099678231,0.015957352311254204,-0.09659596339897226,0.1300060409502402,0.46398048066882175,0.06947515255677748,-0.1248756040128233,-0.06493046077270577,-0.0635812081824949,0.25589433544460993,0.09740807039232914,0.2912596683450796,-0.11797926167194629,-0.1152072805999942,-0.27076255373413216,-0.05072171042445264,0.017324294014907548,-0.10995708505019497,-0.20275444068497567,0.15675925940008104,0.15054160265961258,0.013273666789633648,0.4019983498903498,0.42754970917081453,0.25089464914806786,-0.0013998311306506256,-0.017339594705004988,0.0828789633746173,-0.3915278811962809,0.25525902621351665,0.26767417975363184,0.33412924389669957,0.2519715134600195,-0.5371085338926834,0.46955753189559857,-0.19442010269921728,-0.2952087296406785,0.2195473354123221,-0.0348290896354495,0.2998313249857195,0.23385590744618526,-0.12631837901713144,-0.21529655264654649,-0.22530661358526657,0.08603040025945584,0.05015791227079596,0.19532949728204563,-0.45849938583605543,-0.1763353628560188,0.08651066462955607,-0.13155717186245694,0.1802419515860479,-0.2315715898777805,-0.2429135940208527,0.10820434928547297,0.4430617224711573,0.052948705674184804,-0.0068256427524333065,-0.29625100243248825,0.33737517045785126,0.36004210909019935,0.2559193639079743,-0.08756796481760104,0.24925435535838286,0.1152518861090845,0.21695177124164827,0.06397774488126395,-0.05388074331516623,0.015787003497785924,-0.26293470518285517,-0.22556969984631656,-0.2132382224104733,-0.09694806614541815,-0.14008618798676917,-0.19626831269752026,-0.11693086577811437,0.1460926908333319,-0.3204859646334442,-0.03967830571192643,-0.16979857970920878,-0.4632332376354303,-0.16716772464877405,0.33712207062677035,-0.20537419413703897,0.5244216247525815,0.20474236794620415,0.09898145913451066,-0.004141624999243777,-0.31601154975570317,-0.17731558464564018,0.3816420552353064,-0.1420287665685787,0.1647874408673359,0.16271002195286102,0.04340243575508716,0.3598133243644494,-0.1417225711385261,-0.14523766648693553,-0.4859848535965354,0.19082410033616864,0.14486624344462182,-0.14070926381990306,0.30962293453734707,-0.12245503349653979,-0.1975659660284841,-0.18642663423251296,0.4420089583084148,0.01378781566679007,-0.010085758997873671,0.22129327295193138,-0.3053680144252058,-0.17859961620470105,-0.3385162642668075,0.1504119795974366,0.3718625364322171,0.15151982656801827,-0.08104395649242012,-0.18888603993544648,-0.13705804775648603,0.1218131630206292,-0.12623962288728627,-0.011175797189998688,-0.0681437143475399,-0.19220265497294395,0.1028581315912014,0.11074734390281829,0.25467831487567805,0.026850619097548743,0.5794241906964842,-0.4690048028779004,-0.336071728065796,-0.46358191661611786,0.27097834476096466,-0.22173160698242986,0.2229495019203573,-0.1272656527447102,0.12383439963242492,-0.2597060959145183,-0.18048549521790547,-0.2502781756485986,0.15027139490248273,-0.19558763514582522,0.2738779498169674,-0.36092064973568244,0.07233557412885651,-0.07002221858834894,-0.13214391711859186,-0.44866623614342743,-0.030988918111989925,-0.38755314025505744,-0.19785493455464598,0.052156274925276976,0.02704228998491405,0.3384201858842277,0.15500148670873884,-0.08325715136387457,0.10587934338758029,-0.2518233524228515,-0.22726137035428923,-0.26661251915620504,-0.43340809687335036,-0.0798035521530231,0.08590660212359327,-0.12229857546665443,0.004131386162790004,-0.36838616993798323,-0.5592662210588414,0.33946981237753726,-0.44519660056189253,-0.05174335329247356,-0.0033707256746758596,-0.4095869505488598,0.1154600743340172,0.09217021630198177,0.015545379979817508,0.03806350521805379,0.15372686266874802,0.3298084505536328,-0.13146532211139844,0.16875844214440425,-0.19672911652795283,0.09923777369472313,0.3239186587050686,0.0923371596576192,0.24294835983505428,0.24090350046758818,0.6637155276206657,0.12022605322940305,0.18662925984837972,0.36749260763788305,0.531491803697434,-0.19227607509445382,0.1799687716673258,-0.3995090484248359,0.1291048010808386,-0.15724172219114227,-0.38528901283744965,-0.15082434349385848,0.10401310237099512,0.46245990744844634,-0.20676480948927456,0.2714719648825667,-0.16934326912989212,0.3888195561327331,0.22291346159062575,-0.13588165465407898,0.12677577249753857,0.08534005280126604,0.26367713310571134,-0.1006430630167689,-0.35253434426852737,0.15599554482431616,-0.28047304955270264,-0.1819423558930492,-0.13946141513107885,-0.4340175143060324,0.7067573931840863,0.043447548912557206,-0.233589673076169,-0.0493014715693287,-0.07215858765640237,-0.08561776855324105,-0.17652063503332857,0.2642727540322063,0.27555499815471485,-0.20871504228820945,0.007747127752169913,-0.1351797273326936,-0.1461620227676386,-0.31988343372875877,0.0534437312645255,-0.15916511471081615,-0.2290712513987223,-0.16457281945967414,0.14367283309121417,-0.31851077614864937,0.05869329328562938,-0.5624347315708577,0.09750864493528083,0.06568063434715585,0.09635598473913984,-0.24605024569743103,-0.23826975959066518,-0.15005173775432795,0.4023638583857727,0.44268281777879503,-0.3363130194056313,-0.3071760884670178,0.0016383328133591276,0.44638254314865344,-0.24284316454781957,-0.06561787655112218,-0.14845161308299334,0.29997991121283857,-0.32430973443871125,-0.3286866037515418,-0.7789693110603302,0.09985678106601042,-0.21223623003505976,0.11984819538043896,0.23784450965060905,0.31880767743166094,0.1367096202033518,-0.15474612171289656,-0.12241735058346193,-0.2579484767991865,-0.09168069510663332,0.14954016958941616,-0.06155645348110146,-0.10984616754894001,-0.12972674316215305,0.14740249591890178,0.4518848810010487,0.010162998205619007,-0.1293433684606354,-0.45613336018534884,0.0035649501499768923,0.24398110094438658,-0.09450883400221201,-0.28431387768574157,0.05723575525894177,-0.0767823980755877,-0.2615402764837891,0.008289295087674424,-0.4224083035138004,-0.2851829760632803,0.27913691302736476,0.390242846731322,-0.08401428375268519,0.12143915273042828,-0.41249993391103534,-0.26655523930631086,-0.2367838822383457,0.2691624761855046,-0.7016733841397691,0.03136595488267844,-0.36982854143973787,-0.2311883589415285,0.0647316180118414,0.27441159753077543,0.15545675726192174,-0.32461231681937563,0.26626169959768253,0.3055628070928406,0.2533809311930788,-0.1662667046013448,-0.4343538456769236,-0.3061100014221811,-0.3876601702309422,-0.13532681694733664,0.03722058059769699,0.24828988627325416,-0.3212292877959128,-0.29566842353618383,0.16030085549573697,0.15882636041451978,-0.15364193252614272,-0.2191906758858654,0.03580162209912653,0.27102020511360086,0.2475899717485504,-0.08359989563243418,-0.15556392935930594,-0.010226040562546848,0.04567604978247981,0.20710708092617564,0.40110186818450116,-0.04375787268522127,0.18980493737728313,-0.3149276024288471,-0.17809101190345916,-0.06823417849976358,-0.06482844907550148,-0.27269938065683,-0.20407075312946135,-0.04067939184618942,0.05890385038969865,0.5192919653203852,0.035605458212143434,-0.31322582841377067,0.012458297917906883,0.2471162508390234,-0.28026115955175956,-0.21230319334652148,0.020159190199706974,0.019135252276996563,-0.3411515876960118,0.21177397733625808,0.13401504253791688,-0.2084629496378098,-0.12366511689247185,0.44361417073370335,0.18886794816564328,0.12661854308068857,0.1345850377541056,-0.17063269366140663,0.055740513863113,0.14873857117401415,0.30847600331047376,0.07734936888932782,0.004243575098385252,-0.0045817097983293495,0.22336417196214473,-0.147783150594674,-0.15678427821295104,0.45479564238091363,-0.14613443551057054,-0.012533499155554028,0.9385070849639177,0.4927890827435824,0.06090372103141993,0.3572636154903676,-0.3834224208553372,-0.004948624988512519,-0.023522565677359584,0.12325435371354124,-0.15196063795994863,-0.038735519745480076,0.13724990181167396,0.44863614126393725,0.17943761325308125,0.05768962081130461,0.058732233026172934,0.008690035679428361,0.2899039283391616,-0.12848218324206204,-0.005746490783523794,0.08637794232701448,-0.041555314155173745,0.2234452095138714,0.08018196164319728,-0.11328896395689174,-0.35350977811238393,-0.3047596950591077,-0.2234380526002477,-0.49172489780564194,0.29902875934113077,0.2612549625936684,-0.20540259997436242,0.07679494742809749,0.056560189014814265,0.5170694340300772,-0.0754947341916945,-0.32911957444371626,-0.11518237062983791,0.0496035892029648,0.13456840462068792,0.25661169563803404,0.14300022726612743,-0.03161978020093263,-0.25601239652794305,-0.12620098577482322,-0.12162405075228173,0.08308128605957686,0.013390656558469258,0.23180941495705798,0.15453642082833935,0.09961027084996062,0.03869057579536602,-0.36421179584996716,-0.15991003236590393,0.10053887317139626,0.35774057122760033,0.1947349816197256,-0.3968132732909695,0.23911018901925973,0.3659615256420539,-0.23660310831730422,-0.1412875212879746,-0.3118346565293393,0.16775831447392767,-0.1917563439192334,0.03084238028797639,0.504824105720944,-0.22501566117253546,-0.11344106415223593,-0.2865124599419151,-0.09970868921093382,-0.14940193091910947,-0.2371205489081063,0.37401575677451615,0.12334994060317295,0.06914400334167342,0.30065423706001493,-0.007447536590551731,-0.008552235670071733,-0.20564269765030807,0.20055362350677605,0.612798543797987,-0.21466688991515137,0.09897842509681043,0.0251025756753545,-0.23602247782602628,0.09843841921951539,0.1236264978652149,0.3231197584881383,-0.3884072265500605,-0.19965689605937467,0.028871592907757683,0.35024262894144154,0.13205248762821808,-0.07642873293889851,-0.4842480096023892,0.25755473287493275,-0.05947134576793679,-0.014154542408395263,0.2574196896415273,0.06768382978913395,-0.2822112257514726,0.2546167669538428,-0.09800049859576881,0.10313485468205508,0.16829829636205412,0.0660749394946422,-0.007286040559513484,0.08847559352132933,0.3095397889056029,-0.39027998427237165,0.08808954349333867,-0.05022297607382281,-0.20187272009828044,0.23545693820549732,-0.4928888504331276,0.40117716969576556,0.18507715107882822,0.044797133278061674,0.35866968861450305,0.1121969457187727,0.16023357227153237,0.09713441180632802,-0.19142569992018701,0.12691736266201975,-0.006830514160916363,0.15969405784911958,0.18059664691019645,-0.06128684802066572,-0.06537297296569414,-0.13120234461235267,-0.13239555476202952,0.4277246832344529,0.07145487195728782,0.2681712985796145,-0.055055531063802364,0.21521292278727994,0.25457358138815667,0.1338790699612112,0.10660404306871499,0.01687587603702339,-0.0826956356438739,0.16649327000793404,0.2006348127380415,-0.09043516604988056,-0.310834098486541,-0.020128360650261915,0.050921064143050136,0.17438569096880405,-0.019410796663105488,0.4687051305897686,-0.34100312671536676,0.07742228229983675,-0.2869006627775691,-0.1962511692159184,0.025615163066481643,-0.1909498253155117,-0.08020170619073384,0.04437553896706979,0.1214528974078649,-0.33341322179061744,0.05656976226796272,0.15002391402824525,-0.16216040915224555,-0.16861095366994122,-0.0027441393516025757,0.23078963916282,0.26999504525932244,0.4051504227987536,-0.21613816059157978,-0.3570325670467771,0.07771083669281185,-0.24476957363042184,0.26653124662794625,-0.7443003817795324,0.2142218373958932,0.07775887396111511,-0.027736611488090545,-0.05547910353602931,0.05588904281090462,0.22618836951292545,0.05186097127008379,0.07222121206260242,-0.008919007046830268,-0.06071431296090197,0.13376154410563532,-0.46202131803678803,-0.4203183570209496,0.12945051382288777,-0.2784138037308861,-0.1544265317120293,-0.09336620690200077,0.0487901300553862,0.245023061417231,0.11789875900257465,-0.05729514682113928,-0.039167973789486804,-0.38932207118377504,-0.23111477497256502,-0.08418919746993758,0.12382173666466056,-0.6393329405412016,-0.06345847779825044,0.2837352195638079,-0.07254996782731153,-0.2875053242271926,0.09409112894233866,-0.20442227029686014,-0.2681266887800442,0.17761537155944887,-0.11457315185920046,-0.24928618972443278,-0.0155058962785409,0.41053755131473674,-0.037031929245749544,-0.4070434379941579,-0.12587618684218516,-0.06698321024349886,-0.16014383598011991,0.06882815811761551,-0.3213322493734787,0.011988645472064493,0.23593982857225046,-0.10834944791380732,-0.2633820262257187,0.2459231260318855,-0.22716507262587435,0.22461284760367628,-0.03290554190046782,0.18547082002136278,0.026052339412514763,-0.27494513852987656,0.3688764506697207,0.1432851745365077,0.07708730947716948,0.4863701590992806,-0.10680935771535463,-0.21649146106065975,-0.19421819171218985,-0.260249710267381,0.015033898546460927,-0.010832980507636631,-0.2768128657050878,0.3957689731097868,0.17901860228488944,-0.01884110355694245,0.21002220624576345,-0.07007046105706616,0.2698254302056723,-0.5822639630040305,0.28857553059798335,-0.36556947493934017,0.036240995756938586,0.03713561698323654,0.45855586788644714,0.05073517402079799,0.06718011063568906,-0.0655245189910509,-0.07436663613857995,-0.08489615421892653,-0.08364064481466132,-0.38642376876499024,0.3918065706251398,-0.22930257639827087,-0.1599598226747881,0.36398200017604027,0.39853208363371945,-0.0876364653909749,-0.003776295236342625,-0.049088421553442944,0.2579308153070674,-0.2747053332708921,0.32164108832904703,0.08932019043449985,-0.3293182229385278,0.09235001149117113,0.13753602929147285,0.08686715124118446,0.020841869687180152,0.06117213962943817,-0.01759281105879894,-0.079892908424894,0.11333230050128222,-0.2727043839154457,-0.14460972323299573,-0.19416038322694562
polarity,-0.27896968644614456,0.5344767920991781,0.2260312612399186,-0.012251429289728184,-0.058564853317331654,0.03248297086143555,-0.5278540891267778,0.24266950649709584,0.17813758939050048,-0.21150677604345341,0.0976097230434063,-0.07456900277241749,0.30745310504657203,-0.005642015122038083,-0.13761376707522446,0.40220456181726866,-0.6192967020056354,-0.1621355171752858,0.47086392634302277,-0.11257502854341682,-0.294282750686017,-0.37006019940802376,0.4223478887374858,-0.10452292057273431,0.2062900755456949,-0.6326971659661664,0.38676994410176235,0.10824857083049985,0.38684958601950636,-0.13222635020715054,0.5215064960921855,-0.5652546293675906,-0.05316521948045748,-0.5790783453812371,0.1249676821301698,-0.24791332973479707,0.15134641179289873,0.0368791304340919,-0.31141424405971224,0.5534066912560589,0.028542291852745948,-0.0526469701180681,0.5855689451660921,0.27004150100287005,0.01898546464810723,0.14053537962556265,-0.23023318189092332,0.6623229086643965,0.542018840750834,-0.06966828128623992,0.5964249260884916,0.5156643522089521,-0.34207339917700297,-0.33337878555667005,-0.4167756473584172,-0.09219251820336834,-0.08192082283537512,-0.18585932591905652,-0.03588650446820798,-0.11421581774021893,0.5030377314186312,-0.056828086193786445,-0.1669804077286701,-0.08748963171615098,-0.43034031568658615,0.35036425522127196,0.6634397203934517,-0.043811194355862296,0.19334569124746312,0.21920200420908786,0.5835475250582516,-0.07185411845348944,-0.18621499629357596,-0.08388544914650191,-0.8022159182493127,0.04913175721005978,-0.17825154270964008,-0.10243912049616226,0.348498934431528,0.006597943935532103,-0.07839628511097868,0.5150719430496585,0.5340478852044573,0.15794702721236567,-0.26311476671772105,0.32068094748303655,0.5839299709697469,0.06180844603730073,0.4404429983533465,-0.21031338914154013,-0.22232092200438364,-0.2565539472008534,-0.3741970462263045,-0.025633335855025103,0.15762375588373992,0.9560120871267546,-0.23983232611537977,0.0483909950358553,0.17245889089802902,0.2237742155011713,-0.19312756138585332,-0.10214048286182431,0.4879886766463165,-0.19134024923206758,-0.3444539474959291,0.306645886690446,0.05121805021310342,-0.5586093159207163,0.17920674886199636,0.002870274311388109,-0.24284480584246326,0.09621584531732749,0.814469725546496,-0.12277165479454359,-0.7369377172268151,-0.16221038690009285,0.4652603926770396,0.05393634287823093,-0.016110626556974688,-0.010512791035861096,0.14931325587038327,-0.42135295855002297,-0.12430541788232848,0.054637165949721775,0.42374166331031743,-0.4793098441902649,-0.26134512485186373,-0.10080991917954335,0.12721967793650135,-0.2014157857350321,0.23420149713588279,0.05034765403220811,0.47830793971061897,0.21126064699424854,0.07910105413460064,-0.6335294580442831,0.20613777964040736,-0.11427962033351613,0.14151087437635462,0.3895305246971564,0.27710662486005083,0.0989598771477767,-0.1350887014577434,0.3819175662617915,-0.5393421915171864,0.3283227611064357,-0.3131873135740366,0.42846066326122995,-0.36909229327841064,0.12880830400381216,0.0553899994363254,0.0013263502191629955,-0.6955328563237161,-0.4235689051916683,0.35272386898923425,0.0771650444941566,0.3696376609930163,0.1321397321111735,0.17751767338669686,0.08932960464753588,-0.050968870436612315,0.382140466988193,-0.02661950643879341,0.5571173227883716,-0.1129077906075159,0.48028141066509233,0.3598804557834165,0.4980688013501697,0.08842882825888593,0.5539023170909244,-0.24016788790034882,0.4156272679473397,-0.07308089897270487,-0.36357484788537625,0.3222108837171316,-0.17052123383428794,0.4672816677814298,0.5059737310270125,0.1984791069378013,-0.2412940358370011,0.39072315966316545,-0.1646634210447547,-0.004720675070584838,-0.2539353681764258,-0.3608698135346351,-0.18625825528808596,0.17877801235835977,-0.13358960293995678,0.022705752211212776,0.4198737299395182,-0.043815899546585615,0.3126688832979656,-0.02870164993412387,-0.03761258087072137,-0.0574049136640731,-0.5578191344426855,-0.06159233200387994,0.13521600169973408,-0.13486352050608133,0.022669382417331747,-0.47595627525959494,0.00010364808612562196,0.35941576214121423,-0.20687937421938005,0.04302983454225291,-0.2850361309588857,0.021427021408661904,-0.17103032885894276,-0.03894315050336726,0.062388211879481466,-0.07526843409479124,-0.031182099415833244,0.09728765332782105,-0.17479097777637717,0.2083180896938617,-0.031621316059255486,-0.2463265910739421,-0.2506577745171428,-0.05886983594140437,-0.5748266677466527,-0.3352544501222832,0.21806714332477922,0.061654363683482566,0.2468897443728864,0.14596953189335954,-0.6681345317101643,0.34613911216495635,-0.28009560066442035,0.2497627156067688,0.08274804582130484,-0.12110906009646018,-0.04954546792145846,0.03618108222120671,0.011351015063207815,0.25866575525242597,-0.44079606716599734,0.020117494426447266,-0.12495510731177988,0.12149634323034082,0.21348776561135,-0.02418195458510857,0.4183554939283075,0.3203330919913784,-0.34630425562488715,-0.01647337358327712,0.3102229863665822,-0.16810339407511352,-0.0008346886213523895,-0.22355888491847917,0.621452755075995,-0.1672853372878701,-0.8558547406128905,0.10875662198299875,-0.013665839976406812,0.4037910738058404,0.3335256845961542,-0.2719890717067225,-0.261691449203422,-0.00306115279904106,0.011427809090806297,0.10371154573028112,-0.4155096254288174,0.21716247169090758,-0.6310510112477457,-0.07612428282906777,0.07646627559463465,-0.01974180200395957,0.0656336715152833,0.00060868603159467,0.6918191539628546,-0.1942785466175758,0.8570926624543905,-0.26059729584492697,0.23771941813215372,0.37571577274976287,0.0020810041494802116,0.06495106788312674,-0.067151723515855,-0.16470349497904466,-0.18729514849832826,-0.09761455486638655,-0.007209602415044528,0.09287272990905251,-0.48926045669533536,0.2785096772307608,0.12614224867277285,-0.9941499867586956,0.09121538833368331,-0.5619738745453597,-0.40861575509519976,-0.11689193752116546,-0.745844013314889,-0.4429010565568291,-0.19920716149820802,-0.29235345317598105,0.2802773359198678,-0.07363588861045531,0.045084677022423324,0.2296282741303478,-0.42595638092299165,-0.046209556087063994,-0.07451787274055562,-0.08653302323721408,-0.2128446882634981,-0.7082540809235176,-0.466999889098707,-0.47119185229850513,0.5966340519307474,-0.205193072013554,-0.6011814536333729,0.3539057257855648,0.08301096260400725,0.37718311856368036,-0.07151164410622066,0.021932128870642983,-0.033671465041391326,0.1885023537405523,-0.13465769697547386,0.18759183758048809,0.15649630780252008,-0.09797394535598816,0.0035043583272955725,0.16015314600020164,-0.05663891755012795,0.5056214967365446,0.050077133699896935,0.35247326939616286,0.11257344474232875,-0.09987617197789023,-0.2163066401412155,-0.7508467029418234,0.2271017588288926,-0.015281736796158627,-0.26301483603427633,-0.3937326132653123,-0.42001362573164225,0.4518159449097196,-0.014227110779434253,0.014564432653152585,0.038822417471736426,-0.7070055547133653,0.14444597936732492,0.30853448436687686,-0.14302008322642032,-0.056629859491103246,-0.34145725181820713,-0.1343540684695438,0.03649236963114531,-0.010063650427796658,-0.8375726738959727,-0.05102586512179254,0.0590775258138013,0.41761493876600386,-0.04762532551518771,-0.2532750729823909,0.08079102538258513,-0.30892547895412054,-0.03708652504922365,0.26498147028573377,0.00043015663967637617,-0.037870971493873355,-0.29857826018249506,-0.14956050768488252,0.6597409921497516,-0.05865906409483109,-0.21220681877491987,-0.10136316516389962,0.29359861775299506,0.3020754834670358,0.035742102447546935,0.046922361884141575,-0.04725691971877395,0.9290091092097382,0.06425866977197801,-0.4777092158780013,-0.3481815944988792,-0.23374416643912008,0.22637230863320418,0.25067472942286567,-0.11847393767201732,0.37379003046757153,-0.47783233055132435,0.32591434856505264,-0.4856108719036923,-0.23069025696182274,0.10584506423055427,0.15714230234520363,-0.19392676101932582,-0.2932587498765459,-0.18421282978728487,0.05658417789338824,-0.13890605898432298,-0.33550317643068883,0.15796141916508857,-0.5562512890028198,-0.10620431743033532,-0.2747095335318288,-0.31274555790105185,0.41668746805679546,-0.13612434631456877,-0.3333519251377479,-0.018400993392287988,0.028432234051498168,0.39382384398537706,0.10100462148814612,0.30475861983636754,-0.14097128706365597,-0.2579268001851935,0.1469758331326368,0.33657372178328865,-0.38928943956028816,0.2791873429059098,-0.3009165279772447,-0.3314072228280161,-0.13087796569911214,0.30322410406572486,-0.32291682151679907,-0.1858784718277974,0.002956742902503331,0.021089029436967537,-0.5832378986604069,-0.3182140438132369,0.2238373129942996,0.5313045971424625,0.10028787683386135,0.11009138123471988,0.3746870322773405,-0.5469750952537649,-0.541595409914164,0.2684071086689383,0.4507919246640307,0.1346326215487587,0.0974859255128342,-0.049701713926852915,-0.2887522340504389,-0.04556608211661865,0.04065501335104966,0.28779149904825607,0.23123632023037013,-0.7210573560641514,-0.3083276998965383,0.4649140203343092,0.48801221360475383,0.14098820974942378,0.43113166405738074,-0.5649008323385,-0.43503173368305625,0.14457637533418338,0.5471952332272068,0.3163859277475847,0.03311442033783982,-0.351309183054295,0.33014124815783846,-0.12642195074955567,-0.1074925592268835,0.10815952590042249,-0.3763104732139634,-0.23469934523205976,0.2740681957335307,0.13596689764248118,-0.11921560777074722,-0.30536263025910854,0.06265444084371528,0.45338592119971083,0.34136496226182145,-0.4722118869123186,0.30923347152280095,0.48163436346593663,0.35576514673920473,0.22920842173857087,0.5600105908057239,-0.03185989701735817,0.022241785966525467,0.3655929053248176,-0.07770567335188719,0.020927881861568638,0.5936462305226913,0.3230689025192758,0.08885918313049189,0.4038159558930893,-0.09251712301164515,-0.3759546565536164,0.3264749394417407,-0.5762102086587856,0.11875884387191955,0.01419903595299756,-0.09655673797722483,0.00794971344744236,0.22005706871251035,0.35566582980726485,-0.33067095402350005,0.07862991876155066,0.17926821324016387,-0.05653918645150997,-0.477311726595394,0.005175894302392154,-0.2758064179396305,0.4263955656367749,-0.029658741074634495,0.1581470351608828,0.016546078156879147,0.17076584385553306,-0.04185333048841517,-0.371104519127455,-0.2409393379532836,-0.8050252459955923,0.10899287045691665,-0.4916201470024723,-0.3915986616288141,0.11968800961147517,0.035359809208172846,-0.319087101323277,-0.13646029295809922,-0.5813884662409613,0.20773415536297946,0.1532811648296524,-0.20700246232150968,-0.5674992190625942,-0.3010297072507368,0.1445483402382959,0.35648199343604625,-0.379110207433493,-0.15187814830421442,-0.45116891094210404,0.22481550387508895,-0.31962172818600953,-0.09357774851667289,-0.19414012557688967,-0.22289832828330816,-0.012969272303930867,-0.06812421532318415,-0.5273952250947971,0.22499952807183204,0.07902932849350171,0.13478486922810887,-0.3217031641714408,0.26127038405657144,0.4799402249129218,-0.31231442816687444,0.04353069560483922,-0.1589217858633784,0.26874934790971233,-0.17746707468452538,0.39548857505482804,-0.7251543939498346,-0.016835248872826017,-0.3523948028629003,-0.0004127112285611782,-0.5812602327487081,-0.02394379969239817,-0.39510052510788685,0.08104368967724002,-0.5090108575759629,-0.1333376229930393,0.41336031229015113,-0.234225239007233,-0.2737082622253072,-0.5078986880794759,0.06642839121568588,0.3640634526646341,0.09460696838168269,-0.00656284932967384,0.5157635088476505,-0.46019360565631673,0.04213294575844552,0.00036395113788227954,0.025519747535866034,-0.14103162455409624,0.3908965914751909,-0.09983731982942931,-0.015642895636137806,-0.472994503411649,-0.6584220772798564,0.1068228132319628,0.056181625712701244,0.21378864469261813,-0.21544360122892073,0.0014878453728612228,-0.10975224795891243,-0.16952988634080898,0.5294468423584554,-0.6425043848360922,0.4652291490866839,0.2533889854729286,-0.03138984520277274,0.06231711330799187,-0.353680882507448,-0.20457210646756593,-0.12879050039080372,0.7345867267492738,-0.11311999693642708,-0.032233711253830746,0.4564424770178646,-0.0027928216188187497,-0.18640890296271898,0.05691921751381873,-0.3346630045930449,0.14901853065547055,-0.3452919782994315,0.0981555492086979,-0.477278641058403,0.1259861430121548,-0.8459428261086285,-0.22258935614322187,0.5725489623859018,-0.5636968312124916,0.0894722299855831,0.6241428261163903,-0.17472583980781262,0.43774312266556775,0.6155738682857974,0.19997805488213988,-0.31462362256342086,-0.07403971655868415,0.5385073182452055,0.4981101906016689,-0.27624129733904096,0.15522917407939085,-0.053848371330298524,0.3291459437635499,-0.11708921878671563,-0.21985181568266118,0.13686999266335323,0.0953624998054962,0.33902139077489085,-0.021181915896904494,-0.11154799093913485,-0.028392123678064467,-0.2147367230420501,0.7102552397835468,0.054406211122397144,-0.2842126063146111,-0.3397089376906372,-0.1562852456337685,0.0030122524217903552,-0.538638126419127,0.5293378251006114,0.17950951582670183,0.30615317748667864,-0.29908160799125033,0.10765492173560567,-0.1047824335219634,-0.3191962040983398,-0.24082446852664355,-0.436413346190422,-0.047470214118956224,0.33081736704575737,-0.1819815936412098,-0.15640117058661246,0.013397532240679088,0.4739874693533222,0.23652311559501263,0.47828867600278824,-0.1252813660926738,0.5693833568191942,0.24200092715735355,0.07987320807308218,-0.2876003866046237,0.411130759504727,0.7356777691931687,-0.33697364434809457,0.5629844023810444,0.18013017760101177,0.990974341420487,-0.6540369841702831,-0.004636294162266693,0.569550728409069,-0.06175619236069653,0.5818868666677823,-0.45990558586489727,-0.22848408663462438,-0.20584706316868287,0.40937437570931606,-0.515044005152821,0.27228765973564223,-0.2282523652892289,-0.3770277709441574,0.4758525662939005,-0.017874077516876273,-0.4662192888388522,0.6932330479254307,0.05483203494541052,-0.048227004540961994,0.004359410022370538,-0.14933218948618504,0.7852094103813905,0.46652016978333316,-0.03845537049745189,-0.27549946728020314,-0.27039288780811094,0.3181329034998437,-0.1437426202458896,-0.1491533269001493,-0.05029121201565348,0.27347924951226005,-0.2890031916099496,0.08280076174889384,-0.1020083412492819,-0.07208215897167823,-0.24272563881427153,0.16825665048516353,-0.04709403580911191,0.12271621134768813,-0.09286021978313598,0.2654014862069477,-0.4869676190216095,0.44974795271282403,-0.29668062346779595,0.44370007724316257,0.41114903472174813,-0.07756041923596686,0.36490293535283574,-0.4215222349668682,-0.09430395685453266,0.0632040874646391,-0.3242232173925684,-0.07006715030347342,-0.12171397162047277,-0.17357182622590106,0.2716282163840404,0.07602028341847938,-0.2400918487788726,0.523375055351232,-0.20719780676567004,-0.4934243703196949,-0.3111804649053544,0.060100035100948614,-0.43520891999822586,-0.11138099008793008,0.254413426061829,0.2808239705915222,-0.012366957387803081,0.4696284406416296,-0.36703032273925457,0.23161036009868682,-0.17730360665062334,-0.2410432011387975,0.346185034229626,0.45142845876288745,0.26168695976595435,0.5445651279803942,-0.13733438960645294,-0.045850322286993844,0.12677783628420747,0.2635995449700385,0.06917812333109968,-0.2575300069849005,-0.021294336913011348,-0.5068248539856115,0.33613854082150074,-0.35802858799412973,-0.14633316347898428,-0.15870912768048512,0.15416488635454684,-0.17597610913528244,0.22059995948401387,-0.08299549236039908,-0.1702955111949977,0.5601549785929147,0.09853430123755996,0.16028617132361797,0.3555282951486887,-0.19081086225974989,0.20613505969954662,-0.04765251277510747,-0.3725611689844411,0.3526435528620962,0.3732954776112289
factuality,0.14014773020987192,0.15623721558356266,-0.54090577364624,0.524439493349765,-0.15117882728449947,-0.13957075143321582,-0.01474300615308538,-0.03186277970200515,0.474549394292063,0.12630625934374498,-0.02407142428470775,-0.10134224600106442,0.01991704869425653,-0.11375444509577451,0.08536971164328909,-0.32988646484556744,0.29220525408567954,-0.3870381602329615,-0.24847910115581026,0.36677056389309154,-0.15057306921154873,0.11714906666429914,0.09976600222215022,0.3503241959649704,0.2538081109751751,0.3621918080182615,0.32163234815926856,0.015521045723695953,-0.09892098815783802,0.11705025687380835,-0.2463996592882652,0.2462381463442512,-0.29045233367133455,0.14579492888160342,-0.2222754480039751,0.4667199044135526,0.4285170970267332,0.06559571864898893,0.08395669400645257,0.06164874406134322,0.032730740503269844,0.07733896343430993,0.1080527946032628,-0.47225328501380526,-0.2061212465734592,-0.12263552621558003,0.07251233180372249,-0.4513730734914178,0.2132236466359824,-0.07115192198836921,0.16672471155690252,0.6320351473331566,0.2600728067084559,0.09453749921531741,-0.023340759846190693,-0.05498506018044269,-0.1552087172124987,0.3949262840550223,-0.24793866516160007,0.36599422119243646,0.373170392107293,0.168520026689203,0.0224459217810523,-0.2231712864403753,0.0999485861789225,-0.1892052048044001,0.23344463075267474,0.3403752088320062,0.36376233608753394,0.242569485208166,-0.6032695061526894,-0.3320714025973841,-0.1579163173550676,0.44995632364202176,0.24909136398037998,-0.2517510177923454,0.1943535795812171,-0.43372691266569546,-0.06684026702734815,-0.3919466422621623,-0.2533966689073067,0.4054937322619228,0.10745731612127725,0.0626711672076454,-0.14308626010842967,-0.399853035423721,-0.42726360068519703,0.4248093600165543,0.10022104930636358,-0.3677949915851484,-0.19282097318617425,0.29494494509667823,0.5015900096866668,-0.22585541173462903,0.054425927511296,-0.1629997368521784,0.5441821173205934,0.10005465373527454,-0.04951691891262511,-0.513150017243365,-0.17571374256750216,0.6238092426388401,-0.627165404072009,-0.26307508178156597,0.443539469112931,-0.3274759133279841,0.30450180839109275,0.1128382403223484,0.033484270695701965,0.00100598342475463,0.035609735973898514,0.11241321117728081,0.5167105049533308,0.16728925413781648,0.018466609183353782,0.32673299962525676,-0.11699062915797483,-0.06375847689756774,-0.32521350653787273,-0.47156413913891265,0.043250447596645376,-0.21211033357981143,0.8047209953253853,0.24863331993248047,0.10634728252593757,0.622991537822636,0.0880015064169154,0.5019533056370135,-0.25969833152339517,0.2820744933560395,0.23941893658146302,0.3524951921765909,-0.05649576768666476,0.29897253597338763,-0.1629112826473217,-0.13074961565860901,-0.02084741637330279,0.4409458364001177,0.09584173425156517,0.31459449027831554,-0.05653712250711105,0.20544009654050774,-0.014017843136861507,0.11369656882346003,0.16357739748845915,0.10650213498083186,0.17013447810110283,-0.0022216893623564233,-0.2511315504607236,0.03952965902476996,-0.09048413884217443,0.04435683489225767,0.23709280100024147,-0.05601654052454162,0.10201159028919012,0.21150997635887303,0.21656530304826085,0.4311963725323245,0.473330122940708,-0.2072205772528369,-0.35763665700465186,-0.14363703034100325,-0.31027185362055915,0.606346630459932,-0.24535133633291317,-0.06288090974163,0.3223440523182148,0.05476978476375646,0.09447456477632511,-0.4433816532217981,0.2840732250309784,-0.5756334106385058,-0.3096807706414899,-0.2166557660627737,0.1860795373750978,0.24518792900169337,-0.2958438690900319,0.42402462995242074,-0.25207776640901497,-0.08783884996989115,-0.16085723792952836,0.0008031382313227616,0.03527249125518287,0.16311927982288812,0.10806648086657607,0.3406983294985175,-0.20476691932597615,0.02730758050721302,-0.3253489764196924,-0.20347457475831365,-0.4080993162536627,0.228577633262723,-0.0005253105072418891,-0.1906267996676914,-0.18576088611785416,-0.5747729953692936,0.062449651918113545,-0.6760097081513659,0.02073697013719756,-0.654227492163354,-0.16726035496785147,0.2745192407145517,-0.09339150195244512,0.25531844983075686,0.6173914654897626,0.11899640436345249,-0.2021506222908467,-0.04760544004654151,-0.013396146350341245,-0.058164025807637375,-0.09343580533847179,0.32339970834446224,-0.34899674312626117,0.015001027076350594,0.03725025817424451,0.17013952219450038,0.24058889399225297,-0.11044865348283175,0.2020695403388157,-0.08446287913858928,-0.7829506918495841,0.015814771838163096,-0.37278043325197097,-0.14635362848407707,-0.5579848423898228,0.07925794966048878,-0.3919388117897932,-0.3146386666074347,-0.2904007833526485,0.40788341042382203,-0.2796223791355361,0.7043993571028467,0.21672815460714676,0.243226885528533,-0.10599553429451447,-0.44430392144319175,0.9829091284142754,-0.1379655082650085,0.15617348181293975,-0.1470162064936664,-0.12679946634986383,-0.2981511173577605,0.058717921187442755,0.1974187398868569,0.1089060173807628,-0.0011085757202015177,-0.39117003974482095,-0.05803737801901137,-0.5133826403841384,-0.1845861054355343,-0.2828993065745121,0.5563303048556525,0.6243008117438026,0.02434286693548212,0.10197892691189109,0.636361673580808,-0.10235504186659668,0.08551243514106747,-0.3153809644855154,-0.34294136982778406,-0.15198128936661315,0.14804847506679072,-0.16067983846011177,-1.0613740188622593,-0.57959923510242,-1.0449397604212425,-0.2632340240085992,-0.11729748558481415,0.42769527555993025,-0.4291005534136442,0.4893368098055391,0.07666442630817255,-0.1244394982921616,0.19129171712695922,-0.1749994941207055,-0.21032286214714271,0.23505288104758784,0.23110072122035888,0.09139646838184524,0.08265512870227266,-0.27168496124217717,0.5482461994972143,0.1043886044661738,0.1812424331106765,-0.0003541848440579108,0.006344255931635746,0.21124433661360292,0.35178243663551373,-0.14317774185086832,-0.15581508270724514,-0.24362715071304478,-0.25072349656736614,0.12242191567607548,-0.15368234657112625,0.5624292831360215,-0.023653577436030943,-0.05426314496702868,0.20859731972479956,0.34816257220687835,-0.16349646919427874,-0.1026566886275838,0.21455215633661281,-0.03620760583436221,0.17307377787999637,-0.39934758400824166,0.10158581402607879,-0.14205852979343644,0.06772433781294926,-0.14404898785023504,0.11277158542682622,0.09675177546040314,0.22300447937643994,-0.2505097445559891,-0.10651393587639132,0.1943945493220642,0.20108367047978465,0.632800099602093,0.1467094711324772,-0.2110137803682792,-0.21410596880356297,0.008661964107821041,0.17033744451422597,-0.38722759871724793,0.22463165643532973,-0.17642044342907132,0.21695745817880285,-0.41894689922266565,-0.1995184839015797,-0.22674829767058982,0.3254221840324216,0.43432828586468075,-0.2905185532780508,0.10865140295235973,0.5493159870307052,-0.035727932210610505,-0.25556061802299573,-0.03890733175651317,-0.7316818521178299,0.08466595175561248,-0.12381310943321676,0.30956105333878814,0.808129281801203,-0.6399647842768932,0.009913657809047193,0.11330923999227298,0.05674253627645986,0.4517013301076485,0.24884224667035962,-0.7189972693895841,0.034104841659818294,-0.025623634302926225,0.47874598580852806,0.014719468454263385,0.12722789455873254,0.4711902314099422,-0.1172932159651103,0.24133905768391184,-0.049419181891905604,-0.06583248673795372,-0.2461581174501565,-0.1679425639725666,0.4078434706515023,0.1344757459516246,0.09731579455877402,0.10241664228648822,0.4383364487213124,-0.22447361197082213,0.32702701646239946,-0.47322362308887694,0.684790647887959,-0.1715455070843479,0.3318069831242363,0.1733424096661594,-0.26836921050120943,-0.04216478414233959,0.05469153216243333,-0.011021887349309147,-0.4988105886330049,-0.3606910495289346,0.3462980975847126,0.12718461406129428,0.18197781819851244,0.21031622431201455,-0.27942965771100753,-0.09121872814279729,-0.5212241047854181,0.37373058922425445,-0.17630080292894226,0.0083316161860777,0.04921377474624865,-0.1762668346889417,0.41792093469398917,-0.12237138140747698,-0.11449393904300761,0.3424248533591895,0.3685306473573009,0.5659148284695228,0.1530544263950295,0.19202348593522525,0.016077722893647773,-0.10661913513548124,-0.634692140564026,-0.6564615757096379,-0.29386977060805736,-0.3798579476041674,0.1769076818140448,-0.5002811782932995,-0.20049915073532407,0.18169237969177937,-0.2053218171259606,-0.4147815800876003,-0.7543690377771197,0.4680825384611041,-0.0822151416306835,-0.0897011003951633,-0.3696211750981019,-0.011210079587092107,-0.48785681218210813,0.3920649348441022,-0.22059503567515654,-0.2717066255581355,-0.39476967579058964,-0.3901872424316657,0.22417810371990568,0.08364732208048595,-0.32518301627221613,0.3664663695545697,0.10712458610795704,0.3225626518564041,-0.3405716042696926,-0.7064352883886638,0.07316825720238794,-0.4014825001504365,-0.5044938063189245,0.09813302943524894,-0.18778906013110705,0.26830455905418926,0.071492022531951,-0.029355809754849454,0.2270764673615357,-0.16568994433988743,-0.024593686123704446,0.006752802354801581,0.14130670459698638,-0.007170131892495449,0.4028034957150167,0.1837902509092219,0.03369959435214034,0.30371627163832304,0.4458367227236025,0.059400529627955494,0.4496656490881275,-0.37155820366154096,-0.4237418119414292,-0.05406754842082867,-0.6086271849011278,0.1263092372031734,0.21857350618566976,-0.4280719124466602,0.16780731160368914,-0.5588179014088738,-0.15717094830381342,0.1083699650789486,-0.023344775065413655,-0.0575690478493903,0.35194799397466703,0.09894997881807703,-0.08539441065077376,-0.43834885456456035,-0.1562089191956768,-0.27902260281535407,-0.45268190200413727,-0.19221037670503502,-0.6967450006930015,0.13213925565931497,0.2066421794106873,-0.24726999167764308,0.06336523864139951,0.07797490903598137,0.1648725811530594,0.12109533491858263,-0.36419016638378326,0.05588799741993515,-0.06718074425386301,-0.2960824976068195,0.32459423653202707,-0.1094052429085872,0.25208635199250756,-0.6492949733308231,-0.3537925114944846,-0.12279290150136508,-0.34213602318563635,0.19404681487592368,-0.22554601940322852,-0.02308661212595796,-0.5021141873018434,-0.03889250592468635,-0.017707708015610092,0.09806728195399572,-0.45079591938920766,0.06536724062603175,-0.05621867148781611,0.3223801630598891,0.4383290426826306,-0.24847672440359705,-0.9478181600623219,0.411554707946007,0.2666787503198369,0.059395728798397884,0.1136794720049583,0.13430625920208064,-0.40163137096712975,-0.1045438332959543,0.12893533509237273,-0.09645013371283641,-0.3950970902931221,-0.37122374038475303,0.01780691157816169,-0.257225921193727,0.14752295954028594,0.03096377232593684,-0.1399781044542021,-0.1282766838587622,-0.07266215823217977,0.21800411442082737,0.3617378390613321,-0.10445916120307615,0.5401895783846518,0.08053491714345967,0.5363563864610239,-0.13739784670576127,-0.38326152921673273,-0.3322541112093223,0.2165983721929668,0.7506786627587,-0.014183106859412233,0.548790675570862,0.4600479095782306,-0.05293368762871263,-0.08759798129712626,0.20896571700116798,0.10232224167499566,-0.23597872548438648,-0.06041852436402309,1.2173471776517246,-0.013578079146710078,0.21187545530811439,0.15730200409647194,-0.03927774051629465,0.19806240189661797,0.4158064968140536,-0.00871363386087279,0.34860871633842455,-0.31778981158299663,0.1586381346702745,0.2528489336359754,-0.4893807082051326,-0.24974389784993442,0.007273981056408888,-0.26753947392706234,-0.23556711860970694,-0.23448096392694462,0.3941280204371932,-0.008419213179776952,0.13237428472662635,0.18091655526632283,0.2616209199277539,-0.13275707280456145,0.0067772373363241874,0.33575243925663933,-0.4486973072357322,0.6109277352107685,-0.211957572697475,0.5540840581219362,-0.03995344943083256,0.06420974933830918,-0.5568039591237717,0.31111650479256325,-0.6231531012325773,0.5178913323264425,0.3391904766487952,0.00859469231413902,0.31419034874475177,0.2117502649589299,-0.40550649981465214,0.00478115973035307,-0.2521684123053448,-0.28461605887232627,0.21142300345803094,-0.2023898844576624,-0.28351351093293187,-0.07711781745047792,-0.21009295461611352,0.0798107464949899,-0.08788809817655463,0.05206196465347468,-0.24172140297059233,0.0009408200925170423,0.3292760095517624,0.2949499234705658,0.25273101994343866,0.08829403512564883,0.42596337691433356,-0.41899911495676806,-0.11431698798757992,-0.04577305340004258,-0.20343672924626413,-0.5660259577742716,-0.2899033833307013,-0.20103919207850088,-0.5276211672846057,-0.3874745147401051,0.4821023992453873,-0.15271724283661134,-0.2406507028087542,0.07902583258636901,-0.31375516701643197,-0.10666700425484395,0.0563357927160711,-0.3143945700455117,-0.5180580033862852,0.028710943057375954,-0.11172569190942323,0.13172329773170782,0.16686211577271373,0.2413563405922757,0.2389426538579472,0.04025979425670598,-0.16934052415573175,-0.02373824421205443,0.5629324511317859,-0.1963897680380407,-0.5959680322653623,0.2039837697133791,0.3198213097291469,-0.29717822787909476,0.04703385908165804,-0.014423002812174191,0.3002230175640323,-0.060315230002923666,-0.1921355936185072,0.42428104696322405,-0.41781760016948516,0.20301238513083766,-0.08422120196378534,-0.40133246759332875,0.421410403336626,0.11242852853020112,0.12226624544656724,0.423091770292374,0.4777499729105186,0.005309745745200498,-0.2427379889498355,0.2920925638310753,-0.023657538049086786,-0.054593652533306516,0.17364113118918828,-0.0991129359392604,-0.029463568237431254,-0.21471310801432691,-0.2130901006216675,0.017162390297348295,-0.22625718467651393,-0.19978668042669356,0.06622262188433797,0.4377960580809821,0.7463913931700471,0.0975896276682027,0.6760595289915442,-0.29519628078595256,0.04461791462411903,-0.22204054930547806,-0.25433113102837723,0.2907712864195457,0.8814525390145603,-0.2287641968715572,-0.05826359674369454,0.15446580596304268,0.4519097689282754,0.4006301767603333,-0.31194804993068787,-0.19281732566729878,0.6061099332602188,0.7939026159672208,-0.004141294367811272,-0.10190091126196642,0.2405423881424779,0.17885406544334803,-0.38757994352211067,0.022672984035932077,-0.21695092926548756,0.0300960870778132,0.004163957164747876,-0.6527026130646103,-0.3373894011457627,0.08149593066753236,0.4620004495116005,0.09200004591557376,-0.10043250216831226,0.2986749002046523,0.03885398834010738,0.2125737418134408,-0.3003783229551177,0.06694549870867615,0.05539022268126624,-0.3707220864126736,-0.27362773504867755,-0.22918444528312287,-0.11802676072696837,0.13646232506920183,0.03778409369623554,0.012447386968959898,-0.20998938636576645,-0.13047955964318905,-0.1608280027094505,-0.0224611960856319,-0.4529816458553037,-0.33386656112443003,0.20658508377253013,0.14683878676908724,-0.14193876673034175,-0.1797652619140347,0.2971042876535535,0.2674333026534453,0.5780064618911819,-0.007502781253246762,-0.11262836030133158,-0.2031839251693144,-0.07978729998186351,-0.066518997711908,0.0021475249821345595,0.08849552646530219,-0.1363624769078398,0.08726256292263869,0.40863023857550695,-0.5022154808971782,-0.14138863365895118,-0.5180828727219431,-0.5153215492023326,0.16464200807085874,0.23164282467120537,0.5666986001623786,-0.3651348138335277,-0.4418916193033976,0.0019583904200335496,-0.1708609939240053,-0.14963645592724578,-0.19303240389052784,-0.2515737811200167,0.15332761961435043,-0.09158558357251255,-0.05920047649435432,-0.20966742502689578,0.44476450633135756,0.09000022185543828,0.1296167645845306,-0.1557287580072982,0.49055773746424525,0.04993169671219147,-0.16951882384985437,0.11088691436688694,0.14830864382760287,-0.21636944049887882,-0.10393514602805416,-0.2836893122525192,0.17433319355796056,0.11840821434620759,-0.12331440339326917
voice,-0.284862332313423,0.018543661081124874,0.29887277073336715,0.14775287195228456,0.43064449681786665,-0.09382200877402821,0.010073272759596777,-0.22606544817660085,-0.18456479071532728,-0.18062671760077584,0.35391618423112675,0.08298792009512006,-0.47102755172187377,-0.05469527861598214,0.12307056214086691,-0.20218179379148257,0.4678371594861037,0.23107265618374329,-0.28998058745124455,0.4003716774616604,-0.3157084329455278,-0.2541454003257788,-0.21728700633581738,0.01800278167647371,0.20910347558839817,0.2773804574087295,0.5707484225811977,0.0015763418474218592,0.14683217585529046,-0.34336191636768004,-0.3793425502309574,-0.046485328630661286,0.11549168593747071,0.191609391032374,-0.6419205349158027,-0.05682923094396035,-0.6288851202577413,-0.24310843926451456,-0.011084034176903882,0.1143505825799471,-0.28077555719904146,-0.3094848658835685,-0.7490594404521855,-0.18328948327494704,-0.030767873217070345,0.3942679018391649,0.7408620458061168,0.10565442910259208,-0.44681004628898924,-0.4934263055831003,-0.27799744448486635,-0.0930254420111822,0.3282737922071238,-0.464021116989174,0.2591337728154525,-0.03739261319107055,0.2916076262163115,0.12822437563941685,-0.27888002735168615,0.3127221194576378,0.24258307727509723,0.4020417887331735,0.14818133654259594,0.8927915683051862,-0.013408717300007703,0.20353164182031064,0.20380454237715212,0.0659021125235869,-0.09113489971511057,0.10533400977910476,0.20004547678798984,0.16088559210712372,0.16878822188249468,0.05941412966866918,0.8225270665514118,-0.4737050589348987,0.1826980460038281,0.5278560621162295,0.4298130870814784,0.29703277014497553,0.29704188379105345,-0.16368411728958007,-0.16038121598076685,-0.5003460174553453,-0.2904376902051162,0.10117440667463556,-0.3511537779644581,0.009501914678119389,-0.3562116639256384,0.04509226254931051,-0.20009780625410467,0.41208286164235225,0.2663840415915174,0.2339977920123145,-0.2559820292662817,-0.3445414039778562,0.2009329297149028,-0.1929179538517691,0.3255665503076469,-0.15584130455684195,0.34635310702765965,0.4784063942064147,0.33816627609508315,0.001681221914102656,0.06521008660522758,0.1454036154597468,-0.6574034334241271,0.0209394837137276,-0.27333355747825666,-0.3289898317804023,-1.1111804835332093,0.6643877101014282,-0.600421797170876,0.018044044018065294,-0.3928962538864577,-0.704391753270835,0.3254909600825981,-0.2841673290319628,-0.13014233883000167,0.052731297695489246,1.0384841889120264,-0.21299514412926143,-0.17071680531930905,0.2099342830812168,-0.5822461311287833,-0.1435220029357255,0.15018287428637625,-1.0034892721478585,-0.0028332400118449433,-0.39946733748105057,0.30135582454805615,0.3104846501937782,0.14235599110219183,-0.4564727726547049,-0.40125475780796505,-0.43408950932454643,0.5217243533412459,-0.4414722349933129,0.09359142604862108,0.04523850896391963,0.010266616107779895,0.1590379674065738,-0.20735127018967237,-0.08836423645488307,-0.47192814233988917,-0.9465799878646084,-0.16839263935543536,-0.3390355170985359,0.8168660678796835,-0.12372827719214943,-0.24151329762293802,0.012312040695154283,-0.015309385412346865,0.13878464608556612,-0.23702682510613607,-0.5568848315591116,0.12264760865846233,-0.11334435881390222,0.22593780706383387,0.039179565912666865,-0.011152193260125794,-0.22326383817398782,-0.3855370880089029,0.4250613064953055,0.07081557117568256,0.1898320711933463,-0.32783945515995677,0.02476451669897121,0.5153139029788215,-0.44733041454973665,-0.2732327070140953,-0.7014406423050009,0.8975088018700057,-0.4971544838558829,-0.5966720767327294,0.13701952806080445,-0.5026547098572404,0.3442672838293382,-0.16668104510095696,0.23404797989732717,0.10462789322173478,0.07981033379546393,0.2605122095640827,0.3004271482245972,-0.016100475306524652,-0.027030353467299276,0.33866105037044053,-0.5658655670565602,0.40937229879228815,0.22335161938561487,-0.09834903725915833,-0.09217764984146128,0.6225358332021014,-0.9339966433184813,-0.22844906179742683,-0.44258061970538665,-0.029757199536029316,0.23812771351447937,-0.32791984696094006,-0.25677386153957843,-0.12800019908045404,0.3566069258372871,-0.6872988021747598,0.5713227065014839,-0.4404427593276648,0.5761042954806467,-0.0074071309811636,0.13372088528633885,-0.3978994121910012,-0.20785791241946205,0.07282319147946612,-0.22950743180865346,-0.10843745350993919,-0.032238271012799295,-0.45253223978619905,-0.22275039135515687,0.18427687783456456,-0.24460238389045003,0.8599489832825893,0.5123309532614326,-0.1517660060966521,-0.14355472756844356,0.13455703053607612,-0.06809073745121112,0.269410215516356,0.3846191275440277,-0.15840827601389673,0.3581280185940954,-0.25434802770601256,-0.615992207536215,-0.32720472890365954,-0.11806763751055178,0.008498111850134644,-0.45851559899810684,-0.14067290334615687,-0.09246846491813877,-0.39483122058369247,-0.12292137781073896,-0.25116989050257704,0.29203088209031747,-0.26529315279743637,0.22287609171133943,0.2567884583771814,0.02125752621861509,0.2427292035475767,-0.489486721270308,-0.32814372515021684,-0.19292751601601266,0.15254482202278427,-0.20871420051462838,-0.0002935892745441267,-0.137589118345103,0.06729896116947093,-0.0034082200282057416,0.5370731202833241,-0.5518545133467118,-0.0003136882018699907,-0.1771910978238976,0.42613960483122887,0.011460373467069341,-0.21166694218971485,0.7989303902346451,-0.12371721844240674,1.0257901067382058,0.03413251597295453,0.3150325648433413,-0.4313328335514877,0.22476206451164446,-0.3789817661118333,-0.24677254750507174,0.07673045826730363,-0.027814734790641622,-0.13570583406593745,-0.2291572405618242,-0.4813974443576928,0.264114434607393,0.10469684591804676,-0.28958926066097246,0.6126162526070147,-0.363840573827074,0.4794324240176573,-0.571487768128279,0.09120930252038743,-0.0326989465175379,-0.4186909800222809,-0.1530461993790173,0.1287103121260604,0.03423881133945558,0.7117641809158465,-0.38103072857795783,-0.29948203611198904,0.8830947108075345,-0.2251185013397539,0.10732583169598116,-0.07888825489133801,-0.08384629212687887,-0.07420095871806151,-0.40506397504649794,-0.30433887374143254,-0.32654648235002454,-0.253164111092878,-0.11669389717166313,-0.4905879833727595,-0.6607560645112576,-0.40381617644396195,-0.28142097667833116,-0.08463322648015247,0.19913478841897495,0.5765075938838048,-0.061606291371539744,-0.15915501961587855,0.19963670200356243,0.13913052421006436,-0.2616575139137059,-0.3380709505413419,-0.530965669336873,0.2028632341054212,-0.08295318781190637,0.2555672237509688,-0.2422136359267831,-0.17000342855129452,-0.21738461642054954,0.36991282499806405,0.15250977361570384,-0.07964801361778269,-0.41039536944074845,-0.22030123495928466,0.2299339701008614,0.5194151702080798,-0.10430797201964113,0.10039792635161812,-0.4149083777614324,0.25335207955999167,-0.24150030512345635,-0.05719850839611734,-0.01046089278182781,0.045946136609033496,0.07946189895362515,-0.2687007930576298,-0.036412305810831165,-0.6881387839835257,-0.0489678272119406,0.3215822198737718,-0.012268386436276906,-0.0972142610999507,0.09170764348804458,-0.03663455530855321,0.7057903852825901,-0.11454955889376195,-0.5401583132322926,0.4166782314497863,0.4838215130102371,0.358132691880408,0.030360770879375044,-0.4728344099989289,-0.31229746712815826,0.015939191177808468,0.6409423083889112,-0.4764251270745441,0.335239008885439,0.21332788413450718,0.2017589183061054,0.2811810188376627,-0.17825828385025236,0.39475156288869967,-0.14909018999053947,-0.7168581273906004,-0.01685461721109724,0.21853088239632695,-0.1948328576959154,-0.45426450144583697,0.11863947630824596,-0.44348553248677,-0.02051619589727681,-0.1762905135918598,-0.681598561663206,0.34394940581773886,-0.08568314088448331,0.09410830820206369,-1.1093499864930894,0.0676669811805787,0.03768295306878087,-0.031374097297067034,0.2900581313804348,0.042896092984718116,0.7635256353758342,0.41205790017794686,0.07223868565594002,0.2141707754463107,-0.1845075564962427,-0.10204136469384067,-0.2779513516503443,-0.14714541215970178,-0.16510343346883846,0.056440358847058135,0.17638593003130074,-0.35673881232566756,0.4450661512765445,0.1289878883213893,0.5198445673895236,-0.3576470794024175,-0.2253207370286015,-0.39198501389971696,0.48439013206543613,0.6001713143275839,-0.23468502088138163,0.1745326812965162,0.4310495247420077,-0.26048621380111747,-0.19714455943204234,-0.13191968220042358,0.00683583879184219,-0.28140266717508,0.024123020120877886,-0.15000555861263723,0.1377337591418511,0.2061849739570824,-0.2503707349795527,0.45361447612412703,0.19516881651988416,-0.3967198512768698,-0.044530406717239894,0.2923649755843634,-0.0045824451186094114,-0.5511779463693994,0.7137797331831073,-0.11507452765083455,0.4918285018290956,0.09384534793735547,0.17061194717851827,0.4659129057385188,0.12502668072895864,0.5582806707623768,0.08319542441305296,-0.15912901801658189,-0.4086158170735107,-0.030443212678249926,-0.36959884314099883,-0.2090053129728345,-0.31163582245565197,0.3646861382606723,-0.6584483046865673,-0.8056595036744791,0.3169682170588236,-0.3023739776552113,-0.19268277075212456,0.09134417448472831,-0.3089452930984998,0.5817460635339589,0.08645344765358039,-0.0038025828248747914,-0.24478553283787732,-0.2179358149856843,0.34245509248311173,0.7972529603025542,-0.483170493284205,-0.0908532318097338,0.15286143276101982,-0.03684712941220988,0.4550401538798604,0.26290189879811154,0.2756812671588807,-0.5956719277148814,0.36048932300884373,0.004103147283878986,-0.028433609150527082,0.13835233262434643,0.02111543223810933,0.48339382416508814,0.6681715061372548,-0.09023873951368849,0.08254287646535274,0.12761860305690773,-0.2245102570805265,0.11096121256951495,0.15322623356007833,0.12798359747852775,0.0412279150942403,0.141354560521344,0.21680648689217535,-0.25395420219859943,0.36872983885359006,0.026044786366401094,-0.3314682482978752,-0.06283260832047036,-0.00043491737476542366,0.19385294174428633,0.1840336969496275,-0.01385247605417275,1.1657985708634173,-0.27571738815272656,0.12351027567719897,0.355008805990701,-0.2550497188467545,0.3353126847826407,0.15122718083232367,-0.4788489703751313,0.45954108247606756,-0.06617370836475926,0.003115596287090784,0.9375159008975248,0.0017288709952994656,-0.22749210646523355,0.6959141975676179,0.32691127614028576,0.5908051308467167,0.18508962663132564,0.12354433654858787,0.5198417852728429,-0.310549380855474,0.12025809133942747,0.30759517998502084,0.24701117275163934,0.11052111464069388,-0.35172973614161396,-0.13610881709167794,-0.23024345445012717,0.48983008317702526,0.11147207023453298,-0.5078264385785507,0.22612711807513075,-0.15789873212117583,0.22601059008961638,0.5090522131569443,0.13573152593097373,0.5762130782715795,0.013053799852902049,-0.32657740859833523,-0.40312901499370746,-0.3319585960948687,-0.3329031243658827,0.3134530892840963,0.006370303184782169,0.010860595212769514,-0.2877576829096118,0.04990498956759724,0.2980319197532034,-0.043598458760758095,-0.322969844297398,0.20672383527310906,-0.5187005982867785,-0.175464619275593,0.5291883348331582,0.36701275251129944,0.4043512333669087,0.4946697074534756,-0.37757619085958305,0.1593153714189135,-0.13890838492197755,-0.4151807892479049,0.32387890011956605,0.6080304274177001,0.25252359548843345,0.06309786352004264,0.08853113739034495,-0.10573149814126571,0.6516822850190627,-0.3996005457207762,-0.2829483190600156,0.1682562399546566,0.12911665574262973,0.003963272668939943,0.3071428361770293,0.090156720583949,-0.22737962498464478,-0.12397166486121974,-0.22884431755983806,0.5702219824841774,-0.3447809956640088,-0.3378263387071716,0.1258627838686093,0.18765722044100389,0.18725043940737335,0.04917103110345638,-0.09454917246875978,-0.16386837499388715,-0.37157716939263147,0.273865857256774,-0.6689403209990217,-0.029316802991477382,0.18656602247283988,0.719833133568201,-0.7082042747202665,-0.48739677200778353,0.15031130593100836,0.5805199616365845,-0.26367620432371364,-0.02077615612626496,-0.02360410098476443,-0.24829420489917467,0.05610172162455151,0.3890906332623375,0.6180159115786306,0.3929502399815938,0.3062697418481938,0.26777941472639194,0.25999883021372966,0.07845231172690807,-0.4239938834086952,-0.6554411659520059,0.11800172222849882,0.5458126332644506,-0.2139222243485854,-0.3543357256893985,-0.47090257956286335,-0.13386046271113547,0.39512885082729476,-0.7922571954896468,-0.11362633234703523,0.03600993112310632,0.2867103845163667,-0.08448221776104918,-0.29019096482052575,-0.5918690964474492,-0.0346834009083216,-0.20230391177282786,0.2414017991735292,0.08139611951873386,0.23490159520434808,-0.440538483070533,0.018229349101043086,-0.4854575598435743,-0.2790574355990144,0.4935576369899506,-0.07497379345607577,0.007096728726340446,-0.20589513805186438,-0.02708537482964817,-0.0576220657826138,0.1657719124956161,-0.07648132852088986,0.2452047059800263,0.2631747594635926,0.47779023422363737,-0.132705089578042,-0.19174422743291708,0.28591668814497934,0.2543807608776826,-0.2311240053043613,0.3071286995905122,0.2413554096320574,0.3076555846807925,-0.1775879425733129,-0.29197727430131387,0.08101477937257731,0.07089467188247904,-0.020803647342214994,-0.5333037967633046,-0.30762095996915284,-0.2479596832544027,-0.00968628278823443,0.20014625109908057,0.433916416884842,-0.04472354547718637,0.39949208497842753,-0.1811597799523313,0.17495018091841702,-0.4810383095384377,-0.1584901074870332,-0.020909337913960997,-0.48489185663044215,-0.00893893479926275,-0.4447663929832824,0.332849701487927,-0.028246686571332252,-0.0020042793665558303,-0.09695827779503247,-0.3351136992246805,-0.2566084857746825,0.6206189594641093,-0.5001386827153438,-0.26097202382109214,0.06390879443980951,0.28830297525682275,-0.21958766173126731,-0.1061108492144114,-0.17692588778931723,-0.13772305179241,-0.3142860785055822,0.004104607771820326,-0.758282410694083,0.04566162157491762,-0.21441466570440626,-0.34267430679492883,0.18825108189906065,0.16258346039337607,-0.44687609226837055,-0.19227672986141378,0.6498017029490527,0.3040507960295574,-0.042455268594776656,0.1484917899876777,0.23259095802769109,-0.19667412540439574,0.3143949573620187,-0.26237833829902496,0.46731938102783577,0.7733325617779752,-0.5141255633256754,0.1980477461894796,0.3611614098128736,0.4209106345586203,0.3296291252261191,-0.7045059021762371,-0.20474301838673664,-1.0065174591075396,0.19729570228742432,0.2244377030305628,0.2758710307406616,0.06943634239326725,0.49867446177682817,0.549495822205941,-0.4350466224159458,-0.0872481517453186,0.22129137086734874,0.930135058751678,0.30459271970806584,0.2200214704222169,0.3361077144983695,-0.5688671219923794,0.3119431357131624,-0.12697192771881682,-0.12619756331277637,-0.2339458843679294,-0.11947340082591104,0.6093712168367452,0.04991095790145876,0.03963777748375698,0.16949986038048956,-0.4674690333672436,-0.26589671251149016,-0.11183796428220495,-0.08815609850837149,-0.2773467726135143,-0.33753945113367195,-0.20853393753236038,0.2893957313686182,-0.24091836344325065,0.20510409838914173,-0.22060175317030475,-0.18799294351540582,0.15707696525385678,-0.2729759565086679,-0.22624156885992922,0.12962022937379872,0.05403340548319917,0.012577336424364264,0.17115901721080048,0.15311043126329762,-0.39543280142792564,0.15796716972609107,0.545335833272593,0.7869716038931697,0.25064654162486716,-0.14480211345843158,0.17823142182691595,0.29865791227849875,0.5520166472691502,-0.5021818174256941,0.1587562489779934,0.1885288202192393,0.07878890783198465,0.5402664135363433,0.05619694936953645,0.12877862551499894,-0.20381616107771783,0.18226248715668755,-0.207450873190444
