,0,1,2,3,4,5,6,7,8,9,10,11,12,13,14,15,16,17,18,19,20,21,22,23,24,25,26,27,28,29,30,31,32,33,34,35,36,37,38,39,40,41,42,43,44,45,46,47,48,49,50,51,52,53,54,55,56,57,58,59,60,61,62,63,64,65,66,67,68,69,70,71,72,73,74,75,76,77,78,79,80,81,82,83,84,85,86,87,88,89,90,91,92,93,94,95,96,97,98,99,100,101,102,103,104,105,106,107,108,109,110,111,112,113,114,115,116,117,118,119,120,121,122,123,124,125,126,127,128,129,130,131,132,133,134,135,136,137,138,139,140,141,142,143,144,145,146,147,148,149,150,151,152,153,154,155,156,157,158,159,160,161,162,163,164,165,166,167,168,169,170,171,172,173,174,175,176,177,178,179,180,181,182,183,184,185,186,187,188,189,190,191,192,193,194,195,196,197,198,199,200,201,202,203,204,205,206,207,208,209,210,211,212,213,214,215,216,217,218,219,220,221,222,223,224,225,226,227,228,229,230,231,232,233,234,235,236,237,238,239,240,241,242,243,244,245,246,247,248,249,250,251,252,253,254,255,256,257,258,259,260,261,262,263,264,265,266,267,268,269,270,271,272,273,274,275,276,277,278,279,280,281,282,283,284,285,286,287,288,289,290,291,292,293,294,295,296,297,298,299,300,301,302,303,304,305,306,307,308,309,310,311,312,313,314,315,316,317,318,319,320,321,322,323,324,325,326,327,328,329,330,331,332,333,334,335,336,337,338,339,340,341,342,343,344,345,346,347,348,349,350,351,352,353,354,355,356,357,358,359,360,361,362,363,364,365,366,367,368,369,370,371,372,373,374,375,376,377,378,379,380,381,382,383,384,385,386,387,388,389,390,391,392,393,394,395,396,397,398,399,400,401,402,403,404,405,406,407,408,409,410,411,412,413,414,415,416,417,418,419,420,421,422,423,424,425,426,427,428,429,430,431,432,433,434,435,436,437,438,439,440,441,442,443,444,445,446,447,448,449,450,451,452,453,454,455,456,457,458,459,460,461,462,463,464,465,466,467,468,469,470,471,472,473,474,475,476,477,478,479,480,481,482,483,484,485,486,487,488,489,490,491,492,493,494,495,496,497,498,499,500,501,502,503,504,505,506,507,508,509,510,511,512,513,514,515,516,517,518,519,520,521,522,523,524,525,526,527,528,529,530,531,532,533,534,535,536,537,538,539,540,541,542,543,544,545,546,547,548,549,550,551,552,553,554,555,556,557,558,559,560,561,562,563,564,565,566,567,568,569,570,571,572,573,574,575,576,577,578,579,580,581,582,583,584,585,586,587,588,589,590,591,592,593,594,595,596,597,598,599,600,601,602,603,604,605,606,607,608,609,610,611,612,613,614,615,616,617,618,619,620,621,622,623,624,625,626,627,628,629,630,631,632,633,634,635,636,637,638,639,640,641,642,643,644,645,646,647,648,649,650,651,652,653,654,655,656,657,658,659,660,661,662,663,664,665,666,667,668,669,670,671,672,673,674,675,676,677,678,679,680,681,682,683,684,685,686,687,688,689,690,691,692,693,694,695,696,697,698,699,700,701,702,703,704,705,706,707,708,709,710,711,712,713,714,715,716,717,718,719,720,721,722,723,724,725,726,727,728,729,730,731,732,733,734,735,736,737,738,739,740,741,742,743,744,745,746,747,748,749,750,751,752,753,754,755,756,757,758,759,760,761,762,763,764,765,766,767
intensifier,0.3691871835316371,0.2657545985339464,0.4539279429124195,-0.4000390378763454,0.08984079363174181,-0.13279336233765146,0.543437046500136,-0.04288825787857788,0.38101298497635033,-0.32792661062596407,-0.17455306429364492,-0.10241291337281287,0.21908222815621123,-0.20999676272813037,0.004453860734094441,0.13298737828732216,0.15719989990385935,0.05862384545908114,0.3481120908838315,-0.05031962377189827,0.2168592930505591,0.31220377845231667,0.12292069263509006,-0.45816783170452013,0.16066080695031826,0.0342717599927595,-0.39445024778326915,-0.1825557010805545,-0.2927211653440337,0.14798219693551162,-0.04092937659697929,0.04956084789561331,0.3300340804651662,-0.16246542229162955,0.3949606693605287,-0.16512758174996098,-0.2299989700327268,-0.06956445079992155,0.17557616144515545,-0.07289263805239327,0.05815214398541085,-0.18706305315063398,-0.20418181662103219,-0.21614776972150715,-0.07425911637068915,-0.15810466855401747,-0.4363639976722223,-0.197029855143282,0.17124148468496694,0.09470818717072355,-0.3371761576318554,-0.17538756785618248,-0.17950992298201587,-0.22766101075148257,-0.1313502549836094,-0.0985960829295854,0.08902974398959305,-0.1957918018759786,0.11484376246373999,-0.00638031944757296,0.05433892241568466,-0.13381907500810036,0.3240623414183881,-0.15049512216480251,0.09157556982155589,0.04012614233546638,-0.10157271756197633,-0.040169017600144165,0.37015709821989756,-0.04429821564389576,0.22864995742845476,0.08312827591349002,-0.04112601558648325,-0.3504094274784187,-0.18437999522811435,0.1621821175458527,-0.3599002905974915,-0.06663175621290322,-0.16086728322601043,0.12920395728818349,0.24959580239903484,0.20062469620361661,-0.19744017534743719,0.17079149543482985,-0.11861198825660503,0.04447672752066383,-0.1292308658318409,-0.07330060277733308,-0.11409430663414155,-0.11940886811848446,0.2376855545652913,0.014435174504914279,-0.039971654120026553,0.4934805123205496,-0.02612373366219587,-0.11801845793749735,-0.47600094142749827,-0.08097819366586931,-0.18392267392703707,-0.29176171563445913,0.4812481696185487,-0.276502166074222,0.13759628803868945,-0.0868674013611713,-0.08142793911935571,0.09241058172820117,-0.14793030514182826,-0.35841091688510585,-0.0025143144208555337,0.12465273666518524,0.33087411079207174,-0.17918034708338837,0.35843017214532735,-0.24242821088290287,0.011090310055519605,0.1498039511266128,-0.0678545669702979,0.00928829217562845,0.13453555542997966,-0.05921640919963044,-0.23326350319031122,-0.40448721805560567,0.16464171562602062,-0.08059146334290819,0.0309911113143068,-0.4820197506382765,-0.018545305272890982,0.1865854394440686,-0.2025331381291323,0.21999685809881006,0.4764314986514773,-0.030133710476643007,-0.23142122283715374,0.2264156050921642,0.11670825907632738,0.08527413013065334,-0.002298453482988274,-0.1217241749202275,0.2580305911530267,-0.03857647592476172,0.297457154421811,0.1815472606279226,0.49908012369649796,-0.1770707703386246,0.42146252789749566,0.09551470995616337,0.24757134058881883,0.02407576566691482,0.19205820707233268,0.09993160444235179,-0.16555353185349167,0.0597867772610333,-0.20423845191345574,-0.2626472102401877,0.013984235045585516,-0.2883073394401681,0.09088626694993909,0.09906411906474441,0.24274556126667668,0.11882789560890196,0.2745550869081588,-0.33935759666204895,0.19720638756104292,0.13974968892134035,0.012485759309836511,-0.2596147475017737,-0.13595440842934547,-0.2792006922535687,-0.3093641197428958,0.014103471564210929,0.2380695910633508,0.11522869427768655,0.23631397551190392,0.17920088029981954,0.04634712950721348,0.1474600619805456,0.21753806201214054,-0.07151953371510604,0.25261469801039854,0.13600169907689216,-0.4591142216602546,0.10725741320147121,-0.24272681706869778,-0.07784063723272361,-0.03820781049563293,0.1303806944917561,-0.1095835779361379,-0.1627295081160274,0.2850616567484188,-0.027945873864027262,0.30799552621915377,-0.4777904490937101,0.3527159762134337,0.3615090104119686,-0.2041858461096022,0.1654307168575815,-0.09994220807199071,-0.1382501955624026,0.06515957983742116,-0.16571235909322657,-0.1645105125103792,-0.14467137248577638,0.22067488128391458,-0.2677098542227428,-0.29699742454184075,-0.018924721644775346,0.20775489107201567,-0.3019169700040788,0.07457613128975416,-0.393821710720689,-0.06564875716514348,0.08198983736729522,-0.21437463921163205,0.1035481935502253,0.11910057840705797,-0.07540313049473746,0.2342432128013213,-0.12950468608190446,-0.18499640488548375,-0.0008193597353106877,0.17217409809960377,-0.08752102843521925,-0.2857649544320193,0.3759895039071459,-0.20951241267152745,0.23463473872984267,0.036877246462306175,-0.15988121438092898,-0.23282350347497968,-0.15541681459040302,0.41181802919765814,0.07831893730446925,0.021523746681437795,-0.32353568775367225,-0.08262756312053506,0.023795818615514754,0.13660241502520884,-0.02749335177555947,0.34288655173460614,-0.027608609545883258,-0.2030207864060559,-0.10940693050786435,-0.16224151786057875,-0.4936327692159855,-0.16882178995800398,0.10755354003636072,0.3730453801268773,-0.003319694481252619,-0.10150616533355891,-0.0035953512355205277,0.20480091555645727,0.20850674216768084,-0.12254590967460989,0.025944838184695364,-0.2780667431076352,-0.09118026432526528,0.04639160397936147,0.3547852147128557,-0.2220109227259011,-0.2328404575605529,-0.26415788323810335,-0.3988898786471581,0.08959499526166008,0.482855466677896,-0.03685822265898275,-0.005243351546683809,0.10022559967804705,0.15047641057629194,0.21356957617842756,-0.050227182739567486,0.1870571599380784,-0.11932549070154608,0.2554547447523369,0.1813608973645868,-0.06034264329716725,0.21964662620851047,0.13560054992304613,-0.04070519879727639,-0.016821583358176007,-0.12728211091774083,-0.1685254074879386,-0.45786256860832486,0.08719388637321784,0.12505437305505074,0.45790438903804,0.23727318841291986,0.1434089286342177,-0.4959352544139628,-0.2545624704332938,0.1372328515129331,-0.008133569729041182,-0.15980325937462106,-0.05124798346541871,0.18635789311584816,-0.19376904196053044,-0.06548804580351943,0.0703436218824331,0.004647980712549121,0.136809268676039,0.11681298263565895,-0.17870141059838407,-0.3900132983178837,0.36190381748147055,0.2248748687334234,0.12073768449308012,-0.14706170432306953,0.5006271681791358,-0.43424801860626167,0.42380792365865233,0.0698995205076327,-0.3234705650022919,-0.033296036081481725,-0.50782203193436,-0.0685478316020946,0.4396049407647952,-0.025787468994418486,-0.21211287418800898,0.011383654000844746,0.06692608614581892,-0.13259330154437193,-0.08630869601703667,0.20796119182310763,-0.06498435926459495,-0.0732200184495497,0.2243222027494852,-0.35575119642558495,-0.013224001982995358,0.11228808227871742,-0.26745771500742155,-0.27993630225986055,-0.020166603858120878,0.07427940341891091,0.015638027510448838,0.03987088953502396,-0.16126740082716945,0.27987519051908655,-0.0427227763774177,-0.0900087762001411,-0.13989440037103468,-0.12568080985465782,-0.1527030444770022,-0.3834139718291889,-0.24981384361770465,-0.128804877364616,0.08143545605811067,-0.47272444047799034,-0.13427810178869523,-0.11563104390699751,0.022416266453825457,0.4026589444787331,-0.0400406695194605,-0.22330802972704913,-0.23599034782021389,0.07803535516294036,-0.02568121478242936,0.34434604655737844,0.3243208633173614,-0.015262648847470854,0.004319585993228709,-0.018095919937022305,0.23641195934029594,-0.0685155324762466,-0.021880236510479236,-0.1871190062021094,-0.03591062901033517,-0.00832129333838251,0.17380736849035966,0.01403195262720274,-0.050847329004502034,-0.04676908441761453,0.3888220085358646,0.008946806963825465,0.017134690827931953,-0.07889566914591781,-0.0281959885282542,-0.15562508220861074,-0.23119789898281545,0.46291512804487434,-0.13689393692358937,0.12867223195480001,0.039456071509984786,-0.5567363664500149,-0.14875285155364398,-0.25814081320083876,0.061124009417426434,-0.0994548133640509,-0.3602001427971656,0.19205928219875995,0.12846975942441544,-0.12178321963537923,-0.2332129662285844,-0.058876916414557987,0.11684822036159113,-0.4639829159759689,0.018918350205781347,0.3798875106084576,0.11231473621133528,-0.16925054570633813,-0.4057127156128928,0.15222213646593716,0.6022035164001562,-0.13069651158744464,0.0935248088303609,-0.029066501980311594,0.22770457538367048,-0.10225509067749541,0.352642476965401,-0.10665408825241958,0.2576701538472036,0.49403480969702457,0.15271670995461964,-0.15522381161010584,-0.27150695590498164,-0.049680429220316805,-0.005099638315954953,-0.09618407419254771,0.200009361175762,-0.07453855305371201,-0.2793177078943768,-0.0939810883241941,0.25269797932893673,0.37752041705465333,-0.02923716872660591,-0.15968876979231098,0.04840796186038735,0.04694079193696146,-0.16774757874487706,-0.33034721411887424,-0.08841706491603497,-0.09276954717233937,-0.3209400384950852,0.08832770513393574,0.01887688476084967,-0.11690542561139493,0.07103701697298939,0.04832742885338497,-0.05711415562026183,0.12520862700928664,-0.03774897674427307,0.3256454062700983,0.1442034532612239,-0.3538860795442551,0.28812627973074106,-0.25958701349194796,0.23559010593565213,0.29514819400594583,0.24030233223554598,0.4156955517707328,0.08629911809064233,-0.11787268742819756,-0.08323095265677406,-0.1029331174777164,-0.11220952739059542,0.2212937715951449,-0.20449970721752403,0.12907362934485592,-0.29784313235876336,0.4034368865228885,0.5190597647920902,0.032061491272767584,-0.24566256463901948,0.15881468522608766,0.11556050614064897,-0.44745536361293164,-0.0918959726440891,-0.12273204539796283,-0.0988340245348376,-0.424376715237906,-0.44328086876708694,0.0036423330884115673,-0.20667652917282212,-0.16899775100622194,-0.3504337134695587,-0.07802528262330893,0.08090429084902498,-0.19208826279712854,0.13031134638242697,0.10333843663948264,0.29999552400606994,-0.3239610793924152,0.4759227030230625,-0.050483638040802595,-0.3398013613887692,0.03072704600597744,-0.21277637411821548,-0.0699194276000571,0.0004889818518260388,-0.22292601396829853,-0.09157955483226755,-0.020184231692210522,-0.12554443669819595,0.0444208954153123,0.09373446516575734,-0.17700789835044983,0.37484761321860893,-0.09079360243942995,0.07083615756743157,0.14425456184596705,0.1333184353708591,-0.06301411668388342,-0.11802812578707948,-0.015307222890867186,0.02391133205317869,-0.17506877499594814,0.17121682171994346,0.06247893505011733,-0.15696730991449273,-0.39474923432591497,-0.08291310048877641,0.18347241740821882,-0.3241935112967442,-0.09559715368323787,0.1244701890756056,-0.04368259232232512,0.11161775335458594,0.3289915360626052,0.3932525524224452,0.10935187135456466,-0.09185345364964667,0.10234042653322553,0.022311121174863387,-0.13097500912198043,-0.021155280127214748,0.21994383658148697,-0.05806829908511893,-0.2885812004637308,-0.3623274602689306,0.0879778519338966,-0.0009087749030641475,-0.009892758586238419,-0.3340938931551861,-0.4005604710336213,-0.029699432865049596,-0.17105389641606492,-0.3546621333612978,0.17954127237042147,-0.38454497877803284,-0.15441413266323203,0.35318416335229014,0.042330906946028556,-0.005354405920702403,-0.15257327138700263,0.16798689141709303,-0.16704039873830076,-0.46957188187118715,-0.029480504261670953,0.10158272325085999,-0.31631017032567266,0.012501605646818913,-0.03404600606287407,0.11173889393008372,-0.12343177683990332,-0.2849717059600022,0.5395692648834945,-0.2837810537360658,0.1646853769412685,-0.1880542331804147,-0.15274394984274983,-0.07882508838565816,0.002901110803436925,-0.11808126288749256,0.2077257414726206,0.08583923620577914,0.3414810594191177,-0.02637806296877245,-0.2781811381819238,0.06941443974060867,-0.11149000280249413,0.13449734303695443,-0.06191562809037912,0.0009405586093670934,-0.3084450408335821,0.32758251603713284,-0.12855088433243914,-0.2456182872802482,0.3247591666000084,-0.014491283437126357,0.288542205779981,-0.07798722421151244,-0.004723451060416195,-0.1111421688338977,0.060843103700726625,-0.24606207404816863,-0.07550771853447298,0.13603620372918004,-0.3983873833793717,-0.001526160921295773,-0.017929147724609996,-0.012962290301435066,0.1900432207418081,-0.0641920343917705,-0.1004276220711644,0.16321347704798345,-0.17217584750945325,-0.0500895480343327,-0.12410918502631768,0.0231435039476013,0.020174688905771877,-0.42034510205437514,0.056278460625554784,0.10614464147037918,0.45688882657465585,0.3529284131632321,0.44266579854414156,0.08116160696904352,-0.10472341498808496,0.00933809249473339,0.37994996848827994,0.25346531752172985,0.6710042635415107,-0.21500375773587005,-0.012101193540047833,0.05173763377199446,0.3467448440190652,0.01816255247881607,-0.2024706840761877,-0.09732510795435405,0.44050935094610094,-0.22220155107239392,0.179344048957896,-0.02011287568377703,0.08723098275374264,0.27808943833306277,-0.3768452383251508,0.048668197113152005,0.1937252058944637,-0.25867950085239416,-0.028932835434969523,-0.04466084964097814,0.2430312421928687,-0.029245562325523958,0.2291804472911993,-0.117113211260654,0.18268981712424884,-0.0382812458026901,0.16611206048149119,0.35914298162790403,-0.02229631033487458,-0.1743559759485578,0.030934339091093582,0.3142804966863536,-0.25226660729382067,0.2529999204550045,0.14649955340603124,0.23551302137603713,0.3073155562763347,0.00994253977340365,0.07234597730068622,0.3651498367570148,0.21221306090471737,-0.3294150749015187,-0.18335099735452598,-0.004178110711160605,-0.5261446995179315,-0.4952469488214167,0.34014664786044685,0.05270330101970322,0.10389123468270876,0.044177401839483696,-0.013819776155361977,0.09601864422609532,-0.2559075111193726,0.366180799882587,-0.45102799550127864,-0.0980539911505166,0.4234582425256901,-0.2637339296160604,0.12700174707145429,-0.08929106179403068,0.3258035971530024,0.1355034852274567,0.2728475000393471,0.07614177673984224,-0.07296198280413667,0.026928326970692716,-0.04659449151489918,0.07690433925668919,-0.10230252583495016,0.21948787819090468,0.11379398255087639,0.011891420631446822,0.3762794261748499,-0.10255868112846829,0.13363766333143867,-0.2856162077870526,-0.36084398003531654,-0.27990845997848673,0.221645326851186,-0.35691517459817446,0.14316311684971234,-0.15192371272727292,-0.059059042796666475,0.1099266130757883,0.3133109948144391,-0.24921134088206978,-0.32089742320987147,0.013996960459807875,-0.04132106677963156,-0.19518722295998953,0.17451759426345909,-0.202975059734564,-0.3244481770118419,-0.05104876608061464,-0.04182739580050024,-0.048506466794059754,0.31780640315197967,-0.0936698747346609,0.20639074343295388,-0.3735595776548216,-0.19062356387170207,0.06633754540971021,-0.41753773079341006,0.1456574388155933,-0.07757376704663169,0.11943891908232392,-0.23707946671955896,0.14332761352195614,0.062043128454457294,0.39036996458833423,-0.2133555003013958,-0.033646233199411166,0.08111031977108164,0.3272953967892337,0.23849772100482527,0.11293372434459673,-0.04631253427498793,0.5011266140202594,0.15578876539114245,0.2218301251171611,0.03429832085363418,-0.04161281139043065,0.13587493818236476,-0.1982567787437529,-0.0054245287892824,-0.024276924809016658,0.4260568579675936,0.19637177403657183,-0.1192101387652434,0.05869506381037842,0.04148754700666455,-0.1263973244420402,-0.21762476152548405,0.5336306799888206,-0.14012967809789487,-0.06029586790472054,0.14330908554820287,0.18634302911672598,0.16898401734413845,0.04558028431214484,0.1177152908403095,0.045026525546497595,0.20185550871461935,-0.41214076833059815,-0.011357679901324615,-0.07234997362263536,0.2857356670003169,0.09232954682623068,0.20532754119178642,-0.2214765890088654,0.19369904642365438,-0.1783548583939957,-0.08253662931466353,0.3643411203350681,0.04864722811431068,0.3342730017752726,0.07556580070897992,0.24472633242750377,-0.1968617309222
tense,0.08523607756353235,-0.0928836740999814,0.04610632674032359,0.11027179490923948,-0.015748110752461058,0.14997969029877728,0.12241867615991373,-0.1482068766932131,0.08811276212558135,0.22653446396820667,0.14694751977756906,0.00963553543057738,-0.03270814387819188,0.0012440506678027563,-0.2581657546253791,-0.20674439041665835,-0.41520707121524913,-0.11011071012147065,0.1921219761626915,0.04428574479101355,-0.10008933336966029,0.10361815361768675,0.005015340855432877,-0.06507787773617825,0.05162000064265068,0.017196464539497226,0.12977246370840434,0.08487907918313797,-0.11026781741167385,-0.004565546953133181,0.16094352042524115,0.07375772358950478,-0.012465117812617504,-0.22270210423197495,0.13686624804030506,0.16252045497311512,-0.04509712619071835,-0.17453811450629,-0.1582678824018189,0.02750862406225045,-0.02466721822977305,0.051484523513321626,0.16179838557366114,0.3730811637297425,-0.11032337270098452,-0.03190603019172301,-0.1016648780623569,0.021789820593371142,-0.07914822677111386,0.0016505573957693582,0.13495941170393982,0.028189142887276745,-0.04071212162605853,0.04986450360933493,0.38849929579077097,-0.05703385429388933,0.28845224935893543,-0.07259451455877344,0.06519393350648718,-0.045114756708400386,-0.46728201801290764,-0.052450000096701206,-0.1561608432147405,-0.21605202479629387,0.03698039795664774,-0.046275288066138974,0.1251380485906669,0.0019299382709484674,-0.18598852357246068,-0.17643232154360614,0.16062627129629894,0.2889755429301039,-0.15517293647580382,0.2284405874644326,0.02184566211337179,0.14435162601091153,0.10546996981233887,-0.06740684485922614,-0.15448462876346258,-0.13293108434974224,-0.04513976960650118,-0.049155446516682265,0.07185130197253088,-0.10230246533420051,0.16355665683585507,0.08180622598204071,0.054501945093170655,-0.026177137544788866,0.062251112424806056,0.03844006253704731,-0.005023240449332244,-0.11516044781785974,-0.02619662152004027,-0.07287825900011193,-0.020545699529840023,0.05872446533047519,-0.04410546381969631,0.31819025640178794,-0.04417907955579443,0.17464384951733777,0.15390581649119367,-0.27269671338604073,-0.05877271678310066,0.09321362102141768,0.0720827019907513,-0.07276467278634205,-0.023204653646092473,-0.03902964958941958,-0.21439932833336506,-0.06404112197851547,-0.14776092013755646,0.23470343892139467,-0.07487425436310499,0.21875517013601548,0.012838013207868352,-0.10722092438761413,0.008219998740892092,0.13929159849620934,0.030745155782336213,0.06578442612385371,0.2878187206873823,-0.0554482241294672,0.10047451844375545,-0.11975065602831736,0.16329725220186211,-0.16272942326102682,0.0357046348192797,0.020112314662465085,-0.03514594588726138,-0.07820442383587341,-0.16610588893861145,-0.1855525212244524,-0.025387567772595942,-0.20955376620789554,-0.039239633256448476,0.1261966139190877,-0.19598415730811358,0.2696263177746358,0.046627639900943145,-0.08831185798849936,-0.11955114462721554,0.04436555117535113,0.11117816042287282,-0.12632862546378493,0.21163975953765066,0.11761206592695984,0.21307494464597926,0.15003198645316332,-0.25809045733949876,0.15803290360496644,0.042441858347956087,-0.06724242280532436,0.037431909272510354,0.02327314974505943,0.05691106968208116,0.09941323344656294,-0.06608065220627654,-0.1592245174098919,-0.04507643401080852,0.02912674867813242,0.050332623167947725,0.09211193933122697,-0.1590988537476372,-0.1465841570441535,0.2251283842700449,0.017735863258608636,-0.024398832343139953,-0.14111825584987697,-0.15219671931838474,0.21462331162175172,0.09671765381616665,0.05757198534578823,0.018428283515511,-0.23041242633556247,0.10972973485276483,0.06361282843291653,0.1950015315336661,-0.051538348919419746,0.09235092299178624,0.2255199760966114,0.007526900348325571,0.15519498813926708,-0.08699593911115788,-0.11827826048097045,-0.24769736501758013,-0.09519244521939187,0.04287624641832098,-0.06303953152240872,-0.11332366107646934,-0.26061450869341407,-0.002539870441148109,0.04898820655398832,-0.3729242108219415,0.026148025787104373,-0.017220100426154128,-0.10217477626289607,0.08655382170986758,0.28510446297393943,-0.03847316107277835,0.333833649019822,0.31124250742778553,0.0010440408782779124,-0.03787124930265921,-0.12608147312194687,-0.1224613171996513,0.14222771349313512,-0.028265815415704797,0.26631751393905273,0.2918437526301055,0.0033336539338319373,0.3697406642410967,-0.1796161096599313,-0.0493876068042068,-0.18872899184323394,0.18020466261131884,0.11316552454325207,-0.13585543183014323,0.3803880726685789,0.03853613508645689,-0.1360511852776015,0.07103964142455682,0.34011727749948967,-0.01828401893426014,0.15952547499016026,0.2608679255345962,-0.04531274708344758,-0.07278575224121672,-0.17837820112901773,0.13258716400251797,0.12964940210931544,-0.08044487845615503,0.02223176278671468,-0.025358133884249356,-0.16146139466280943,-0.022564540495734288,0.08241201030164753,-0.13447143594115402,0.11085029176295652,-0.012285048017551158,0.04636706499265442,-0.028575780696742915,0.09405385304607132,0.033920383634779436,0.3231239771478129,-0.09862752917137238,-0.1782926957013692,-0.10679322156499484,0.17116722175446633,-0.18493946121366966,0.04138488885299675,0.1931520883350939,0.20524293623468753,-0.0949114450934009,-0.22826198478595527,0.03757745478311551,0.03802215078603826,-0.06250917662871827,-0.20610479471023055,-0.30271300935567996,-0.012405577048671537,-0.045872439876965515,-0.06518702700936421,-0.19581986841049778,-0.07251949901005988,-0.16605302306901218,-0.11904233544117399,0.015073236012293241,-0.1795596518408468,0.07243213812930409,0.009979734893397667,-0.00897120125070028,0.03257127304352437,-0.1933644039104438,-0.1768545856754506,0.07462659984334101,-0.0801366034723211,0.17892276882353225,0.09398226647392688,-0.16023932772768434,-0.09685586832721058,-0.09792476139376771,0.008944955094244464,0.224380353121933,-0.10431058289526388,-0.02030760940263946,-0.18430816625059943,-0.10962456667265909,0.019528075196292283,0.0002188275786767324,-0.06253517670946643,0.1876266783979971,-0.045216858473968904,0.28281948826305986,-0.020749007685001618,0.09843067562504765,-0.16400504082866055,0.12383255799689104,0.16501332945184277,0.009777880164273722,0.06879198223537192,0.1014681456366699,0.3688805873483507,-0.052921819721450054,0.33763482081421575,0.1627070980459722,0.1554081815253595,-0.17091019904799032,-0.15267176785239825,-0.09836615842310246,-0.007034340011136547,-0.12065518136038982,-0.25826296300538504,-0.17916874567917895,-0.0009726893222705114,0.1563206397048012,-0.069921725895371,0.1582079467958295,-0.020801458908325753,0.17529055702930502,-0.008995916561322486,-0.14739544405156724,-0.05051473041483458,-0.018683303959577076,-0.009861365257554346,-0.014294856965175505,0.0044261807247476335,0.15662154492919172,-0.24836851518681372,0.055950571856873105,0.08756836796238035,-0.2058991878539055,0.3015067229847128,-0.10087782874911712,-0.1642100122795257,0.04566322950550337,-0.229038873068032,-0.05283382262339581,-0.17944188342169162,0.2845053442194412,0.1050221153916722,-0.03637577077120492,-0.018630235091065216,-0.08560444721327276,-0.012154284297543222,-0.16362628193401307,0.12467178619927032,-0.2056034062434844,-0.055391665932542924,-0.27081526682499985,0.14290899608127655,-0.07203768373849644,-0.0072058266728266054,-0.26226281512617694,0.023697525409551955,0.21147002568774936,0.06269577088975231,-0.08198514617923265,-0.048514672500955744,-0.06019358912458644,0.07984637934143875,0.1742205399569413,0.001803324600185696,-0.19671381568403376,0.07609338839820641,0.07672682356044451,-0.03821415668585767,0.030249082781008057,-0.030088690017042542,0.06226066953487439,-0.02244952206990047,-0.010324783245288821,-0.23095394151813964,-0.022450967845342108,-0.11615524736793435,0.01489128036805307,0.2940255355322306,0.28244592195969404,0.014487556385847804,-0.12786240937288484,0.19586940767175212,-0.07629781183549274,-0.05435346439601518,0.13979051672063986,0.12362894522750248,-0.1098862857509394,0.06193940464530008,-0.022424899409151856,0.4338880164218316,-0.16246743733676816,0.06682452187031418,-0.09492252718702038,-0.06940842570047594,0.16046524303225604,0.027613664804717646,-0.11638983401258075,0.04333983432721225,0.029694297256736647,-0.21784122428443942,-0.05637851410353026,-0.2529493898867471,-0.21693702386531408,0.04635441210611298,0.23352299834615575,0.22807887495891982,0.12069776166708973,-0.18734842834816737,-0.081526411775913,-0.12454805377031285,-0.20273722771089975,-0.30431121578450204,-0.08118913372250663,-0.17360735993804866,-0.014252686948847139,0.00013043739958172292,0.053866253286385175,-0.23490964409064627,-0.035142330197318286,-0.009726116023780824,0.32982885914938487,0.03128451180022602,-0.13110709663003894,-0.17602319109267225,-0.07183832528494208,-0.23015570365050367,-0.0495048362785136,0.06022243880861072,-0.053352317189430114,-0.1211678329385423,0.044496198668240936,0.054474195458615336,0.047989288677424614,-0.17382320322728137,0.082198345855532,-0.10307257092427419,0.11464437756079764,0.03679409017301427,-0.24979291780020219,-0.030713853326752014,-0.1909265560759039,-0.2307558120411886,0.07484946833810986,0.27516309034886516,0.016061666078263526,0.0018267433643809781,-0.06843369581628178,-0.2443541764307859,-0.11249250445058116,-0.13660817435748931,-0.3876101848940665,-0.13238516042778245,-0.030567179698279805,-0.016347869452117064,0.03139896811490286,-0.10016347978185837,-0.1978442942868729,0.1705802652430248,0.2221243189320668,-0.08644090642266657,-0.18339498328788845,0.10322345023130802,0.11425443005527532,-0.2462644803775951,-0.07923348055411263,-0.07203664474082128,0.218755253721458,-0.05196358688903949,0.27031664707276365,0.07186157977608691,-0.0029558684169264373,0.08021898650191837,-0.22513037353906987,0.1006859204016282,0.07049770412866611,0.02578602957084358,0.054142810710224434,0.06879114712331375,0.19120203786993936,0.001472429997519583,-0.19103844747207005,-0.26320465586189207,0.08243354164593013,0.012819529914868124,0.08439968767126328,0.4688859326127519,0.07700766684685609,-0.09212748901319477,-0.02319716296653192,-0.1507863933412708,0.09349299858049002,-0.1585250039382,0.051003134740628994,-0.08118913301302606,0.08420245901856217,0.20944968194810465,0.03612622334376315,-0.004245355086981697,-0.012284027182967863,-0.2320058205435637,-0.13232157504204065,-0.052033181128253975,-0.14822476054265668,-0.04598813905326809,0.040892120839874445,0.046509124568547965,0.10110720328135178,0.2107489164598786,-0.051857989107131165,-0.08536720791015925,-0.08104621218729137,-0.2898509403909061,-0.15016781014909475,0.08200462450551933,0.20033849582661784,-0.11346895962071406,-0.05792817344175375,-0.005507295605275095,0.08870246049017227,0.03365275282520872,-0.001534816604844537,0.10982970425176428,-0.22598541257685822,0.23523355365465737,0.31445305425832637,0.031739621831966776,-0.12175163205775803,-0.09561991021644162,-0.0675058262231996,-0.020740590429996982,0.3077086021183322,-0.20092484858256796,0.028724531272743783,0.15264160707887175,0.0038623385267516183,0.07289290223100421,-0.11100537217420989,-0.026656777369248087,0.10300766161780646,0.13700169484610297,-0.016435666279568467,-0.33331385849465045,0.0690076053141832,0.3230435843386893,0.06974025286568963,-0.18650938641531986,0.19761122228728567,0.0609078750390318,-0.15229554728740524,-0.06601202705920667,0.2975339561239718,-0.03700491420985569,0.002663198435959873,-0.1368632562563773,-0.11624944050687236,-0.007447121007325683,-0.15287491707528633,0.09731175663951883,-0.14890159829472419,0.021969375861725295,0.16988230231343307,-0.09005739845551085,-0.17736147197543667,-0.1038653192746626,0.11477371657087457,0.3723105575575628,-0.002946791424029423,0.2006465827951509,0.1265301272066519,0.12571475242156935,-0.1737837466316933,0.16434075595872508,0.26965145292907144,-0.12025810319391021,-0.10663994262269871,0.008835060447879026,0.23765853512936763,-0.12149185299998953,-0.027218468601334426,-0.4989773848223411,0.14535907947346707,-0.1389389484479061,-0.03829949434515303,0.11784327057501731,0.005494941954876526,-0.05955235082706503,0.13075104853541583,-0.03736541794258446,0.3150199328255187,0.03726070572573804,0.11263561696577884,0.0018053613253613543,-0.02409003461334746,0.009342288449725619,-0.06719941572427549,0.04733154784499995,0.040307339493807985,-0.11334259081019903,0.012661481223336024,-0.18493817728786102,0.28395968941914634,0.07639650432284946,-0.1084940405902933,-0.09039492778334028,0.010054460563358266,0.003445698897072614,0.12346462506364396,-0.11909162729104882,0.03587677219242687,-0.007187759710013238,0.22417452622471679,0.06185500688342184,-0.043264634322955034,-0.09258263613474138,-0.17874564812424046,-0.15204442563220943,-0.1738105754227653,-0.11283768316045453,0.1565092320811852,-0.17683104269075384,0.11755367516265589,0.00819221746730809,0.23597719765538824,-0.04813221651195096,0.06100685734055357,-0.0033010220579035615,0.07227205738467025,0.0550029775383599,-0.02156105572890321,-0.23569065120484367,-0.27791485000129085,0.1503821637555679,0.11079064871341848,-0.01110067989054119,0.28835733978009764,-0.2680891717887852,-0.08472775788696048,-0.11129329459057956,-0.2714971911197899,0.23617651479514198,-0.031114829927859272,-0.20333180224924027,0.18346677884676074,-0.09635330953516767,-0.11564439535592783,-0.08236942398841335,0.282644853064339,0.1113554024795487,-0.07676170048497043,0.06151548011486213,0.08060845720343236,0.07610036533429214,0.20931341428983144,-0.1876984603552757,-0.20652230046905903,0.09115690941278015,-0.007828235501715054,-0.0006795406701697298,-0.2264162526660243,0.23395616158370536,0.07677229516038371,-0.16425719410139866,-0.044857026263149,0.07188464268904826,0.04969851522423168,0.07632323726583487,0.014419224131365739,0.01550448954435548,-0.0025512368188098044,0.13816248216391125,-0.14982330836411287,-0.21541914076381433,0.1456072754510541,-0.05277571557414669,-0.07170977281185523,-0.08843155323824997,-0.07982259618947353,0.2275618236586589,0.1803779011060869,-0.07071786073793493,0.06449148082434884,-0.1660809541524218,0.024916929203497216,0.024720082507694058,-0.02815735017176254,-0.11267663232766664,0.15679302273315388,0.21942495871315082,0.035331549010919276,-0.19072453879570755,0.01720688287064439,-0.08876843056852939,-0.17684312049525158,0.3184027072621965,-0.07652563851635473,-0.11955605089937514,0.01198676842832971,0.32040794611282614,0.12934672468347555,-0.06366830479134038,0.13697157800522206,-0.1483026509700199,0.049679837262975035,0.22522353614900048,-0.1817477944193049,-0.022524289569044342,0.19598901060661564,-0.03165761012004816,-0.20649400979292157,0.07663055712461322,-0.22538571477876865,0.09365697082114115,-0.05414753052875325,0.005426833797316645,0.08993907542614621,0.07391549563170174,0.21301324496241916,0.1818326996397575,0.14100250858992916,0.1921538522310921,0.02875573263403578,0.013184511331969344,-0.08085472243216395,-0.13068061464356912,-0.049844184641593035,-0.06947250154405207,-0.15520450280568684,0.18993603599086903,0.09425759026548142,0.03970712685293533,0.042752834761721224,-0.009590319467124337,0.037956904192084244,-0.31530823565507254,0.17807965380517166,-0.17430770041452295,-0.1195345789406231,-0.018517433329571505,0.20995941651480435,0.10787539505629196,0.036098484965553485,-0.13884358573439234,0.007062032926354665,0.11543599977911932,-0.01416551235659147,-0.10004030692446225,0.2961735310735659,-0.34249528250895966,-0.010444932613869421,0.12598217405457213,0.21031604349727492,-0.012390995778671025,0.15327623837777832,-0.10517439549310138,0.2941516729327164,-0.29153684512654404,-0.009514247680172108,-0.036849237605994144,-0.16590255310105934,0.2571289488618066,0.02918113458204087,-0.02684808717892112,0.17192150396296874,0.07489207462875092,-0.11128306091522241,-0.1366995330568341,-0.09789173482191844,-0.21698087429130647,-0.2033610555294264,-0.07562977669036683
polarity,-0.2325016241591655,0.3061065191539331,-0.00815870887827631,-0.14671544015335283,0.0693027151585566,0.04414960879110945,-0.12248373627157494,0.055351116495491424,0.05535320421220065,0.16043348988062073,0.09374848959089042,-0.25589753132850956,0.22589461697149107,0.18768651288190039,-0.009740614969274202,0.5418691246786979,-0.09120240348526117,-0.0766632546548014,0.04646933088697662,-0.1581909733234417,-0.04954534773948158,-0.3878698253201462,0.0920470590773897,0.26599789057160605,0.0814234707373536,-0.22065749707518179,0.2448651040861852,0.13304420335727263,0.3341767533795882,-0.009448608723204056,0.42444180507926854,-0.28657998489255876,0.20154998249719708,-0.15091019969979722,0.19489859960823963,0.016220494220575803,-0.08014790712390406,-0.024799865060867766,-0.12430340099024548,-0.0470105911406951,-0.01224175436844364,0.10556116071519765,0.5218361385904648,0.03441923479709702,-0.02234668228819369,-0.22819745070297529,-0.035616958324430265,0.29837986354245993,0.25223120618527883,0.09013061066109188,0.25595993192602357,0.2012749990349668,-0.23366803293028143,-0.1614062266562226,-0.26468344755117157,-0.0014029268614306788,-0.0016397558510628334,-0.0931689713544516,0.017557609172795738,0.035789692635505174,0.21207645532649658,-0.13331951410289597,-0.2585210200191428,-0.3683269494807826,-0.015141007582324294,0.11253403457973854,0.16241985288494992,-0.009965214195599021,-0.022351539076896746,0.13454731552420193,0.36245814111988556,-0.022017092116761092,-0.056914032315308255,0.08857253641372073,-0.6347957675313181,0.045954713813093705,-0.005499692607826349,-0.10603143798112087,0.06743799300685915,-0.04726068614308415,-0.15377663062702956,0.12523878572992483,0.20356896182318357,-0.12865955726153325,-0.061534483654587725,0.4183272878871676,0.34633308218937453,0.13449703039667651,0.28898881656138636,0.08271462376644334,-0.21983808279679284,-0.3074626959149305,-0.16210717730178378,0.034496446773150446,0.020913440573739395,0.4856731536675593,-0.20909999728377388,-0.09198115622127818,0.0016798120165278233,0.15307788618906812,-0.1579624548192704,-0.15184334648772055,0.1081119799806323,-0.13770263825728465,0.05997737490798936,0.3156703530616386,0.22901899298326162,-0.36189712930780576,-0.0572500127745028,-0.00713825566835752,-0.2618197429391604,-0.004370979571336529,0.11018589030759413,-0.30476078234105514,-0.2628890598644932,-0.08019300679606332,0.23332018128975715,-0.14951349693954924,-0.07048840785770155,0.05527354934969674,-0.10799347788165733,-0.01963476596005841,-0.0361873027390654,0.022720073495391263,-0.013668135012141838,-0.270703242166084,0.06503280101335257,-0.04605029296592305,0.21143152024940556,0.049759201783570135,0.03809728920962467,0.05513560192240201,0.2639043730574958,0.23122076213222678,-0.2983033698939036,-0.26924648214990243,-0.07079672795087896,0.17930388318386759,0.11413523047550413,0.28202909601467135,0.03568235455115409,0.14107458931417444,0.05715847440385599,-0.007917039608243035,-0.33261217050725184,0.18947461663498502,0.011083525548851834,0.212468896250744,-0.08562203775686501,-0.07617688789389546,0.057597823292295694,-0.1450995548044603,-0.5048271026443576,-0.2839439442220957,0.15229347479538033,-0.05228184700677199,0.23988320367842952,-0.31011705889662483,0.15059667145828207,-0.21130692960817518,-0.10943500336250982,-0.11352726428910609,-0.08077666132579485,0.47721160035287014,-0.010014461953096758,0.3431900657631914,0.08506667348535879,0.4228054600905594,-0.03144836616158566,0.2514011317006395,-0.19505628702172184,0.3057963390204473,-0.34154705919482686,-0.30024584598692744,-0.022706647854304644,0.0860859445347501,0.5416628475501777,0.23236263702401896,0.23147537218704728,-0.2350109539349988,0.5378350673537055,-0.10770818389471365,0.0681194155925525,-0.11946939922565439,-0.026771413659518715,0.01443807165788748,0.0028220483662332223,-0.05615753457009663,0.0685926453936079,-0.053260295015994,0.05269464159824718,0.3965156867687704,0.14976902855549226,-0.03777541253385143,0.1460079502254566,0.0719698358698542,-0.024700446292937887,-0.046432364083869186,0.025077537376167126,-0.03436771298902792,0.00462091399693812,0.23537941068795656,0.29809885688763177,-0.3191550584040067,-0.15775802134968891,-0.258474847739613,0.1192764935200892,-0.006222638614697128,0.04878016292475732,-0.02192077621720854,-0.27699686992764994,0.032279187281818014,-0.02239614032650393,0.014048250779791289,-0.13308373622962402,-0.079602918447687,-0.11686080095139795,-0.4385906018741743,0.10037700686407548,-0.30558106034421406,-0.10054352138051527,-0.010955411815794623,0.027173730370480702,0.20407962126314463,0.05276361983460627,-0.22228894700319585,0.11776370597470288,-0.17170039296707837,0.02796776602292504,-0.20318318994780354,-0.0027672894020499966,-0.27077360768171854,0.03256865829687145,-0.054794170248275306,-0.13324506559329025,0.041426329328627165,-0.3875937308277586,-0.2316881549984626,0.04331580356491129,0.01831385777318644,-0.10564477970124708,0.32783389534435775,0.17332485070004838,-0.14318473771245904,0.06323594709232273,0.1791552674291187,-0.17001650095346862,-0.13326226341192396,-0.0862314540442701,0.3119349469273449,0.036426317259543844,-0.38794140059687726,0.33967323839981767,0.010414412058912257,0.48020204983243336,0.032273655239518265,0.16263625539305684,-0.07068244018581064,-0.08516704060877812,-0.03730424644134537,-0.22232843806651575,-0.04750574639029732,0.08152932424251233,-0.21767825887916542,-0.22572094436733017,0.253411963008995,-0.04749174787938585,-0.18596306245032002,-0.023866523339758007,0.6034831419784422,-0.311731329765546,0.21773536448770256,0.10749987619943048,0.11732110016905495,0.4298411770430307,-0.17074930675485211,0.04546009319605599,-0.15228112908200056,0.05560840534082351,0.02057502052891819,0.015306163377104925,-0.12428131926886853,0.1799367435079597,-0.27377887732547257,-0.032629290918109705,0.13720888413462512,-0.25783475269585365,0.07588595753324422,-0.07994818899758768,-0.3166333210387642,-0.08202737972046542,-0.3332316925681337,0.028046101730650166,-0.05282258556021477,-0.019601638336073205,0.06562753637426692,-0.18310401346146168,0.01863386968423023,0.22192953618282388,-0.1305137534177958,0.09626447951842462,-0.0465487814060189,-0.07386983296903955,-0.10289266292878116,-0.2647698499289518,-0.10095337616958323,-0.42178072104254694,0.33090140860552136,-0.0043700423594814535,-0.09103022161616868,-0.04270610171705109,0.1258682207630107,0.18772503668326881,-0.021011869008219407,-0.07679055838751735,0.06941220069942386,0.0007663276539755133,-0.02309547599876226,0.17415013270122714,0.4245225077549633,-0.21586381622798978,-0.09896887712377785,0.11726829715505752,0.08903573372412878,-0.07837504616099741,0.22078545484634232,0.11437347071991026,0.22736289872197857,0.05962874685759809,-0.11846011486205216,-0.2953146165171519,0.08114785736233787,0.08616366605566471,-0.26998451797157913,-0.5653156903807247,-0.177885707533953,0.04198888165263068,-0.05890412580186091,-0.12433026542063759,-0.1469297466803399,-0.37882511478985575,0.04205524446341951,0.21737029042252437,-0.26070675634008583,-0.017044801253973868,-0.2008476508847799,0.03936292316041787,-0.14216244856998675,0.1603199609934534,-0.2651573611263448,0.03290175207637985,-0.18305852129942585,0.23187664458819657,-0.3021156372598169,-0.030183698078686347,-0.31581152061446877,-0.1692817995034001,0.02963630553012293,0.14583458384957038,-0.06366334260950719,-0.16120839407751097,-0.0620318131859448,0.0525791224606514,0.3080850420629536,-0.043032309968862655,0.027591112080087094,0.2783791748947229,0.4040812406712234,0.16582353108723893,0.20585931696248808,-0.18797237137480177,-0.15255541268265072,0.47702204614935956,0.23355642396703252,-0.31158251310457435,-0.2937166413556152,-0.17760235755626255,0.26096246766261527,0.17125816320523943,-0.29004953523102495,0.10953207813724294,-0.27009322145915704,0.13972802200535678,-0.18972517312863874,-0.08466254452088037,0.08633027257202595,-0.05981180259886064,0.19592110269498583,0.033158385743785025,-0.018202654600396113,-0.07567061808392318,-0.20456858771914344,0.16077895178590085,0.20506687661938885,-0.43618946628769917,-0.07356489403263677,0.05709692318061516,-0.26587695311808845,0.3579905965659641,-0.15997975551216712,-0.19529083511796436,0.11051411339241297,-0.1180667779131378,0.254134963354076,-0.026614070958799113,0.18143322106711712,0.0302605238736351,0.15077442664458537,-0.01880735798354652,0.5063631280993106,-0.17557196868073763,0.27454348850202215,-0.29935001165348346,-0.08498056000754269,-0.1059058128606762,0.18931951940243075,-0.0006930364766655744,0.19846108109396313,0.1515795218497942,-0.030132427672509364,-0.32694764660918507,-0.4192588189815693,0.42623155998738116,0.26862826392920464,0.05972025116550735,0.0652057742911857,0.26112926323211355,-0.24211891847965927,-0.3243690962911666,0.20672153106434382,0.14887474082182497,0.3178413250590806,-0.23071297346630953,0.09799667429899954,-0.27281931157614836,-0.10050791662213446,0.05796704148684316,0.05348737485988042,-0.09152534123727014,-0.41461852433529994,-0.09578596930831708,0.4090133658470697,0.39903318766059376,0.3032191333252321,0.2896470489968048,-0.4555728619156521,-0.3570341322517923,0.18454734307303866,0.12648955793247585,0.24059370633086802,0.0024366642690403697,-0.38387976086728515,0.057656229461562604,0.17650563396681615,-0.036766924166887274,0.14573766556946988,-0.16375928290046546,-0.19594448383035637,-0.021615502842486096,-0.11500689405915701,-0.25731691061947143,-0.328913395888784,-0.26071160347354555,0.3912483053169431,0.1922624520633625,-0.17763821015001197,0.16474950689104856,0.23315159434528387,0.11042701020088234,0.04026720286448603,0.291588144479411,0.006834605578077829,0.17815914448251904,0.17090135302379167,-0.036762742042224315,-0.20719052753581332,0.31390035013165746,0.19163908751810305,-0.04561875516227822,0.4949167974930096,-0.21548867305498232,-0.449463399837197,0.12141317645671218,-0.26587616161059313,0.05727613741158198,0.033983162194654644,0.023571086183291366,0.16855357315772623,0.06562396807689,0.0920519358646991,0.24368679761274525,0.09667575929439096,-0.27158765759080805,-0.03536177507676431,-0.22170246555702938,0.15786714034874536,-0.28077520107456827,-0.005727745588047282,-0.3284431855806948,0.19433605761750655,0.1064115443216238,0.10512543648526099,0.12125890150997247,-0.33331933376095674,-0.09176971984029048,-0.29023473049822274,-0.05451324304891577,-0.2186140521906346,-0.26410137468666234,0.026346560651591043,0.03030050996870392,-0.1955006437058423,-0.12212251152406532,-0.18048897640401285,0.15298414732884627,0.018833209667044035,-0.018065496530477773,-0.08326631429836537,-0.1025558574893965,0.16559187742832857,0.17441842466750435,-0.43955364057325225,-0.15262601475466733,-0.23053349649537613,-0.07941760857466888,-0.5855850739079235,-0.019058359416418282,-0.026583200655610435,-0.269717178343259,0.09576379282598274,0.31959458222236053,-0.1639192843238136,0.33815739748939133,-0.07225154521948397,0.1894820597554491,-0.33704791112188043,-0.15788538282606537,0.025093693870746142,-0.4475068167918259,-0.014202690081815943,0.0033216702036574343,-0.0728427257141756,-0.2573730619833368,0.353359608967955,-0.18368588412092204,0.016456543063572856,-0.030907225241755463,0.08566074990807145,-0.34715783449539594,0.16722714190014068,-0.1372363053662182,0.1865425995728461,-0.09538515847214826,0.04801570208490327,0.16126249484954477,-0.1767712972987341,-0.13210908967364543,-0.28441464845489034,-0.0074920459477066026,0.08700230934442271,-0.07443600474965718,0.12398694803978531,0.19488913868267962,-0.3554283378098671,0.0451961918216122,-0.17609198037588927,0.07628212815975867,-0.09125512199746026,-0.23650474022964071,-0.2025286898433362,-0.030735753502383723,-0.23178407878535873,-0.21419844596801488,-0.10337162855484909,0.16560068136295006,0.10458376772213648,-0.27025166960264574,-0.08694415352378981,0.17544160192869487,0.09424815072612777,0.47735904283829217,-0.5789985450777884,0.1658323520157571,0.06351852315649523,0.01919318981066888,0.0373034219702475,-0.12396323953868606,0.0907768963199968,-0.09849813112975768,0.4045334640535347,-0.13051607961144251,-0.12296335718690488,0.2310619756386502,-0.10638624698264695,-0.24795847979976382,-0.0013858080695137455,0.12284256635724713,0.1358914175567336,-0.2334706665489577,-0.055692355598813637,-0.32453719845717843,0.06236924931973089,-0.4607804864464399,-0.17321352533539403,0.11473268789663912,-0.21887706648387914,0.30662123898116433,0.2620842136595336,-0.2549554183270222,0.11972839786072277,0.23151937017706634,-0.07805566967854961,-0.10875575750945428,-0.04341032303098066,0.41684252180198433,0.1736546266393876,-0.0536264177631905,0.007713676674549429,-0.3141532705438446,0.3334420900618757,0.07555547709436829,0.10063063028270537,0.037561663138346864,-0.18184836013308528,0.16886512387029445,-0.09149589478171755,-0.05365524371835051,0.011872320469150448,-0.08148962750036481,0.2163967358263237,0.18481080119563573,-0.08948419349454163,-0.45248988439423515,0.13269597289004692,0.215151229518627,-0.3472495176147764,0.07477455193725585,-0.014701470134581002,0.17127764851090235,-0.25683291900692584,-0.06326742866554376,-0.18477707280034736,0.018152878155135534,-0.15461419496405718,-0.27308550004154597,0.10971339868545416,0.13994083545198258,0.06413294442946774,-0.1004048170995557,0.035070474419999394,0.09787482590441723,0.21514662728796544,0.12029481041382702,-0.20683622098623528,0.3284695188368361,0.2867988501114795,-0.08892025357124446,-0.16653407188390257,0.20321594642631782,0.11373941263452154,-0.13350718748966736,0.09424822534411792,0.13865536673043777,0.6946843387332008,-0.15133428807201976,-0.12121692699434915,0.20316070901542246,0.2175162006274377,0.36551036051210883,-0.2713039128264968,0.13829805537749448,-0.003262201599721802,0.21405689598631947,-0.026484015556493597,0.05951569939490648,-0.12002381014475869,-0.27051474668223224,0.35611152603300245,-0.14133250766656177,-0.4420566761662576,0.2515382343248992,-0.02957832985417413,0.014884247628925002,0.007530374607491938,-0.32645296717051325,0.27985442364198193,0.24684377109171074,0.2042158257010517,-0.15695888035332595,-0.2370976298941946,0.3779911124072489,-0.06260265043428874,-0.20424440074813682,0.36140148506660497,0.3632445169847128,-0.2115467860677501,0.17280108713893805,-0.13139020966473086,0.14064041750980483,-0.21772006466665242,0.3758268672934106,0.02511938251193761,0.1362158322208152,-0.21102270131747858,0.006703880292450601,0.014666802040438395,0.37741702569233126,-0.1896216492869893,-0.15419046591384208,0.26173514235183554,-0.1216522601640941,0.13619689111776595,-0.09403347453436801,0.19595393839433878,-0.15162161608854174,-0.09013279773446599,0.13492705180726358,-0.15328622946411014,-0.15821911373213826,0.19191663932498934,0.05743355825845852,-0.28898752277957146,-0.024848427142921792,-0.03489704487490223,-0.24567699158930384,-0.1949909173652752,0.04499462961535624,-0.3947582144437403,0.021240698865796367,0.21702616329031676,0.348137903221064,0.10667370494243564,0.44031374704298265,0.08457549656215975,-0.2320213114989029,-0.1294782333692839,-0.4848872427478338,0.020127683394875497,0.15662358997257528,0.1590348943363492,0.3490308439812544,0.06862381668298545,-0.06685288499446077,0.2089434880837225,-0.003591149033210456,-0.1178005006283165,-0.09236800724334669,0.17941900513681483,-0.23824333405847034,0.07345168162375111,-0.2959049369562749,-0.009419881645273296,0.20553200391464257,0.07121715979991249,-0.10012178837268416,0.24254334660738247,0.10114268412311189,0.022979237447792195,0.41511506277943205,-0.1204931240220051,0.1598253657072537,0.1991748561348027,-0.285876159812212,0.13554851448596622,0.05361997737998056,-0.10249806852915012,0.26172776277939425,0.05159732830640616
factuality,-0.09955721076508682,0.03136914197736129,-0.14238711573406107,0.05514465438732709,-0.08899013863793392,7.801687076173234e-05,-0.06082042678917404,0.09811826008680055,0.5079813602537974,0.061472641238060594,0.13823066885127094,-0.3138260423870374,-0.04473555608431845,0.05738572268166885,-0.14775753651032075,-0.2699146375653587,0.22934116312596267,0.1254850716935997,-0.19682355517137604,0.15306943000749892,-0.12176101851590428,0.12608747313331153,0.03286537986161299,-0.025885910805732493,0.1443457039973479,0.14771431212854494,-0.008791699285701084,0.01689946154233262,0.010414087836413415,-0.24532727213636066,-0.1463873217538195,0.18815869062856974,-0.07537365044578724,0.0397401787099669,0.00536437174275591,0.3337399552866207,0.2506036652090734,0.20792101743101446,-0.06802909917603098,0.22485038142157404,-0.2004613872243393,-0.12804304973089586,-0.20270535414647356,-0.2629164905718772,0.08937906112120533,-0.20883890571670344,0.3241268843357595,-0.37522916721479554,0.3365177634682963,0.003318169318762658,0.06498890756336252,0.3703698055799408,0.35881784220617186,0.28159190221446145,0.06923161479964604,-0.21981845574691702,-0.23269405786273215,0.13376110576125902,0.034628682805507655,0.397728812540099,0.17957979981092217,0.09718019390582357,0.18354099393424048,-0.16756625145223525,-0.14560608715544238,-0.4836119740665707,0.2029526791620216,0.17039833887403794,-0.12011500825890398,0.17306547378405082,-0.17549020872083138,-0.2347568972089941,-0.2276746838833454,0.4353071865324684,0.45907251900046014,0.13851379314632623,-0.01813391111127368,-0.18812116977541193,0.1345843684739815,-0.4591194668621275,-0.17126507402385363,0.39742370912892144,-0.05132707734476441,0.31461186368849925,0.0012161795441935094,-0.3450012942973564,-0.289762509584274,0.37388085218181594,0.009206354912263674,-0.2495639077528664,-0.32542432707111035,0.10343991520974948,-0.07645386946741398,0.058817869260204894,0.08825803340619734,0.0912154191196406,0.18548727454529468,0.15573439049462137,0.011088399012187299,-0.33532095390244143,-0.12132247723978967,0.49574796815703803,-0.3694021303827276,0.11712387179927713,0.2735525041365259,-0.42320384456965354,0.3361767856287042,0.10307126804908413,0.09932209398584702,-0.15227518052962985,0.09390804176169117,-0.21196689695823093,0.24261308462811942,0.009334958296860587,0.07293556046911456,0.2223365682744456,-0.04976599612857771,-0.07211980275197893,-0.3858902246357693,-0.1462071916080522,0.0024224295531811773,0.11515121324017247,0.29960111508411796,0.26019760705339495,0.183664316400476,0.5126812077548458,0.0342908569447488,0.43531287724182816,-0.13024564746470943,-0.0827074019573047,-0.046949932842919304,0.25428408714217,0.08042350560685341,0.07941197880041433,0.09165552646817009,0.08851247796252962,0.1344031109825757,0.13978104669447597,0.05103443984973506,0.3412891203857451,0.15785560985047098,0.0392512024750708,-0.07207837043501537,0.522187411570554,0.23903274870734978,-0.11435968314651994,0.15771573661548804,-0.37112362569329027,-0.24122642517222634,0.029060478391647077,-0.22984778116351443,0.15449996891482812,0.29881931129483563,-0.11403729253742065,-0.16359045406133405,0.32409768651325743,-0.011992059451587194,0.323106532513548,0.20972736454096394,-0.20162988308856955,-0.4272421062829033,0.1227352097412478,-0.1350668170132223,0.17271637852338292,0.10177350854125274,-0.1983033010837751,0.3742693286749245,-0.061437394393816416,0.30813478728318033,0.050524932826627934,0.25430392391715445,-0.5075065315698084,-0.18749485444243297,-0.27547687487323114,0.5247972149169503,0.18626406444746882,-0.6971814463893248,0.1357051053773405,-0.15757363167321373,0.17559100151223941,-0.2962026215058463,0.028178116113431087,-0.43140235075731587,-0.027891900365123477,0.1234883515493753,0.23264134746438717,-0.1381946978816947,0.21922277282110117,-0.1885847023892795,-0.28650226095637327,-0.05345653977403578,0.1434396003395525,0.11590337691265266,-0.148209885979583,-0.10420660750209232,-0.2926298000326687,0.04879823253558656,-0.43718705548240383,0.050569732866708884,-0.23235833808132356,-0.06057201418845721,-0.1129948132073516,-0.208878215228934,0.38035743007422823,0.23182329144249236,-0.03570100995737295,0.042006822495356866,-0.010175460191087969,-0.21266601097360105,0.1795877907224553,0.0072608043054200695,0.14017298825218846,-0.1750051928648791,-0.3065102030494092,-0.1491179969726011,-0.050027333578643196,-0.04847032812398013,0.10128813344467855,-0.010923031312467649,0.016709089581441718,-0.6345311243056694,-0.29115108074084284,-0.18663979228034705,-0.0056552278987412295,-0.25979055912220606,-0.06811514210063473,-0.07484288139684998,-0.11902655086533302,0.0413809247007531,0.4678258161933155,-0.27435502700966286,0.5712080046119339,0.07786545333188352,0.2906185784364318,-0.03476544468782361,-0.2846889892546401,0.3240985003067312,-0.10884298274732014,0.06045306726095653,0.12173825920279045,-0.006074075662936882,-0.13266002746226965,-0.03992825055689902,0.3805054206627598,0.16827488449744912,-0.0018674028789269726,-0.272853855270114,-0.0318691443306083,-0.4633864100949792,-0.05664767962389787,-0.3428857921439735,0.18478601764179656,0.15204242097789944,-0.14187219570690057,-0.17246417936366162,0.3455510346639041,-0.036170760000988234,0.02501212800362583,-0.06595902636047908,0.006827628998755254,-0.18860327158665507,-0.20898904232087798,0.18383558900964167,-0.6572346041216112,-0.06510795136929366,-0.5459864257801545,-0.27670211077249857,-0.1178019272241137,-0.04154673662529775,-0.2164811859369567,0.22108756681908354,-0.06625311092371644,-0.49227097864140007,-0.062359445446732,-0.14956687059685567,-0.3044456089447271,0.028792745593576877,-0.011517443042594446,-0.07635798681058868,0.0456232951081542,-0.3684034710648927,0.6615888381270308,0.358802013510021,0.09059451764228585,-0.16948365213149982,0.05130239059048878,-0.09471325361686489,0.30179401136726813,-0.05650539094269822,-0.20366036105648153,-0.35799146263768533,-0.10471192445151324,-0.2170918777307804,-0.18032650746113463,0.30243223130442615,0.04706639094692554,-0.010362001952507381,0.23379712238405595,0.2962451053356599,-0.07162546867600399,0.017372678594210406,-0.16582700113628895,-0.11336541075340582,0.1937839623288005,-0.18258190704795657,0.18354545593354996,-0.020262428357915446,0.4413599908130168,-0.3014076859173171,-0.19418181219172495,0.13032030272342343,0.03049011242639207,0.1017130455992194,0.14113277471918628,0.3649155458819644,0.21668872798084954,0.40853164630863187,-0.1355668533835001,-0.2753178470644253,-0.040910833085689435,0.03636677407456236,0.2683938856338999,-0.6273679338798933,0.004264725762191778,-0.20146536959037498,0.08372342683570816,-0.08345562790881932,-0.16012160637522835,-0.19761655050945373,0.5143894574060559,0.44006292649203055,-0.2335090553421801,0.011867179476729526,0.4070388035576038,-0.0714984397881877,0.025309590044974857,0.2764981179139459,-0.5302006568473295,0.11476048615728886,-0.07082752981536596,0.20880687314327714,0.5148383121759903,-0.48101399736132416,0.11741375335054227,0.0987902794720301,0.025813820052549296,0.12672755275440006,0.019495734095366285,-0.33706327033350897,0.3101502587125119,-0.20427116002227588,0.21303494653448765,0.09309929575537716,0.21093569768980183,0.36821623633108713,-0.02946702461481586,0.12135391734361012,0.013024225659184818,-0.05091146452150799,0.061040474001140765,-0.3114809799038296,-0.05685290716620409,0.2380745440322223,0.2499535425303983,0.03365374458540406,0.22046526981647707,0.33950596079218825,0.2212056875236885,-0.4353836386439757,0.4087030693821768,-0.15745336243868965,0.15863205414719672,-0.13937622525236043,-0.12665602101843285,-0.06755989943977135,0.09726294380383542,0.2107237005796522,-0.4147275579489493,-0.3588450782362329,0.2876303541502543,0.16590619324275846,0.3295257558271113,-0.011181080187496624,-0.1526859608446558,-0.10340058010859984,-0.1681546472982172,0.33266685985081473,-0.2371061016693847,0.04470557966274172,0.4888653539600883,-0.25025799526884596,0.1833238869973084,-0.19211981911359433,-0.39727563099783847,0.04476994905884807,0.3334472835696628,0.22007189710598934,0.3635499041421218,0.16142678969007937,0.2704299386551256,-0.1939084999297775,-0.12876426364811608,-0.23272176770439135,-0.14138220078270938,-0.41998221576543476,0.24197159512114694,-0.6457567061924572,-0.3947162149847289,-0.05288049192983009,-0.38818132141258455,0.08128955890421023,-0.6463106171532129,0.4144235949323231,-0.13429746480193697,-0.04522042202728617,-0.05455740746547657,-0.17017378776912614,-0.2710091601597518,0.027324352505243028,-0.6701699581332007,-0.260993048140505,-0.25178083782564836,-0.22016444426724582,0.018124021393167114,0.04641750009874591,-0.2648338310978142,-0.005996351329745816,0.008734202826134626,0.1579315827137674,-0.03384392885177473,-0.21553578487028716,0.09159296432638911,-0.40850193562357523,-0.5753496782384224,0.1765236274924936,0.45094456716567144,0.28179453091618817,0.2022328021046173,0.16680941236595134,0.3162327155621004,-0.14452059318023572,0.053196649702241014,-0.3094913679732488,0.0823295903492406,-0.06522402581042833,0.707158199969691,0.15945571147239979,0.054820506559450324,0.19107334507164658,0.03440193567676195,0.14518836865735987,0.4230274056429805,-0.3911068652821658,-0.6487208293516479,0.08101023342238871,-0.5087981041702894,-0.020330082414334823,0.19544054301682276,-0.3351454291305419,-0.09691703519103692,0.11340262253019552,0.0546039124476875,0.27712565957052854,0.2131759700064607,-0.1709157286404332,0.3722649704272629,0.038216152322564395,0.042583120918877296,-0.3095679026399792,-0.2819329594626029,0.03378034458560815,-0.4258179324597954,-0.17326280187346046,-0.6219112086114337,0.17420068070546987,0.14105759317911185,-0.3530224602468729,0.021905809281106758,0.17794552743214614,-0.19945495162953417,-0.13636475202402373,-0.06791478708079324,0.21716181771333243,-0.049872753955870305,-0.005385268250552716,0.4640189253909746,-0.05840853028149897,0.37000931079846944,-0.19890727336932795,0.03960501980537269,-0.15089414488755093,0.08552071923219333,-0.1793637891354304,0.06066275627318638,-0.021623818899757376,-0.37045566363190485,0.029343014259731414,-0.04686484612118719,-0.17898097546832276,-0.17962332632764336,-0.09985028175896259,-0.21997329150977302,0.2299023730451058,0.06298670208547977,-0.011511670573026324,-0.6375462546015411,0.38696725821504224,0.5927591761475374,0.22990658162795413,-0.17209048683096392,0.02276670324881295,-0.2314852348031385,-0.13123345123055843,0.08529311747366199,-0.09813702897130355,-0.48450005618440745,-0.4825433658129367,-0.04641657938867867,-0.024229993914480916,0.011387549646520348,-0.18390515360385662,-0.04141967126864015,-0.2124015876007086,0.1231606257883,0.1371860645277573,0.36763256762116187,0.10219813809277534,0.1934623036775823,0.049191871652544086,-0.010910388311349321,-0.17530388612166956,-0.3475797090605913,-0.417174966688183,-0.07748021198897778,0.557722964768406,-0.10005141909437752,0.16634002616397334,0.4015193132349524,-0.1485262988124814,0.11681985960613572,-0.006110584858262711,0.11280378276455473,0.01895813071138832,0.2840970777583958,0.8581284076952082,-0.08730763096184371,0.3025022123325027,0.25737098600872965,-0.22965929673873106,0.3507667023912045,0.3085784966897626,0.10407780202675167,0.3710974782358679,0.014727248679230446,0.3956606608373055,0.007552119832479463,-0.4241521262430773,0.21402211859998074,0.04970842283635869,-0.20698737132710857,-0.06488697024992732,-0.16200518413061255,0.17407171427238155,-0.21922714281817451,-0.13873317513594083,0.10041121659917542,-0.08553912435292634,-0.19718948574707507,-0.18012079426529115,0.21574303655654906,-0.04235600775012623,0.2852969871412875,-0.07071503554038726,0.24473296458060936,-0.04204030677103504,0.42492603971961707,-0.03558129440141444,-0.11805053217931531,-0.24343123522938803,0.016952472343898968,0.1308320012802109,-0.13920506266795057,0.2708240894175633,0.18326417850289095,-0.29095652885972645,0.035505396802636945,-0.24775281605026309,-0.019639371563835,0.09150635798064262,-0.002140262923634213,-0.3085460890414654,-0.08207163304909273,-0.08141738097174303,0.11965338614953572,-0.07155955031747506,-0.11615855552777203,-0.27216595562700374,0.19972065030886982,0.18362009609824836,0.31018898585409715,0.1745994008487852,-0.13498670473476593,0.29678032486156963,-0.0451294726517978,0.0009823954091072434,0.21297314805748663,-0.3247664691785721,-0.5672842863753196,-0.07124044614075559,-0.11857410450377472,-0.6137630306801204,-0.11571763465028947,0.053083947624017636,0.04804878079955766,-0.352542177942095,-0.09718523079191123,-0.020576186530507953,-0.13566306546488302,0.06969503036733708,-0.04015702499590237,-0.23869734927887365,-0.11091203277648999,-0.14059273475316375,0.25185004508076103,0.13530880573290052,-0.1421075404097271,0.18679454018405353,0.06930882301969832,0.05498764973527399,0.15244270257220077,0.14905656548912632,-0.3174852303469264,-0.27719517135774313,-0.12754482893189922,0.11328313489920115,0.14615086031768013,-0.10085261170048977,-0.011265138011074271,-0.11841028084184506,0.03098629841836252,-0.1630891738865106,0.40494273831469996,-0.35292663355711146,0.3024609220350925,0.0879030453566593,-0.5391391690888022,0.4521156528576934,0.35075617622071403,0.26278797319138875,0.34797929483920215,0.2704088852186521,-0.06036078421391135,-0.1590135090397806,0.055805852139156786,0.3967664337711031,-0.0678877967299584,0.20543931572934948,0.3562921874366938,-0.07830021704964087,-0.15596538662365578,0.09779017049636694,-0.21985560153987674,-0.17825002989075597,0.16390986156842124,0.3308315632278627,0.4198061573727552,0.4282377611023245,-0.001600637971561525,0.2997329702501587,-0.2668188768816582,0.001786862723591904,-0.12672896395165778,0.1802428362952899,-0.10226919376046915,-0.010882174270828032,0.00861503095717954,0.0908969151845607,0.17023317036563898,-0.07865166094620715,0.48367591818065964,-0.3824565788324534,-0.18743434040971194,0.5444383358016984,0.40329886345933086,0.16250542313836924,-0.1658282892630696,0.23873451707725116,0.15359266812536781,-0.18637127418120497,0.07315890224665364,-0.030215980334780658,-0.009412985001820771,-0.27679480653183636,-0.3523101025139732,-0.33370745678877806,0.0013787348513096941,0.10490472483976954,-0.04081986936416413,0.020423029211248715,-0.03046593091128199,0.27322681048889874,-0.1339584035263991,-0.05062313100363197,0.25373585872307425,-0.1768696206678133,-0.016424062068092476,-0.42812426963608885,0.06329210999576573,-0.019759086921304667,-0.033680321516399825,-0.030965923467306648,-0.055455386124442826,-0.2414245940847422,-0.06787232606597954,-0.2125721983704253,-0.10220468697041016,-0.4069546436091371,-0.4104251242033662,0.14011181497851516,0.41354010129574653,0.08708085132590639,0.26659942947942744,0.20352667475496825,0.4517488416197316,0.19887166782984167,-0.16886880034537316,-0.24885419359528527,-0.11286914095883788,-0.257657773909985,-0.1049958328857046,0.028278279940988554,-0.04404307465830902,0.11080170396810055,0.4127089100567872,0.31562001957263824,-0.5173272402528383,-0.1914847149977773,-0.49351082980371147,-0.2845794659728239,0.2083851807422102,0.14276569412729506,0.7130947876942878,-0.2790831568034274,-0.18011392108677457,0.02992010828589326,0.20931558760951047,-0.21768774283551187,-0.37271174820053093,0.01660014419973422,0.4208701617591774,-0.1571588606850371,0.10317083115782627,-0.023479233587651478,0.26062129768309955,0.2246899041514669,0.04789010466411521,-0.24692077185713565,0.10734485211968649,0.2993811594297522,-0.21883484976436257,-0.2807235995555893,-0.08288888493481102,0.140023150407501,0.04216204423707743,-0.245416040380642,-0.164696187941589,0.16365883494084416,-0.2477887709808376
voice,-0.22479081427505604,0.12454372557040722,-0.10729341785518945,0.11260315219864145,0.02645348695089271,-0.10731935115359355,-0.08999244109128053,-0.0753828333241725,-0.23769065427987723,-0.34588483112656876,0.02199817369128058,0.23618846847172875,-0.32365524776520593,-0.09759157150197643,0.31064160855545386,0.10978970165077642,0.31399171681695465,0.0054559885950925795,-0.3578865635406204,0.1557379249324334,0.1040615428920129,-0.53035304899343,-0.16647858055878934,0.025006220520491836,-0.20874217799350894,0.1957233855626718,0.25879208780190965,0.13413662054519682,0.1062452624152492,0.0062095444419309484,-0.38398770500067847,0.1883957328765509,0.11260462120035752,0.30426957255289505,-0.13291623976043546,-0.12624164971954283,-0.08451749153887415,-0.07812773420125044,0.4205480343593832,-0.11381281582120725,-0.20178450789529118,0.20091626980233504,-0.5716633771814329,-0.03114348276025038,0.08898282595515825,0.5307649806664939,0.35190413833704226,0.238320767447543,-0.3164648897003162,-0.2257109933372752,0.014627563386667358,-0.3271417688807182,0.10020433931342741,0.10063045288802419,0.15199613612986757,-0.09628276401995475,0.2512332527226035,-0.015038699750651481,0.09432578863114788,-0.3888023458383769,0.15161638508842312,0.03829958154239932,-0.3033950354872734,0.34907582616517774,-0.3172275791604094,0.0447731480233148,-0.03006174611332253,0.19777648094342312,-0.0812272531830427,0.0842534234441267,0.06940706453222421,0.06882115108036148,0.24648016607459303,-0.1587489139755779,0.5796933102896783,-0.40148926302057103,0.24678638821240428,0.4725321459654284,0.28355103952358013,0.12113758768141392,-0.04034264725099261,-0.4040541762513467,0.15608987852719217,-0.42439702505276466,-0.28465108876903056,-0.3595262766256514,-0.09060158825252246,0.016657721637078765,-0.09580476970061752,-0.07612864190754157,0.04794513612890725,0.18137798365829827,0.338125234704721,-0.09749780923560404,-0.27002294612784455,0.026066324014774628,0.3222561030534759,0.1591291745467034,0.09381175645819553,0.7617264464000603,0.2710810751203107,0.36148829319558734,0.3330422824612235,0.22466961823865056,0.15218271507418174,-0.21005766634819828,-0.26491280989915605,0.24922740708382998,-0.013504037397414887,0.09271306688280662,-0.18950503183026485,0.3791196884188521,-0.43976069647743155,-0.26643654818585705,-0.3692782547070148,-0.3301331378158683,0.17497741029632896,-0.12209546933269648,0.1461529142826196,-0.22457692543172075,0.3706483209664611,-0.08960992844579502,-0.04402701256154874,-0.23473282988720906,-0.6414616983804705,0.14804161622136652,0.017255514391997274,-0.562166259020832,0.033074039381078835,-0.01026670656835043,0.024921388536269164,0.1747372217890359,0.1401489055171406,-0.11945039185472453,-0.04835330500687202,-0.4163520163601082,0.2494325343616659,0.03126597781185424,0.1384017223535859,-0.1788353663484489,-0.03634667732775269,0.032821538486106666,-0.29770822389974266,-0.09956495947671071,0.032136386937917656,-0.23117326102662478,-0.2376118203567135,-0.2178149794194677,0.36446451309373834,0.04709511708174308,-0.059796301229676406,0.02778041864315386,-0.025740269264671663,0.16744899709708405,-0.2922541144990098,-0.40345970674364556,0.21012030167255155,-0.07472540793074499,-0.10726860909953365,0.08093215166096458,0.42828149294091805,-0.03686086080747579,-0.17752208850308332,-0.2620468486193114,-0.06904474382627822,0.013815584540279157,0.004431841214405663,0.05821833826877985,-0.028414939787934843,-0.2830202045732435,-0.17658585164168192,-0.41478029135563094,0.4881670660702011,-0.025690429255687444,-0.3149127212853081,-0.1174799649520817,-0.08360198813285266,0.09458093462404608,-0.2152801697709081,0.19272074297628386,-0.04500927420128278,-0.3637929713798218,0.4295783417370833,0.4554051126264676,-0.23251183878167753,-0.2239419536179012,0.06649797630004757,-0.41359196964271033,-0.10422764964185963,-0.09338696050586395,-0.33791834981243046,-0.505669452978664,0.27582244012951146,-0.08689563320297893,-0.35883299807128227,-0.2798989172782722,-0.329176429061506,0.17968225015889078,-0.0509195480528045,-0.03829878406047851,0.07246071053792495,0.18464889801273496,-0.1955855136494305,0.16738463745894597,-0.18734318496246577,0.5556085091647974,-0.43357853897715876,0.058440333728656285,0.16518932616332624,-0.1691698245000644,0.0051810677273193785,-0.23510567977855223,0.009377580050841624,0.22012592989125299,0.03938764164494337,-0.039414896293304004,0.1811252331028851,-0.08586674197516772,0.19295763055968695,0.35052297831488527,0.22817829085785357,0.23583789148825335,-0.04227069555747163,-0.35311988385680254,-0.27943509429484154,0.07383879602269407,0.049103081590437754,0.5670467373271743,-0.16299894813172855,-0.37470297757132326,0.15331310397510667,-0.03058031208021167,-0.05351698889659562,0.06841749608126234,0.2627205890169999,-0.18057926234312388,-0.1944066594472128,0.19529821574996697,-0.08552975362030925,-0.05788766250511323,-0.0007873504596914403,-0.034066664128130426,0.37298518436875694,-0.10711700058459143,0.00606612116515868,0.0768901477117183,0.011305940499520578,-0.05358284726815621,0.25056759474258666,-0.13308923447229243,0.29413701282917937,0.04800995145159397,-0.32779176242165825,-0.03734817072715116,0.12622207543958258,-0.2526414929508896,0.023149152057740336,0.3088693945966325,0.6950572068214605,-0.13017263405271043,0.4500714483141527,0.4726712321909638,0.0593286772317402,0.6318257784506928,0.09557539625853381,0.2845311472580211,-0.2111403127443881,0.4863259030141128,-0.23148735462196834,-0.4686357728532482,0.06588711447375092,-0.01280287441232151,0.18230399141542905,0.07169900389385088,-0.39400111888826667,0.28844184812327117,-0.10805262921945369,-0.02993149007744456,0.17480928524388412,-0.06953213772713132,0.36674390223042014,-0.2304528380817807,-0.10778743786000693,0.4358671673393917,-0.13521071737853294,-0.2991804848649743,0.12319192770643485,-0.039680200582356384,0.23934379398019293,0.07383756748836294,0.21011601288471646,0.577998877560005,-0.2827304175686984,0.3312785919922319,-0.2459435054041733,-0.08399709877112538,-0.03979113178862835,-0.4040624281050601,-0.2033552178838595,-0.013676591265463401,0.011488816603373682,0.21263485731052323,-0.19498962582117038,-0.20070699749367224,-0.8530699666317959,-0.23033932908238003,-0.02240135362898434,-0.022661264864732907,0.44331068139746616,-0.03263983525687432,0.024355713070614526,0.05470530507934723,0.061916545326493766,-0.32625041132347377,-0.32799728080337437,-0.16697092356271587,0.055463364132311906,0.3461981285426442,0.0899990241339333,-0.13834047902486496,-0.1513563127275003,-0.3911669112932638,-0.007620156047860689,-0.04364657087943925,0.1197213209738594,-0.07331645311337687,-0.16503975354770042,0.25719859178221577,-0.15031765813956677,-0.21463624803149628,0.20506466379422073,-0.1465283857054322,-0.1117634709120852,-0.128807088891496,0.25823695588472334,-0.2820463246868355,-0.018517528462826265,0.13121059157153003,-0.20168773912189075,0.15856242370905813,-0.1217972144771245,-0.039644235453211885,-0.03586739345689064,0.008406719111902898,-0.38013478944428125,0.11428809307103673,-0.03682109117162073,0.4680808471983878,-0.14928953563472128,-0.5554636341148153,0.10613990091968707,0.23535112558275156,0.1984668269373582,-0.18729956159184769,-0.4437499648477076,-0.17603120047733561,-0.2235229397132749,0.4539027010827253,0.11895419512014865,-0.07531102514025946,0.21489858576039925,0.14703336232514563,-0.01630505357444491,-0.08096807625389996,0.08109617881809242,-0.17327214315213646,-0.48556147994768234,-0.09993471396324183,0.3525962218271457,-0.37189996188031244,-0.07965001931739811,0.2311564427292194,-0.3091934019538578,-0.3348829191076341,0.0443765096736515,0.08707788345012961,0.03147366104835483,0.005851101709925172,0.030444856701179218,-0.18578180846661108,0.15849742327869176,0.20316387854110968,-0.00913633175751117,0.07774131512698036,-0.19781939142861021,0.33096553328246914,-0.062445684360642066,-0.18194404570918127,-0.12482250095745256,-0.24175290726693918,0.07726882871603065,-0.32598048983664085,-0.20125857742978867,0.07116539436622255,-0.01770014761244069,0.015181862230384868,0.029524798236006688,0.2607400738682679,0.21654646246696052,0.2534969126873454,0.04685087821429704,-0.2959376652359585,-0.06239230425392465,0.24641730191421862,0.5176292188118182,-0.0537910636856406,0.21335997732669415,0.2703953298719811,-0.03533963953985562,-0.3719096355428406,-0.08844023782934227,-0.18750851586557102,-0.08480911524036776,0.09946789643169125,-0.13671481691763093,0.13664682603322165,0.26132418923645384,0.0964123745008012,0.1063578223602471,0.4317722245790776,0.2943991504240753,-0.031143016721484753,-0.11889659509656696,0.3270765155501205,-0.2766375728103886,0.28534778573622005,0.03353881072959363,0.22723123129568773,-0.12839471606731684,-0.0037829595731328682,0.49270667182890765,-0.40626084166355236,0.3661430452609213,0.3294727528965272,-0.16428668462656978,-0.5126129166829628,0.17124272590239897,-0.2061971482769338,-0.13615473090755012,-0.22282197340594856,-0.16711721015915967,-0.11203184920544253,-0.24534367330629875,0.039759356987476624,0.022112280226901145,-0.007434275205917622,-0.13695074138423818,-0.23756475940865163,0.3583425308151614,-0.08582415856136989,-0.10289027835083732,-0.050640537883149025,-0.06567121221066571,0.40355373889954066,0.2901722735259827,0.03209904660171962,0.07924895402319546,0.14796200405030524,0.0769722317387173,-0.32405199721354855,0.5247896640580604,0.16894589598173912,-0.32021203577599316,0.3233336983702537,-0.008254388634419874,0.05545312195616067,-0.1646545352768057,-0.10801518484727932,0.33187913379486106,0.15570397144210882,-0.19534451414030352,-0.03721770761730917,0.18568577171623155,0.18578188837759518,-0.11002990452674606,0.03630050382715053,-0.17376101664894456,0.07393934079696092,-0.23205177482944547,-0.019616431875052624,-0.2511130106670529,0.21401927822700975,-0.015950915725088832,-0.19809204933786512,-0.08524886670731313,-0.07592817987757267,0.12347157056163226,0.24619700345907233,-0.1609813774788447,0.5137139737421932,-0.16931516547446462,0.028653261411397207,0.25768077792791283,-0.17943357381131728,0.2490130945258623,0.4215817106185478,-0.20091245703700608,0.05921966633766293,0.05529580541607498,-0.1521453952330249,0.8440220529708277,0.13262100080648292,-0.1715068893751971,0.35898484383875084,-0.02192574993285656,0.903379981736739,-0.08140879666377918,-0.046961275069030584,0.33641183692692395,-0.053002241091280995,-0.08636340299556805,0.32674114829722223,0.3368609803015476,-0.013120079671407301,-0.2810302043125578,0.25274575683087996,0.30550084112083153,-0.0999270363219172,-0.06105601871507027,-0.18373878075601818,-0.2009248163912478,-0.03142887534050519,-0.12745603499993388,0.09058234418304109,-0.16955978030018007,-0.22244043270079933,0.07975310149831084,0.11802406894189674,-0.2447037346250409,-0.02427532803979293,-0.011369863594085148,0.7168708079159497,0.18144502661962303,0.19021120562586202,-0.37541849074687184,0.1625773679117167,0.3074824057255512,-0.22452786734815813,0.26504473222117575,-0.03626317745251803,-0.4449378750668857,-0.005189674800073,-0.07357859107097357,0.09387450238786169,-0.1607739764696536,0.2239974038180558,-0.21605181788713346,0.2796387722990647,-0.02944482798318128,-0.3194575971399353,-0.25708883967626045,-0.020017032941072287,0.10026355169505902,-0.019537119492343324,0.09342193381480436,-0.44136789589703973,0.6543482008849185,-0.2544514762729623,0.038440353883115966,0.07310558843585692,0.026167473151631027,-0.03912418074443008,-0.0692326773717459,0.26351238150973333,-0.3802038995790941,-0.31268271632221084,-0.22187729798011946,0.19988746940040508,-0.023067490974262573,0.06922496362682805,0.058744757518486915,0.06511878737216904,-0.022408101855162427,0.17597259439846832,0.2192341914661119,-0.354303950837046,0.33884933811536155,0.39495559672155356,-0.3800542280057039,-0.20797631589585144,-0.046316054371506266,0.3217635317034198,-0.39347485890340744,-0.40983342950904444,0.0832566525167442,0.2244507741552545,-0.26008262195628473,0.08279436344746345,0.1226500336071815,-0.09716058864961702,0.35565049325592724,0.3342109588165982,0.5582391690572301,0.17572978615117313,0.26835949898907785,0.033114494438225346,-0.27697763643181733,-0.20080316535664708,-0.044648856496596015,-0.22989163377518224,0.32213115720586355,0.007669891524566951,-0.12607762559006758,-0.019046017941559888,0.19046746908155773,-0.032758318238960464,-0.023433843732324766,-0.19752059577729458,-0.21402149201002585,-0.15332884836837687,0.3213123165822834,-0.10679126336766007,-0.22548141535272348,-0.36890550200756994,0.08092304477641013,0.022093608548136974,-0.02939050495859835,-0.1151542872591605,0.028212575154874055,-0.46297101250013956,0.1604096835081437,0.15120340882963246,-0.2686704320957121,0.44967436483395573,-0.2757657488508201,0.0018431426106814276,-0.13228604944491823,-0.15278982182660522,-0.07425112185067044,-0.0265376930591614,-0.18710962382623902,0.3081057545132605,0.43856057387959496,0.42947581820844477,-0.16082901914513398,-0.3852096544493471,-0.0031777776496644938,-0.10033265179005656,-0.050821508917692396,0.216703017488451,0.05752731395237288,0.183796137919957,0.12205854854585473,-0.15069861380859112,-0.00020928647694699962,-0.36903348614576853,-0.12351621889177555,-0.30985307227299946,-0.3933281080765439,-0.0634925783926211,-0.40611165307679997,0.24682832937379684,0.14928255876757437,-0.16715925449381822,0.15440251986728132,-0.2031270593187807,0.37215179130355375,0.006344877281541556,-0.31110478310964534,-0.1176975266381088,-0.10985785399555689,0.03158607800714925,-0.4190930357916897,-0.0038747594310939632,-0.18767535272684052,-0.12780419015408429,0.06712713665910575,-0.11901419578254857,-0.35267893345733625,0.5345193851555168,-0.2265383832952155,-0.1131161922415095,-0.18779924772101322,-0.013125851803734363,-0.01701429714926389,-0.25066321121969465,-0.08010199792244105,0.020400580704010348,-0.09474029739843033,-0.3516070415057186,-0.28613643030731045,0.10294849130526337,-0.19304245391928845,-0.18009995471381654,-0.24206394238258583,0.11638172025099915,-0.1982825508746052,-0.2108285204060789,0.19639761955737672,0.19221639464586995,0.007495913974816593,0.41904364810716616,0.09524229072027846,0.09339936330696752,0.09780049263027649,0.2099009549278224,-0.15748062399485807,0.25729988749458194,-0.366855780657494,0.12348574969853586,-0.21543645446510887,0.34028375970757785,0.24818932604757926,-0.28198391033799036,0.24918607610050925,-0.591530692602441,-0.008748351249367507,0.28843863749880055,0.74076998012032,0.08390193283777017,0.24074728786575453,0.35235023175668795,-0.16512959800681667,0.05975128782471595,0.2505657564209587,0.5590987387365361,-0.012394234064396225,0.3965446515082111,-0.05854927607110076,-0.36908382571595644,-0.03145950885552058,0.07607341820582691,-0.3207903025935089,-0.13898934072791677,-0.4403472654737912,0.23303132317709374,-0.12672384424397887,0.042848423284647594,-0.005600115285221814,-0.387826218233246,-0.2895244406158959,0.057887167122595555,-0.04146460727070545,-0.3659832958009064,0.15510670551183978,0.07204455051170308,0.35992939368137283,-0.09456762190404196,0.18053136444154774,-0.08410745891312216,-0.14241987660553276,-0.2646059620661662,0.017125469565995033,-0.3542415414568409,0.10765456954118688,0.10683170388721772,0.15131099987506208,0.05917730220809236,0.1746488873974452,-0.6071605805771628,-0.06848933438372604,0.26005649828995214,0.1725851704944158,-0.0024211903646586654,-0.0410766350042461,-0.03666080769314959,0.061976290291556484,0.028078763874348826,-0.14974113930307814,0.13343142733202848,0.2829846698763273,0.15197797567130944,2.094477750431544e-05,0.10158277150415111,0.18125531366819042,-0.03793725086322016,0.1858895768970431,0.045695195151526785
quantity,0.16959746409596796,-0.1817321898362035,-0.033201358808105645,0.09611863148195601,0.2876851668258558,-0.2408589496153259,-0.2202698345060086,0.24811860615582237,-0.13558684128226878,0.07524087797529562,-0.20378740030742284,0.26921566259463403,0.0340666115675876,0.04199666046141018,0.1434076313311883,-0.13205316407350817,0.20447940504421125,0.18988198212109414,0.009396419432613348,0.24962267230246196,0.0657617028755141,0.16883341237098173,-0.3426000265229529,0.09329651437618794,0.13034196185743788,-0.11328311777388993,-0.4065616699330395,-0.32865471998519763,-0.18353936368427998,0.14218577481432493,-0.06397382136992712,-0.1065179619598786,-0.16728657817191994,0.41610564448448134,-0.2308244208146447,-0.1646911374537819,0.346546480940124,0.07352922008894648,-0.13951691944214142,0.06132906140434497,0.24478160458516693,-0.025104176277718136,0.5799913520749113,0.36394180550274174,-0.014864463063214919,-0.25989144567671674,-0.11259015989709215,0.10403772538178413,-0.14476042605574108,-0.2697771097807557,-0.016609065611608822,0.24342873940212617,-0.08111801185004779,0.08669979235436591,-0.012414009281306869,0.18835852238606224,0.06740996618943917,-0.07288660907317306,-0.18209212731393237,-0.2036173914352843,-0.39973092619714834,0.09221510741427565,-0.04898505676947926,0.23614485559012174,0.016188434125091744,0.24065798184969522,-0.027959780567486534,-0.5212083511048077,-0.10727724126507897,-0.005302061172765754,-0.11790700372447564,-0.13994378713108327,-0.13027595496044211,-0.100252436926933,-0.011038825814239659,0.29468578533058154,-0.08693880622438546,0.12358279966470953,-0.06332909476506929,0.002000529046849221,0.015524384204958618,0.10549062231597438,-0.25590245635788156,0.10897963258242793,0.2926909331258517,0.09677516254020734,0.2868529976987175,-0.08400572845580867,-0.19733436289689155,0.03187480424036392,0.09447332947987437,0.08639618869116493,-0.07905733324995136,-0.18065859360831998,0.23794851819968676,0.04933097535036874,0.12056210884782094,-0.32058847171007315,0.04569830128750768,-0.04465134244616167,-0.10241226651628314,-0.22471691067897323,-0.33294636052055243,-0.15770042304170628,-0.04726970313484068,0.20481388369901718,-0.06589653001286377,0.3005730632001316,0.33365905046731203,0.12409039394961782,0.1060649106518958,0.3973108490424068,0.09737923097318887,0.018404802980927986,0.30113512695303385,-0.13549639871216115,0.08920725691641329,-0.08196617381200147,-0.18595608141515735,0.08670676190868297,0.0977364019255228,0.0045866106308852465,-0.32841460446957216,0.12810267726135205,-0.1046868551520197,-0.009428581071642085,-0.2187753139152436,-0.09643989032410069,0.2124293582948087,-0.13286103900394222,-0.019082509804210668,0.2694672906188878,-0.03829969916993467,-0.2708215718383174,0.19801996690120066,0.2905298824844966,0.3098409326079539,-0.30416096044628543,-0.1562113053766128,0.11234861637601214,-0.27133777212859783,0.030291874767930795,0.07090263368056011,-0.04674549541678115,-0.05053311683220301,0.11317569537810919,-0.31570004082039926,-0.040064179810004784,-0.03442822636440093,-0.05658019456507489,0.20943824321531687,0.18975865297883798,-0.12588698576961863,0.2387888217985995,0.0943044667123733,-0.11190484802573179,0.17772212273506952,-0.17152329660712562,-0.14527225827342874,0.39733551246721466,-0.3141749923627875,0.1127274760218628,0.36553754523485316,-0.5714635392499195,-0.11699755540194262,-0.23478268814872755,0.012556378507464702,-0.07871429662398435,0.16096653938921396,-0.14619973745459208,-0.1283823402640332,0.3324061926216658,0.2831916824286832,0.269591277241411,-0.10470733068820508,-0.032572458616823854,-0.2256570186326232,-0.34662114492332446,0.021626735224065673,0.21434628430114003,0.11167557140180291,-0.12300616568727403,-0.07305744112941327,-0.08151251617831354,0.037085048008854385,-0.1513084652225695,-0.04413227091393702,0.14526581373314645,0.034396826500780846,-0.058766563457785644,-0.087533636116334,0.20504390088987856,-0.6423492984616883,-0.2162540562905474,0.2875576098327569,0.1084673336359197,0.1535334156469448,0.2722932624962372,-0.14464675655378637,0.07469880739220372,0.10905250964339719,0.16578894515641304,-0.22545808478795829,0.0872309138787646,0.04047839298219095,0.022288995917007025,0.14295110614983392,0.10018843523043816,-0.36468286329752936,0.3108510710692281,0.02211519863398652,-0.1502033311879722,0.33171105188058714,-0.06849800561140645,-0.00790435138411504,0.07878192089639251,-0.1389647254042127,-0.1891451016004637,-0.16816317121237984,0.08691621112741324,-0.1929688241578264,-0.19086529889350803,-0.02216014301554965,-0.06450271548303615,0.28342203093406004,0.09866431024744331,0.012450217691791665,-0.1375838550977108,0.00525812934236185,0.03012556538965628,0.12434523471726704,-0.37045970391453953,0.10584942194580078,0.3530201945686522,-0.01867155571120625,-0.23285277648086397,0.10652562106026228,0.1727728802328826,-0.12400041088104065,-0.011737462358785523,0.16932646086907194,-0.09760232884965772,0.0013180100679795717,0.16402748786951535,0.017054271330520426,-0.2712317643634801,0.09368978151796727,-0.10415065311469238,0.2636847179336852,-0.22144268785319676,0.21078923476821956,-0.1521906563872577,0.2525525969490113,-0.04711588284097426,-0.20758155128684497,-0.2298380336943542,0.05251898071214331,0.2721038415614921,0.11107195357031904,-0.1598575532729431,-0.22376397635239403,0.035159321382896236,-0.08968876091718903,-0.12981097104438358,-0.08661039777330498,0.062291005954434694,0.3786185177911242,0.04991228340445971,0.033682730250236985,0.044739283684455504,-0.48134008532679656,-0.13598513228889259,-0.05719709181157195,-0.06632939489030865,-0.1695663763214288,0.36821089860501877,-0.12515340502134437,0.08530677846589599,0.09417736648038189,0.11872328242654943,0.06986374375627688,0.01261230167104058,-0.3039106728238,-0.15697037173315,-0.2772917827543256,-0.4279083267575431,-0.03612786239733588,0.28761211518493623,-0.12971855221217876,0.0221445508702361,-0.1767888182114058,0.09266025356981047,0.13311670609535256,0.05907910507556977,0.11007776656281298,0.020241933543719465,0.2917968474473581,0.1219326900933033,-0.34325473285795105,-0.3526825714619601,-0.10297956599804835,-0.06269520577579374,0.14216846768698357,-0.13118374506502212,0.4671447439337181,0.029526280550859634,-0.11385576622747028,-0.16959877559245548,0.16052364892308954,0.07437994059074363,0.27493918911123744,-0.2816286130625444,0.43269066815162327,0.03358911639080985,-0.496313033538167,-0.018169596253074537,-0.44509852766347224,-0.1784522906164752,-0.04171515857104815,0.011645241092474326,-0.02561052082572746,0.04928832313404833,0.20741488068948347,-0.03490889622553101,0.030903868954484968,0.24163483312513465,-0.0755068265660612,0.14098442110396286,0.04749405535917778,0.08235803434137937,0.009658747678177539,0.19779909522965528,0.05532776310806395,0.17846014061355922,-0.049357467063674,-0.20527693023800558,0.03904341582055156,0.37987472491564106,0.2598961778231093,0.1995884736929823,0.3901495066826155,-0.3580970668054107,-0.10526791493996338,0.14386009660969334,-0.16374306487179932,0.11520045709341799,0.25635149926381595,-0.07286859180940794,0.17456342444004258,0.20103424350362906,0.1459091662208835,0.35148824336999207,-0.054513681296476,-0.01934864975127578,-0.369198978831607,0.22137182269267605,0.01530231382745311,-0.1473260898026325,0.1496154270792572,-0.24192578138313037,-0.0776764214666344,-0.19515960335076857,-0.1470039904990802,-0.031727965041091766,0.11240374070468488,0.11617578583835293,-0.05879632567361878,-0.30530217461025266,0.011278233814885444,0.15167851528745677,0.04316155742608559,0.060329290158426696,-0.05473033018739169,-0.028285522694217136,0.10356634145848383,-0.2425138695931121,0.01121981138253066,-0.19559254214757726,-0.112607067723758,-0.1438178775190647,-0.008967957739399266,0.06279958801875257,0.2947429930369436,0.16150659487821892,-0.021173074344427653,-0.271999472072447,0.25970375181212096,-0.3303567036168804,0.1747908448126904,0.07266687714596538,0.5935928298463705,-0.07114087065136898,-0.12979486893095532,0.13128367640060642,0.27709731475802163,-0.3630991390189952,-0.13745893720552177,-0.24210170919973456,0.019143250390184236,-0.08793278097785405,-0.044191340249209336,-0.09219744848463927,0.25889735124588265,-0.0865930932830343,-0.1852782505308101,0.05904028352622553,-0.012911682452143103,0.2841109625396029,0.06259096870291143,-0.21914903636979247,0.20265854663376176,0.35650797544767726,0.037013484770225265,-0.050441281233039474,0.11076133891516374,-0.13781440335320402,0.10141633197017232,0.18363127800936452,-0.06265157298815809,0.10435823644519086,-0.012886845889352606,0.1280712646141491,-0.21423641765564766,-0.25512055838818865,0.3225578835240122,-0.29645170608626803,0.24575833347911183,-0.17287722905959058,0.10548041253217194,0.04932958337490308,-0.04213441319346055,0.21066272594580293,0.11587155326832622,-0.11728383693218904,0.11216333618830092,0.20205332443151044,0.12325198250630225,-0.37896767859564234,0.4130356090466445,0.03802298994556957,0.11774821784816557,-0.015082354153856104,-0.05211512300581484,-0.021174823902423725,0.19374103551274927,0.23026022488218909,0.06876072338715493,0.09815360630548313,-0.16454702930965928,0.18495468074237553,0.05257868751000096,0.14985034894544186,0.028012538418960228,-0.18090832578366503,-0.4198370112334525,0.3339282522252947,0.22349869387812274,-0.29758233633642933,0.08595338310611045,0.05601904697378254,0.0572975944753065,0.014950754357672852,0.43750960134513495,-0.5691499061288222,0.14358638874215846,-0.1376523440417657,-0.03540898404819328,-0.1992297321189883,0.16563696028153743,-0.2131306402082287,-0.104579596788053,0.05911663384518076,0.06797380950367841,0.042838380789612614,-0.20148540344979915,0.07245166374816955,-0.14488510407150912,-0.18770806780614174,-0.2877766309941391,0.2364773717329024,-0.0572124299804828,0.03824643066007238,0.031216433344235097,-0.10426210391272726,0.07786300572529019,0.2056473607655173,-0.12518363139978647,-0.08462637016428,0.224729534566672,-0.4595598945262898,0.2223013884216195,-0.22142896276592205,-0.2566706085096767,-0.022122630813605063,0.01662357737497017,0.002941546625750629,-0.1343071954500599,-0.0671843244566624,0.04481056331965564,-0.038684848255933386,-0.032159763353947296,-0.0018325324469603502,-0.10040057703773972,0.0934800349119502,0.008472515103932602,-0.4630969966678942,0.030526637490621563,0.02908927008950889,0.05230823621313446,-0.0846262968292639,0.20506523139830066,-0.08443056787485827,-0.21040171166314917,0.11932630942640989,-0.010034987970211592,-0.017867344004947924,-0.12073629395833295,-0.00537723164587213,-0.1889544406794742,-0.13692452460784216,0.23790846594386691,-0.09620256623284043,0.0882847689072992,-0.19732313847949903,0.11839437624438881,0.16516303690037837,0.19708407823636653,0.11344241957693851,0.04599067758030165,0.07299910545053234,0.17329490817787024,0.1823699200621008,0.2869465595069345,0.2862651477509785,-0.30006289603002967,-0.14562896948973175,0.30645021285056784,0.10038646738521508,-0.13470876720735314,-0.09481415271168345,-0.04130475825771364,-0.05611247418990654,-0.3316523220746366,8.936153017560279e-05,0.012680706116486988,-0.22816124675614208,0.10056759072943582,-0.1575911740678763,0.14606279334997818,-0.10333499787464155,-0.20807781205361528,-0.15003529278538746,-0.1983568950837734,-0.13191262890486394,-0.07654279926426637,-0.18054442820288655,-0.2632152493397643,0.33096092191264176,0.10383506020166804,0.19076886681739386,0.1270729348577615,0.21838832382797868,-0.19989701413410826,-0.07925368427513238,0.2554122744904287,0.20712695249894725,0.11831015430693445,0.1006071597959752,0.24542915230020812,-0.10723678124178442,-0.08961318075841679,0.11262141716932901,0.2270535520862926,-0.22796555895039797,-0.06819942888261944,0.010628032177594804,0.3030852634846502,0.0072102173773820576,0.042729190342122914,0.024584915494701876,0.20199643948865553,-0.05652816403908523,0.3501907495394688,-0.09495381765657222,0.017609947607349987,-0.16264356898799454,-0.009203704703032225,0.023006135677818115,0.24037803761243448,-0.08251961328410932,0.028886006143244436,-0.24750998417273276,-0.023436141389091537,0.009954328243455412,-0.1849682488777922,-0.02867165773909065,0.030475295025377557,-0.02326636956782819,-0.03965019464946841,-0.23712033827911852,0.062459655112432816,-0.25850586020702576,-0.04671472691141374,-0.17411761377068047,-0.12305209076323743,-0.005858324679363491,0.15002199841502364,0.046845177528807284,-0.016746092047500317,-0.0629732517317567,0.13863745458146728,-0.14490210151147626,0.07676528154031662,-0.05873782650605705,0.019520035279415607,0.2789882701757394,0.2039088769864312,0.10298990796829972,0.05556623976901831,-0.04615105414544658,0.030196947122295155,0.017459526665094663,0.3209323785181657,0.2759150511942117,-0.13646729880960992,-0.1305317540241116,0.23951233506341285,0.3791510097877291,0.00799399367103742,-0.460293278805018,-0.12041508353447296,-0.12292467795806093,0.37278143575455663,0.002823187176146583,-0.03313041096093272,0.32879723696541546,0.2373656541196171,-0.0728915921388978,0.21502122775658866,-0.2813637095845777,-0.06467611510297594,0.03573594756368255,0.03857200309107329,-0.008256116424171433,-0.038189336884351284,0.01836520605756032,-0.31403885183508734,-0.3446449434001755,-0.025276289984022062,-0.6154822204097904,0.09564538050204234,-0.08381610829503133,-0.06874750807353928,-0.16069512743973816,-0.15636508322323514,0.19580715129892262,-0.1950464625347072,-0.18287209489518402,0.055773747531500745,0.14856842963134728,-0.18201490913701585,-0.2817069148909587,0.24194221482247175,-0.3036146641172569,0.34212438113097493,-0.19721807933152036,-0.19777249662069693,-0.16552054641688044,0.16595871938251505,0.21267897256321633,-0.34772884296669765,0.13221471154504108,-0.10281957042704051,0.10518279458458979,0.14869299080422782,-0.17865122019290097,0.11146943382558624,-0.1887910363059142,0.17820067204936862,0.2404075878646737,0.301558564054502,0.04438711027872958,0.21770258708211762,-0.09266791634435251,0.06187519066269831,0.2763823447611895,0.058532396905766386,0.37393582653623686,0.3144047700875991,0.08118099261094817,-0.11243832046657093,-0.30069441087298077,0.13315459044684416,-0.1736263447620685,0.16152312207255107,-0.10783206456634796,-0.1765040182964372,0.26589373916637776,0.06766272019263671,0.07921417112740171,-0.007628817877676233,0.2012617985203622,0.024368623324324552,-0.13215346053109497,-0.1412672090452225,0.2939040510572152,0.014338227994954291,-0.14533619137217313,-0.09035050365064512,0.006194703788316276,-0.038889267499985246,-0.11506765817017812,0.011798506260193145,-0.0780676552347222,0.08257042534213632,-0.2229094853651593,-0.1442643935016762,0.1586436251547413,-0.10839176801248418,0.0022452834657810143,-0.0523341648463704,0.15349286830739878,0.024325585738253955,-0.4224042797543918,0.2824287912701383,0.2507542772863156,-0.2581651317073582,-0.1396221389600583,-0.04760815814985817,0.16848469022722942,0.3752470511931063,-0.01745596409506194,-0.3452349660812043,0.06069351586480079,0.03617745700183475,0.5645841345415148,0.03183000813863186,0.010964035698010341,-0.38273975095191015,-0.05378299415877498,-0.16448392064866493,-0.07381220982428194,-0.04559659801736643,0.19460339074982502,-0.27182257654810627,-0.02274739002917976,-0.16188094920242174,-0.3441678549118838,-0.12506650702981223,0.15303367237659898,-0.15527651759909222,-0.20309798705026297,-0.0680954052069079,-0.1681011196931666,-0.09122997864467954,-0.2854592280211076,0.039895479271351356,-0.04833709769637666,-0.0242127706355706,-0.008123566223871417,-0.15904185849706318,0.1123837265534342,-0.2365545782561274,-0.060168311296991316,0.13991059069614287,0.03144154325956127,-0.321663857636814,-0.10887131104779595
