,0,1,2,3,4,5,6,7,8,9,10,11,12,13,14,15,16,17,18,19,20,21,22,23,24,25,26,27,28,29,30,31,32,33,34,35,36,37,38,39,40,41,42,43,44,45,46,47,48,49,50,51,52,53,54,55,56,57,58,59,60,61,62,63,64,65,66,67,68,69,70,71,72,73,74,75,76,77,78,79,80,81,82,83,84,85,86,87,88,89,90,91,92,93,94,95,96,97,98,99,100,101,102,103,104,105,106,107,108,109,110,111,112,113,114,115,116,117,118,119,120,121,122,123,124,125,126,127,128,129,130,131,132,133,134,135,136,137,138,139,140,141,142,143,144,145,146,147,148,149,150,151,152,153,154,155,156,157,158,159,160,161,162,163,164,165,166,167,168,169,170,171,172,173,174,175,176,177,178,179,180,181,182,183,184,185,186,187,188,189,190,191,192,193,194,195,196,197,198,199,200,201,202,203,204,205,206,207,208,209,210,211,212,213,214,215,216,217,218,219,220,221,222,223,224,225,226,227,228,229,230,231,232,233,234,235,236,237,238,239,240,241,242,243,244,245,246,247,248,249,250,251,252,253,254,255,256,257,258,259,260,261,262,263,264,265,266,267,268,269,270,271,272,273,274,275,276,277,278,279,280,281,282,283,284,285,286,287,288,289,290,291,292,293,294,295,296,297,298,299,300,301,302,303,304,305,306,307,308,309,310,311,312,313,314,315,316,317,318,319,320,321,322,323,324,325,326,327,328,329,330,331,332,333,334,335,336,337,338,339,340,341,342,343,344,345,346,347,348,349,350,351,352,353,354,355,356,357,358,359,360,361,362,363,364,365,366,367,368,369,370,371,372,373,374,375,376,377,378,379,380,381,382,383,384,385,386,387,388,389,390,391,392,393,394,395,396,397,398,399,400,401,402,403,404,405,406,407,408,409,410,411,412,413,414,415,416,417,418,419,420,421,422,423,424,425,426,427,428,429,430,431,432,433,434,435,436,437,438,439,440,441,442,443,444,445,446,447,448,449,450,451,452,453,454,455,456,457,458,459,460,461,462,463,464,465,466,467,468,469,470,471,472,473,474,475,476,477,478,479,480,481,482,483,484,485,486,487,488,489,490,491,492,493,494,495,496,497,498,499,500,501,502,503,504,505,506,507,508,509,510,511,512,513,514,515,516,517,518,519,520,521,522,523,524,525,526,527,528,529,530,531,532,533,534,535,536,537,538,539,540,541,542,543,544,545,546,547,548,549,550,551,552,553,554,555,556,557,558,559,560,561,562,563,564,565,566,567,568,569,570,571,572,573,574,575,576,577,578,579,580,581,582,583,584,585,586,587,588,589,590,591,592,593,594,595,596,597,598,599,600,601,602,603,604,605,606,607,608,609,610,611,612,613,614,615,616,617,618,619,620,621,622,623,624,625,626,627,628,629,630,631,632,633,634,635,636,637,638,639,640,641,642,643,644,645,646,647,648,649,650,651,652,653,654,655,656,657,658,659,660,661,662,663,664,665,666,667,668,669,670,671,672,673,674,675,676,677,678,679,680,681,682,683,684,685,686,687,688,689,690,691,692,693,694,695,696,697,698,699,700,701,702,703,704,705,706,707,708,709,710,711,712,713,714,715,716,717,718,719,720,721,722,723,724,725,726,727,728,729,730,731,732,733,734,735,736,737,738,739,740,741,742,743,744,745,746,747,748,749,750,751,752,753,754,755,756,757,758,759,760,761,762,763,764,765,766,767
intensi,0.03493045604813811,-0.24162093048715272,0.0010945698852499095,-0.7020886522156597,0.5553292994404083,0.5530609369499246,0.16674501359397473,-0.2793596130606077,0.24785712603980423,0.27780918040279884,-0.5883354724253025,-0.15802587703011944,-0.058120388990128474,-0.13495305626708648,-0.30107544894235927,-0.025981642762936245,0.8782805213502628,0.3084448780842264,0.5137184870579727,-0.3681062649801485,1.2463124711203621,-0.08908345248534948,0.03520668018866127,-0.16436742096728366,-0.7024571722676908,1.1167973591945168,-0.3065671002843993,-0.10976561445839597,-0.29108814326230686,-0.06473717823461521,0.00028707663657677907,0.3891718774104351,-0.4683743398576617,0.4009788553860211,-0.1071836143881737,0.09415841647253866,-0.4339402868307307,-0.27343793706910996,0.5948366968370754,-0.20817799622665475,0.4138510903236046,-0.39738733430196094,-0.4356322045415101,-0.3236922683005868,-0.16816393094582643,-0.33554043941781997,0.5091865908370563,-0.12131976527236907,0.1599915789283939,-0.572493915996776,-0.04872466506997174,-0.5395123170100211,-0.2792600844718522,0.07925955782305781,0.14885885125119686,-0.20817108728604714,-0.2562611133458591,-0.6067234541610472,0.1393702330316812,-0.29371025340619605,-0.0938161840600618,-0.520890610536879,0.16301534654249858,0.30881132871855826,-0.49939369706996534,-0.7366025632419342,-0.5875940832720529,-0.5928227214175199,-0.08304958733970207,0.9166965415040892,0.0692618613826234,0.41745129497715416,0.5130613723792042,-0.2942577336011024,-0.6981965350037439,-0.047838968877250365,0.06969778862948438,0.7236134386103614,-0.7252793875567616,-0.7211005429808078,-0.19846560075247452,-0.2299175719433895,-0.5164512138124622,0.5422741867655447,-0.3556955535209691,-0.7184882201508349,-0.03321288608565708,-0.014484140713903117,0.1032910460372222,0.2926903605114377,-0.6718699888074097,0.1766985531674194,0.6465978587096859,0.14265492726007825,-0.07801831063364079,-0.7794535985585576,-0.37072106752563133,-0.05563563136118291,-0.45171533380598033,-0.08215766121381148,0.4668076801120467,-0.3922350838305503,-0.6749285513192507,0.2387184699007705,0.7328281337018582,-0.04626211245717058,0.3734490210663363,0.061154119684968665,-0.4699047967477326,0.38056627325761916,0.2830946180357457,-0.27286351138576104,-1.5826870515820404,0.13766748464538967,0.0575192887010052,1.0928002590403745,0.2534930062546584,0.06918571922673974,0.29326511746409406,-0.0101087850189561,-0.4776776587491953,0.6434130158764315,-0.3261511068868119,-0.7482626124200534,-0.2892539598058877,-0.15568279293875664,-0.2855707161519143,0.26911754204976523,0.7171220554679226,0.31514230811154265,0.620272478575904,-0.8051798088730686,-0.6519949017514415,0.29395401153295597,-0.12055742136250915,-0.11176473919977133,-1.185564858462147,0.632718388221529,-0.6458095054471337,-0.30150042562415824,-0.5901015820610817,-0.16919351082329237,-0.14677637257603474,0.4928677181713747,0.45327863642161953,-0.37436431289890604,0.81291387848883,0.48739779917634046,-0.3118459541198662,0.01678495363729665,0.040055198747242865,-1.0417496203265368,-0.570458190024389,0.5351126570049198,-0.2608396019162076,0.30640613004630807,-0.003245355993072091,-0.6627628206391368,0.3801948051569584,-0.154939342900898,0.3950708237053325,-0.3106837483089572,1.4266147359605295,-0.8250992197721951,0.8763602255948316,-0.34608784928359615,0.35111838053647737,-0.1588194809063901,-1.0884640146771343,0.07292038172943188,-0.2277286807164608,0.9289179919770839,-0.6502499747162224,-0.10936800724961629,-0.21762475322668864,0.1021548189984714,-0.2691687824222094,-0.5138980357431467,-0.20893606649760094,0.6239809138372066,0.10561969744252617,0.15684386020943167,-0.27619196871726914,-0.7122272661545607,0.3000269728607196,0.41615607299463553,-0.8207917502863274,-0.27169443240795527,-0.01435646501493307,-0.21846355853157343,0.4004877205764725,-0.6656371006741217,-0.316371229921436,0.6169594556634814,-0.28290872744522616,0.5617975526220431,-0.07032137675111623,-0.5151570925460597,0.4802871765441945,-0.18593710462140695,1.0794870687885791,-0.06997607428918554,-0.20922454319098915,-0.1390113420551897,-0.7353532943342669,0.5346082390644048,-0.20377401186706431,-0.4404931263200368,0.38388220904514553,0.013920427167248292,-0.42069481814483667,-0.22731491480510865,-0.9022232418703998,0.7178437253730923,-0.12196504131453798,0.05339748718747012,-0.44145041132182455,-0.8574766743569415,-0.7006535999619291,-0.2199508773493826,0.42636136691516985,0.23353402467699896,-0.19827608635771865,0.0627982394317416,0.5225522024613004,0.4303192914668988,0.21382162754557943,0.6047425493617312,0.44256419217921267,-0.7411422065920834,-0.6592437004207157,-0.05667849894835317,0.38818910797659745,0.6448852310799149,-0.11053251106212751,1.1728454309091039,-0.32619269296457615,0.4963078161950489,-0.06375605360323325,0.2660871201919687,0.10544358580517545,-0.46913115087027324,-0.07581489189704148,0.0012228607952473177,0.07010713595310572,0.2510128896311273,0.5080442704096636,0.24971176243696847,0.10671794550163344,0.5512281031100738,0.10681280809257071,0.7034578441978817,-0.031098309629520433,-0.8535684590167245,-0.8057620209889276,-0.2819848297418518,0.6420655511287635,0.140792586409995,0.1290785879628973,0.06097090451058442,-0.4260723871936837,-0.7094195727677465,-0.12185269786271445,-0.01821320549350134,0.8903747355610026,0.45465716736801753,0.5315199635125774,0.027347488438143296,-0.6479672660301903,0.4557041415445434,-0.0037142800691253213,-0.1837484225844932,0.6269471262786283,0.059987698667299735,0.4293954472431321,0.0718185342070871,-0.05986422865206022,0.7678791278749131,0.524412083800385,0.24372428031439347,-0.7637702776980819,-0.23536168207702596,-0.057756023945067986,-0.3155537230184447,0.019436625562545842,0.0009301727282875679,-0.07544409053928099,-0.13898943089659202,-0.13860870307990042,0.5366328176777677,0.2977470930704709,0.19785599380853802,0.7357182662777675,0.07465402483081296,-1.028069803268984,0.15590577900537683,-0.28694307633099486,0.11316123296437056,0.6474793427499234,0.5479664121428931,1.0885736244509996,0.8231158884318873,-0.1775579593585612,0.16318344952490427,-0.014093760514435168,-0.4153709541570626,0.14596822214169342,-0.2823243256333822,0.7295758133148991,0.4096796337792961,-0.07967346448347747,0.2534393906748569,-0.19933879071534744,0.2574499305606401,-0.1464907694747898,0.4924298888082256,-0.010778911048400234,0.5317485399872122,-0.23585222321330326,0.9711302393502338,-0.41014398691401593,-0.05845585748130186,-0.43113174979443114,0.3357590993331411,-0.27286136946354766,-0.04818648963093616,0.1763314810160084,-1.2765034753582798,-0.195415072564844,0.07385661161018651,0.7799137420086288,-0.4106662155976417,-0.5407627719753203,-0.5906665996774896,-0.2849562798583599,-0.3755403931816297,0.7177555468171478,0.27336570764776913,-0.2734089549034243,-0.2909697618130286,0.5777993335518409,0.28322790370922896,0.44006333730341207,-0.06836540768397933,-0.047229273562302866,0.05694382482995558,0.0003910600295717831,-0.29870713465783666,-0.1757043915691313,0.2458540135081714,-0.20939055307857427,0.023171407773583674,-0.6953254567303088,-0.6178070961208617,0.37976890666620033,0.5380607567056639,0.438347768694544,0.015434434896471184,0.03230286962282494,0.010117936962869311,-0.04698372617342207,-0.5350214431337607,-0.25857608691363076,-0.2802070527689432,0.06902608680847265,0.21847377378266383,1.2666863934307504,-0.28312503851782356,-0.1666898844739073,0.4418337006731646,0.06183530407520891,0.6351743622486331,-0.8897828437670013,0.053327165395594775,-0.7261001099443765,-0.1408207179234467,0.25208339070100305,-0.45657311343750207,0.08232830281858677,-0.19085921394014818,0.261821815494248,0.39616581118504707,-0.8928425485069008,-0.3393911576988828,-0.3461380112084277,-0.4790404961684613,-0.25525229195801624,-0.628388386041007,-0.47259216115680386,-0.5660902058907553,-0.4197057933720109,0.0749695595771542,0.6024324200127754,-0.09489533395584818,0.09674275155661319,0.6234837183624373,0.46772090011006173,-0.06374965183292744,-0.4448598069225581,-0.29120307548082897,1.1392589947620775,0.18571618090931513,0.2464535140724105,0.6212715111300516,0.1236571243855328,0.48785739501656,-0.17487493471505702,0.01366089331906472,-0.4583008271598237,0.007920225890880782,-0.16845681887383676,-0.2512454037035736,-0.31097552196582007,0.2848609436017435,0.6151401802230676,0.18564133926510834,1.067477773601901,0.8469042531952612,-0.951211481372594,-0.37700475469016764,0.04769527386409884,-0.4403362779786258,0.5557018856937044,-0.13296995789787613,-0.07417485619128385,-1.1184401086587012,-0.394321007874998,-0.7583864966214839,0.17789531218755153,0.12244151336171266,0.9127107100134161,0.4113568245534258,-0.0867694953436326,-0.151587209015751,0.6490253865688208,0.3125993133822671,-0.05563691398019916,0.20345907454423828,0.014301912636382358,0.16539958957399747,-0.6890878034727665,-0.25391269508019987,-0.36043934588174065,0.41640010335187555,-0.014020881019436349,0.8546263229762576,-0.025077686769003044,-0.34106570247528634,-0.7152283367191594,-0.6272754315323611,-0.10574111246121305,-0.15658094596451871,-0.04237287352232076,-0.2625837848534606,0.0391140779205594,0.4677393118532617,-0.25765921571190803,0.002499478952508816,-0.13601724873346022,-0.5072261883911384,0.8028347986760409,0.3854215716575137,-0.14647228563939446,-0.48763133348067833,-0.17453093168163683,0.316134946824422,0.2912162407814409,0.1391470202148588,-0.08032288568717523,-0.449655332226369,0.2827554878754315,-0.4693113708593976,0.33221746467228064,-0.09401832762887294,-0.11095583821743438,0.2820465170507728,-0.4075835999772883,-0.12984146401324462,-0.5215598062908682,-0.8159477436351736,0.15118947043472647,0.34443596667274373,-0.39785321970321186,0.43074267626907753,0.40626161579308223,-0.5458380481676417,-0.1126475007577973,0.8494256151214534,-0.055926569310716115,-0.04168271564687721,0.19864155733987585,-0.006333256671442077,-0.8419326396832293,-0.7015491679272217,0.30971877310917423,0.19546531172941173,0.3612936386980528,-0.10817020904991301,-0.6080410761800734,0.5373084481522944,-0.6622264983219894,-0.0229276710422217,-0.22210422665153573,0.053673633915937304,0.22265093316325935,0.4882907479376621,-0.6195426193510679,-0.24455391408441063,0.2916645095401225,-0.07980013189752758,0.07189399796974318,-0.0439584426815089,-0.054999763315859256,-0.6460031691614591,0.2611360160010939,1.0339921073264833,-0.4528536269643534,0.1151048665688685,0.20457107699085236,0.7124311849228209,-0.11630628633753536,-0.2598553830404077,-0.5022746413684316,0.6642675201945843,-1.0836385576016174,-0.4910151584577566,0.7074509134137583,-0.25912683525767044,-0.14167562565072644,-0.4067385405487357,-0.4536860480877406,-0.088396966345173,-0.2894834308452313,-0.6478088653510732,-0.2467824360046065,-0.2908538567269865,-0.39758516172340486,-0.12372468211154158,0.56758009802399,0.42899480947602203,-0.012934067936098538,0.2684458613009617,-0.04312876545321407,0.7657532644888341,0.04886816872678325,-0.6494472806408634,0.0052609164776940215,-0.21314890041743267,-0.5619565506887937,0.19994696347521526,0.33159799070836327,0.15445764144102586,-0.1170623957766484,-0.5021531108669024,-0.6225222658367174,0.7189277225322167,-0.504712811812941,0.07733785889361171,-0.7838719376529089,-0.12707193434264388,0.06198011146115378,0.050161280989797566,-0.4745872866953996,0.8602778050908038,0.25725847274775887,0.20073681410617028,-0.4715472820547965,0.04620156051445887,-0.4831152059725041,-0.6651089266845551,0.3943745841175859,0.27617448958931284,0.5489451535968753,0.11336094674230442,0.38580819297560015,0.0951040286014546,1.0422254231860446,0.20076791644260536,1.2032339121285098,0.19226617307424262,-0.2614916251896112,-0.826468679475426,0.06366458003901714,0.4541659249988335,-0.07300998088124246,0.21720025824271244,0.7203419692488742,0.048308070718194894,-0.8034643480483167,-0.12961620340699664,-0.3731221299537755,-0.3649545196619252,1.0368046789392091,-0.5654955194210594,-0.7051600464624209,0.022733153330869414,0.09474342119643595,0.15712923326971473,0.08700847690666717,0.29345043520958825,-0.29871210028424017,-0.92810851784799,-0.12459338967006611,1.0223698405899455,-0.16493009548878756,0.37967251584541295,0.40808983193028886,0.3641132746434095,0.48747895336559516,0.1512567902791995,-0.29816488071679326,-0.3583085879766506,-0.17438721085706055,-0.53842585816343,0.43872020803631084,0.10602922581354217,0.5528330861449899,-0.1975979127408286,-0.9752329818169552,0.14418612600551664,0.7690190081551506,0.8857658234853878,-0.19119446496785908,0.15718814160889988,-0.5923903381705865,-0.09977654038929094,-0.3481266382266101,1.1258479425342935,-0.3628468740371342,-0.4891982706100665,-0.08889248215502396,-0.602535729816969,0.07896556826348122,0.7109808852211414,0.17703825085155164,0.3158471915867975,-0.8693669775075762,-0.4519239238332237,-0.24154572194195312,0.40290912233112086,-0.5490523895969676,-0.09861324120221157,0.6703153677772197,-0.17850694368032854,0.32634671383747355,0.32235858421015084,0.3631914225603917,0.8846677933455831,0.5826547689225794,0.9888774625775111,-0.7102111389395257,-0.28970371400843586,0.14456149097412058,0.030705568636105348,-0.1287539277993629,0.130615360404937,-0.16580711202285311,0.4033751084147507,0.13728113217569338,-0.027705986089690687,0.25413224065259526,-0.9656969565264494,0.028556750116089182,0.11288263708613437,0.37210265215665855,-0.1926695841189667,-0.6577504076851229,0.1806363518175316,0.2881288182655647,0.045623278304443016,0.035508324096300684,0.13759977865771017,-0.10486760748517697,0.42300651948517887,-0.6718733886874088,-0.30052150678015155,0.2683796796969989,-0.6313739181052368,0.08950471569964676,0.1393558815406042,-0.02540675385638342,0.6795769056853963,0.2906172186084527,0.4256916706927728,0.07567297193603138,-0.8783485683019548,-0.3694310489308395,0.4348702069862857,-0.4541703700144735,0.07426783578483898,0.26941517499660383,0.2559483532236104,-0.14028296976707244,0.35288326572939965,0.4547370388168171,0.1212557198384834,0.15685006493504164,-0.4462120266177057,0.5938586856439518,0.12723295101025184,-0.1072318223505045,-0.3188007642757611,0.46801427033910836,-0.2204905439965983,0.2488570053781026,0.23339077366026548,-0.15168660756069952,0.5242340919486029,-0.19189930987650758,-0.6167862931901973,-0.6656237705295204,-0.33623048161486757,0.5360529383943053,0.44161887194536514,-0.8396416316678105,0.19352333752857193,-0.10489296800235508,-0.6511729797376651,0.5414499825119554,0.43085413314154625,0.7423876576577341,-0.3043023021284538,-0.5925338762581733,0.16794969208647315,-0.29641440570111466,-0.25613699374841487,0.12967779803865007,0.43694299082505483,-0.15856522194012393,-0.1796846953587575,0.37191291672721766,0.392070258019283,-0.6133915704384645,0.019204265394099407,-0.15485185623440215,0.7730862106757492,0.47804099216614493,0.3655444808594034,0.15885535446686583,-0.05890572041275625,0.17163441400737614,0.1535635851989002,0.4954736576967839,-0.21621410313857933,-0.24810377576103204,1.05608618808648,0.7861144224050108,0.1500700108866638,0.28017622410250004,-0.29784351504146006,0.5517355396854825,0.39016322837237094,-0.24203063890025128,0.019185362253457593,-0.11598737381758512,0.08021905823300775,0.043677183224403934,-0.06078529352203489,-0.15417575241518305,-0.11408755469676962,0.623074476728655,-0.3138007002543255,-0.09102062748995596,0.21622329157493023,0.05665977289133315,0.0933090658817984,0.17382871349249782,-0.7970730505319893
t,0.522861333089439,0.11071053138167505,0.7048802568279359,-0.3635605678744117,0.27852133772777987,-0.5405122870085981,0.29334588911824544,0.1885819817255072,0.06452963362517405,-0.023332355072084608,-0.133897786459458,0.05976784560544342,0.3080825720493902,-0.13221690736110714,0.12794211995160618,-0.05171497533774654,-0.0879271784088141,-0.3033150191179605,-0.14434895126193292,-0.11459685897098643,0.36277963989793155,-0.005052822970508351,0.2737117964131461,-0.0612425489613544,0.2837394668801803,-0.5555036665126755,-0.6702924358754949,-0.3488219982268671,-0.42664432064577723,0.10448996171928375,0.09060371325945764,-0.11521793768988937,0.5032402043755467,-0.12168288512279166,0.3220547274015332,0.03743225712336339,0.09696958062165102,-0.11971752973827307,0.48055814698025345,-0.3036769735900412,0.19791972072783376,0.1287738233640204,0.126688974058845,0.02088729846046077,-0.04081666854421218,0.19565749847586236,-1.1468154320731694,-0.20143302038518762,-0.05632673868296272,-0.2289597237924509,-0.19302825192868078,-0.2459617522023989,-0.2562213693724741,-0.025084852930821543,0.021944584641283026,0.09658315780112392,-0.04397724858811302,-0.12059835317656649,-0.06114657248150019,0.3546394141704632,0.37978204842074786,0.06374485354939716,0.4239281574053572,-0.21390806460474565,0.542756609043968,0.19853933396808351,0.032952308000508496,0.8239078205363355,0.5719054625763816,-0.5337341593390696,-0.1638113257341628,0.4145069681090115,-0.45552164167722514,-0.28792945314009666,-0.07470674030077246,-0.280942306859792,-0.07903958751493162,-0.53556386674896,0.2725594964519689,0.4319910276754613,0.5529996644789286,-0.04654342471866101,-0.44314055423520204,0.689807036583995,-0.1572944215109152,-0.16592673287634,-0.4306994014973988,-0.20357546277915972,-0.22237446949704312,-0.18957960013417618,0.5631186400828458,0.038927579757539195,-0.34700777476709854,0.5805296775823159,0.11912772927970101,-0.03252860658808448,0.06413694071068898,-0.18806332783047938,-0.38490278371856695,-0.350629536996485,0.36071023238635264,-0.17563022951943277,0.11572618926402244,0.19711194248445094,-0.5540023170682237,0.3037280523970549,0.04714064066396652,-0.2570325823136513,0.04452966005492152,0.08879607679315345,0.7881121511055722,-0.1513931056569674,0.7748083410572291,-0.249239709666616,0.11643055858392405,-0.05328533134155164,-0.31228837078169946,0.007979558958329417,-0.12715456748677464,0.05128992129267885,-0.20462756698372608,-0.40350472017728406,0.46359269932498487,0.1122858998220051,0.06728450245808011,-0.7256802532350445,0.4140680935701454,0.2695176308683608,0.011188875791961548,0.17379393391666462,0.4878549275348212,0.23204549043175746,0.009243059960971118,-0.012711493925960507,0.13353753934847273,0.20674471252369106,-0.156601621252436,-0.5913839725858334,0.43053311032892405,-0.19331177923467432,0.4700339270471872,-0.022070737450545046,0.8119435141860498,-0.21980779060827474,0.36668089473508225,0.21839080830202198,0.2917746948001593,-0.27613787950642155,0.036452754069279295,-0.3382221306205713,-0.19400592380008733,0.14113719661999163,0.2171391246592128,-0.3369072240961272,0.03237885977175028,-0.056343727110138214,-0.11618249126092879,-0.30179828011318394,0.2691378199013999,-0.14511117355951422,0.26258519126340635,-0.6276874281574543,-0.1451812201974696,0.03123818410302812,-0.1977712734986821,-0.34820848251038,-0.04728154543036674,-0.12631403263154212,0.04603498918919213,0.1475649633369703,0.19598944365442045,-0.29818366242265987,0.3751159616581388,0.5464961112394896,-0.12513348136520433,0.11744178102226573,0.5276423736117433,0.26249588019183634,0.24830126737539307,-0.27466535605316333,-0.756272899404307,0.4905193069651384,-0.5794638460829593,-0.06734424552660513,0.03288882702345614,0.3761754689976307,0.27441918752339867,-0.5467017323416393,-0.15939859797144246,-0.11568789619663111,0.48136614009925,-0.4168709589101249,0.2861818856895677,0.3644499434487273,-0.21621352005732375,0.016680994236629786,-0.16937103361097902,-0.27305091688659616,-0.09617348481298393,0.09560086713207035,-0.3701378464670758,0.22557112208659272,0.24954055073635814,-0.6288223517325818,0.38357105451537266,-0.6592921224561066,0.30213656636279806,0.11075821353539443,0.21342516476674656,-0.8909700786685405,0.1383522076758239,0.26015557363192227,0.31546438239368346,-0.21575170772711255,0.23014776706658902,0.005117111156111613,0.21523912259521058,0.4808846065305281,0.03521199030933865,0.517483645507748,0.010569758104230255,-0.2066557021287294,-0.06818912791041067,0.6288561002791263,-0.236429394084532,0.39695407297510366,-0.054509668694446796,-0.17828977404701882,-0.3868625889510311,-0.44872298135461663,0.6515118891400945,0.0579553670001241,-0.16005605780574902,-0.39198845845680874,-0.40910654697460497,0.4148764961924453,0.06353335703966366,-0.10937537602719222,0.30945387362638077,0.19572908758287502,-0.37378611158936476,-0.13793979777714718,-0.4727714235196722,-0.6848876362882871,-0.33018556739218446,0.29153183559870455,0.17098690253945684,-0.27797017203958185,-0.4117820813684087,-0.05744863978027519,0.12580528365346416,0.3907670811776846,0.41436029365134724,-0.10754852669730398,-0.18945740042918793,-0.30319158054936346,0.25236627254801924,0.42325116024883375,0.028176283620891678,-0.3666218036628319,-0.2818050900210777,-0.2249053646838733,0.5106196445023788,0.6864607721553545,-0.3122397001037722,0.24123968890448194,-0.23862966579019335,-0.23160177721928113,0.4642059843200649,-0.04975783045962089,0.22125693837731222,-0.3942394210699918,-0.10732797698249186,-0.0439520270057674,0.2743864586697182,0.06538042034201766,0.012676907371679796,-0.7115114177100658,0.04500427332297114,-0.36358420066047265,-0.12736901872096118,-0.3732061151562225,0.3974847330290873,0.34241933968109645,0.254118588065223,0.24022754525508183,0.6243785243624692,-0.46391093938079975,-0.3536439952544054,0.24725676718612927,-0.05188445495857947,-0.25118845911586585,0.3092021453451501,0.3973452926246399,-0.022095922853431257,0.11821866740848037,0.08928182489509955,0.07985570602897633,0.05890863729494485,-0.17338229372356737,-0.5400082686587522,-0.5157159675215381,0.3460111869002268,0.7078212179394517,-0.15511987430549487,-0.31705387604651164,0.3093585198210384,-1.0282781359118125,0.1369655746045699,0.07054409877822625,0.05999330721860767,-0.6281966809497784,-0.0398710744600347,-0.2725334441808117,0.8026053395187683,-0.054983603206093884,-0.5799636574661747,0.5296948935715892,-0.06397382410959852,-0.38719198195433036,-0.2654808646297099,0.05116613419061201,0.276627830016803,-0.32527874550002256,0.2871546177411971,-0.03903218474182793,0.27044236581366005,0.3599190467770469,-0.546882820851637,-0.15248671157554805,-0.36128357538647626,0.08679097124581049,0.05591530689718066,-0.1239680491769884,-0.05701140016758404,0.9034839110815126,-0.2397387533412994,-0.26690848971640263,0.22843702410350802,-0.2845920418244495,-0.11646743501386307,-0.8329688967435581,-0.8985544239669869,-0.41209204671445454,-0.23427107352699472,-0.4588321759531629,0.16996483031332407,0.13177115087841165,-0.28757296454683395,0.29767881937297996,-0.40782322832294976,-0.4622417383488275,0.0656870646279368,0.3739667359685675,0.20340872330444335,0.2262593938598716,0.13040799150090052,-0.13169411874530568,0.01752093086715272,0.0052012924318640295,0.1938654364278242,0.2649190777080236,0.16919795072354377,0.21044698189255856,-0.2799787850791489,0.19517667753753146,0.4296105884793893,0.01593298551532148,-0.04223131331993863,-0.09060313021862465,0.37212546589708323,-0.08277250836490936,0.3145397736314924,-0.07190916390177876,0.15292182429950565,-0.06786070487442586,0.15462218550631998,0.8457057424917571,-0.42087683531298825,0.04569404656679129,0.17372440151108606,-0.33953264567148556,0.07825957399031602,0.14258334885486937,0.2085618290068012,-0.2792414001040569,-0.18482718162099843,0.1557420819313313,0.4686315234287985,-0.06790753993201257,-0.20716955355701208,-0.16536562394821563,-0.1340305121863836,-0.23674557254635778,-0.08952797786276996,0.6549751376123606,-0.2284431407202247,-0.16849619603669644,-0.03471839955110242,0.6918018857992053,0.2963772724389632,0.0590870450732935,-0.18376300527120054,0.12395683165810581,0.2256468591587929,-0.07741061826811907,0.425706707137588,0.13098745977305315,0.113725320867281,0.6598647493807388,0.5832131036207209,-0.10328925813434525,-0.33495607645251696,-0.2353522974198477,0.05343202363500409,-0.40574656599353365,-0.06658001232934965,-0.603927601661451,-0.2782627637022363,-0.2414740074199634,0.5577592320239414,0.7230266525656378,0.07455907210634659,-0.13496424406536703,-0.0335286574274517,0.24322607561676862,-0.5579763143181576,-0.1457035580660673,-0.12352705421396702,-0.024708425951349824,-0.7433588005395171,-0.0251897681180734,-0.012343383216804176,-0.2790298879744958,-0.323582254242772,0.008965498215164649,-0.30567170895203555,0.13381526596655216,-0.0886608256279398,0.15481132664536143,0.7896970589251103,-0.30194767846092446,0.22534678400405916,-0.3555752465356093,0.11184965271969675,0.4974068824477528,0.25673075599485023,0.4780544050462939,0.17675504757487384,-0.07843299942937292,0.305299496658229,-0.3900954070946147,-0.3893037510944506,0.3302621009408749,-0.641447713808797,0.1282405771272107,-0.6058624794320568,0.3361738124643919,0.7314832749445004,-0.09012850365950573,-0.4611488853400404,-0.14895605408657817,0.2378837334835185,-0.37312504964035725,-0.4122024706408342,0.0641419246759649,-0.40080358469576927,-0.20943288751526007,-0.7416052167729388,0.18128756129769052,-0.09560842411915942,0.17828020214727874,-0.48941326585160677,0.05678997863363553,0.026508501381124962,-0.3784002751000913,0.2847957690975312,0.21210314969215513,0.6918800860369382,0.2355243854009689,0.31910744391316176,-0.13583686384629215,-0.16822644263060862,0.15762149042697962,-0.47997632089946707,0.06934648932847431,-0.1971207185936808,-0.1864803655763217,-0.22316027546238787,0.10302361538408235,0.06844481350105566,0.4240283441377302,0.06482546290115787,0.16167410626162704,0.1241637212291226,0.10402125812456307,-0.06825694259695742,-0.01205179343965346,0.27894226349546847,-0.40846081903772896,0.27332531206168637,-0.253363616680236,0.2249684997817775,-0.3884046350780116,0.11059937730080631,0.1359481440964122,-0.07684120531870606,-0.3887203596694223,0.4184310528788857,0.28438525809042187,-1.0420420904819072,0.030585448018567055,0.4395629686076331,0.2690440622095262,0.1532877363208557,0.41239979386971704,0.6608837380680632,0.07627135338970431,-0.19384905854907075,0.12136269577551773,-0.0648880445487222,0.03235281936958599,-0.10426955836966859,-0.4011851505132513,0.13096975698269378,-0.6430057872112491,-0.3989190581465541,0.8503396100359129,-0.01747222699289772,-0.15927680717689147,-0.11216336051464519,-0.12720147669654808,-0.1682019479947745,-0.045544199762269866,-0.07316216028411894,0.065590249081294,-0.26413584137185064,-0.2612564772603234,0.3640362474186782,-0.36084967647068683,-0.05972330658165206,-0.3473545730133262,0.3681043004174973,-0.5245525887842057,-0.38320889136245934,-0.03710378778636763,0.373290817026738,-0.30446215732521925,0.15264187473995713,0.4743590293164328,0.03450601420033484,-0.189210904402852,-0.2737411382900386,0.635776377730253,0.09518879509300356,-0.12635810575577755,0.14803429326274128,-0.2343830473735777,0.08848971169948722,-0.16018841123072333,-0.409327879581938,0.0042065339692556655,0.323875433329467,-0.06677706818724315,-0.294494796419775,-0.16876780286513499,0.20072716177151945,-0.04593647245653354,-0.17895392995792753,-0.15388190050757458,0.22670647223478538,-0.36758154689409167,-0.25053584109929933,-0.1930703438053684,-0.6390354650244013,0.16855859390619476,-0.11304423491698434,0.414354088056531,-0.3557018533963426,-0.17649336652490402,-0.0742015282935323,0.02415313142967464,-0.6259582773134763,-0.2936851498345366,-0.08475378771312292,-0.494146831679129,0.18768966499936543,0.3363873460708,-0.03656147422792504,0.32503003949850473,-0.07719332464581297,-0.2321765960024544,0.2493409722584134,0.2906530397756868,0.22642965076806024,0.14446689945642466,-0.13468021032492447,0.31245230357543796,-0.15063696828563963,-0.012953790976080954,0.19178018597805968,0.35121534240695773,0.6481809244836035,0.23551478119673194,-0.04603666924790769,-0.19773801680019465,-0.235559304650928,0.5204776596892925,-0.4766215020641648,0.1144366644993014,-0.6541582251284516,0.0699149460288084,-0.22201456816912654,0.8373326397546118,-0.7049608476364893,-0.19833620221293582,-0.02026548730462366,0.5486554566014937,0.20113215495924378,0.12890490946129085,-0.02087889726385943,-0.07469260817556819,0.592097783363035,-0.3786106597495091,0.33151113302329827,-0.1653440374837011,-0.49608695207938797,-0.5216525513930957,0.3136138816911844,0.2401229465891163,0.06630867150235153,0.4039888340497544,-0.2765872111544922,0.15325035588901312,-0.03806177770874413,-0.07881409224749578,0.3863317969670438,-0.03113974191210881,-0.1720930473584932,-0.2524809829022601,0.8968983504249536,-0.5511741692734612,0.33998308855681175,0.22016781106650726,0.1638443537969929,0.42494192213017756,-0.09747696897964751,0.03795498842543725,0.7197067021465392,0.031236423938235457,-0.1479204231890313,-0.03114465531316364,-0.3473138635921992,-0.4022409851919734,-0.31168640121883956,0.5128807445308545,0.30988635351361826,0.17866428492668096,-0.38161432550177676,-0.40163723667927576,0.051694959175077264,-0.1003230041239411,0.43344579976972064,-0.4965356196544672,0.17331871903730442,0.6273327220986723,0.04661426026880807,-0.16126870092501847,-0.19550026122163214,0.18378049781954706,0.7968305073629605,0.4592722375706339,0.09151715200348111,-0.1949961490769255,-0.0633803441437513,0.11005404389902676,0.2506989834862584,0.11971364553152551,0.2601806963991041,-0.27692227919832946,-0.15159617459927727,-0.1576684660009646,-0.42540151143264554,-0.08732925747818593,-0.25434142457249537,-0.2978413132341934,0.08587877810938249,-0.02657736744015362,-0.45549296665107286,-0.08918543599282874,-0.31169945742126504,0.31698926535409705,0.00823196265723105,0.2811141288892908,-0.08126666181438974,-0.24299187213495999,-0.20490367302319143,0.1418473882270355,-0.055773535383134114,0.10060030257989772,0.14246604841596955,0.13617135478487588,-0.29265501690582674,-0.06520795013906432,-0.4042177660840386,0.17327541113571443,-0.3410845692578337,0.30448425135546114,-0.2691171136030394,-0.17964793780530625,0.14942414846912241,-0.33634623447632134,-0.1347669930312711,-0.24802240247474647,0.6242254577704383,-0.3782414199397539,0.36351609593832324,0.1870302172226021,0.5918317451104173,-0.24992822829525768,0.13580674749749175,0.3767566975455868,0.3651826676724527,0.3460981466632124,-0.12502255065544882,-0.06976068531906048,0.15261236827211933,-0.208631528030365,0.12663487075291968,-0.23533911624281012,-0.0066032227067812825,0.19214243681854148,-0.03866644334992401,-0.021888501399480273,0.050141382642446795,0.2546096082788634,-0.12746768080676235,-0.30794043105441055,-0.10138589354531898,0.13634452912234205,-0.36369920961913343,0.061823476602005975,0.5153917232849474,0.36066535722489373,-0.12857415792307292,-0.33144529682858265,0.05128042131324747,-0.07516732557944882,-0.5969553163608929,0.061515408791089146,-0.0727541299014444,0.009741803789855431,-0.17067906072835964,0.006659361628634534,0.09659670961372864,0.028342051843529375,-0.02997506638627887,0.10295071523296302,-0.1273501933941699,-0.11079944348544521,0.032035713382214975,-0.32822781379588445,0.40409111812942444,-0.28603513763215094,0.3301652329914186,0.26166118342632716,0.33725365349338177,0.18685174034524654
pola,0.16924533835964845,-0.19534683977784545,-0.20177263515937024,0.2592112334039759,0.028387250740325845,0.5271899065253642,0.3143811584129686,-0.38303962525914603,0.15582869742023758,0.21053527042972828,0.16880727950007002,0.3789907000166916,-0.020837288344942702,0.29188535475676824,-0.24530916124023058,-0.21624965756244768,-0.41720001053492484,0.21918095407083568,0.23685261624593787,0.05590731142064747,-0.5372257666402858,0.07287330675099858,0.05513737472489316,-0.1883340980700378,0.03880268765610378,0.05291549478248225,0.2980068779812731,0.23200664033206791,-0.10954918133375578,0.09892473855393143,0.13282741116654576,-0.007744030409616936,0.20713573543566152,-0.3953488314596432,0.20079948723102112,0.0683272151933788,-0.002327211870066674,-0.02350865955823313,-0.27142306880872713,0.21830606592226268,-0.08493017463308741,0.05142377982526687,0.02432996177938912,0.3022253374992013,0.004948851555140843,-0.17652157595349466,-0.23247437406858681,0.0333052096546547,0.048125813521106536,0.2269948970863512,0.33054734156694876,0.25811889271125266,-0.18762285619290361,0.1490896159800271,0.22985102556609444,-0.16305853809505275,0.6848258843201961,-0.04471660465561007,-0.07578278205974323,0.00625039761607364,-0.732750721891891,0.062004070608867146,-0.2853404747761005,-0.42590877160333046,0.12781668581558675,-0.16414634866648198,0.021697194897392122,0.0004144342680740296,-0.23846236851313346,0.040762320192153714,0.3179492784217235,0.22315131299458973,-0.13112815177985096,0.6148048151704542,0.17554396897343993,0.05216292226837602,-0.049849993665288174,0.04446589955059318,-0.4609763583968276,0.17091414086065293,-0.012968635384601152,0.03541741504565513,0.1272765779333631,-0.10482850376474337,0.054643940480806875,0.1875318088732498,0.16947388482837059,-0.4335883580033847,0.5156715075591981,-0.11926732674308627,-0.054042593827613145,-0.16451706799999985,-0.23933042242820998,-0.33587595233085976,0.02397337129958217,0.17976875429069275,-0.15023708444416042,0.48125784111761527,-0.06233348765065093,0.07078323382352401,0.13172627827776817,-0.18110071747338763,-0.08306254606859949,0.14227593844487196,-0.007165503768872308,0.034326080127649455,-0.0598746187287872,-0.10273525678378786,-0.09816347002333062,0.024194485472200482,-0.1517213204348455,0.26391736420260264,0.20795689561630382,0.2736067591523064,-0.1384404763577445,-0.11906128418961485,0.2144187219598564,0.15088228813535742,0.1062209894677025,0.18512848581793698,0.2517159072996921,-0.19885957455747474,-0.05102349692910106,-0.01934739434762623,0.27269919147382227,0.16441932059765937,0.38759498271959225,-0.033790707219208425,-0.15524660304245255,-0.3196553775545452,0.052278483415267994,0.0002829983354485388,-0.22478404254593862,-0.22846332211171103,0.22301378698172739,0.18041244772849113,-0.055118696543289256,0.49429998130608543,0.2263852573524075,0.07999611683976308,-0.20399300906686413,0.0669885559173645,0.2559839272523906,-0.2557596230613023,0.2766293886190738,0.1695325718687798,0.46738642796784746,0.3116542177580486,-0.32931152582169704,0.4922116469817735,-0.07345342954970578,-0.11422790895090018,0.1992745379653433,-0.1556946189841142,0.2825258855151553,0.21543709180673018,0.05874891530978739,-0.19695388273495598,-0.35740840626336623,0.13071645164903936,0.22079665242645313,0.33856298394763884,-0.46371061880216097,-0.15699079203644456,0.528629317072791,-0.09817703197208764,-0.2527353017125366,-0.13036014592822553,-0.33735446450689294,0.23899149980352033,0.4387708102528183,0.046758831119837536,0.10725776909327242,-0.23771216695032596,0.4177667838976332,0.43218081076146164,-0.07727191061804539,0.14184517694537438,0.16302131105918152,0.14161893541121792,-0.056236707157891065,-0.05467136107436505,0.02924702166299257,0.11797429562407906,-0.3434698435676332,-0.1695509316846358,-0.0038494851345630054,-0.010216910506564095,-0.02804565159653925,-0.34877002475165414,-0.19263633350626727,0.11195082685298541,-0.27964340348351996,-0.02325041477065089,-0.1872687309258664,-0.4132431522415293,-0.22189600537088658,0.3917251902488976,-0.14656330352279445,0.4914156604070387,0.16493229366288112,-0.009339689631291847,0.2939280506116035,-0.28345908815918214,-0.18899880026051,0.19081331022618447,-0.12816242207541093,0.29177851511413705,0.1239006411547235,0.020469788006377294,0.5304290272561181,-0.12380388756201705,-0.1015952403039819,-0.35065395213441414,0.21219651957769178,0.0228291195481749,-0.15415912394760234,0.1621803976521099,-0.03411023880495685,-0.09035253464944511,0.07187945372163639,0.2626805994342245,-0.0006898110129749988,0.03342887355807881,0.1766915944212977,-0.24883995018345437,-0.2932946520186926,-0.36807959710346766,0.19095054961570718,0.36216396805969225,0.07395740166396066,0.1981752867164,-0.1656301481491503,-0.13696732767574596,0.018112254046790014,-0.3100055411547769,0.06261564056181561,-0.08787471695560448,0.1138942082120838,0.006882631397228243,0.11348295683963504,0.2714688287373429,0.11861710047391684,0.5260021099537854,-0.43375953399646444,-0.46704317106092563,-0.2247746091093606,0.480514578552268,-0.2197173742953449,0.08955425005702579,0.08350335219796706,0.19067719813027512,-0.13581256018744206,-0.008682908978606992,-0.2021895230261287,0.04271563836061445,-0.3281355872439082,0.1574056075505731,-0.4809420000853752,0.006928458056495401,-0.309428949880106,-0.14678530002204243,-0.41103991153197567,-0.1860382716087687,-0.38099330364831363,-0.22709167594115087,0.1740566430166739,-0.06438057455152077,0.2813298059961049,-0.09266784990702344,0.1455025930626245,0.24977723909777133,-0.2004429572367679,-0.1916008541899635,-0.15174893059466896,-0.20648938837068415,0.23188739827476001,0.20264359889626096,-0.008382056740726453,0.006250840233545684,-0.2541483997773216,-0.433222418651475,0.4059843046436888,-0.46154032511563126,-0.07422718013321311,-0.37144017936739443,-0.360278552735748,0.14534739092547821,0.03376134718592041,0.19590777120476358,0.23644907057171055,0.002849213387150202,0.12479544928109937,-0.25047611623950905,0.3322394165263451,-0.14981153877416045,0.32555662682556685,0.16508905151849884,0.10290386312694572,0.5217654437450451,0.24927701311219336,0.4047837553706177,0.02294492889253384,0.21279512865129183,0.03045217490844923,0.2784045826062702,-0.2731980706791311,0.17690722813628004,-0.3003357937588393,0.1170855063215041,-0.05108081764639108,-0.316836943571206,-0.27186331368610234,0.0729818626598382,0.4403693125405002,-0.19277093383855484,0.2649688091239873,-0.20350284953027456,0.2808090824690868,0.0738564891237883,-0.24313756743501258,0.07132189958970829,0.024150535417520033,0.24708689346828083,-0.15670327852155064,-0.45088611542559165,-0.0815679976797049,-0.23256824372960377,-0.05539718267043994,0.009873724492015871,-0.5062217358418198,0.3745587632332567,-0.14783539243106306,-0.07849136221631897,0.08094572052741378,-0.23836810786111942,-0.22372569962783828,-0.33003110954526915,0.28178098364606946,0.33332056621746997,-0.21390009246017988,-0.11073338840057993,-0.23307765235563055,-0.1447123757337683,-0.2401558028142487,0.17068647048858812,-0.3196754197807603,-0.38129727920924716,-0.15848008054168392,0.2783229081871453,-0.19712726364398764,0.20466333409673232,-0.4828585104281467,-0.06368031187738062,0.13644556108010014,-0.0715174139326779,-0.14015566819316774,0.011804800911167796,0.09479767648877342,0.33259392878528443,0.4240185484547329,-0.17988250265074135,-0.06352198050333732,-0.03235556172262216,0.3504195444380649,-0.23570559199063532,-0.03193901899871633,-0.1849261069456258,0.04830183172766542,-0.21845333507314063,-0.11974919091706789,-0.7072857231950768,0.0611483669493907,-0.04104693534917174,0.10321062218867182,0.10926245142731036,0.25308506504769457,0.07079908064698019,-0.017360116444840205,0.16923706498683122,-0.22177529248441036,-0.016059446496136987,0.013257534168438364,0.07075487067833512,-0.0279969809540624,-0.2447842262762793,0.1946959656323032,0.4618159465823629,-0.02896340454473645,0.02705435299837299,-0.2689197814447767,-0.1895887845420464,0.04498360628504047,-0.13843101587787243,-0.31934288496135343,-0.2280967542550208,-0.029879944981385752,-0.4356889201957196,-0.08517307227201157,-0.4815377586909815,-0.18801000540262264,0.2842282525293854,0.46916703355782186,-0.16771447984055984,0.13007687163548146,-0.31379647322400556,-0.2997838157915697,-0.35544652760774,0.19171206959686699,-0.7644909478578901,-0.053424821758484994,-0.2092819080250905,-0.0733682927671923,-0.05817967373017316,0.06270493617313704,0.08826578432228532,-0.2655682675929213,-0.0909682013618344,0.5871408549344375,-0.020658697320074648,-0.18395042167717943,-0.2658075604977757,-0.10380336060274085,-0.2283404109625062,-0.11689651682565447,0.1272062570078752,0.10247136385720365,-0.3450099849740408,-0.12790906650972111,0.19990192151897168,-0.0618247221910654,-0.11634006974790574,-0.04524606110779424,0.005247910406741608,0.29832316343754645,-0.03032065702016957,-0.08499602349755186,0.038957195298288054,0.025665359551562437,-0.17841900925345855,0.354676848620468,0.4790547848223099,0.1961810640480137,-0.08893513165122241,-0.2146937724950391,-0.14122219526689622,-0.2844050154319739,-0.19561654065676126,-0.4340178514074185,-0.14221911972866286,-0.12224738604509754,0.1907862426759791,0.3489051988378207,-0.13753236066047206,-0.3346637637609294,0.20897600323559226,0.3946117587291987,-0.08450508420061263,-0.24292174026437532,0.01723374275171831,0.04884646744644888,-0.17614217145395658,0.03382755238666656,-0.12951595028268598,-0.224639633378143,-0.009579991996858588,0.25912940199995455,0.10699390535730971,0.09148816613815566,0.028725555384805722,-0.38741537117828423,-0.05484305642631128,-0.24906502636402497,0.13725760225602562,0.08447209936312867,-0.0007707611232611878,0.044435422284340595,0.19710509589228006,-0.112200443652911,-0.2506810333795835,0.4336012140355937,-0.023109342368300412,0.07572826956498135,0.6100658624152202,0.38019021926151353,-0.0565781924442183,0.27051691918065063,-0.47845802325291475,-0.1962172873269995,-0.18440016027832876,-0.07015205894932972,-0.005466667507787626,0.219971538937287,0.4542035037841682,0.15714705204374296,0.21101142646223395,-0.039177079153529436,-0.023671818541568405,0.11524592473865836,0.2457214328649708,-0.01219837387183912,0.12645335769607605,-0.05297122357320955,-0.11753508919290948,0.1279726062026018,0.055323012228753535,0.0445293842065718,-0.308499612801642,-0.20479457780823,-0.24349707732063322,-0.2613523485113645,0.05325264432481179,0.22045425642879807,-0.16652866976972136,0.20099146570250276,-0.14480129544217366,0.32897192186899,0.0830332686557604,-0.030909380519486225,-0.08605823803029518,-0.23428544843810442,-0.12024549653815816,0.1776534398739087,0.02470998811426244,-0.2612661241493157,-0.19088826139049514,0.050105811742700145,-0.44792819376915954,0.20285863118458747,-0.07742186789711437,0.22403517218176286,0.18394940708991345,0.08330448310938848,0.019956071710586654,-0.2953755350495535,-0.1586492533899934,0.05702901290315476,0.47795085989714436,-0.04734439962333089,-0.33170484757366625,0.2289108836782453,0.3453876782798553,-0.08370577334049469,-0.08904301791727703,-0.17754240145150688,0.19826205393412988,-0.3189372943738604,0.11416835280724857,0.2087661442322207,-0.13654326370960285,-0.019648358465584114,-0.35404933439524344,-0.023890062672254294,0.03335210270012532,-0.48777026187287253,0.3206570326198884,-0.022088053904084345,0.09803808581815136,0.19109713372508944,0.10720732723814141,-0.03406368858749784,0.035165049819750514,0.17555182073410108,0.31883288660714065,-0.08172017884196414,0.029016063407138512,0.2787354385944935,0.06732327074026156,-0.23301461030533238,0.3414728647689589,0.40172943818221934,-0.29678949828435525,-0.0367661946955291,0.06446170924646677,0.26851650561936863,-0.017295049528266212,0.0826880348504095,-0.41441036148420707,0.021021675847173352,0.00025573693013881927,0.015320280384835126,0.2659821238876499,-0.09028804696960283,-0.28901013280715526,0.3219579573741097,-0.0544022422805837,-0.02244000055124602,0.052448250732672265,0.18222493961378328,-0.02264906090127071,0.05161101576565062,0.3684597794498816,-0.19386275037241002,0.011223496477265,0.023838576130094644,-0.1523606999474029,0.060144192147751956,-0.30020647770879827,0.45495825690877373,0.006108132240979069,-0.03245232355143947,0.21183225547735135,0.0757674179010044,-0.24522764549537224,0.2625128140629299,-0.28201018586002846,0.1301877844723269,0.0899948026989199,0.18644789491636674,0.25479106872316276,-0.16125649575543513,0.19525788706083874,0.02365244835717545,0.06416284633479818,0.24386023159454712,0.09752592750786726,-0.0510489249661743,0.04966178166132803,0.11480613903921356,0.1673828963717802,0.09531063616576406,-0.02764631577712287,0.13766603058617669,-0.12702359007699274,0.13670901176453681,0.20610151793798231,0.024605979940740225,-0.3572299840211242,-0.2759817858378557,-0.08069738506660784,0.12829832414446604,-0.031736521242934204,0.4333434739158188,-0.32231063623170686,-0.22700415446354819,-0.0014237738126910784,-0.06470250504840928,0.27140316602243486,-0.2950705073514474,-0.07543230640585384,0.05684726695431423,0.16102871561375942,-0.3874368864100332,0.07606871246837169,0.049697268910619735,0.02102879521534224,-0.23087622305451538,0.1356093429688621,0.322605106221243,0.1582266311655785,0.5554768716001067,-0.0765967035002473,-0.1776831268537224,-0.1823480304660336,-0.02331668525948478,0.11312175284085804,-0.39576664197095385,0.4278622132894231,0.010805331978105728,0.05585091260511104,-0.2648937971405263,0.046827195054026535,0.20876972936474258,0.06324416519319098,0.14400771136058954,-0.1562060337789634,-0.18309837623443312,0.14795979068397924,-0.27459217444317097,-0.41422802009661686,0.2205376217117104,0.050968087872160193,-0.17013171347681855,-0.05122048339081006,-0.1323565248939051,0.16677649991281346,0.09602861199424496,-0.01805109097175257,-0.07702474634930587,-0.28037101745053084,-0.04275608406189648,-0.17981608790402873,0.017983533866429677,-0.4488102826587154,-0.04977043872243687,0.3641032650917007,-0.3252074661377968,-0.22342006258465216,0.2554448347682936,-0.023774433340737672,-0.2003145062718352,0.06373719508970786,0.002094203966540102,-0.1531511022912111,-0.10096823486106044,0.2939511150341192,0.20892291659036927,-0.2411668712244031,0.054189885444848734,-0.22720963577192024,-0.014506975084543228,0.307439776773104,-0.155280831808159,0.13930688425477522,0.11997122759544382,-0.04919239894152997,-0.13796146398545092,-0.07235748092870535,-0.005907687169854104,0.24369479792510865,0.07267312249298348,0.2821927209205325,0.1412200626812854,-0.10506403441787346,0.2299322141629329,0.07250686788748917,0.3139910341177219,0.29001226332866786,-0.14257399406153418,-0.3651086877532169,-0.22910371963306256,-0.31923697186468397,-0.07227473696560378,-0.18221279914740326,-0.24240634669077832,0.2608159914580033,0.02107406156931914,-0.0881241721741744,0.27967005842555837,0.051769252522099796,0.1786922755256138,-0.3473441345374536,0.20085133166888214,-0.4154209241113505,-0.3478227665667155,-0.08557982184252735,0.2348941193775541,0.22707429410205704,0.13535588502782595,-0.11960177015163263,0.0024307292771698734,-0.14750257683900297,0.18924443716619718,-0.434274129923468,0.3942637528087744,-0.22328077619303,-0.13775277308135916,0.39686911110273765,0.23568863714349253,-0.14090638235034356,0.05274588159038235,-0.3430983826175568,0.332150185299731,-0.4016390945656299,0.15635788078266846,0.05700397924959004,-0.31654391153606004,0.22460420368420617,0.1826808050473095,0.007416866284722322,-0.10095191133382743,0.006449650859723873,-0.10102819018000488,0.03772464134923276,0.09666093945217082,-0.36652857846791403,-0.12820652024804552,-0.08905554123650467
factua,-0.22470528433395787,0.32976341315127294,0.22642763087336773,-0.10462366525894196,-0.10623864985598114,-0.13685284413127868,-0.47927496218704724,0.04143915166270066,0.21680900428723054,-0.19736861523508809,0.3162487284267879,-0.1830414211948371,0.34974174762769733,-0.012534043621202242,-0.043358898277117135,0.7138373419738749,-0.5843988914252661,-0.1373715783750052,0.6017877051421475,-0.4056501023019699,-0.1640165446875112,-0.3651338894443204,0.356865022339627,-0.016403971492032772,-0.07048670214598274,-0.5243109185851701,0.41629673842129394,0.23583359524827713,0.24453575902865177,-0.0474400887824983,0.6312141083819646,-0.5364750941432548,0.1866083016387983,-0.3989097870306175,0.08812506363190203,-0.2877816024621935,-0.03152708912212841,0.1396375943040792,-0.35165638952656225,0.2564925930251335,-0.09345253088542606,-0.17513446864964133,0.6413726778097272,0.27512839356207647,0.11800112273616131,-0.07005298658038268,-0.361230391980606,0.6277383432210808,0.2800577115719063,0.014924905619748659,0.439090519669274,0.4024493533319025,-0.17903728696050802,-0.5019046911723548,-0.2632128826431277,-0.13210499169235085,0.16166107463199425,-0.332425145040784,0.2876167488292169,-0.08376744113862396,0.25911874899797777,-0.04679687421078353,-0.0990801950824584,-0.25925959413887373,-0.32824337646034213,0.34510945308797997,0.45479804698537146,-0.05400985993006356,0.265803692250569,0.1530628285101961,0.6516487525424594,-0.1954081892702302,-0.1853512492066513,-0.10675518103211566,-0.5232646484296174,0.21925938739157386,-0.2047614659200787,-0.07918124514774025,0.4669487637390075,0.05919621525250813,-0.29279208127251133,0.32241999674759386,0.48994253623677375,-0.2518716295129068,-0.12089625448565378,0.42518479246211566,0.7417085626030738,0.2553663164254651,0.3973690489308026,-0.17715013073891123,-0.2573710195350006,-0.5851908116651604,-0.1318952741027845,0.03581821344331327,-0.0780814434955206,0.7660866406436498,-0.2138214210881477,-0.04917947554088811,0.09826459155867848,0.028571877440084,-0.34991645280874234,-0.10651646747813184,0.43573104994979733,-0.166900257066603,-0.2631448078348665,0.27260024462161353,0.15333191880563565,-0.5218009806832852,0.15039473873165699,-0.3652533265136204,-0.28489847752731867,0.08325537887564696,0.6768659561357938,-0.16345625908977449,-0.8562067802630522,-0.06438177583811039,0.3550257813642419,-0.3015828036283508,-0.32968928656126095,0.0052374994858566054,0.3018784874841223,-0.2775420127304429,-0.0033289721491691366,-0.14262091709258695,0.3089336357685729,-0.5104989177829728,-0.4050914065997649,0.023434156198252742,-0.13235295172497932,-0.12208132921161141,0.18739006653864568,0.09472350142022824,0.32031471614108314,0.15740790999652984,-0.11815312359981471,-0.5577626421309724,-0.14776659975162407,0.06854229633247652,0.3489314067208757,0.5743950836340312,0.3484719369211336,0.14099379508156104,-0.20326221999301322,0.1956241370493481,-0.33241604883128356,0.5289993958308651,-0.47989791880512767,0.26681400222848717,-0.38235690076686407,0.2871431579424394,0.013123746863170473,0.035695059950867525,-0.5592969100990632,-0.6371294549801362,0.2169198810014573,-0.09357272466435262,0.47647659852040747,0.2122419160501179,0.3395975870092507,0.37097874158874666,-0.23647985973317312,0.12109124342973974,-0.26302120669933976,0.24521759883660235,-0.17906833128135133,0.5293798688131746,0.167159707008936,0.5657588477037545,-0.015855950800089797,0.3526552216633431,-0.164074660611558,0.44642622731711756,-0.3253665607255113,-0.18318116318029365,0.21733477428769568,-0.2718898095604803,0.2224875899696198,0.31795654254459027,0.3342963119113962,-0.1807010827069423,0.48851859250309543,-0.21656495279557272,-0.018748814304112012,-0.25265982065494896,-0.3861364153779291,-0.19631078501800084,0.221354169515783,0.10203791160852466,0.012813859384986314,0.2631000654927565,-0.09853129623797617,0.4753596233673636,0.2666975990925998,-0.19197602932921676,-0.07698011852624466,-0.2429382234744046,-0.005007156094805718,0.1165632947771451,0.03687093909875044,-0.18965260989552205,-0.47581602853777166,-0.1442586868729412,0.40263532923663636,-0.008222156153741092,0.11145638197049826,-0.07656568004406597,0.23368863830870978,-0.3408192729097617,-0.029794049362216517,-0.2235331465344836,-0.4501180233645423,0.17902259971177295,0.23030435277571848,0.07056766435338278,-0.11764501283410457,-0.5561789491266337,-0.14259952338698803,-0.28489356431560225,-0.06105183971882416,-0.2666617716419966,-0.27731498072639393,0.09003024902254589,0.08456913905946013,0.10498758769420592,0.02727404429112896,-0.8040577108818857,0.26972590441078986,-0.03314165587397969,-0.07473826960888968,-0.025711957696178706,-0.0235212749368379,-0.23009980227812601,-0.1916610024965796,-0.42359834203953933,-0.012368787035708479,-0.36669395576260305,-0.09742131123044728,-0.2406452624612833,0.11063992145863259,-0.007232819655580659,0.013311438135375333,0.7588537613249631,0.38153947957294576,-0.42668819243860195,-0.0757683499138239,0.48364390655757605,-0.033473066799608986,-0.3571310046426423,0.11952657053533512,0.4954421646710101,0.3111743743594294,-0.6344273622451436,0.135957533798574,-0.02651742121395875,0.6238041858987164,0.23616003160620547,-0.1436149546927472,-0.31357721256869314,0.10918049246074524,0.2026254959063507,0.10069443720433552,-0.3385582480499618,0.49362740023413426,-0.6400204190715352,-0.2000513467941333,0.20992510501824616,0.03330776943237257,0.05968511610414383,0.07381831918791908,0.7452772109509214,-0.21055702460250394,0.6257224592117206,0.0018492837901148253,0.35061688217834447,0.2385892134070402,0.21104774185460798,0.21464375439971922,-0.3462161378956113,-0.11841846661282532,-0.07242545226696492,0.01774293658473504,-0.058723833169619065,0.2399358186891684,-0.4884227879457069,0.4346359441742746,-0.06019021994891401,-0.5790813437899528,0.35468538930098165,-0.5431748450593656,-0.3618154768390514,-0.2055197876662334,-0.5549376250391337,-0.11823797988681589,0.10191819215796843,-0.17815516951289184,0.10076150195771963,-0.2749285548820144,-0.011667738551543563,0.14409012959069908,-0.46450655048481015,-0.24156426545812526,-0.11439544360962008,-0.2252780154891432,-0.20799973510678124,-0.685206409418495,-0.2693407919313952,-0.4992366275745405,0.5043546600801944,-0.08983262733256603,-0.33034450191918846,-0.0021510055099638256,0.06914390621626984,0.39279659990590704,0.046219868404711976,-0.03996790823399761,-0.028443727576967916,2.69715720783493e-06,-0.03345818137458245,0.12014698590844793,0.34890621385778575,0.08397180121544141,-0.05182092942265345,0.04231726561022619,-0.10657649229988096,0.3581305924625997,0.20654086842287087,0.08118385133739305,0.19806108243514617,-0.022923552971490124,0.06378992944601548,-0.5729431865080119,0.07316755941027454,0.0032148852954490435,-0.1085990360327506,-0.41928925542392675,-0.09808454510773469,0.5991921642439376,-0.04388937100471069,-0.19602355802249216,-0.08108143232875105,-0.6488724308528229,-0.04378060307928522,-0.033925473633432714,-0.05283510889499994,-0.07826759923353833,-0.25342977115061666,0.0046190388093663845,-0.10611405608356841,0.1071095742930566,-0.692482649588097,0.15452097742215407,-0.13484384409647404,0.42807508903886654,-0.019587758241948233,-0.27319027879869706,0.03647037656346938,-0.3429247383289839,0.148895539781628,0.2331336191767017,-0.1656577160925573,-0.1827379872985812,-0.5379181013433538,-0.34232831546567305,0.296566622935754,-0.08533431137024772,-0.512705081791187,0.0871686569845082,0.4866131839583705,0.30861176934359486,0.1358438366036846,0.02173080089316983,0.02757325969603673,0.8321386514209842,0.28561832416099014,-0.05172816581011013,-0.35018929048908765,-0.08684714643905875,0.28218882279377505,0.09144364902467485,0.08497003707487791,0.29557150517386876,-0.5378347837941587,0.38415324789928307,-0.41958161065254596,-0.24919887533229046,0.130233931861035,0.2256184596906496,0.07082407602763824,0.014443240382929129,0.15431414443228314,0.14223685577580997,-0.26379737913907975,-0.16650310359583445,0.03600398211857127,-0.2855759693601624,-0.07189161858566905,-0.3131480827473969,-0.23319199755836054,0.10483224178327948,-0.0031774388622665844,-0.5349555098722988,-0.09606741318625245,-0.33711510081761337,0.12466688997724464,-0.05251654607862335,0.24709669069850904,0.08675389743028479,0.09541739704090557,0.21314841298185894,0.08587708232814048,-0.2657561631342675,0.25239161086880607,-0.05501861545014125,-0.390361656751715,-0.3589328469968718,0.2914260565272277,-0.324142932853717,0.10021720788892922,0.1376098560984435,0.19725688803875377,-0.5971790621327211,-0.3099335150252297,0.30774084461874945,0.28625054385853727,0.11702415518449849,0.14724915596717783,0.17661676618139416,-0.46744038048350217,-0.1959954333039275,0.14798663419753427,0.2794700575032824,0.1698911023286447,-0.07788254244274993,0.1293265571405755,-0.33428212650668965,-0.30185179697083836,0.13852613302524264,0.4428319592910047,0.15142524762051826,-0.6605751442513064,-0.4118257380706765,0.2573480122447134,0.39046567925401376,0.10204329172607804,0.338225490886319,-0.4610606158997981,-0.4330335749803909,0.07045712598339723,0.6348593555364079,0.43386981427878896,-0.09454404480262299,-0.29407633547703904,-0.03439820250502083,-0.09732832591047876,0.008346003097787848,0.17894629604943588,-0.189564355683447,-0.1063336731890612,0.1200454349142956,0.12015418116839105,-0.0032056094113618447,-0.3279878062243869,-0.06496487722971059,0.2551564658948239,0.3206062743097188,-0.6422146423777091,0.2964281772710261,0.09099108386071214,-0.12731942189541992,0.21583818570121469,0.2544538298629242,0.06635330451696522,0.23973642323091218,0.16350684789662298,0.0916326097768444,-0.1541289139066266,0.5232183999613649,0.20599810148192116,-0.07958256985587299,0.5149102848939134,-0.19482288753747112,-0.14884610793958025,0.3032901649743616,-0.3732618507867888,0.04812537196261747,-0.13079626361521404,-0.05401360871050667,-0.03275783120106382,0.14605340524627342,0.4346235431762673,0.12800875493072061,0.05061239259025548,0.05911718203022752,-0.0020737337123027293,-0.35866012537336517,0.1317873642100864,-0.12258262121378025,0.19970682392074382,-0.037883937475211134,0.12458029624352561,0.34461804766789883,0.10635976439450326,0.0732723459336348,-0.29302081736516217,-0.26100300357002404,-0.5577863207320758,-0.11926917357774014,-0.238641271649594,-0.5115250586307412,0.12560269678201713,-0.056007519538744485,-0.4087734009469157,-0.1904771703136494,-0.25111476366898305,0.2741937089736181,-0.01803295719584192,-0.02849513725859791,-0.3065716073826053,-0.3269303686469954,0.17840868589719738,0.04772504702849722,-0.32335948629013594,-0.04113939621225888,-0.28012847991507783,0.1892561054072705,-0.367921237799603,-0.24066950533755788,-0.24229137438312318,-0.06790194161310592,-0.014733669480224221,-0.0733135228418869,-0.1750067317713899,0.3284497465327095,0.023084629260418797,0.09662869359018264,-0.3998986071570052,0.030425281337351676,0.3439412779618005,-0.698918534307106,-0.12809435904609462,-0.10011812044969502,0.2516230773889081,-0.20846613504853134,0.5116209240049006,-0.816741480390722,0.027490691598076007,-0.2324012857914604,-0.13572708506752798,-0.42281535430397676,-0.3759757388890973,-0.44079930138613727,0.03624833508421333,-0.34262171080778986,0.07532896008606374,0.5674702391466581,-0.20702661838886016,-0.1528419707113499,-0.516384652350918,0.05958557349264149,0.14244149437884207,-0.14302051619892364,0.11297498294081229,0.5787465515599599,-0.4318484609815221,-0.08995185533204225,-0.34813469659346064,0.043726445117212555,-0.17298859119647575,0.3389699520745226,0.041187714150088414,0.0018579078153288901,-0.4900756032234921,-0.45071067106454094,0.5028464677331861,0.27283372253834043,0.22617930991838087,-0.4374733557973106,-0.17578528306660368,0.16126575753413017,0.11424092904202507,0.4851466417013537,-0.6846840090456657,0.35922124264813726,0.15322285141802622,-0.204918493062521,0.08772784585471181,-0.20267619923197025,-0.14068119516030822,0.024673535360573397,0.7574864181034003,-0.16265382184283797,-0.060999041947944546,0.06706112464401824,-0.11253180187181891,-0.22730883884482903,0.3105334986260601,-0.1081605987399328,0.13532499086419789,-0.47742383752289486,-0.1258101909952566,-0.3202052062950199,0.074761435291683,-0.6262336093553734,-0.1724731866421584,0.3410472450320198,-0.3835566279456722,0.3094722541002119,0.2828967508200025,-0.09558572299861644,-0.081652006264079,0.5687553108541251,0.27891084562720386,-0.21276292736674113,-0.11361508510203891,0.1475932457763739,0.3296436575576661,-0.2664394780899169,0.14082921863604286,-0.0925569605179091,0.05677246852198113,-0.07750291022942743,-0.00935363894502061,0.09530022442295141,0.15877495166360953,0.22558750786884543,-0.091695251364098,-0.12518159576329282,0.020437603801724814,0.036552757770786676,0.5852642799437087,0.10070121153910384,-0.10201674857685405,-0.4396275038169929,-0.08342997319733879,-0.07653349085623186,-0.4666037414312813,0.4127412518132941,0.18971162897103297,0.16617368635701266,-0.1432282894407397,0.1000427991569748,-0.19867021315469158,-0.07227460954972455,-0.21484960160660876,-0.5280711359662431,-0.05047587303696044,0.3174178101078885,-0.04433769022494604,-0.5222855398491867,-0.12266595689846896,0.2180626793196012,0.44445396341437,0.24879146151499437,-0.30159806961075386,0.6652853410977383,0.5327271315342216,-0.14472048243339433,-0.38458925542011024,0.4045033863791174,0.5143201230474698,-0.22689330175055322,0.6527156587109664,0.09027136689281728,0.818541684612883,-0.4650430607735253,0.35616261238842833,0.35458745783562096,0.046794134164505154,0.6571322518766274,-0.3316883621941563,-0.09177014438934888,-0.26150947599398694,0.5389502532410808,-0.4868469883580954,0.5244536504052939,-0.4524506815924146,-0.33789671910450253,0.6110721053126625,0.20064105329212942,-0.46426136327708006,0.7187029556153043,-0.10785236094850849,-0.1581776580243431,-0.02407394560980422,-0.09061432522963972,0.8156298861925437,0.3019085810345539,0.20771855859782826,-0.3270648037707821,-0.2852329454881573,0.4773368059389596,-0.3683189805341282,-0.1983078342930245,0.24336270918528996,0.4519700727423651,-0.2747703374514738,0.10379111153521227,-0.04372901869116792,-0.21772447468091888,-0.32048432664875565,0.08311174149738976,0.024243948513377758,0.3072502334636683,-0.10511615815482471,0.36731812155009197,-0.537818964026117,0.3383148437685756,-0.2243564291491318,0.07229405425266573,0.45989580562606686,0.08295708872251618,0.16698690372425284,-0.4855267685926797,-0.13283620972723897,-0.12549205466437752,-0.06461657347665309,0.04756504516469704,-0.11328905187275212,-0.18533799931656414,0.22363836184712563,-0.040560908560309236,0.021574392457199526,0.49688053861922643,0.05713364338479925,-0.41361583867636526,-0.31058905748401194,0.14918748916897007,-0.14915526272400592,-0.16093007138132742,0.2945725491310913,0.3750381315323429,0.10182336097151239,0.7961510820222576,0.12836633223513255,-0.13402423804354216,-0.10418819373032194,-0.24699477208295922,0.1406163496827487,0.2523721969915072,0.34313402661367676,0.617629936151111,0.1932017327525101,0.025005124365846856,0.025278253954416036,0.2885956573817733,0.04022904796479564,-0.1873749208019083,0.13621500200876432,-0.2842552994175279,0.1889100096439142,-0.3490908612869353,-0.17398722505783476,0.13989052612076475,-0.01929488217301592,-0.13472177700323662,0.2359173727395336,0.25468560419877423,-0.12407368785195577,0.6257484732244696,0.07383615750438423,0.2386019163152088,0.07842306801545458,-0.08059783367889978,0.3448116733990842,0.16650683738079972,-0.43331267976408716,0.25098397090616675,0.3103355725812776
v,-0.22811972813985998,0.23032558538486178,-0.3327933718641611,0.2579754049282525,-0.28690156596064165,-0.3775595175253089,0.02191671688281498,0.03770557884452941,0.6083511741807517,0.03370501985600184,0.12385200338008678,-0.19394839557312274,-0.18507426794119505,0.0047226478244320694,0.011429441237168207,-0.26687135332949224,0.3544732366796071,-0.014174461841074902,-0.19239353386258015,0.19444442734474746,-0.11023258812538345,0.21240565749772977,-0.0001657891182506977,0.42135566365520377,0.08665661677621316,0.23467121330695004,0.2719832372927869,-0.08991975973521678,-0.07713277831320102,-0.07320274807775304,-0.39328497289130304,0.5355969219285608,0.10254339265330385,0.013840209021673947,-0.2722234614557775,0.5562915625312168,0.3710275144729936,0.20480338654123673,-0.07868451344133102,0.09510489613104796,-0.17997569023965215,0.2679308271561792,0.010266829220301218,-0.41983306962718847,-0.16645395511625244,-0.1530832121397276,0.16837128893882924,-0.34202603136151466,0.5253634190340787,0.05203084691253349,0.13463203286901718,0.4337463266735348,0.3112414010711888,0.4526782791125812,-0.15291993781152274,0.09053027069668045,-0.3156501056872343,0.3380440985792951,0.06623680747333269,0.5235437790121754,0.48467821535343947,0.10581480567172419,0.08307354728278515,-0.3119731244692319,0.1058606045609899,-0.3398045024246798,0.18323490893800198,0.5721511899648255,0.06536396286626911,-0.305533978247637,-0.3832593235439643,-0.32937359808636973,-0.3065010645706166,0.648686569552174,0.5213227322343942,0.05569833421554672,-0.04172165223295561,-0.4409250295119748,-0.04403328141045061,-0.4271336133160274,-0.4440458270498321,0.45119138455663904,0.09261357813913416,0.00723008872751034,-0.2391710370392631,-0.1665474964515488,-0.5444677965845297,0.331259800073198,-0.007076811771204484,-0.26818133329963834,-0.193475252307074,0.4234595050308879,0.2966278310492693,0.02087282753762585,0.32763764723577543,0.22430350984753863,-0.10556790471883627,0.365151494987045,0.028063214646209672,-0.3203485750307183,-0.16992108102510936,0.794371980143132,-0.3843906880606083,-0.1861274905932709,0.46463768555983515,-0.587120873491271,-0.029359792141686762,0.3592756718129242,0.11580976966480298,-0.07674367689060518,0.06948078775615585,-0.11642213113645271,0.3729084550657684,-0.08608130234175008,0.14764403274012097,0.12816380001736485,0.00016561519163975054,0.012696345567600364,-0.16703100101335622,-0.471081744734282,0.013797032821257384,-0.20974778055614804,0.6804503286389726,0.5844891532932998,0.29781595569966346,0.7449243904559568,-0.12682530604917164,0.13626027974014365,-0.16022452024261094,0.17267964069868602,-0.29566548098906903,0.5284010637314921,0.24377432664354262,0.28479203689229576,-0.08547664351416921,-0.1302435725502967,0.25842238078334523,0.2327443405014074,0.0786584239938747,0.2969791686076498,0.3570543791601175,-0.005453847568989287,-0.2344356858350434,0.32141625019207504,0.0017377053363867095,0.2633330776697586,-0.01756643149870445,-0.6142903036158771,-0.20143038873604827,0.12018453394874866,0.18047669911350564,-0.125254555966631,0.1295250415474109,-0.014842562765585194,0.10950516978424588,0.00974408654466457,0.30995832094838377,0.584233238931812,0.07144795631059034,-0.006032245054064158,-0.12906399955466333,-0.1422575094646151,-0.11793972100933257,0.5551599334670257,0.05470109490140344,-0.40986075603994776,0.3458878962842144,-0.1879687078195162,0.09195304362818757,-0.18847717634885774,0.46907467641957795,-0.46637231253724054,0.26157572010691077,-0.5724257290895247,0.5704791443577463,0.10667857794960263,-0.42188773732014295,0.338653535275077,-0.37594515595569855,0.09887961945327636,-0.41067912770353204,0.056169345090421305,-0.13309323829523753,0.20584567492954783,0.13266164268365707,0.11316963664713514,-0.0874739917058304,0.4024503618699423,-0.39213340575170785,-0.1119558730347542,0.05983295906968894,0.2636971165565068,0.17116689841202798,-0.11447562271185359,-0.4330386698708685,-0.05079750531179922,0.1525640684960123,-0.39452124243719855,0.05837405725662921,0.004795591490987285,-0.39101228618455464,-0.032705539665673106,-0.2074011908853315,0.13852796724668742,0.6626402902221709,0.5024163886832164,-0.00449343375016853,0.025604281491614193,-0.15693228124315103,-0.04678411899971332,-0.0809548752995074,0.005260962354710094,-0.3528585019688573,-0.22152157460604324,0.1713114603340659,0.00793930776641673,0.2600854396926735,0.4738378387993155,0.3154914366724911,-0.25552054838744787,-0.6429227737972185,-0.15032625388816698,-0.49586967318590564,-0.09564881331079886,-0.5140205594152323,0.10219290988091331,-0.1577628142005579,-0.3337664458089169,0.10073322240633521,0.5431052373239097,0.09328331911657552,0.299586943187152,0.29314045453231685,0.10741603475680449,0.2225116519495195,-0.4058054886119665,0.48522369415721095,-0.1358876235635131,-0.14017744194845386,-0.2485354584037594,-0.22738052651115792,-0.22352421606451972,-0.22704630359865785,0.43139657841019,0.453470287513756,-0.31080827125854715,-0.3044302578906144,-0.11104051786186743,-0.42605341154320836,-0.01781812667118906,-0.058455396583726574,0.4672000081258896,0.04967961261610021,0.3125848398131307,-0.21397387925174885,0.4772038879498234,-0.2485513102935588,0.0062209329861940355,-0.16013296214041922,-0.08393680031704898,0.09438701245406578,-0.007608398880758622,0.13153029702897373,-0.9070124079041546,-0.3867069321984813,-0.7319016562556243,-0.3868654527154457,-0.13877420943899682,0.4494365411178371,-0.5967371895127895,0.30388923020334563,0.13669672358315313,-0.524390148574588,0.14161739911694113,-0.15305372637214987,0.10278146109399428,0.054407220549550016,-0.009682459318973869,-0.014233040876837152,0.00779650072070235,-0.5771455439514175,0.7400964232987675,0.17939338332384547,0.3056189834173214,0.07686982777619575,0.25652730904610005,-0.03719120348291044,0.2119825359530487,0.11809866180266539,-0.15128230270492396,-0.04663581849147376,-0.4898747077889458,0.025902153882711634,-0.2609979077250241,0.368159825729145,-0.1449059989448279,-0.10002300655583446,0.4434919311329382,0.09590164246252837,-0.26028150771077874,0.148559362757545,-0.12455408143105551,-0.131448845151966,0.24119343798472676,-0.11825313352791325,0.14508344151177524,-0.08118121324271668,0.5364078369980977,-0.06029868770383935,-0.4546229632943183,0.2240944962118224,-0.02501722187962854,-0.03495649296468857,-0.2420391996881923,0.3174889731957558,0.0016145749984551854,0.5380575428163792,-0.0037880944699215744,-0.39459231964142616,-0.2781545245186766,0.12305810100075792,0.4586040834477719,-0.0244301980248403,-0.030381643416072822,-0.2584898158341155,0.28593294805141967,-0.34975755943882586,0.13904980505399245,0.08965380144718733,0.46245285040610656,0.6810417437749091,0.06110157053286541,0.1887604550968193,0.4906767409617132,-0.11217777364515885,-0.3928876953550783,-0.05696588426302209,-0.5671543272223416,-0.06981857023292584,-0.2511342382191977,0.10596384977192512,0.7993352641741988,-0.5224843452290832,-0.1512606471980394,0.04445839442860328,0.22335241811516465,0.2854223760112634,0.0869892030979123,-0.21794311528260485,0.6825389790351603,-0.0428287285988071,0.24513601634746238,0.01958020096423371,0.2739314869655662,0.13022296535373895,-0.30552428571919465,0.27908886245388453,-0.13080006813623044,-0.17331462392344135,-0.026352415048097412,-0.19172162902172854,0.23643847375010188,0.1523891762748342,-0.17940706551036564,0.22052215063258476,0.12555958058951142,0.1684878565657217,0.3573162614585313,-0.7127496284140188,0.5377893974813863,-0.2508085121716009,0.3078889381307254,-0.4286638917905396,-0.20295694560235591,-0.1618278667173939,0.06144742297373453,-0.12700896874880865,-0.5454967703870242,-0.6004056754283872,0.37252512221826056,-0.11851371991784204,0.1755889230028796,0.21176443787886673,0.025423741210941788,-0.2629542001966281,-0.16879791108095338,0.03191378071563427,0.11543969268129577,-0.058680292075408064,0.3364966773059228,0.14623029514832292,0.7728513314976415,-0.20323879113432433,-0.27659115986759547,0.4569554858882549,0.09008948236856891,0.3503527077044535,0.04402900906142902,-0.05839310705816087,0.2568287072677697,-0.3094736297137056,-0.42419404236607516,-0.3647328459648717,-0.38253448367134724,-0.8161024911490306,0.464909714562667,-0.3303070508715231,-0.42552643348885044,0.03801280802327255,-0.3050816445109957,-0.24493485563608752,-0.6943970411660381,0.3494099806578899,0.04588273398499918,-0.4115425868327773,-0.18301281775849518,-0.24018226546110977,-0.29094200459268177,0.09915814620985762,-0.30116940894961264,-0.33852642902847513,-0.25634434520441474,-0.10033968834835173,0.1365352973355974,0.4515206583645427,-0.07958273349691133,0.2629772209446046,0.548057533578822,0.2983186126336685,0.025408497682170253,-0.683721186196981,0.04275054516138908,-0.4503341051246217,-0.4595547748007855,0.21460826941678077,0.14042279006681582,-0.011930474813421021,-0.04059517348314527,0.09958056566068758,0.3328771762462612,-0.004887054783610519,0.26926580838919684,-0.07023047250917167,-0.05820852767937502,-0.07422766191096454,0.1485801932464969,0.010985991394057789,0.4519857516742897,0.26108096888815857,0.0637292400854386,0.13217434236301553,0.6027046463411581,-0.5504262685024531,-0.4772841640932219,0.6105890176103189,-0.6570220603557435,-0.052306225998495284,0.30313163708822527,-0.5754246060226182,-0.08918256055514232,-0.556157664749552,0.058349917642360596,0.1489366729596949,0.26834995070210776,-0.21225321987259427,0.36497790405966873,-0.01584833079183631,-0.17057745698604998,-0.2686729700287784,-0.3672359540369819,-0.33182796210484417,-0.6032349233481814,0.005559714308595738,-0.7158706510575267,0.2974951278853446,0.09869157765148277,-0.2688501392931136,-0.05414533105031383,0.1816749190143591,0.36395636030713896,-0.19568682313854716,-0.5566894385618988,0.25186010140633275,-0.10768582674532581,-0.4538716261984722,0.48826491487541795,0.22518629528905343,0.4879423241269059,-0.20638418288616708,-0.3550193225437321,-0.38512191404453733,-0.3838953144596927,0.3694854006550095,-0.07982431180069353,-0.18454006117539676,-0.5224432399670861,0.03784594468960488,-0.1735598809686472,0.03628236578454786,-0.6444896414357111,-0.14423991815606635,-0.09934292703140458,0.07802343884827925,0.05998218963870925,-0.18905626025615618,-0.5335158690849673,0.5580100847913477,0.5358484024666342,-0.02899782278403187,-0.041877278161529856,0.19844119372116217,-0.21927730138266907,0.10649202620788083,0.2034830521427419,-0.2972123332386406,-0.7060478883736033,-0.3361181371688362,-0.0003631804938914075,-0.15569242298644773,-0.025191045080845652,-0.12219503905653745,-0.3316047635663321,-0.2751596560969517,-0.07397165763620467,0.3494441173407892,0.23220922190573595,-0.1586075950916843,0.557309862871738,-0.11051591844305028,0.3234744076766683,-0.011169306875871388,-0.2031182912360353,-0.31283226721895346,-0.031182789492924818,0.4952707198860956,0.0014029596392065987,0.027767993273506725,0.08382035865301816,-0.3545984069289331,0.1553674205375962,0.10643626364724999,0.06556556980885576,-0.34075611917463194,-0.12882854961810974,0.9845893312566378,0.056629960755108476,0.3043758905515454,0.2134986313239972,-0.16051174045646818,0.20324497696717791,-0.22136896368889694,0.13660731871154774,0.07560995556208244,-0.0707098260793843,0.28021221754027076,0.03144045915686554,-0.3618591797884103,-0.12347818646261036,0.3045957193131715,-0.46884813872954717,-0.2260145718744783,-0.07454777283761092,0.39619044485736366,-0.022050619853371707,0.32559067801363073,0.16151801865676374,0.16093794373794645,-0.28623655583728774,-0.132235754609534,0.4081254438372596,-0.1833331554399505,0.7593881528085583,-0.07869650298070967,0.42657319212713113,-0.14043729907112903,0.48015233565242915,-0.724676447445089,0.4029960825923509,-0.7376112303570821,-0.04607706421991186,0.21579467099914865,0.15405977728347175,0.20009116125119292,0.09296734776350041,0.021102286039991137,-0.02225764439634778,-0.48494102117396437,0.10022474418586465,0.31656262303581745,-0.1319206955259321,-0.08173666465632869,0.01538234017649336,-0.22268070558873337,-0.11864687283988479,0.06589425731693786,-0.25522422894878255,-0.4323192352394754,0.02461235900032526,0.185530601887426,0.2087114574078049,0.19263343337380476,0.06410897977290278,0.5134683504466369,-0.5200413957799098,0.010148329833888413,-0.0034589767688630456,-0.25331975654881195,-0.49739863600962675,-0.1728061151762372,-0.1492736614432165,-0.4617149061974508,-0.13485580259639607,0.5429534125821946,0.015355729328955759,-0.12858435968604154,-0.2325332462777525,-0.31851985226557034,0.026463965059989086,-0.008432992977991102,0.026926644711958814,-0.1352524662173328,-0.06655724021577489,-0.22803264313080807,0.016704312185175537,0.060073130090010855,-0.07138325558049916,0.07433389815893163,-0.0470472138521108,-0.008772117689222932,0.3574448486875258,0.6349016824255621,0.0797357456845127,-0.4356196033503289,-0.23248133442705693,0.516458975030631,-0.34394438997339327,-0.10456877732897188,-0.12748986915578658,-0.0365962308182927,-0.2640821572232816,0.11465475622793851,0.38364516870455456,-0.46774471348612107,0.19040400007808952,-0.09760065336506397,-0.7372070666439574,0.21483584501288988,0.15205213538004286,-0.07059704215610785,0.39090144116884473,0.1695194873307721,0.03889836338898445,-0.007459565663296095,0.141186652365575,0.09085903224430701,-0.2568926102918689,0.5111502646146479,0.14013177264265503,-0.30206044823155037,-0.48536893364490996,0.11730595184510265,-0.21238097358970529,0.11986245517880176,-0.009930247013065862,0.10006437918834073,0.309819905405029,0.6514050962724495,-0.0164095788898849,0.5517209672637537,0.009403665475769896,-0.07695152643084349,-0.2786061939541349,0.049673564203783216,0.15142139350685363,0.6479357317863386,-0.18958677913020233,-0.09193199221536352,0.2960054786004546,0.3473426963246013,0.4041867311498998,-0.6454431848008553,-0.2186160015321667,0.8023214034193674,0.4445102034697909,0.04870526508765421,-0.12022338977824215,0.19438779359603126,0.1934616695978942,-0.2164862770965631,-0.06280478581620744,-0.12988904821283126,0.1494999567941573,0.031377513165295225,-0.23527040731881851,-0.38529619942888743,-0.20750711253911677,0.2790826063813172,-0.015834252014600998,-0.26854482194207335,-0.034222286866737936,0.18709562534953525,0.38464220148841327,-0.37773195263301024,0.29571666408247094,-0.37126802170547013,-0.25287818709044096,-0.363208914609195,-0.19795051511287964,-0.08341540890770716,0.37213806641513625,0.24384479063794107,-0.18579324774213954,-0.25042918279105647,0.2864902628006574,-0.204272419345916,0.10128218894778747,-0.626063199257683,-0.028579910178642646,-0.04428316474662422,0.5729443444711136,0.04480813020129189,0.05691492108049834,0.28019382889821187,0.31210631779576736,0.5870479331721677,0.08900924160723572,-0.2221522682928786,-0.3510072188221683,-0.18849178126539676,-0.1746275946840012,-0.3784388054607302,0.004234922382355132,-0.291999281316517,0.4368847018643799,0.3950128748290262,-0.2613437988923061,-0.6465092568716957,-0.5314530774983278,-0.4193831530170895,0.09393937186504023,0.10529135818600847,0.0776456175408149,-0.568228436996173,-0.13265417674019866,-0.13915703631533688,-0.159611817101585,-0.2544192717245862,-0.05514544770512253,-0.06422495780057474,0.12086897326646562,-0.5279455033647025,0.1392856978351808,-0.28358436380682206,0.6183396628740889,0.13075341623467182,0.21290783809319097,-0.36545503233030147,0.26205174736302156,0.129890025235709,-0.0013673390677730987,-0.17203086906533815,0.2730911296441615,0.0731767734147596,-0.1918441654280213,-0.25979193583248333,0.18557718766062703,0.08565819984461108,-0.03581411873338897
quan,-0.3545081214064655,0.36165493823583644,0.2628081719636481,0.07600568656382249,0.23654094157894315,-0.29535416423830674,0.13087061255283622,-0.01594952516758522,-0.46462564779022525,0.004598823957049919,0.03296580259006489,-0.23608462827077079,-0.42422778987208587,0.13708776457106644,0.349890873505875,0.022327169645064777,0.44564479069743623,0.19866472986267147,-0.6992020411737938,0.5615559575246853,-0.27831410546270513,-0.2328348751025308,-0.37804393460304536,-0.061862046583988604,0.14621446792373838,0.5327575673391763,0.3104653320538501,0.24957222621653222,0.1015287760960825,0.1345004401189054,-0.3238135219969868,-0.018966460215600688,-0.3374395798664321,0.2457031704280498,0.021083274430224817,-0.11733729598064978,-0.5740175467951241,-0.09369299582947792,0.43376140970154303,-0.08616652476946682,-0.31761745689052573,0.03780135121097546,-0.47312608650215954,0.017355892633133547,-0.1114381365522818,0.37727605462790537,0.42970704500791257,0.30700491425331267,-0.46636313365482585,0.0094518899346933,-0.20711676906780432,-0.25367210532600326,-0.036904239151175786,-0.5016949140712901,0.05922954789696686,0.02307058863206829,0.1691695345994124,0.0309616108366504,-0.21158273734060437,-0.14490200036409595,0.09700599464780278,0.22624895424984806,-0.24335117578596477,0.6451174460234873,-0.22818440995878708,0.07377996913229436,-0.3268435912534141,-0.002239498539851461,-0.22253175574731845,0.4742759871053047,0.09513682900196709,0.04812634796957066,0.3129678259845622,-0.045206549591243025,0.5316459172044161,-0.27002130709991506,0.3509362821853092,0.4751178591504792,0.6075637164247908,0.5523343075992398,0.28946556688925756,-0.41684860391234657,0.09754220490099316,-0.3806013474822696,-0.02146884768955479,0.256272269812436,-0.10491855537027184,0.3131738888972025,-0.6068364314127643,0.0927006471328053,0.20025618110764407,0.04855074154406111,0.243651292855473,-0.2023112756152513,-0.42416208765615304,-0.23732086582873244,0.20008455983692772,-0.3021162982138255,0.380463682857124,0.19516159195779076,0.18054923517573476,0.24034915858265238,0.2860064331599453,-0.08712268896731404,-0.01726143284108686,0.04105310598122553,-0.5289906232799604,-0.13813959830663203,0.08095127684572188,0.03060343590186848,-0.6171326916471433,0.35536422320493505,-0.4300691766958412,-0.44382212560693196,-0.1939532656841511,-0.8594896588082899,-0.003363548564805637,-0.6051973934989177,0.025407032896871132,-0.07012545452290629,0.2505205742436872,-0.1970728225667236,-0.17773667314348252,-0.08227167190170914,-0.7440437432337199,0.07358707497000348,0.2741872059534535,-0.725418775914911,0.08919822206412559,-0.08512341650025687,0.3820053666845911,0.07828748165443022,0.046709865630799756,-0.4138447929128747,-0.36597499026236385,-0.4360503406841714,0.9621069372016133,-0.49927204662201863,0.12425132626160523,-0.22976077202144357,0.06952224190989562,0.27845317369921596,-0.3692687516110439,-0.22628585916434688,-0.3853126012433968,-0.745913964396907,-0.3425599216470958,-0.21758528737136426,0.5216687859654969,-0.26338004111443775,-0.3064638227323931,0.557828484240983,-0.21600233186502305,0.1386959643905307,-0.43288881949510677,-0.41768966333858837,0.047328382797574085,0.03876055400134891,0.10650043019211795,-0.20397704911927167,0.04839689988142084,-0.056581152618269716,-0.4040230258401651,0.5003532152981838,-0.5378306293906047,0.3158062513675896,-0.4105896037633018,0.07627125763412064,0.6210576115915134,-0.40858522959112564,-0.1966166773729644,-0.6531361269864446,0.7450542162550559,-0.2537160377672353,-0.602075963013394,0.17114011492949477,-0.12489012213448333,0.31317193446741837,-0.15740134124315822,0.3162988834405949,0.016470171670648626,-0.25646172836519804,0.11072727452531865,0.25876339311333224,0.31425946179805053,0.16334452909942768,0.23471608294234814,-0.40260692565318756,0.3528140429332172,0.08705439374818992,-0.12079947832642014,-0.23231476850282876,0.37078963543866394,-0.31153105211331067,-0.006658163033822848,-0.512478991680469,-0.2242065088450088,0.046571629164884075,-0.1534360551523534,-0.3463408857036455,-0.03693841385081273,0.19371889610802048,-0.33293817364610934,0.6882739386056663,-0.5249893537257597,0.20660144537529027,-0.5128032314358097,0.3597852330465369,-0.30462744789470325,0.13020470162993333,0.4081487194618123,-0.3686611046831623,-0.20826981293928712,-0.015873916577804445,-0.42915355459190635,-0.3629809378092382,0.30496494085398584,-0.07992057247017689,0.5144674024722182,0.14482919099206323,0.056682809767800095,-0.08243568984600005,0.02379811148873385,-0.01746523682158629,-0.20074362486321393,0.2894231375466142,0.3051185909966325,0.4257322338936129,-0.49759873393011034,-0.09554352436775568,0.0044284078825853,-0.2501647016065779,-0.059523235306464854,-0.2342700528163428,0.1052780934237312,-0.1406494109403682,-0.5748649522969139,-0.09371601597748132,0.19450694710027572,-0.18294381062269952,-0.37026796746661456,-0.10589092589368533,0.6312144835480172,0.10075962081920536,0.2890041684380337,-0.06142545160127324,-0.4086262126467434,0.13164769278151317,0.13257549241873312,-0.00404631922436129,0.13935472697738416,-0.36270428600101884,-0.016225261802379667,-0.21275461412494834,0.6514685383557692,-0.36638889173921796,-0.03466108278176796,0.2577045898241941,0.3623179084789712,-0.08152566089755647,-0.16141287250955574,1.0792573250865132,0.10049323279429381,0.9523079221825552,0.5477986934785145,-0.10023943624644524,-0.3505100401046646,0.18669715692818847,-0.5758452454528312,-0.1553289463316612,-0.27704142025355977,0.12724662846635412,0.1725589529512061,-0.22871261906280455,-0.5626651869652853,0.1474904245251839,-0.39249981089128955,0.04041053026102258,0.394677753912939,-0.35980368718216793,0.7547664440461443,-0.4523219691427631,-0.2826890544284601,0.3198950782815002,-0.23579028108998104,-0.3389694507836438,0.20732199173095014,-0.19891602935492078,0.3246982847306336,-0.4467193484159964,-0.09033632096547335,0.9342783290245665,-0.1509906070230707,0.19858058883551089,0.007806001158997828,0.20651763831797887,-0.07547277920180505,-0.6780142663012716,-0.5721803100731705,-0.2608961209744441,-0.28204051570120675,-0.255904818503405,-0.3551218113316958,-0.2907834304009548,-0.686180446879519,-0.08258711723504461,-0.12850274263933645,0.07523177880311534,0.17730452328157173,-0.207181185901196,-0.06481251892665614,0.365434180449469,-0.14649387284099918,-0.42113457526001896,-0.20471182158714962,-0.4280918253016593,0.035190009296077185,0.04939445710123211,0.2884368117606382,-0.36912529354659895,-0.1682841440010177,-0.55635845778918,0.037490786505326244,0.010428181772547531,-0.0778578259993671,-0.6300785830204988,-0.27151313155873774,0.7779612246915397,-0.16562885685857814,-0.3232615526168346,-0.015276193285233766,-0.41482823784105977,-0.11258274386180239,-0.06425472130257977,0.22366069557299045,-0.17156452901281946,-0.15772794576093416,0.32669588608821853,-0.2968716334353427,-0.015513362015816745,-0.36436132641983054,0.10506292223492755,0.5554898306292918,-0.0593417865831647,-0.11727922330717365,-0.011176605899988453,-0.05090759035062387,0.6812477913481926,-0.02634269692969167,-0.6078141579587959,0.32705152919439756,0.2009656842734533,0.3651621129392031,-0.135828608801408,-0.3945994732591951,-0.4713368141082271,-0.28977131201471235,0.45985369115787517,-0.3199380935034341,0.06427365385757025,0.5986255640282327,0.15898240425261703,0.5565951125248897,-0.18085940962826988,0.06984993403579308,0.08920904084386075,-0.6961121165499468,0.32283738249242655,0.4359161311485728,-0.2890724864000554,-0.02471124578036997,0.13778027522829678,-0.15535326821360854,-0.15118711028273996,-0.053548064998028486,-0.174665123898157,-0.09895457532237481,0.014301899348092924,0.048931501054167596,-0.4232496621192096,0.2501251031633569,0.29216759115820445,0.10702427473018813,-0.0724220327648945,-0.011629277205919827,0.8043285444723015,0.22557047477871303,0.15390097476962827,0.0346884207866538,-0.05530513525646654,-0.09697566462264899,-0.5201035940666151,0.022329963684484005,0.006993805645384836,-0.16912634941525967,0.0038072779881808613,0.02649469825252626,0.5274840908630971,0.3714775395912293,0.682547783282662,-0.4181966769994943,-0.1308916526042248,-0.5857593111895809,0.36517468053647967,0.612071123916448,-0.15665925156835198,0.13075685271703946,0.4069609822827914,0.1282849223186951,-0.16275286974585365,-0.03359370363950222,0.06866271291525702,0.271633442482019,-0.05598454419239863,0.07859543377953779,-0.09450735657183892,0.5411831044192731,-0.2170143847158476,0.3670675950710101,0.662143953813201,0.36234668151372984,-0.12260925984736054,-0.024878253762243972,0.1014667245285002,-0.48133160470704567,0.7460987718510186,0.0007484775763730608,0.39895075504657745,-0.09623135802094482,-0.006921613483908598,0.32093877165392,-0.051035913035046544,0.30581461803195703,0.4307284336586781,-0.18339867010900301,-0.19696068426448965,0.09900137306236545,-0.2166072107868957,-0.3659196975572928,-0.21555703304569226,-0.047921959912168306,-0.26895611993434215,-0.41339433815388527,0.4029488471198744,-0.06905222060745392,-0.19861535765397756,0.10529664111452161,-0.5032604264323413,0.6547910481481478,-0.08537842950603527,-0.11966083108345277,-0.028181098677244925,-0.02608379717242746,0.0358593805698418,0.3578728163790125,-0.34767205726567446,0.1952845387598591,-0.11481868780575893,0.06792350777404946,0.49300596466416857,0.27155044984473553,0.0407969255984412,-0.8005874570097545,0.42355735514837345,0.4100051869358864,0.19936782646878057,0.020897027799895485,-0.22669328564385816,0.4329977282852352,0.4189989841829529,-0.36844406276511715,0.37215232061942527,0.19627170931319732,-0.1050430802804556,-0.4107311939507255,0.19660158984247303,-0.1538255304134202,0.12381709655422696,-0.19820694881074694,-0.13194387970765262,-0.29378454699158346,0.27116666993027727,-0.05857494119629024,-0.024294084244977903,-0.20233777884085566,0.46095661120962245,0.027551163697782946,0.24221630491634163,-0.21121972224080435,0.7898308931985291,-0.1946093948535748,-0.05184885341786995,0.22633416890659824,-0.33445483396445214,0.05288221942968403,0.027758350291924607,-0.4523176738333739,-0.11927783588156263,-0.061883481149978284,0.11745810438031454,0.9744377766826587,-0.1367912259340777,-0.152599508613316,0.5613991330579248,0.19816841665013474,0.7098914055070816,0.19640944306180227,0.015006044409166502,0.5124936046306416,-0.08049366906882459,0.1699511148692954,0.062291372461632924,0.286935493022572,-0.19382344036816174,-0.5119550928537364,-0.10625988075101608,0.28940504411494666,-0.03153370406962814,0.015472804671826242,-0.18017898968526316,0.21868781709018303,0.14619531594598514,0.40010728342447466,0.4380901166198632,-0.21767609618534053,0.5256949676651947,-0.22192691057226477,0.13028054854025814,-0.21805486348374867,0.17451282101225185,-0.1795224049325401,0.287106791166493,0.3700755273603331,0.5295325883789271,-0.368019025391164,0.36406858062742276,0.11046540768108633,-0.33038663876630775,0.13412790621597492,0.04145208650051326,-0.5733317557260099,-0.5113511480085446,0.06806723497837197,0.04994498339523123,-0.0626372566937531,0.25774740469756446,-0.169465235956515,0.41980188434247295,0.07520026783216513,-0.22415235329746877,0.510996091621977,0.3795895325300345,0.3854108863986908,-0.024969981872016135,0.0005761986115352943,-0.40854344382956065,0.46475806679041226,0.11949778001390172,-0.33543840071710124,0.026701590060558774,0.09696848331698582,-0.14772171197212752,0.12683890427016237,0.10579722893507357,-0.23469631273890235,-0.43936458961901187,-0.04883345012548377,0.40357032441466817,-0.18450559098302144,-0.14306516977352587,-0.2932763162276545,0.11242562417082054,-0.20535411874565557,-0.2205087709233435,0.1942098158236898,-0.6548634056760726,-0.036233383992451344,0.04591686245498662,-0.274000824289529,-0.37097704387021535,0.3087566877126468,0.5000041261718914,-0.5195527025969975,-0.5548077588233816,-0.0631061744970961,0.5755955967932423,-0.6361393419249809,0.24083521726466373,0.2574884445940882,0.09202984952581662,0.18160685676607702,0.35466778923534226,0.3202764057166935,0.23872750988094035,0.3906775687771698,0.005894396094566625,0.019607834650699395,-0.28719690075537535,-0.23860950236557252,-0.4807095013513296,0.15823322976490606,0.15724203189050862,-0.32216523382217116,-0.14742562065394865,-0.4128944146836314,-0.11475361166906307,-0.04647926089164317,-0.5635912483055581,-0.11922564936376819,0.1752320219353678,0.5815008068723291,-0.40842738519547706,-0.5602596208211137,-0.5799959702646965,0.11237958396607933,0.15900146425325878,0.36169461562840827,0.27855257541048767,0.4157502284960879,-0.6656730741427139,-0.17881738759479993,-0.1155189722798783,-0.4269016471221966,0.3891108177388029,-0.042074039630821736,0.18718925864453995,0.22819611227236092,-0.32698967239046023,-0.26030705439160345,-0.23175904580175233,-0.2392294583949295,0.5441411394647142,0.6304331233061856,0.42235561251088233,-0.30894116479169303,-0.00788919985390857,0.2846218477725022,0.28611716818479543,0.26487825403389514,0.58142877072486,-0.236662464447721,0.14150185512930452,-0.08779238253873005,-0.1241447435304812,0.41505621764263806,-0.03743576765067691,-0.03681963422387942,-0.3111900477124135,-0.6494931530822099,-0.4132613597103136,0.12989343409814263,-0.004704263049400682,0.26743783256712406,-0.03925383638573906,-0.1034797540035919,-0.2544517771752975,0.3507600465309956,-0.08524823639398295,0.18920747166758575,-0.024353147111761352,-0.09759454404811535,0.10099853616856344,-0.42183909805744424,0.057890472488411844,-0.17928099312220055,-0.030997807271729724,0.04264526223104299,-0.1339417957166844,-0.3079533892484751,0.8042933249294447,-0.5840268044343072,-0.15135520687114493,-0.28981008602454245,0.20462795264485373,-0.34426736102788247,0.10220490751639477,0.018460738671653844,-0.010765381328359665,-0.45453398403165046,-0.4216772946361606,-0.4790029710753223,0.42493547447978736,-0.18862042724892392,0.25803599637273034,-0.2622302913637442,0.07453363553495676,-0.11072263838657279,-0.34306436806115265,0.7292229222898451,0.36332934080673157,-0.0735805214520455,0.14667646250266508,-0.03355966855110568,0.2179384746361566,0.019791826741239315,0.2023938851589977,-0.055563190405461683,0.48317415661737834,-0.5138263123028427,0.2106381282471268,-0.04928643167766197,0.23231816345423584,0.3796235439366001,-0.6073140469043299,0.213448035803494,-0.665945789204588,-0.19925065865631272,-0.005933602312033727,0.12763846135094678,0.026607258210654895,0.2507303110732341,0.2693382407330153,-0.17213285795944838,0.036632852411946665,0.8314784824204857,0.7383423376344564,0.15493063048463215,0.6428245107692806,0.40699408678253035,-0.706535813813137,-0.05719253653535521,-0.1081596593553233,-0.316988644622347,-0.2618883077027331,-0.22032268686390877,0.5139198255387167,-0.13382288286508018,0.4364950189490681,0.06308664015737589,-0.24197972540717033,-0.13187957108717252,-0.09078854119507081,0.17731174250113063,-0.37561611840941456,-0.011697779639963775,0.05134311920815849,0.49460611730274606,-0.432071346652483,0.37118033907805115,-0.394189632868714,-0.3105089380987763,0.2858952176241479,-0.28796193061289294,-0.19006761748605117,0.125491693865621,0.08676508137238449,0.009337709265558986,0.3069065519493601,0.2013693160033586,-0.2306386219409327,-0.16337207233209566,0.473385382695411,0.47557502234881943,-0.029178046641193625,-0.3682242974571169,0.08503281510994698,0.2317322653109482,0.33289901783164944,-0.03840782664672359,0.14650531824464613,0.12163759230897625,0.3528395614838588,0.31864797919857785,-0.1507576616068074,0.2260170262791201,-0.05902206624487305,0.30615827898686865,0.16404733099430951
