,0,1,2,3,4,5,6,7,8,9,10,11,12,13,14,15,16,17,18,19,20,21,22,23,24,25,26,27,28,29,30,31,32,33,34,35,36,37,38,39,40,41,42,43,44,45,46,47,48,49,50,51,52,53,54,55,56,57,58,59,60,61,62,63,64,65,66,67,68,69,70,71,72,73,74,75,76,77,78,79,80,81,82,83,84,85,86,87,88,89,90,91,92,93,94,95,96,97,98,99,100,101,102,103,104,105,106,107,108,109,110,111,112,113,114,115,116,117,118,119,120,121,122,123,124,125,126,127,128,129,130,131,132,133,134,135,136,137,138,139,140,141,142,143,144,145,146,147,148,149,150,151,152,153,154,155,156,157,158,159,160,161,162,163,164,165,166,167,168,169,170,171,172,173,174,175,176,177,178,179,180,181,182,183,184,185,186,187,188,189,190,191,192,193,194,195,196,197,198,199,200,201,202,203,204,205,206,207,208,209,210,211,212,213,214,215,216,217,218,219,220,221,222,223,224,225,226,227,228,229,230,231,232,233,234,235,236,237,238,239,240,241,242,243,244,245,246,247,248,249,250,251,252,253,254,255,256,257,258,259,260,261,262,263,264,265,266,267,268,269,270,271,272,273,274,275,276,277,278,279,280,281,282,283,284,285,286,287,288,289,290,291,292,293,294,295,296,297,298,299,300,301,302,303,304,305,306,307,308,309,310,311,312,313,314,315,316,317,318,319,320,321,322,323,324,325,326,327,328,329,330,331,332,333,334,335,336,337,338,339,340,341,342,343,344,345,346,347,348,349,350,351,352,353,354,355,356,357,358,359,360,361,362,363,364,365,366,367,368,369,370,371,372,373,374,375,376,377,378,379,380,381,382,383,384,385,386,387,388,389,390,391,392,393,394,395,396,397,398,399,400,401,402,403,404,405,406,407,408,409,410,411,412,413,414,415,416,417,418,419,420,421,422,423,424,425,426,427,428,429,430,431,432,433,434,435,436,437,438,439,440,441,442,443,444,445,446,447,448,449,450,451,452,453,454,455,456,457,458,459,460,461,462,463,464,465,466,467,468,469,470,471,472,473,474,475,476,477,478,479,480,481,482,483,484,485,486,487,488,489,490,491,492,493,494,495,496,497,498,499,500,501,502,503,504,505,506,507,508,509,510,511,512,513,514,515,516,517,518,519,520,521,522,523,524,525,526,527,528,529,530,531,532,533,534,535,536,537,538,539,540,541,542,543,544,545,546,547,548,549,550,551,552,553,554,555,556,557,558,559,560,561,562,563,564,565,566,567,568,569,570,571,572,573,574,575,576,577,578,579,580,581,582,583,584,585,586,587,588,589,590,591,592,593,594,595,596,597,598,599,600,601,602,603,604,605,606,607,608,609,610,611,612,613,614,615,616,617,618,619,620,621,622,623,624,625,626,627,628,629,630,631,632,633,634,635,636,637,638,639,640,641,642,643,644,645,646,647,648,649,650,651,652,653,654,655,656,657,658,659,660,661,662,663,664,665,666,667,668,669,670,671,672,673,674,675,676,677,678,679,680,681,682,683,684,685,686,687,688,689,690,691,692,693,694,695,696,697,698,699,700,701,702,703,704,705,706,707,708,709,710,711,712,713,714,715,716,717,718,719,720,721,722,723,724,725,726,727,728,729,730,731,732,733,734,735,736,737,738,739,740,741,742,743,744,745,746,747,748,749,750,751,752,753,754,755,756,757,758,759,760,761,762,763,764,765,766,767
factuality_l,0.02610683285109243,0.7195547438795149,0.6509239666685408,-0.1170721699912839,0.5685538068982018,0.5927800604817157,-0.8370756370319388,0.08691930765442762,0.46626629734714414,0.348655335391768,0.3519709589593188,-1.3024952924128592,0.22508111700110656,0.8763650932557735,-0.947129399499824,0.09454804571233484,-0.8693976194906508,0.018559502511499893,0.34383522668996175,0.2247816799511284,-0.8193534988123171,0.557441649539978,0.06969183210690526,-0.9534957480324713,0.6660826257136433,1.0080633815634126,0.6077472820253229,0.20171156802542384,-0.49299077501529026,0.15342972823061327,-0.3134915295142588,-0.43687775308301335,0.26806755184698433,0.569938303460967,-2.724468740141824e-06,0.0645065877529793,0.3209374091664534,-0.12297586890995985,-0.5974696948040302,0.06254420502231833,-1.9268473428430297,-0.29821206937855155,-0.3309209435614618,1.3022590992517151,0.04234866709870454,0.6790425433625856,-0.2821397536466618,-1.1260017306229824,1.0472401250037262,-0.07753613070389878,-0.09273853278146524,0.0014578349449779705,0.4568215794082812,-0.43052051786207174,0.033506130798186574,-1.3750879600558918,-0.24737727740563534,-0.9020470376257573,-0.2256514711372343,-0.04639982798766355,-0.12324256568852152,-0.0899729992664167,-0.8651747270184252,1.243768698095075,-0.014830444062693971,0.7916333668509645,0.4007300075957347,0.3910781127409105,-0.03408016531937084,-0.47660583765708825,0.6189672777746894,0.41061247054834504,0.22949671310629405,0.8317904984422093,0.22828396081878793,-0.9151914547716533,-0.14899647597385077,0.9849640812388527,0.7077492879010167,-0.02681581102111767,-0.458172172414795,0.5179273724111045,-0.343681438483954,0.08441020328988008,-0.01239544195234749,0.27169013042070056,-0.3759410490994483,-0.45194277712445463,-0.7030154923612907,0.13448003886468043,0.9903764883580403,0.31370076676574077,-0.940575539370914,0.10267064006155496,-0.5571898306755703,0.5915925748655966,1.319671404881838,1.8583017015766465,0.5969952029058223,0.19836131828113254,-1.3902591124021395,0.24797239641737198,0.6688883507835441,0.755893751163788,0.06744805993745473,-0.3698530494785013,-0.6327904199603793,-1.0875279667025548,-0.2425933456536404,0.7551113129050451,-0.40956103608032535,-0.4793461888589291,-0.36160482843352515,-0.14422200993112474,0.09303605340615936,0.15692946650087525,-0.6957041867118068,-0.18692154245819095,0.7070083076812907,-0.8570660031480588,-1.590494461578035,0.4651433164433017,0.5110716338061612,0.9909669469540272,-0.3050161303846545,0.5014402563789212,-0.8327608100035708,-1.0707874030697466,-1.0258474087667357,-0.08807414433963406,-1.0174235230338926,-0.21402088405729267,0.7831866856313988,-0.6056207679033275,0.1903544895576673,-0.9490913670557838,-0.09151473494866852,0.7405688640886898,0.4206194555691749,0.3370442083359672,1.061469128828405,0.6472579657858427,0.3021969872903741,0.7303920046378215,-0.30731405567029074,-0.35228212006294624,0.4134282298662237,-0.5279371726758711,0.4467700201888519,0.09385155728007752,0.13106604401263522,0.2702624493270709,1.4846517870210145,-0.6822099042312074,0.7827518066502459,-0.12894125009150917,0.4717502293111593,-0.2723796384063575,0.35407200096298397,0.3949967478334696,-0.5093753341419713,-0.18350653186458515,1.8797471564614272,0.13613977454056467,-0.6756336189687531,1.1263252036091933,-0.4160846005771417,-0.5667222889547555,-0.18581907248691795,0.3980663129412007,0.7095641281965424,-0.04888026661730407,-0.5816997571120333,-0.06293353081856437,0.22076326202804575,1.0611521419781775,-0.029096234477985764,-0.78700040874365,0.042034151980636786,1.4965816881416276,-0.021122320537491638,-1.1413924538890283,0.564062765213247,0.06270079143554069,-0.5958276702101925,-0.31254057589690737,0.15291601159905358,0.322156216167524,-0.22565586322411302,-0.09286991068443817,1.3640608856577658,-0.9097054843508926,-0.26825151777996675,-0.805169367339501,0.2346283334497556,-0.2493008565148262,0.35173765779500016,-1.3756026844733655,-0.4085400529552737,-0.507300290872471,-0.3127082001878051,-1.7271224131011005,0.7059723203420284,-0.18684478336787166,0.7172821536614785,0.6019608846862826,0.026251332204255812,-0.04838979898888482,0.37145275439212583,0.718153484681612,0.7891843746968735,1.0367544457081144,-0.9860067830710786,1.1191224955617078,0.23890688811415095,1.5911021512552885,0.0028534399740418786,-1.6328165917388855,-0.21715105697786194,0.10393678236246162,0.06826580820214993,0.43367757239381405,1.1294232700443547,0.41788697885868925,-0.03287285203108756,-0.02113904141384842,0.48596715901192017,0.016119573064775843,-0.42362866241856384,0.21449575344771055,0.3199902478866245,1.1559484070146981,0.18165578156487797,0.08700052533996452,-0.2960598510118734,-0.2579085648579797,0.18676363860459932,-1.3419390602215604,-0.3573437866852769,-1.0960101833838622,0.2637706236899843,-0.5469406468949938,0.041775825682052424,0.36525598022465944,0.731625844830435,-0.37446352208878697,-0.411325143493603,-0.49478675259385974,0.7197791741157213,-0.7955030439461672,-0.18692336739846857,0.13484083011181358,-0.5469329804457921,-1.0640952982160572,-0.5161257024031966,-0.42301214654402924,-0.3243526055539074,-0.4935869925903215,0.324528243697518,-0.5364410981941633,-0.4881368979762974,-0.024240048629341513,0.37255244519518343,0.4083133589893378,0.06905929986769074,-0.19516259992907706,0.27219039222741676,0.3141348120619506,0.030126230227133864,-0.18045928354298235,0.18114362934126194,-1.1161427379676032,0.7714260211564664,-0.489879796922067,-0.5757288050801393,0.18530846355066571,-0.01815550729814117,0.6625053897879177,0.33246951103569994,-0.2919152893645329,1.523869251581773,-0.4810296313208668,-1.060716971639299,0.04272437796753082,-0.09649922917117147,-0.4012625968233968,-0.15493516822083864,-0.5085781038030127,0.20930857120004406,-0.2292030382704028,-0.48986143760010037,-0.3379655194800042,0.26217134388712315,-0.5846147550190516,-0.0987769517029926,-0.5125220845615557,-0.2620252767206783,-0.14142601832633667,-0.33990292467557726,0.5358764901421414,0.7924899039619263,-0.8421023017970515,1.1103388171850712,-0.5556863630085113,0.47954920833189796,-1.1521758219690699,0.24928036587452662,-0.8711686884570192,0.6240839521405616,0.47979519365777995,-0.3197484692481669,0.08799143148503757,-0.15305026696485613,0.05314690862093432,1.492598741371992,-0.6960609551287251,1.0809103637979678,0.2533491609707854,-0.007949623165965269,0.32546544217482165,-0.3937747545877106,0.41451035561981414,-0.08512013216219548,0.034376620058534514,-0.2898694925622858,0.166745829753601,-0.20011753368824048,-0.3257497903752464,-0.6736754476807333,0.40034810111423336,0.23786688601804162,0.3802105617140262,-0.3884040811943452,-0.28535159458330417,-0.1956919997213842,0.17125043593094824,-0.3153979680503134,-0.4876639945709251,0.16449108941044313,-0.8640585625567492,0.1082158998507541,0.5003940137012576,0.2634595618678632,0.021423660723243438,-0.3111060698083769,0.22062393183260712,0.7505411729285281,-0.024408778224379306,-0.3913284592159801,0.16778062892034287,0.6023127531667135,0.301232253613172,0.5018918955014554,-0.42483559070961935,-0.4587314126565791,-0.6713517482331174,-0.5350390686985309,0.11344735640142672,-0.004244691858001263,0.5664806690710905,-0.12562246503767352,-0.0044359495080760125,-0.8528508506642584,-0.2664440663858825,-0.19168834092350956,-1.1378699538324155,0.2523152191450423,-0.16712785797140903,0.03411577651388731,0.37009440966071994,1.3607171840709658,0.5554760371336472,0.3913484782474968,0.5590551060590367,-0.251109178835691,-0.8671388903121242,-0.26091731876428703,-0.9588331188199537,-0.051364860861359773,-0.010156131676222402,0.34850956549163026,-0.3466412586985553,0.048770831044001664,0.5699271542630852,-0.4801550914315313,-0.4690409008015485,0.2383535286835349,0.6222020146881109,0.7545745007720184,0.7884727948492386,-0.4558631881403379,-0.018047887745633005,0.8171187576979942,-0.7495187856016354,-0.4489518070311594,-0.715500133614837,0.2190337431119019,-0.3873704597834337,-0.9204097907281463,0.1534841691926512,0.1500352355805745,-0.029457644058577537,0.2299435829478376,0.1996510480457058,-0.22979642465780592,-0.4067663355524433,0.23664551019964383,-0.28438264780915035,-0.4994952044742389,0.4320837259900331,0.23143191698717155,0.035213122247371595,0.24929857563157787,0.5634921305004439,0.5181793108546062,1.1278268114855219,-0.43599625126924146,0.11533256718773299,-1.4045044945224412,0.568060112726794,-0.3202497156706274,-0.10783151306798933,0.43849819987873034,-0.06610135706961566,-0.07253912589926848,0.07014798739494822,-0.27398008664386153,-0.14381843007014813,0.3500433857295581,0.3654120589996022,0.21581063720831922,-0.05374209629502805,0.2181748264553567,-0.4354780042576096,0.2895422806693609,-0.5287112121531661,0.1119778939168568,-0.26748327950542855,-0.2177366217573578,-0.3170005679320264,-0.2616378225318496,0.5124794574502413,-1.772427781757075,-0.31564423579779965,-0.9144571270280585,-1.289814418901417,-0.16641929723105592,-0.33425474194443655,-0.2913798146301006,-0.39048813272667476,0.09883563212822855,-0.35971647250337446,0.39611710441603976,-0.2927236996179196,-0.3642902599662202,0.25742066257303203,0.013107732419713788,0.3383451267104493,0.0015096061888015804,-0.19102536453193222,-0.519874725253416,0.13876152361245125,0.27320716564102177,-0.29752142106405616,-0.3471013720071116,1.0133209089404847,0.11710202893918722,-0.23798831520319305,0.2765276390983865,-0.10006645246853411,-1.936997289764442,-0.20722267800680919,-0.7967253362331138,0.045823848207979426,-0.4137662812844747,0.41795178207878925,0.29426707800215024,1.5694348026487854,1.7193951945313406,0.198722322113193,0.2858446097737525,0.28351328189136216,-0.21762896206801152,1.1956508084606652,0.8891105023572303,-0.29891483229366395,-0.20982669396813164,0.24354549416440063,-0.0913137419480052,0.11592584483624553,0.5620168806304713,-0.6381438643635322,0.19397748597297798,0.6376651078081405,0.5887722515936288,-1.4659872289833207,0.12013332351435396,0.046916466559302344,0.7939715881586611,0.7979433767044251,-0.6626381162916536,0.28989571138025194,-0.7220791904431481,-0.012887145174441639,0.644168040250513,0.00047308093946615295,-0.24083430295564284,-0.15024268642995384,-0.24324479620917402,0.12883310110155902,0.464291347946691,0.16155789763769626,0.5297680048138634,0.19111260108441416,-0.13315567845495382,-0.5350181686608291,-1.2741166450373476,0.4847245115123218,0.35452153751151294,0.4442661129720473,0.054032777114198634,-0.9041142331802394,-0.27159597888220216,-0.8989466948450414,0.882888639031522,-0.26362184412884115,-0.15787749413778351,0.28019437941929953,-0.343889290504286,0.49657228252885477,-0.8558705283152878,0.05391769949297896,1.63699817447042,0.3012510111345582,0.9000435165013252,-0.1134948889884388,0.5141004566147218,0.08998175917375001,0.29156568780006803,0.29562632331656635,-0.4994388426223435,-0.623580073105965,0.09430605350534634,-0.3357394805369038,0.4135519097125639,0.8102615517512818,-0.2574424974095345,-0.751562371836405,-0.032335280906895345,-0.017977470343489187,-0.32297803341812814,-0.38753186169587756,-0.7284018609931279,0.5891880293849173,-0.22278552320324418,-2.4292835496522793e-32,-0.4600408093038844,0.2947750123666337,0.01985947826268887,-0.7375437210418538,-0.013953793588946587,-0.4052175823478312,-0.2926013556025432,-0.2178962517144822,0.17885501313596186,-0.20778752888457216,0.48734663658431043,-0.4332659722508686,-0.3898926263575166,0.9523233357985963,-0.14854971871542572,0.80101037931523,0.783934366670054,0.526660432634406,-0.0032322999395785453,0.7386977712859958,-0.9181620334235132,0.10124370730214971,-0.04157501987034485,0.2281941544349506,-0.7646205739623321,0.6520444659401006,1.1784239056838266,-0.3540469706129371,-0.8204236238477018,0.8555959970431692,-0.2808379008462529,0.4958626387765559,0.5374034943718726,1.333561510777702,0.4786085777508758,-0.0618440691507406,-0.4826140879568488,-0.1494192799401602,-0.01992487390709545,0.22333238404556627,-0.5635995495116304,1.0487876014345952,0.4058033268424663,0.09459565425298955,0.7714075410086949,0.09559481906647894,0.15113202213939128,-0.06283066379177979,0.5003113039518277,-0.049736886737167585,0.44385380334549646,0.05166377370850761,1.0381390806246042,1.2460985847455164,-0.34125582939488064,-0.27763271635630954,-0.13668460058495605,0.27206207616859346,-0.374211305218841,0.36215243454801344,1.6349812700732442,-0.13000015101209458,-0.3523730160200838,-0.09872951470143251,-0.1788822338215618,-0.2635508758872749,-0.3879716703410572,-0.29628559335104665,0.23503485659793025,-0.5746171716478868,0.549670702910937,-0.2702132664401379,-0.03247436225488912,-0.09878334469579476,-0.1923490169211775,-0.05790927306673009,0.2231135321878974,0.12528784848105348,0.2359822970893324,0.5715552661775625,-0.04066766571702277,-0.2853889074975227,0.0017761364750837863,0.5301383972329723,-0.18782075054665454,0.3656747232767021,0.11290335410762924,-0.6201720357028424,-0.6021141679897478,0.11658619923695669,0.11728677004926676,0.43875961771320615,1.020969057809818,-0.46090107861489604,-0.6162132566747668,-0.7526940302793944,0.1374959268850036,-0.17176378674354204,-0.024430742714589136,-0.03252335702793389,1.184832927146737,1.537202558871478,0.5248303071296639,-0.6776072266042906,0.9569946796072017,-0.5487408041924253,-0.696603073632555,-0.8484098951808778,-1.153061576572854,-0.015105228910172491,0.2803504022247359,-0.6444776620845835,0.2901501364016621,0.40397209996930494,-0.8094975788205435,-0.5711752987424356,0.6523438750850203,-0.06545267086972509,-1.1390372967443052,-1.495977809241125,-0.6572762484763927,0.4529679240841936,0.4567327851164948,-0.01719683902834472,-0.18473612584386098,-0.2653745711854808,-0.2808026247250766,-0.09355876013886946,-0.8094757780637842,-0.4194534370552027,-0.6896768120995986,-1.1921772013254563,-4.2431953404350767e-07,0.8787004556080925,-0.16229860640496305,0.5383137620192703,0.2842775555008231,0.15910907368303387,-0.12822030500834564,0.3911439119182511,-0.2456946515262699,1.072039496343737,0.2670414790568159,-0.4207768964388478,-0.07985838271162772,-0.8889446855436891,-0.018758927342023335,0.35004519913452425,-0.4421503308837012,0.12225577029337291,0.02533440646419639,-0.27758224861004166,0.211333406463208,-0.8587005487497406,-0.03885398618549331,-0.5927999333815854,-0.025082183715163808,0.1565293486083363,0.5773238346292532,-0.6787884781266104,-0.2683510422017974,0.8400032389324067,0.40527669773730624,-1.1281946110396686,0.8045196370076666,-0.7106603044061506,0.9235086033264871,-0.10048214011005113,-0.7337204881973163,-0.006241567493085038,0.4465951735080309,0.16753063337147503,-1.1139617831187512,1.323366275214376,1.1173656775921623,-0.394784069637313,0.07862967311916134,0.2223951774351385,-0.8582379053169127,-0.5996005775754598,-0.09333504047609147,-0.9092669557331299,-1.0497892480561035,0.356026191346174,-0.6221239843844318,0.5543263432273157,-0.2412646091072501,-0.18552775996991824,0.19400704252076906,1.036988694339596,-0.9345373336918794,0.6708572047574509,-0.2994531068015651,-0.2169395692302375,-0.3029228776101608,0.713711884039924,-0.6740973633692586,0.25317253429622577,-1.4546161076818536,0.5897241618004754,-3.975259217916644e-34,0.418563153275174,0.7158090830423326,-0.09516512159193263,0.9413514673594254,0.8567459220296538,-0.3685193787543494,0.9486156040797689,0.31672937262430134,1.2285910113694791,0.11313639621808225,-0.5918036029101088
intensifier_l,-0.9259138955536533,0.6457295384419527,-0.07073673466709718,0.14865924865384422,-0.19391015542150816,0.17955216782813624,0.5002223475241077,-0.5687704059028817,-0.3047652934025332,0.708094220915861,0.6657578424648201,0.33600225898807456,-0.1496678822277481,0.6911082769049369,0.8192088897499376,0.059275008486469084,-0.016881329545990188,-0.4958839740757638,0.7388799785093715,0.34876569531004953,0.3370149439035396,-0.08731769868466159,-0.16150562575488792,-0.42923151266175735,0.4904780598558364,0.5691866895165428,0.0702904307136713,-0.6392666546576282,-0.03974830964468275,-0.2292184192436091,0.306680543141917,-0.03783852569660828,0.21634183806172616,-0.3868767799635964,7.343249545628962e-06,-0.403520398159004,0.6494926004902617,0.16751373315969226,1.1610745316266071,-0.08577598738457856,0.6790824901764158,-0.6881457526634495,0.007686324338213673,0.12395589019476669,0.19952158965257355,0.15195175376419282,0.4639210204465534,-0.4831778911281808,-0.16742563060213125,-0.5029794246510034,0.04394441179569794,-0.047752196452893754,-0.06593235694478565,-0.12376974051075854,-0.5013006032807409,-0.3658984858026917,-0.23845172987576338,0.3048810639077099,-0.47739291007646734,-0.8327279632715678,0.3243109524137487,0.1932026578670181,-0.06762896425111808,0.2691176216823151,-0.43250918011888334,-0.6640627550659679,0.3025841909194243,0.8529602250112867,-0.4218348226207498,-0.4127961480213402,-0.027304483971245703,-0.11606171146014435,-0.38258935142050066,-0.7896087309850335,0.7287232016753575,-0.6966599593875381,-0.6131584006648524,-0.9035581803201966,0.2888389559753747,-0.9851415019275568,-0.5212093584411346,-0.9401516316076456,-0.010183953718676168,0.02221811865060958,-0.565715784073802,0.1628623632066797,-0.24950581408110006,-0.4978715826355035,0.4338911898884906,-0.6638834740884233,0.5733228403839847,-0.2784745002520115,0.1862437840387784,0.016431155653419915,0.6298082306660274,0.46137467152822365,-0.3840821317907853,0.15270486984345327,0.5542768429941657,0.9614047820282602,0.6647170594984178,-0.027709053324496143,-0.7453286767230779,0.7479767480029431,0.20301504160774853,0.23498202544137808,-0.07488812761884822,1.0163937869973403,-0.3870586220618235,-0.4375494230170882,0.5833680843589865,-0.1914121326999097,0.32710523092079813,-0.25504768316760595,-0.17791197242316886,-0.42264762929128674,0.2746156377175875,0.007624453660688751,-0.4789521995584387,0.11002462674626289,0.8159948550189808,-0.6536560490415226,0.34101069126591105,-0.4596162570319342,-0.41039642570730867,0.5431452636018519,0.8277825785981244,-0.23637269129491892,0.3495465877753713,-0.6752431246774192,-0.24932311917791278,0.25437763387397905,-0.4059823426571518,0.3767444576175556,0.21611302675411548,-0.6909230442647707,-0.02934409105855746,0.4359159534969889,1.283827673271058,0.13695097021343267,-0.1166401042091812,-0.2842903709589788,-0.04078191934988607,-0.43383929942093147,0.1891429310095227,0.20447774125839047,0.37004000429605854,-1.0187407313914478,-0.06925278738227203,0.2346171448137984,-0.27779068615799,0.16730433765494143,-0.5475765538519158,0.5796985102206031,0.6474577320134994,0.16499010692812494,-0.36876565456934596,-0.4509038815327976,0.1064656107492658,-0.6755358481608564,-0.021830958702997363,-0.05812363118404837,-0.5301440317709327,-0.12612277201639138,0.3674438584586175,0.021424581672278818,0.5930307693402227,-0.03006855236866618,0.34942397659194796,-0.361224586163199,-0.7816369693939572,-0.6007715453033926,-0.15948203801242725,0.31967150176595427,-0.3679414245347674,0.8266628687799265,0.21103879818720372,0.4567315078638865,-0.025363327670527985,0.3258731413356146,0.353049813415339,-0.9768432919014888,-0.3363871557357899,0.7069369609895534,-0.1373424988413134,0.5781107659750303,-0.3479746034310553,0.3862501607453926,-0.14623540782725727,0.580260709242585,0.33860996494533224,0.4268686048731606,-0.14319428126580405,0.060243797132862216,0.10075279389758203,-0.6741203363970754,0.09123658395635728,0.5397886791567101,-0.505167470522114,-0.20754433667143862,0.6411323403760176,-0.9923016225343394,-0.660131334597382,1.170983739765486,-0.05292652768279274,-0.167137925789931,-0.18139684230697806,-0.3772079796240007,-0.45138720638380986,0.2325266456094437,-0.6540298994326451,-0.09638708591221916,0.8459855428586562,0.28361150545467506,-0.24485860186941732,-0.030418157130449503,-0.33616337628314724,-0.8472744841127855,-0.40519070882515834,-0.20559599993062047,-0.4080606029052154,-0.7911573802296784,-0.04151513892928077,0.40717165602570027,0.10110323674551185,-0.2949734946598675,-0.40945967743536993,0.7250759161708078,0.003531772592730546,-0.43275966274983513,-0.07796250222480519,0.3172095951414172,0.05500311606576599,0.6704727385260832,0.9981648135948235,-0.02881537017815326,1.7949648598636814,0.6828638051510941,-0.31779263031322713,-1.1444503403721282,-0.02400666478260862,-0.8676798250641268,-0.030996292626331585,-0.08247488075683425,0.7398856209475696,0.14808157531025906,-0.5999457303667762,0.046389196853849284,-0.3244397731355712,-0.015089986661833294,-0.057120592109280374,0.19856354261695147,-0.17043276062465199,0.09038718703808882,0.5484921015392095,0.5351484776110489,-0.13933479817016686,0.17336490765559054,1.0535155801078344,-0.6548326344219287,0.28600484025599504,-0.20360474768633602,0.0330804211544732,-1.0312406062531565,-0.48666746400554894,0.5670425778131714,-0.3128292229924855,0.21161551277760754,0.4133354212656122,0.13863890832949616,0.03857243918570802,-0.10265269956562814,-1.4823013193204382,-0.1405812292148063,0.27366226497062374,-0.266004452842246,0.08378896902176121,0.07023931254909829,-0.5280908701938778,0.2373910430652412,-0.24351466070796018,0.3555575304630715,0.23812002282531253,-0.34890567113142035,0.8617913025822505,-0.4060579147918867,-0.36613510095721585,0.5715630980635263,-0.12902625737278037,-0.11817202603384729,-1.1068649270520206,-0.46730049863522016,-0.1832040191616149,-0.08853070663421782,0.4024191617322325,0.09589764604505732,0.2957913535042024,0.09082859533272057,0.31289080641896344,0.16246666862411163,-0.32824849752917057,0.05745131717983832,-0.21853876741659298,-0.3285016959270707,-0.9228623304738366,0.47684417105461074,0.505720036937177,-0.5988173977326314,-0.07159000958859628,1.2601564656714446,-0.14707494123554105,0.33192997048438777,0.7891621377180036,0.692348454040813,0.2577554400592652,0.013013149614200532,-1.1764039214705464,-0.5006572930237947,0.1559369866438207,-0.607685012257761,0.46444930352515845,0.19001821257057896,0.13091424879126176,0.09014282248534991,0.5776100355861261,0.06812699963512148,0.5744270806747706,-0.36512366359817006,-0.47243846521540567,0.12503388581036545,-0.5664850749613252,0.41849828728163874,-0.1785522527958786,0.28805338170141365,0.18993294899993232,-0.20751219908022867,0.1627159998586947,-0.15553380231524042,0.098227053972457,0.11743617296351387,0.4433070895537256,-0.2514114657203994,0.3556526263000979,0.8836749064692635,1.004983398871747,0.48248344065403265,-0.6313923600596092,0.5827174786109931,-0.19668518109757932,0.21391380723748732,1.2149178407349945,0.4033704500563245,0.23613066344604766,-0.03643178764423748,0.29707846011658523,-0.47275677486695433,-0.455042419591237,0.8796580011243268,1.1703629946795409,-0.4796576075784871,-0.07854101702073041,0.28403064509998344,-0.12160107896611672,0.5728624720423013,-0.7462343943591525,0.40259315011956953,0.03848657772520493,-0.44991775030533426,0.028199314641698475,-0.3557646419556935,-0.5658706504732657,0.6834875028722457,0.2117532165620468,-0.5152800165254761,-0.02211146230840727,-0.5898830344765427,0.2975619811685029,-0.2536516237727958,1.4869381483691795,-0.13363896835307573,0.07389156982049797,-0.8848839089876078,-1.6064546581188306,-0.7242598527713925,1.0592833313744217,1.0953138570246226,-0.03792429095742012,-0.0440044626914394,0.13267488999649038,-0.2659999608256984,0.09412933305135565,-0.023091845494425875,0.7603158914691439,0.028444296029406645,-0.14305102543693735,0.08507872112657806,0.17974582059197022,0.31000091319333634,0.8237500799872893,-0.5183960441768709,0.18946099739507435,-0.43796905098662453,0.6731540842317081,-0.23049658507787116,-0.2534594481463109,0.36804783425840326,0.9238178047670098,0.7365252135848726,0.5746060730957147,-0.11231995742135902,0.6118467465139649,0.21518158890297698,-0.22359627740605081,-0.043270123473368775,0.5833839122936174,0.2475917018338551,-0.03637851299115515,0.00013424165687947836,0.564850384635218,0.43171497927206964,0.6144554591234866,0.46047915238652415,-0.21553129832717283,0.650378940615176,0.20579208337646204,0.02604677566182283,-1.0361583578535136,0.16707523106744313,0.16244725834437806,-0.5625161105221799,-0.2675580552515286,0.40867070621166046,-0.09547716037411173,0.16547021446921614,-0.7970204639967606,0.7948940875787311,-1.0777862301283536,-0.43368742405049543,-0.7167533080305443,0.04357947108119999,0.13269828141253126,0.38097371393188495,-0.4890711901381582,-0.045803041475112785,-0.5936639435839012,-0.6260849212809622,0.1240829336481238,-0.5779075678662751,-0.7019397641729395,-0.57620096108596,0.309606885456403,0.12514873444638566,-0.6887601896578656,-0.29961645839350437,0.7011382616058409,0.5546362135117622,0.15307827298958956,1.0006268323305016,-0.30715610263991144,0.6483480521817306,-0.275574456445012,-0.8011674109781189,0.65762752796049,-0.001546547057190732,0.007052348505474768,-0.8200246773854647,0.4916251485375343,-0.2745250295920496,0.17672900417214443,0.21634797499718406,0.3785554433439772,-0.3228313719078967,-0.47087563446116903,-0.2168547050707814,-0.24352895772929134,-0.25787798154860564,0.11337351452873382,0.08578318912332493,0.42470624488086023,-0.6028587006864334,-0.5988443288305789,-1.7774648250298202,-0.16713870067781142,0.07755019023460098,0.19310402686400327,0.2815048537985459,-0.6794034590590413,-0.19215365308508842,-0.22651267785983167,-0.43754398660140936,0.23596610870838963,-0.50291457790478,-0.2611067882241395,-0.5696670083192642,0.13897994776025266,-0.030568060742225657,0.12202575680138725,-1.339538592612845,-0.21753556051711298,-0.7770993865545854,-0.4197630910253702,-0.19466739819783016,-0.5254500273707655,-1.1417395847213845,0.7392051458771359,-0.8203886794783275,-0.36776975064300127,1.0761270557326874,-0.2750095808513005,0.2998477595647738,-0.719464010680962,0.009076479329304327,0.5570443502355286,-0.5439592740561903,-0.1927384965498703,-0.29898497440138494,-0.4068439563359457,-0.6612898724750008,-0.1307303692871036,0.20138722832109748,0.6177291954387438,0.37690764306930685,-0.12668626265811672,0.15784276692805002,0.08245914105068582,-0.5410723503916618,0.6789985553836133,-0.486294671237799,-0.08261238719056367,-0.38401379592400664,0.5052309406914086,-0.6504991280702098,1.4326231097176596,-0.5456324287843043,0.23084394374106307,0.03970201978353305,-0.4186021026549278,0.2479174122886617,-0.14364994930365804,0.3713767904900459,-0.6722332704498176,-0.05324485787848646,-0.2295682796072026,-0.191169171906225,-0.21656717784958976,-0.34077899890118285,0.31116982019645045,0.015144758272018655,0.6526584790916432,-1.146185588706451,0.573599319305081,0.1880348355666341,0.41279139143532656,0.39921183471846605,0.35447958073172786,-1.0047049838049485e-31,-0.3342208840026811,0.1744278402827971,0.4073497205651996,-0.2145686971004887,-0.3994132060528012,0.70144429170897,-0.016231235873596307,0.6734225513933073,0.4460457365642256,0.36281844095550053,0.18182736026498536,0.12840393792959282,0.9020076199805043,0.3203413301360963,-0.41844657601780255,-0.9051969973795617,0.3643518977820244,-0.28775764038855994,-0.13155348137520073,-0.006065014612685558,-0.4112460286831114,-0.5460556039365844,0.7997227958132227,0.22736644555444996,0.5154729222087685,0.0162654118871657,0.03501853555676718,-0.7102369535616787,0.36242349165613136,-0.03434899005206837,-0.312236332266381,-0.26685400431062983,-0.8168692156869891,0.25042503857609677,-0.1562771971911922,-0.2537254828307335,-0.020556646978425224,0.8651126615685062,0.35817751311602003,-0.4804147633215049,0.34630525481836344,0.23471222356869012,0.12821549418857248,-0.22550460702707623,-0.3872949571338554,0.7474114076929853,0.033285201999645755,-0.19465793423529187,-0.8962518383518288,-0.18823168455179806,-0.3666396771430561,-0.24082860968078426,-0.22859762608880088,-0.21619483896390063,-0.08846784411723585,0.34110296971608783,0.7957213177275805,-0.15597133619401113,0.18673550503607375,-0.5693803831403609,-0.22666073691103344,0.12356115685738689,0.439133352391047,0.32708585539298946,-0.025747859447160543,0.3170025696771994,-1.0496528802890366,-0.47562221721227754,-0.08347413472341349,0.2705341804102934,0.2847629107253592,0.4768845129626665,0.7883282794336387,1.3434431032473113,-0.6206579159309142,-0.7092012704910252,-0.49738884123269783,-0.7139537051738282,-0.5300960354504562,-0.7344879394220408,-0.06553501473494495,0.05770826326469523,0.7005074051134766,-0.16334087022902416,-0.31154423535018266,0.01568546267975706,0.29496384649614704,1.067133465988092,0.04640492509785081,0.6505055248728553,0.050171205595730003,1.0903052834450966,0.23680233596210948,-0.1940663888888051,0.21473266437333868,0.7765464943216508,0.07136552360531584,0.46367382987326533,-0.4298403311264318,-0.6771304576794458,0.06785106262255988,-0.3366797839532102,0.9404778844929814,-0.22632127939395583,0.14474808942735723,-0.1141724090798852,-0.5127003975771196,-0.32895284408903436,0.21268099525682374,0.08922843847263019,0.16282725301822004,0.2852460580666774,-0.5356937740605656,-0.30434545186536177,0.04586763532402169,0.6741648074291735,0.4497274751144754,-0.08886117898658345,0.20594299361859147,-0.24906579662243278,0.07797804319623718,0.25040270620811433,0.8937594859660034,-0.022546054409543766,0.0018354870634170698,-0.15235523625396155,-0.32065132203801466,-0.1785351515743939,-0.14321698312382053,-0.7583676539168144,-0.2878833680684057,0.7226779605800284,4.6471437366923985e-07,0.011663710344498528,-0.38114084608163834,-0.6236415896043029,0.3864364918183402,-0.11091813013572042,-0.2463013377068892,1.152181379283314,-0.42450285086867345,0.8889398485128869,0.6905131960293865,-0.583078329019357,0.4770491690394503,-0.4662869570302595,0.05092788045833407,-0.3414874962254124,0.36537333537023897,-0.7302016200217069,0.4335119141620702,-0.28014930273880406,-0.1955644331242129,1.4191566895789536,-0.0023814164053541395,-0.1727635867829845,0.6527065520370967,0.015822223959458474,-0.2768034191122492,0.20356349327486944,0.30572753546656567,-0.1901294083734156,-0.08821549125206316,-1.2139063175846125,-0.667648885894031,-0.36248291852807357,0.40795149752059434,-0.5591048087250241,0.5107972632289198,-0.7355463772665937,0.4808022398426273,0.019961975713802597,-0.6442763561296411,-0.494852031251482,1.2085121664826237,-0.08828866177177819,-0.11118046089107078,0.2189658565470735,-0.3896691386332086,0.5079125096300047,-0.8336976813191497,1.2312758907519183,-0.07423297217713692,-0.17889056573536952,0.1593604770939587,-0.4839391368943759,0.22972538398453898,-0.32210087754589034,0.17368709113359684,-0.10720169950984015,0.2757408208916487,-0.21197769391060717,0.6812069860923158,0.5572877802868412,-0.25536148548368476,-0.17771261711460357,-0.8994316158282486,-0.36677256722370727,0.5346617624603801,-0.5904273707086364,-4.4618382965218394e-33,0.17082241527768685,-0.09028039801627769,-0.12651868469428296,-0.16505428500073815,-0.11164482575277401,-0.07340351117087533,-0.5302867562486626,-0.06369729811108221,-0.3502856047619423,-0.29358077589065323,0.03591045567870135
definiteness_l,-0.07001430067813481,0.5320534735691126,0.1819177625508713,-0.05246599145938153,-0.0014048718971695314,-0.17151190093376836,0.49700649853412443,-0.01240740824001291,0.23656326760214205,0.27188757137633635,0.5425454996083509,0.3297783566298279,-0.18109304115213407,-0.3374048839191759,0.046045507933632684,-0.1621094061393845,-0.008633587223070125,-0.11697311098982743,-0.3472916420973517,0.7353411247858043,0.5211167331948919,-0.19049897661136672,0.4364676040989458,0.4806616108301493,-0.6000070858599786,0.18409391159392918,0.007605396659590627,0.14082212096519398,0.21870939965141326,0.24194671550360974,0.3292597094283347,-0.02011424714685755,-0.0899386093880302,-0.09101910693889384,-3.1443547763968207e-06,0.4076859285779832,-0.01681220719903512,-0.2909214595509336,0.10572727629831144,0.048362342854784794,-0.22369917404059123,-0.033218855589454394,0.13930289375075394,0.17485204576571697,-0.14334304428986314,0.6597997688898976,-0.30654973612431696,-0.5241625658541543,-0.4608605449320763,-0.03206592487152083,0.2746140032178461,-0.07327104813952516,-0.2830866139761324,-0.0026617432176333235,0.5235017489219492,0.2475613298946236,0.07566023821459891,0.2159501613365926,-0.23600226291493676,0.3498068349929186,-0.09470896959006639,0.4108811891954056,0.5517684272857186,-0.19263434554409986,-0.06418876981708527,-0.00384482978415586,0.4893391327921994,0.6458370671065208,0.526846618480473,-0.4391983867555206,-0.3863038140778616,0.16459047069665902,-0.09331989644778128,-0.4104295036527347,0.04632065891398821,0.23955197834801403,0.43058963220747265,-0.4523462373561569,-0.3758641230048594,0.18027403963904035,0.138873648126321,0.2959776676784727,0.31444232854554244,0.08385736732369893,-0.7086943665182367,-0.022889040680473045,-0.19610910392784967,0.4536418907268085,-0.4657692846138464,-0.11082053145160636,0.1923324986981698,-0.15277865288034484,0.3608786000678693,0.09242404553050909,0.6480441168069093,-0.08832997727469448,-0.06967637831139843,0.4084881724604669,-0.03439728184997074,0.3807374856700948,0.6364505401221183,0.25552818428947816,-0.4356695408723077,-0.04217393116042325,0.20258188596291932,-0.6352755787103477,-0.15607688087572122,-0.07426548733218313,-0.564441077795694,-0.6905423732371007,0.05110700734823037,-0.07403287282765222,0.2030214189378648,-0.5955633518368123,0.1640770968880984,0.2577372696292507,0.11022158864509798,0.06261311397639927,0.1637186712084023,-0.14106465252454,0.2712327039710338,-0.0965764174378904,-0.1794082974051812,-0.39635179055838127,0.2645230353192467,-0.34090516334197374,0.34086872719228706,-0.09303847146423212,0.21659165464510136,-0.5907864111792628,0.3143746105595913,-0.36595792898512375,0.3092712893305468,0.3482240587180269,-0.007714765919100185,-0.01153858625794504,0.3282731485670975,-0.3776847407769228,-0.1782573163446583,-0.2713059850261745,-0.3048334061005637,0.14943442790164255,0.7066645913612553,-0.29606305638275776,-0.6234818732469477,-0.09003388540598453,-0.13648596241464375,0.17646085036519552,-0.18709308613404219,0.2755087815497825,0.2586938345661122,0.2607644544771126,-0.015479311270969713,0.11592142489957467,-0.2104839474938384,-0.3487068602686709,-0.41303611537456536,0.09375673502119354,0.1637434664799647,-0.3584997050452092,0.014426433317532326,-0.5672872789788055,-0.34620500681567645,0.1884227962955676,-0.2614747187395814,-0.2913144544516982,0.23401326569961245,0.14219959108164895,-0.025488380451511805,0.28034041702014606,-0.4617098199122842,-0.15799666299680623,0.1474419213681922,0.06806896996058133,-0.4017287065522222,-0.03840967555808472,0.22947058549596047,-0.5778538208063675,1.0823532957959199,0.6339246868526989,-0.46364840206464975,1.3987852920646766,-0.22608177146646305,-0.04594802366749556,0.5876142827555912,-0.029100794068154575,0.16924108176382224,-1.50951676696522,0.5218452316074313,0.10181625396419407,-0.3233722385429416,-0.43261319285696404,0.033444809452135946,0.32386778218063195,0.21620183985162775,0.6329019901425272,-0.3155292242192306,-0.4683006788054224,-0.341305683893871,0.1774570995314353,0.1023803003346645,-0.0029270201526290147,-0.5136558423991472,-0.08660351335530575,-0.27851469810312596,-0.4651060571392328,0.4055609286895387,-0.08442312909496698,0.3372876391420468,-0.359288709976224,1.4154788773207916,-0.5119825157675829,-0.23477794239510616,-0.8489512242922311,-0.16799672614683214,0.1618376014590099,-0.41730381655068494,0.4322913334441659,0.03199464859689444,-0.1357968825183343,-0.019986374500173255,-0.13456455121607838,-0.6264438086695907,0.12130230453376555,-0.18653587049409165,0.03515649274952828,-0.06058068632802295,0.3420004799769436,-0.3802021784375709,-0.1611952125946936,-0.09335406131869582,-0.41247974481116356,-0.4531891712473664,-0.26603264437179386,-0.3607519713077838,-0.20833608459011008,-0.29907133608125414,0.05190537752588303,-0.02392394642779915,0.892936453184034,-0.5291085301421149,0.19349805512963558,0.3663650875917426,-0.18636390281763754,-0.9009312706860912,-0.43776529080871196,0.03691946275601785,-0.16967558817773074,-0.4892869744614366,-0.4469926720507953,0.1083193014560861,0.01785180737954664,0.28635034532060666,0.8402049683495152,0.5045275882901246,0.12175183072928933,-0.849268967055279,0.7928985585040664,-0.4201510048545396,-0.41476084317033113,-1.0052536947226574,0.14011248159273434,0.41744716735704823,0.9474278600779116,0.6103654972912198,-0.347882032365649,0.23952379628546064,-0.03414138462931474,0.0038797349697940334,0.032897169281539844,-0.4922946039061662,0.1265604753292225,-0.04007528277519488,0.3535489804993066,0.346894067901915,0.4812124456164119,0.21108194140808395,0.6106257640472581,0.6858466540250834,0.25983090818523175,-0.6249072463727611,-0.3832920900210136,-0.18708285470252234,0.2296764014608774,-0.3526183452008929,0.6694440953673718,0.2684516535601865,-0.006520478837292896,0.019231561426164435,0.32337742495220684,0.10977364386717668,0.15569070259050852,-0.20724545198909214,0.5210989410590013,-0.02148959526246203,-0.7232839600102305,-0.31132073301442,0.9315880946321344,0.21751623980304238,-0.03673828938581968,-0.3176905937571309,0.07892439389123987,-0.19674067134828802,0.12056814908110879,-0.40374783165324063,-0.6944176146328004,-0.2939029441763423,0.5201444462625647,-1.1321843369857196,-0.23659164536590452,-0.27512323333743066,-0.045399634686435125,-0.17058070175345366,-0.6179386251792677,-0.12099052718869452,-0.20388533495135844,-0.2749118215832734,-0.17446679372002522,0.17744963286897372,0.8372071357327399,0.4706236068917518,-0.31413568243650586,0.9194920308378146,0.00979855709419837,0.15528688897795875,0.8804001532189676,-0.19373976080965308,0.2844321803818552,0.6971067968290737,0.334086159943266,-0.2283946077663703,-0.44437624088184163,0.08102131420773992,0.15581632119610314,-0.3477393530489527,-0.08216056155747023,-0.24565838285158695,-0.1969959334572202,-0.5242110126694326,0.03560102880350855,0.4423679350416582,-0.35299737663642283,-0.16211047406967868,0.2354201044151108,0.07381277976680566,-0.26845102530682424,-0.34135089574572997,-0.3464641749686786,-0.15360574864835666,0.41901732068604636,-0.667987528253272,-0.5649318204818602,-0.1852486876591552,0.2234968316416781,0.2560791967807121,0.9906566160610164,0.21287344565689414,-0.5953336290632208,-0.6270744927964997,-0.3741899401663528,0.12138571783465861,-0.17357061475517108,-0.33793079051395336,-0.8020625923920227,-0.24454361759745888,-0.2562052353120538,0.11825947326125177,0.13771947985104585,-0.002951306777796327,0.2723463562679203,-0.352732084872897,-0.8350142746263645,-0.506815187286883,-0.014381682694710582,0.3435758188085129,0.2265920051853024,-0.05440653270998731,-0.08375976937520754,-0.18116839030670537,0.12210082532044941,0.020876951263173876,0.06797095841655978,-0.36664818505446933,-0.011493213761805217,-0.10902220690322771,-0.09246972457732397,0.02664785775035009,0.3542452425094368,-0.3821229370455494,0.1922815094122239,-0.272005236872484,0.39578874604702247,-0.07933955257723908,0.8458865293145343,0.15614410597254832,0.4131073693390766,-0.08375253468178864,0.1374848705751928,-0.021157690399959843,0.010575222507119232,0.15234833325907227,-0.006456126617956628,-0.8886640865432001,0.40316417625405093,0.06892248951493508,-0.3557306551330625,-0.7276027001819347,0.025317658138817995,-0.1152883145368442,0.40092875470145795,-1.1151338441915266,-0.30110562341985747,0.34606286499980027,0.545614629130918,0.4881282472969826,0.5587443318492262,0.2068394936090605,0.27090415811903196,0.23178563784214978,0.1513038513804501,-0.20324892572575276,0.014237222311902917,0.20840131867028483,0.07166312786465008,-0.1979737788898052,0.17868818119317925,-0.22016240779157023,-0.7601129529547357,-0.5072963537868387,-0.0040842051825179795,-0.2630300167058001,0.07180867242389476,0.12212865634591917,0.04073222429172522,-0.06735165255654396,-0.37880972049175476,-0.5566080224561886,0.03969412790137048,0.12249634879820465,0.2839828474074171,-0.6732851178997595,0.08078113860892681,0.6314834886318135,0.12786607566183197,0.4285909039910853,0.36732522164644216,0.07714748467905275,0.3576250184770013,0.5039841585118637,-0.34787393238555037,0.3716532782142046,0.35697278692540785,0.4034809131411878,1.0231133361589524,-0.181727179485933,-0.13967941852747243,0.10860168417453477,-0.0822926835049312,-0.5268684562357192,0.11447170724886399,-0.254106429957907,0.07858673765532959,0.4078537043467246,-0.015329385866759913,0.1716893954783385,0.4245997399782817,-0.2128382664775626,0.058766511748318054,-0.20257617144340928,-0.44117817737867404,0.29111020593889747,0.052903610296106345,-0.02726020874644856,0.0994685942714634,0.036142304734207285,-0.25301289482153366,0.16800877793982968,-0.21168648493800402,0.17288743067290566,0.20485937170215848,-0.12311400721795053,-0.22689918641261766,0.6098329338898366,-0.2827155093980451,0.5457397411579383,0.11488853288710353,0.4507747931048419,0.04620196467926877,0.35343009720914814,0.06633805975882548,-0.6397537359541284,-0.12509415941942992,-0.5595024484840769,0.5422661258095551,-0.5829368257183263,-0.13626668416354826,-0.9660586937657845,0.47109234865243327,-0.4880677896913511,-0.5800679056033852,-0.3142881724110477,-0.4869465148756376,-0.29155531913412935,0.12399388499933245,-0.33548486757893253,0.2608073678573348,0.34013039739982664,-0.3264936593598896,0.12329695609726038,0.35915695351140037,0.19496807436016142,-0.2961264973230602,-0.8425133902427875,-0.4152888430381075,0.36713040805705865,0.10394922084468465,0.5725043831943964,-0.43464871730829074,-0.1500574260686036,-0.1917316212893015,0.16307240746252202,0.022570435217974902,0.36800647477524845,0.4230619670958146,-1.2601472149638706,-0.1558729229169862,0.1408156192811772,-0.03778327927978778,-0.6090294389516341,-0.28117747884270156,0.5555024021706972,0.07000159321375964,-1.3460381960128804,0.157853224054714,-0.2813806294326988,-0.9398387842111194,-0.556202653946646,-0.058006553429130046,0.3101620271190623,-0.2343729387438579,0.4339357650468473,-0.07050742432089797,-0.3927456441590969,0.6474601690033563,0.3800630614970646,0.23127259366021188,-0.43340126903370363,0.04573819735437761,-0.2837543369581461,-0.17242137328436302,-0.38016135404043894,-0.18209556905414678,0.563647430614811,-0.060344544600110926,-1.7633656165101252,2.7914005251014674e-32,0.5265115341353571,-0.5215233664544364,-0.3293250987286027,0.3726947334616213,0.6106860907953744,-0.029028098539560447,-0.2993178601727054,-0.20561266153206154,0.33588596580227226,-0.16111102713356237,0.15895503061383853,-0.10472414810837892,-0.18241998552166167,0.2273124177698449,0.3582161311293015,0.46131982616618433,0.002534500169905914,-0.36212145933901674,0.05553248488014355,-0.2323472895004254,0.6367644129741753,0.2045948910759,-0.31213837507703585,-0.007792410451857705,-0.6101257332670987,-0.08968409850019964,0.2918685440397927,0.7109851497476591,-0.14564705850604406,-0.16787721936240135,0.45197445897737304,-0.041157679746008105,0.521520093344002,0.22842682746301893,-0.06306183930708263,-0.3335824751766165,0.2569801746169264,0.6282483037479017,-0.23753183765381358,0.2905512916903779,0.6276027857676542,0.29888557156029827,0.038579779824302274,-0.036105005000639935,-0.013205469619008297,0.17908977177021826,0.10543400450326948,-0.11053795482852612,0.22546567991941588,-0.6357395915934553,0.01582528566876208,0.09864159295884482,-0.09819588230269807,-0.6166326637429091,0.42413805722384246,0.2572310872365158,0.15204961643317288,0.2739806072133957,0.07121087396866366,0.2147219102378916,-0.27232632975916016,0.4549023627666312,-0.08000658507404082,0.7113403109133402,-0.47007548766503154,-0.4948603113860856,-0.99835221400902,-0.18597881338170943,-0.3680433975560921,0.1065141171047638,0.170230543018414,0.5196510063362058,0.8110801061704085,0.12361271605149171,0.47644903873572303,0.12408934585954456,-0.03597333237611975,0.6250812164895159,-0.5526617330265166,-0.0729459143874252,0.665401517348027,0.06474476210891877,-0.3474051004568021,-0.14739359744430924,0.06958421816631628,0.4471072377802576,-0.08961526843713398,0.5530543396931445,-0.10615806463053337,-0.016506685620597653,0.24771126323295153,-0.4179352070997017,0.39297850711104515,0.2416173842890923,-0.20894325820095658,1.3411498225627854,-0.44913451404516386,0.1467667470709468,-0.11752714452115298,0.05946450356162577,0.07475324172103938,-0.7371402367505507,0.3985863905052294,-0.2892223814542162,0.047425705605843776,0.23833055488098318,0.11870716168954741,-0.04622779465149109,-0.2975643386425557,0.07479555447314246,-0.37719062849323065,0.2341871091567584,-0.28717936719339937,-0.8988319979119307,1.0717008999468556,-0.14064794245984527,-0.3245898431281202,0.7335988904738356,-0.2570796096989349,0.6859102221041218,-0.1740583885822742,0.220980299886152,-0.16646010785276397,-0.09087196175743173,-0.4240711683505659,-0.013806395097398045,0.24627097549889734,-0.3975656659440718,0.24547787082626857,1.0167933361687176,0.10861555213684532,0.4717820603724643,-3.288562697905559e-07,0.24672300993867066,-0.5128718787397917,0.21616815809441522,0.5423751769706713,-0.10921125490971391,1.0348742555023929,-0.39027309652474285,-0.3250853845371058,-0.03506253542174418,-0.7947348867675034,0.4420646231728126,-0.3516572893629627,0.5082508153626498,0.41298689560934304,-0.17724587824230714,0.3969085382220411,-0.22444304252305863,0.38281182502806765,-0.15316970168502833,0.016265324355540504,-0.27252735039477777,0.24839739457261906,-0.19148940909653772,-0.08135128531893124,-0.07837929681839817,0.2863015532493457,0.18869712330518207,-0.47678278206171465,0.31670079975396814,-0.5492487158053578,0.04719217535172199,-0.5765711778445504,-0.3648704321524857,0.1491602976381451,-0.18054254614613852,0.3762000260620759,-0.2691123445143193,-0.3990321436563547,-0.06213721096647515,0.04886248149893566,0.33409765078819703,-0.22093249642430662,0.20618407328850782,0.1985804836900093,-0.19462199490609902,0.22331967369173727,0.4754671154834875,1.0701711744322284,-0.6021424051668844,0.48928598375490917,-0.6368294047795376,0.41428404264466945,-0.18960747626364036,0.12003485639390478,-0.33619494193661686,0.33608488222588484,-0.17819583361387323,0.07982975346886051,0.10170292729378852,-0.22157537819937415,-0.18404993780976858,0.3845477531511017,-0.03940586871422844,0.2604386072883379,-0.10995485462424659,-0.860289569524828,-0.32226519047588126,9.018249224193551e-34,-0.45580310313604205,0.5952067945819969,0.015226205480338413,-0.5447958013481473,0.4019088843052644,0.32343927024807984,-0.4455003133005508,0.1416982002121355,0.1083546294688615,0.09599523025356446,-0.16875244336667777
quantity_l,0.9447518512466515,-0.8903777820823945,-0.0020749296563601733,0.18288967577142556,-0.5064770133951332,-0.19729103655712357,-0.2875955624908051,0.12406269017295425,-0.3535159965807632,-0.02278102543020878,-0.26731051750849705,-0.2912525611096396,-0.5074301452056756,-0.1153852487768989,-0.7695163251188829,0.19187145414969137,0.6827765914310251,0.536208251112601,-0.8717877748397242,-0.6494714459972362,0.2518698987001823,-0.6235527935458205,-0.2631103150190417,0.08174519961774439,-0.5769241345195383,0.1485128248348778,0.019683570609078816,0.5522254315626594,0.556446263959315,0.5508641012003757,-0.4557862856219759,-0.3639791874758027,-0.44810773101633555,0.8931293688893174,-1.2519822551587859e-05,-0.3657553137821857,-0.5234585500171905,-0.047514272384608855,-0.7224836318272809,0.023480650590117936,1.328130309383633,-0.1816851133428105,-0.05496260333714101,0.04039021703206383,-0.36321814357587673,0.1871834188361732,1.4194549016162985,0.472695122498851,0.23474551549136818,0.3137095517109807,0.04235244174460196,-0.9896637716764515,0.10249834759180318,-0.019770567945912223,-0.04879935022169511,0.3865618985191278,0.24516887177499022,0.47158597895596016,0.17154070956706516,-0.5261370551824273,-0.26629955459113286,-0.7998717850787664,0.43390248301568995,0.06286056334499124,-0.6307079871663339,-0.4561822414949119,0.06409691430678936,-0.5495656787949664,0.05988608527510877,0.8680470941683213,0.18944131199272377,-0.0038224227132788334,0.14804252678870775,0.014137685717264245,-0.4075907497106242,-0.25352770245580714,-0.11241599479481748,-0.17418641606408874,0.43431912868937067,0.13959942995335523,1.086465766950634,-0.6254127439849979,0.04554338585174295,-0.7720499334399505,-0.42700042382343667,-0.3181996666032852,-0.4023116706698662,0.35299790403579406,0.02482874813461486,-0.18516867249761196,0.3066670050781017,0.22811019661031315,0.6399308448968447,0.010008940824846258,-1.0582573520606615,0.2164468438727846,0.1068727229553744,-0.9162156095382784,0.19816513030813449,-0.6045735747011338,0.66868860537486,0.03475944056424393,-0.5837936546293654,0.10761199128899797,0.2779073132783574,0.5060732500378567,0.4969205891369137,-0.5974528682625954,0.5154548812745886,-0.38209726338531336,0.08573932678695492,0.25522109799425174,0.07663795158931024,-0.8380223980452881,0.4887994157486977,0.19420612938529985,-0.3903534774818154,-0.4846355378318172,0.8388546099743494,0.10958258441397148,-1.0186732240310754,0.28123069180459226,0.0027673729130155054,-0.5432326034592703,1.1042780129723428,-0.3048076963480654,-0.11662033479202959,-0.10418217122812302,-0.443315363047262,0.609044007397619,0.26914986613507613,0.005620986576694759,-0.6413962949075964,-0.08200505185650313,-0.20183761909622325,0.3058536537240461,-0.4326087115044941,0.42576636656815225,1.0272658637155672,0.6856771529665393,0.27737558918946054,1.0273988742255833,0.21357270899396735,0.7325697828090484,0.6805033547937728,-0.3035287984827688,-0.8109786259078433,0.32824184671898965,0.22816618528256843,-0.18207985306202212,0.6271406561109194,-0.24671252369707805,-0.5209231472975928,0.2753869642366449,-0.8991578785775608,0.28834729805587533,-0.5885373254872084,0.7593898557565597,-0.011575099975205871,-0.08350540607055593,0.09563976974495807,0.7820875074616859,-0.08580101444420471,0.558060733608779,0.5852705719534205,-0.3701754077190103,0.4122141734667728,0.9485913028558134,0.17775061357921498,0.06690615565778096,0.9495070340680892,0.5067600317470815,0.4462882962619439,-0.7402239679554369,0.18201947035533747,-1.2055366167944286,-0.0883894903738171,0.12476554600607352,0.7134926127877761,0.6880559670401786,-0.9944685927928076,-0.07389473683029699,-0.31180158028855365,0.668470712298244,-0.2667489457128544,-0.12224579994077318,-0.2050620707345026,-0.5158087194748531,0.613209618120921,-0.28761670346534074,-0.4523524617144079,0.20977064616123875,0.6626581777134434,0.40397676842177893,-0.6744461972474243,0.1422434099416886,0.22619281993872986,0.4412034238161267,0.5744639288821389,0.14402188947710381,-0.3807818106577936,0.21736945166530655,-0.5183830029523525,0.09983472260757396,-0.5732363423168613,-0.7602050359478412,0.21957814524946492,0.6635556166367095,0.039114041746316885,0.17930320489777501,0.3822828114822612,0.31367980987030375,-0.3639081885730411,-0.032172393566900936,0.2194700006189869,-0.6426398674919049,-0.18715492711297965,0.7366345270587078,-0.14900878758295744,0.2546316120436711,0.19030603465877097,-0.5808650248274445,-0.13971310693430988,-0.7416583679884956,-0.98510793208436,0.48114604782984105,-0.08227416165934878,0.16455196326638333,-0.7018571711108276,-0.24766856801923073,-0.6310709865623402,-0.280634627432467,0.04148128136018471,-0.627143798286473,0.5963889436082549,-0.031827000025768507,-1.1925199256545378,-0.27861948411951803,-0.1678127231599028,1.9702587004480399,0.11139398723438212,0.620009285379922,-0.009977016811341086,0.6374304271390159,-1.4940174953935677,0.5560235820046499,0.1099714526339943,0.5898602164338651,0.06171474051083068,0.7058503193829323,0.6250539584743521,0.36296977340590025,-0.675042358643335,0.2661301470527549,0.3484060877342321,0.2309303782099988,-0.23251949732774177,-1.0680770663030992,-0.0283198708405551,0.0453322174370734,-0.21485509910113448,-0.583812031546264,0.45265762572172813,-0.5532065747544026,0.4870632595646294,-0.12344326595159409,-0.1986871074623457,0.010429638367515138,0.15315399125119583,-0.020507791027619616,0.3005690327408701,0.38276427873146157,-0.14732470357003366,0.13615053185760434,0.02301032339437395,0.017031828273751968,0.6156314969165262,-0.1757241177005085,0.03721824850240092,0.10653947975603076,-0.9034543744644602,-0.17410805451860942,-0.35216051050947367,0.5197327474862447,-0.9214207017059424,0.08384660203599202,0.7427969861944187,0.28738710095932224,-0.680289209513093,0.4363026897350587,0.9305731195520787,0.1499997710233292,-0.49574098773538,-0.3990539132836666,-0.8854907792240683,0.6775851283993614,-0.4720203774587626,-0.462308670288235,-0.32418150667782886,0.4935474398984295,0.33897857960394184,-0.5379201554004405,0.1648150478072375,-0.07666528115540795,-0.37074692822268457,0.12915213566929112,-0.7194639005359631,-0.13317957186977636,-0.25796580260791285,-1.064633337002794,0.4862746051314419,-0.06906705043492047,0.2918663301662276,-0.06884770052256049,-0.8547619464448288,0.3016484443266204,0.7807161313265616,-0.2680839547925419,0.30656511634837247,-0.10083945001323476,0.213286721752249,0.5355949679239306,-0.22743856911090932,-0.12625302731020205,-0.7317592535000613,0.12988585085110685,0.05743527453831841,-0.6661710784801694,0.6173672760740689,-0.2965827589920402,0.39113783511991207,-0.6002649056738946,0.023288506789973604,-0.023050556698438123,-0.4629653936869467,-0.4527120194525901,0.33471344855477864,1.1515919171209847,-0.211178292093166,-0.3906924462391905,-0.48855709188586777,0.32410931078020017,-0.8413722714534672,-0.6377305822631718,0.014257857744494897,0.6535509461074327,-0.001577417073952737,0.8123654859969123,0.18848743553880024,-0.3431397849437087,0.04265520268217534,-0.5058573630436971,-0.14814504783257032,0.7753895723287879,0.07304597197996258,-0.097779313535334,-0.13746957541126645,-0.14663936417447662,-0.4087824817177902,-0.035276016365782155,0.4353155641912821,0.37858282755714623,0.24363023877290277,0.7347536849751981,0.271405300015378,0.5505846727171244,-0.9831444715159844,-0.49735912752668143,0.4581962716711046,-0.7681355273484372,0.1874615901070948,-0.7710800356509879,0.3552580345351011,0.17991023603539083,0.4764019021134405,-0.5768277736083536,-0.23779714535197558,0.6382009652229342,-0.481479141606108,-0.48894313425647906,0.004634106487778506,-1.039605445171011,0.8712935703718169,-0.36768007733656694,-0.6169483167824198,-0.2157093390036348,0.04847723260455029,-0.4282510969403309,0.15035267831337124,-0.33477410028409,0.25248267182483214,0.7782972567438592,0.12820560969834494,-0.10364148058567264,0.4683001418816724,0.17468689537984355,-0.017873100003698517,0.1910767388772044,-0.34188574693684987,-0.03766029843579168,0.009362581880610928,-0.08737550039507154,0.16391083073690155,0.788742565753757,0.9338080660037755,-0.5572816243934484,0.21093740222304397,-0.43978822287404035,-0.5280703222450271,0.6982331114583887,-0.29951590948782947,0.16524054713514924,-0.46698168166007314,0.24258730523299946,-1.0067087644417292,-0.42274679540023463,0.11832393025071267,0.08112439086328445,-0.4657813758677853,0.20483999502906264,0.28943035609033435,0.8156682635820559,-0.8966826959178403,0.24753926678420551,0.38141163470869144,0.23880520486405166,0.5809685709482113,-0.037596584617525415,-0.2768673082989413,0.15670031976608456,-0.41499015863717326,1.322967407029123,0.5923218318444077,0.17528426343619344,-0.574239569587653,-0.1793992601024672,-0.6209708569563812,0.8900690116621897,1.4469665191423606,0.4094633206805957,0.4356324893037001,-0.3753251319481364,-0.6437900515791638,0.039120687481758516,-0.25614917055614156,-0.012816114348664224,-0.000632991383178139,0.3789040355158056,-0.14559220720347307,0.17596258018477087,-0.21666147292700877,-0.458786039709417,0.6859799251392528,0.5048041525700632,0.5128605050510862,-0.4115690807777855,-0.8116710435821465,-0.567341626462875,0.24458395506105962,0.04318994112950607,-0.12014107148464681,0.09636595167721249,-1.234225376412215,-0.27781416409618653,0.5576762067005826,-0.5041238688697156,1.0730520719309358,-0.7966777814239737,0.3144486677354914,0.8661803887402034,0.9980155184538986,0.38521959187308435,-0.2503476072038491,0.21108200254463821,1.150495600544076,-0.2304755543573087,-0.19838599918607838,-0.39864798053371736,-1.8367508659399472,-0.05970948461032307,0.2587162176964022,0.8187387477269092,0.24734074234864747,1.5833028622247778,0.4432444237814739,0.032982464140950844,0.15731647689968198,0.0046217156958967085,-0.33336702159809734,0.0996384769864015,-0.04002725310583391,0.7098291485705174,0.769228276661647,0.28628953557944653,0.415399756937697,-0.4319784044663339,0.1674139268202594,-0.12572631300885137,-0.5571298019650291,-0.15450442131387795,0.2378186697920754,-0.19665224192974767,-0.8536490422059223,0.48791312338679177,-0.19260121395387764,0.16387228929860026,-0.4479306643438025,-0.20396921225220718,0.23838854208526422,-0.1263126299706106,-0.5645604220860357,0.29868431138630364,0.0022645349691085737,0.053510980833606454,-0.049163992082417604,0.34400307450750295,1.288868794491717,1.5614468560234274,-0.1388787930549694,-0.0015759710207958776,0.019683681009808537,0.8027085867894325,-0.4832621536587519,-0.857410524132962,0.15935132256403295,-0.3103863577743223,0.31710763060183067,-0.2790166889594727,0.8021765864758928,-0.7311945415156009,-0.21577553813754488,0.01840647661693478,-0.7265599556963358,-0.020208447521332606,0.07571808372729454,0.44579743840265607,-0.44248408786518423,-0.621809072937437,-0.5261043941158773,-0.12933667798071236,0.4726384552248034,0.5411917871690626,0.18216939466031898,0.31990214412178686,-0.726234251500893,-0.08722335649240603,0.15628235532224982,0.8569410938058414,-0.06257395533894963,0.4038423996042486,0.30867724433132965,-0.7917887395734067,0.056763934415058385,0.356591410790054,0.13698850638181026,4.8699522595952263e-32,0.03736259793972374,0.7023345642237676,-0.02628652556802759,0.02693195608288605,-0.007272143798842519,-0.32281589081576545,0.37554876668748477,0.1182636186303698,0.056836199944441466,-0.10219935306165252,0.42018066833942536,0.422016350642543,-0.17762487712671363,-0.7213167186853107,-1.0158891758061266,0.3321444360248475,-0.1898221088048645,-0.07985787178225436,0.2905139662288963,-0.10863889204822937,-0.18878026161132108,0.21636389437221104,0.08381110526503668,0.6522089693834576,0.6444300657463503,0.7182427725386534,-0.30742211171884587,0.7807046500243506,0.39815877715400505,0.07496824779830807,-0.04253457517631912,-0.23593011872246586,-0.09352983987762262,0.3299973154427105,0.11028869727746266,-0.6966452392390361,1.005010184192426,-1.1807058922827196,-0.7976198112286244,-0.15732342948967457,0.6558927380451056,-0.0781006071626523,-0.9976256837578479,0.1874471903715001,0.022769482362089657,-0.670287283266102,-0.6450993567290455,0.013223459392248374,0.2733855055275025,-0.6522231333534811,0.6849397696867827,-0.28104543348011163,-0.41848522507738656,-0.005044647920562569,0.18727110908256817,-0.3570879286377911,-0.4885890641707689,-0.31007806442068014,0.05319821037809563,-0.026096257233057325,-0.10551895956766463,-0.33360621910843685,0.14427682322080532,-0.7106690026761009,0.19352671970089327,-0.3254407829762302,0.5183713986260107,-0.5737288392174776,0.9161870343481906,0.7309094571924863,-0.3993583736670623,-0.4324451136587663,-0.08418580533704582,0.574186640275437,0.0615659154206798,0.42799572981767237,-0.1620771576720786,-1.176472116061039,0.7166810524845304,0.14399435209051004,0.4567315989313053,0.26037157767664515,-0.3319083071362227,-0.38484991434706556,0.13326640831760084,4.782710606624388e-05,-0.17312099415511664,-1.0381497070342773,0.4107657663542438,0.09637578046499275,0.16083622732909672,-0.10390544182582405,0.16061675661960403,0.10362905416597092,0.6065520013225197,0.3141065227558843,0.1460871119156751,-0.3043770131142199,0.16742998908924236,-0.004699531918179044,-0.22073774762777298,-0.5231138279169584,-1.341503635965559,-0.8864257210032339,-0.7053121285902705,0.30336162550340884,-0.24146430191418775,0.03827825475859217,0.5887221410441096,0.6028753473862982,-0.568484732263605,-0.4925244304178471,-0.019488866508595836,0.5957053062735478,-0.6479659504340255,-0.740402321790485,-0.6259901894783051,-0.015361178215416585,0.5191952202250399,0.5139559166145289,-0.0798481230319127,-0.21477317595062645,0.12934551789037893,1.2434756495540344,-0.8900054682442309,0.31242012422383636,0.40533437671783523,0.04159006030240494,0.18648005444906118,0.02362112471629868,0.19795639701261028,-0.719767975818975,-6.105510376930686e-07,0.012675025096401987,0.18856890054379968,-0.29038175258403226,0.013139804793752465,-0.32004056483856563,-0.2905975021969004,-0.906807188010742,0.4525674422808788,-0.5348229129934475,-0.02725597993539882,0.6048140367127,0.6596611573758026,0.9740078442206878,0.5002513022596282,-0.2909886747851366,-0.31086884412143806,-0.5698537760267217,0.20586936738593856,0.6844858792523778,0.35380128166549385,-0.5315455938665312,-0.1707702518023252,-0.3416721065800443,-0.20485444559793076,-0.3375489383250618,-0.4856188453683407,-0.030735535131831332,0.2028493662102936,-0.06584433816737005,-0.46257229419750506,0.3834518261842989,-0.02056019272522128,0.7593144803122032,-1.1307073713084816,0.3963281038508323,-0.17453635594426026,-0.4951902580409724,0.8356161694497669,-0.03658094760498623,0.19078024094363522,0.32837382576785434,0.5517381611151279,-0.11592585149340322,-0.6702235448467762,-0.2379634298621466,-0.5871898254860511,0.1963516288767955,0.8431556104999671,0.9167131519750447,-0.5601780359971125,1.060934404635904,-0.5472916579274958,0.11516775601046811,-0.23637628163201943,0.583112196904078,-0.16064245411169722,-0.6832020270988453,-0.5669619516013461,-0.3862022070689693,0.1675199701254807,0.3944419284283069,0.024949676520396317,0.702175000791895,0.3007837813679341,-0.36121238927731636,-0.10249074766547922,0.4462492421451653,1.2958559769723272e-33,0.19372009785460895,-0.5869712623956156,0.6029151591223455,-0.18595612717106608,-0.20011758248934977,-0.050570137431474635,0.5256321011042362,0.11930879309370415,-1.0529478299406838,0.22829052185760362,0.3199609844326453
voice_l,-0.28608261038224836,0.039064383173673486,-0.3112091291458906,-0.03197502881508312,-0.29572718579209206,0.2427081068749303,0.4542414774268307,0.01437118967502154,0.20445388777579118,-0.20411060513905221,-0.18063020591435355,0.09984398011619514,0.16486864386877065,-0.5239399227169491,-0.10440131791789267,0.3152039933992944,-0.024129038381496788,0.23112448161144242,-0.1843569305113075,0.1682024240410128,0.44844473508432886,0.5283666243518091,-0.24418040889466183,0.2413936385344169,0.1868499126431685,-0.6961323702669571,0.1221778383916077,-0.6311524367296425,-0.1696438160429538,0.3871364582931265,0.1136795131363627,0.30962554764973843,-0.03944079545558713,0.06117694016714346,3.916102905433971e-06,-0.03846220865679303,0.1350610355580657,0.30717546936990225,-0.26655830618111315,0.6158461071851228,0.21435590353571798,-0.5796084552418873,0.08598031118454907,-0.7874862208042865,0.41330881439634326,-0.6178239134928816,-1.1213664689957228,1.8509911502999132,-0.1137662575686504,0.2793065665423654,-0.11640831515554538,0.8469065249831418,0.1495126589731528,0.17916586680059143,0.466796327985692,-0.2424796141153512,-0.16057066099380538,0.3862525194617368,0.2035641112203239,0.08038813789798953,0.20368760627117208,-0.2683094457616131,-0.12546273316539036,-0.3838848645361851,0.03671427166563783,0.7946175207131138,0.0006471020200404097,-0.5640604768444089,0.4791241276744057,-0.17929732463958667,0.09622105012702728,1.135656210199845,-0.012425571516693313,0.6220730337046102,-0.6107435153783818,0.41386899426961987,-0.49923980754636066,0.6861278501115107,-0.49409310318529465,-0.36464820382814106,-0.1679560837800133,0.15117692779905303,0.014296897500323709,0.9325104638272149,0.23408802447176735,-0.11659722757470983,0.3281637158209331,0.11654080064984666,0.8391181314210971,-0.15078373185454438,-0.08549418852249806,-0.706903072243733,-1.1863769522045762,-0.48963542635445384,0.11026063650928071,-0.3440830026645262,0.21521390176052027,-0.5727975315375627,-0.6894687386154829,-0.16399222229759097,0.14190586964997615,-0.24019084268182103,0.649732304888665,0.22786168421785014,-0.47033803594558143,-0.1988109364317187,0.7532939094945934,0.9913065256945538,0.15709544154301835,-0.03020232172752681,-0.09789029586514374,0.4247737074384661,-0.22867016657340267,0.06568217337425318,0.4029398986978592,-0.25918450763884016,0.4157730547407869,0.29834734075001457,0.25891362212270386,0.030245679153659954,0.5169145644607935,-0.5167640555814423,0.06864314825293066,-0.14939786510221004,0.15013066654393456,0.08551338031680909,-0.3417009036163031,0.8515473207916084,-0.1922714118784674,0.18727778243135312,0.08132948923172045,0.23349101295788863,-0.32784793363761167,-0.7399581695417227,-0.1675166162023092,-1.1440348982881328,0.6440173822963562,0.20025492368311348,-0.7166363277799128,0.31711995756668276,-0.21421814552386542,-1.0540329400834278,-0.6680000505368794,-0.18615305264638438,0.24288672174793885,0.02624677161355577,0.18748177354348955,0.8289737790643231,0.31641232920872375,-0.18050465486284473,0.45223611010680853,0.017263149209068886,-0.27088998946681686,-0.1583218046580808,-0.36488440390938937,0.7206416131905239,0.9240879571870907,-0.07934327378942928,-0.44281785099970356,-0.0993149970363874,0.48121976405320926,0.21241010488715228,-0.6327803434261006,-0.35816229601944743,0.07964295043010378,0.07233291330458906,-0.7079565319539005,-0.4339169526541703,0.0012453320427971127,0.13722925502997915,0.16629720882003984,0.6719352162523101,-0.20212606662306554,0.32303097176854645,-0.09692938930358398,-0.5858714893602532,-0.3079094692021045,0.3426374222601625,-1.1052138520032408,-1.0028613028395843,0.09744445743211388,0.756792568331485,0.5249255373411714,-0.07883962719341174,-0.29678724985297106,-0.09843342990655829,0.6615261765084386,0.24963017861376838,-0.34631923275634313,0.8713849941032861,0.13357946323874145,-0.016225292846848118,0.7308939271224839,-0.6961376008326677,0.06588198837224243,0.02559675113654813,-0.1300371706593822,0.03795911161906358,-0.4968924181515534,0.2633980623661938,0.5935486664137595,0.16755044319897777,0.6536708003034339,-0.4140508310177974,-0.48437000129845154,0.4574075858414712,-0.08631913289187385,-0.7163624815554085,0.5692743465996688,-0.4348937322098394,0.3340746430202742,-0.17373786956578974,0.33403342146672366,-0.9849719024986681,-0.8294861225828114,-0.5037146346570663,0.08551864290552857,0.25719097602219554,0.4508089565230651,0.24133666000177967,-0.5210270487527013,0.8657413883261542,-0.5358777208388353,-0.24699354956929864,-0.699874168415225,-0.6170581435311229,-0.6563738080267683,-0.9316426613124512,-0.009564528174958994,-0.6553797420081194,0.1814327314945208,-0.08653054373865049,0.3803448298082893,-0.4362807051927202,-0.08352928365899125,0.13745104020875518,-0.8562215747741985,-0.609963108182496,0.17652189659207,0.05739288724573113,-0.47798736306364975,0.6682281705615024,0.037987660213437684,-0.23475388577629971,0.05055869094334194,0.03211399560371378,0.7483116207484357,0.2625494229318341,-0.5089171261090295,-0.23166791493008942,0.6266727285558427,-0.023470250575347216,0.020957054491730163,0.20427784572097976,-0.4245422149086505,-0.07304516737696042,0.8670043335258272,0.6370402911318712,0.8132172496300876,-0.0886394370168193,0.03687513325576021,0.15078664393209792,-0.8184687788671443,-0.10154733965092441,0.1635906063533786,0.17450739295239814,0.2378665813075704,-0.7984304188101685,-0.3599206877704536,-0.30690149054557475,-0.24588389202950958,0.17515717096132688,0.413657694589612,-0.09061339084312364,0.17707599309213723,0.42329361854253994,-0.07213167377411327,0.4743178290291226,0.3295746406461442,-0.06454756241791602,-0.25585511451101245,0.19402282899209733,1.2529040583708513,-0.11008968073515085,-0.07634176634917796,-0.14952830946488754,-0.027002452755119824,-0.12640401282894906,0.5642835223278985,-0.5929945088556221,-0.002043880177092513,0.04972430768924386,-0.06387902734654807,0.3482339499573296,-0.08145603508218884,-0.6298501512279198,0.19967993529613973,-0.1166821280791984,0.24372535153232142,-0.7118739179246526,-0.7674482833320851,0.5698758011319193,-0.058727021946912775,-0.046694352129404836,0.5489375361916974,-0.1237367667304974,0.5570387652967029,0.3129512925390735,-0.5723581332259855,-0.44281745537812967,0.3807061495399045,-0.028483889873521358,-0.35768002169567314,-0.22705595650557273,-0.019836542465958396,-0.5282211048767187,-0.73349104433914,0.34465054373251697,-0.37839203182246683,0.14634295299878422,-0.07221406337822774,-0.37963579017071064,-0.19889477343977505,0.0017250044052195355,-0.06791287345773417,-0.6137297299297405,0.650759499057332,0.36764160173270294,0.13213598597357717,-0.15588590093905907,-0.18416768248229115,-0.12937205427779924,0.37221634022514016,0.4579268861609169,0.48295116386778886,-0.2356971470371547,0.4564042873304078,0.979745240905398,0.7606056736264096,-0.4035848308258115,-0.01799506066201942,0.24027673917238707,0.04721890112436374,0.36475259031985313,-0.4201970412968417,0.038373119350486935,-0.41259240669449576,-0.051096948539799965,0.5551996913461879,-0.3365215861376128,1.1470722361685977,-0.41140679128450575,-0.44544867967634894,-0.6421769456723627,-0.3112666183430763,0.02330130723367973,0.19509719233236986,0.9611821876532112,0.15384064684752677,-0.40314767065315243,-0.15015312336996647,-0.6380012704654717,0.32942338854513714,-0.09426309615118837,-0.5315715862828307,0.6522829469275425,0.04613992616361558,0.14368737504114792,-0.1251702404071619,-0.8941352452405433,0.08372751099732682,1.0110750440893213,0.2858355395279115,0.2757572673130277,0.10678569444936764,1.0107816953863038,-0.2614155966065305,0.028246518509731665,-0.3755629138474045,0.34552765483247283,0.17558380631017137,0.8404025123847682,-0.2208221958187788,-0.14137594459569822,0.08242660595430731,-0.0403335451375884,-0.2884099115061582,-0.14214440905587034,-0.1609461855511543,0.01884185290606317,-0.1006010081687715,-0.5878773949918606,-0.522556671745473,-0.37143954243854427,-0.9526086799316308,-0.12835182949107185,0.44110440333048745,0.3900761279897881,0.030711835365551665,-0.02596225770249743,-0.06142414902828564,0.3483997743093321,-0.101154185754059,-0.7749796514082189,-0.1613388533163962,0.23252531464947462,-0.012463534386181042,-0.14108467374976125,-0.3693130029977456,-0.276303780681586,-0.4047216634736031,-0.31634811614160646,-0.7294920068261667,0.32750905956344345,0.45142111293489917,-0.7603093387928292,-0.345018355147096,-0.9225875632731629,-0.5349222395545021,0.40508675167090064,-0.4537053625663444,-0.8542512968300771,0.013109923673384684,-0.2897257997120004,0.4949442640918672,0.0956540462523957,1.245621136043264,-0.6935142802297404,0.4050021403015942,-0.4324864807729693,0.22803443629674952,-0.13993706498850614,-0.046289787897337197,-0.6232563296071874,0.48910666218402604,0.6011593982686054,0.2602094068303252,-0.2566790630865946,0.14081364076212266,0.4360453437174049,0.015097839437586958,-0.401545495162076,0.25500315928291134,-0.17011461540831285,0.536956452933513,1.6548316463000696,-0.1790699679707597,0.4675360072345604,0.2317334933067732,0.9399158654613963,-0.05975610326818895,-0.23396900075095872,0.8025597023579539,0.5121238746758349,0.3013040330373661,0.2325342550480153,-0.9739093835216507,-0.6112404165587202,0.473836755876775,-0.7479745000784511,0.5607280546823077,-0.06559630023114095,-0.5213786389781964,-0.6122120952727416,0.2721328763598959,-0.03607212306126498,-0.7156741574656835,1.0811508990360543,-0.622149785537305,-0.3642935072862059,0.57709369604038,0.29720280552799133,0.008274006961510809,-0.08290505616184611,-0.37129888156633695,0.5675064654946727,-0.3316470571909385,-0.5714299111193188,1.000109587375458,-0.5067188467389189,0.28017320332683376,0.21836027239330444,0.3345333154914911,-0.7603543822028356,-0.13324360733763158,-0.07117331793306764,0.24958761366112403,-0.5615695799192069,0.14220270303982888,-0.2883809976385681,-0.28314679037690416,-0.08512097741041415,-0.2939228066114949,0.13725360109473667,-0.5464390073636445,0.48799734744278483,-0.10678504479810813,0.951840530585212,0.5459193785612234,-0.3246762836651702,-0.26099714247003913,0.326936229483384,0.23979193131310358,0.06321758394960669,0.5146758248065069,-0.5956439174282561,-0.2731488681274312,-0.42916703339738116,0.6090911326269108,-1.0414528978387523,0.16022764334413464,0.13014177489549847,0.04561303727807242,0.16692632011199557,-0.006905552746477226,0.1052571822017649,-0.16626967508258142,-1.5038640689152374,-0.14440208475156077,-0.6466788176294389,0.03025710763610608,-0.7300081632376262,0.32232251388750666,0.770692224858632,-0.7087783405847635,1.0292526301652263,-0.22910607750436862,-0.40582432796336376,0.05631382291575962,0.000381191082616202,0.16312793614776708,-0.3940867721167623,-0.3729737828365211,-0.5396153768237827,-0.43636737108828594,0.1406900753923334,0.7104694433838282,-0.48954215018805675,-0.15158812648108963,0.2089083266593376,-0.9721497799875954,0.3281993834608326,0.7398379020620763,-0.19725183106446142,0.4004631981602996,0.4200881342486698,0.33744387397300607,-0.059433135678488014,-0.08978405050212923,-0.20891221889775322,-0.8043311513640653,-0.22108055633110446,0.6901391170192488,0.3511411079796053,0.14261598763717787,7.773661892943333e-33,-0.6161261221676378,-0.06383155382329452,0.18874292440154125,-0.14450945621035466,-0.4008143697784958,0.3425721839581871,0.4008274891756495,0.2235501402428141,-0.04252770989644401,0.8227942247246752,-0.33463846061809815,0.228607432661372,-0.060919234178280074,0.16035623946947397,0.4092759922459688,-0.42427151877326197,-0.3574705210153801,0.3435535353900803,-0.6687165570290515,-0.017452195748572954,0.03388307697799032,-0.20474560776302295,-0.37295913126345903,-0.11819402950628999,-0.2865073695727671,-0.383049613763975,-0.51283988184432,0.3971981853348471,-0.5434037390609286,0.6262518431959715,0.4079961366751523,0.3039117541278468,-0.20381562141730464,-0.6835853075078944,-0.12563347868501168,0.09257483721139739,0.7304657889011473,-0.09253966918900615,0.7646881150184461,-0.158904660813169,0.1315852114324642,-0.5103709179134792,-0.03769531235308632,-0.003269999062888676,-0.18636506192427083,0.33419022385243263,-0.26336823419320016,0.139484948969314,-0.08369347351218676,-0.22802869364687625,-0.9585534758002345,0.5615898859899677,0.6058998460914188,0.18446205857436684,-0.2239496987420728,-0.01027369950773077,0.18916655391617818,-0.2527571134970837,-0.262937547292801,0.2903760350578109,0.4300474167731885,-0.9870420324893681,0.058312556853653386,0.45988426705986174,0.029984124625351646,-0.5076533204895284,-0.012509769976627417,0.5316669482119176,-0.08033138621020043,-0.19500678646439729,-0.37292129061630364,0.01815309643632646,0.06502949255761839,0.2758367995276176,-0.19657459580849582,0.32363967452508935,-0.13842005331045804,0.47975128369819103,0.515267273202989,0.5387793669007997,-0.34280266681963156,-0.18621451751830084,0.25060705380709203,0.27007097801300795,0.029571757836433135,-0.006253895693802886,0.20095737035135247,0.1973502975556896,-0.428151919865582,-0.3412636417609559,0.4164317296476293,0.24611156310842836,0.2686336559080394,-0.11962992216631854,0.5632309260733721,0.32070733095545634,-0.09116276108572756,0.3745314734278695,0.012460479203156488,-0.05558636197095648,-0.295009740880222,0.20286386852403646,0.5587078781189173,0.5740716987122428,0.6109411681355427,0.19523663789459986,0.8211400465205231,0.45534128893357534,0.20915812240872753,-0.03128167424212059,0.12635592480655053,0.6717625583452499,0.02981940490576409,-0.29659526622339727,-0.030882935395886876,-0.15171106909888124,0.02871976286530345,0.1968662952192342,-0.13856219610561007,-0.4753699364761721,0.882778030717153,0.030692428795428866,-0.17906376159905232,-0.3261443850654145,0.5757731304044372,-0.6076456642983314,-0.3930314027727045,-0.5395765762385404,-0.6345070216285021,-0.472581470198572,0.42996007849077916,-0.09426731407037502,6.263862141039849e-07,-1.0381838977343132,0.36858162747070033,0.0945726256869824,-0.21882024222705607,0.032574065208280704,0.19424373085965915,-0.9971717722282851,0.3163388146445516,-1.3315654688376621,0.0012062595006165945,0.2917837014124726,-0.2911228937988847,0.17319660875765538,0.08609354568889344,0.45511863920958545,-0.7554175103059373,-0.16589346100855817,-0.0907116513135148,0.020797823913989967,-0.228579091836984,0.37047635705544224,-0.13348900329190008,0.1381224217902894,0.015962609866307775,0.44245641027548865,-0.24380310577584705,-0.4774828513677452,0.7303554556613551,-0.6888428528459146,0.03857916184774249,1.0572382295841545,0.5987987922502652,0.4232071792717184,0.2418389047706256,-0.10241778851770802,-0.6391493247421488,0.6563250799818654,0.35905549930449004,0.10218399988378175,-0.30476387496386703,-0.19098431121790088,-0.32349625925305303,-0.035007895980529856,-0.32727642529435885,0.33285277161553417,0.6484395099125079,-0.11531812483446677,0.41851520058309827,-0.018049373153225322,0.6409190700696726,0.6837547970801438,-0.1990462599761898,-0.9977316144039887,0.09481539973261842,0.22592614929223964,-0.4644751386223164,-0.6261709710739993,0.3503078257624274,-0.08882158657515946,-0.003819006610872999,-0.027143551214963268,0.1300144507000153,-0.06076802942778046,0.2026495378296725,0.37708839066537087,0.5884840789857083,-0.3335354538287379,1.0849968191973446e-33,0.7212843887459743,-0.07265051928061309,0.10233496501436824,-0.52605768497033,-0.7668261077386317,-0.47839915029193053,-1.0836690588669977,-0.47912831580179854,-0.32927310091380746,0.3347604584467099,0.2196098106713571
negation_l,0.4228114297833108,0.4259516568764957,0.24582510086492032,0.12214642350878246,0.6207904459708846,-0.06265999495813666,0.5956970129354392,-0.33658267123498353,-0.3450718770164244,-0.3188721196615642,-0.12107659128367886,-0.6109722160139295,0.8102725360898999,0.05272974254922854,0.7074293442522251,-0.6691082504670689,0.07907065996962365,0.6256750971466387,0.4063579098847952,-0.2806245350767571,-0.4876363149078305,-0.3571283450689079,0.08074392601117165,0.11046368660634125,0.015957731528770305,-0.1101695629992488,-0.06192084149243893,-0.02330040475525356,0.05231657499556803,-0.2348080746605768,-0.8500992569968246,-0.1155194777812484,0.08676130130455298,-0.12370682996138584,-2.2076690398054653e-06,0.6298234834934775,0.7316113620169016,0.07766608111583997,0.36769277515746956,-0.4481998633696638,-0.34610798798752784,0.6820188642567914,-0.13476670507763455,0.4264520584590146,-0.3312719500993608,-0.42891161761596813,-0.16235219863136835,0.2832751293872249,-0.0572373442928207,0.16912196927489936,-0.08829385100118796,0.40759975342709703,-0.10320510058161479,-0.24162517711999534,-0.0343771297172416,0.1782019470615187,-0.17235008612095076,-0.05416141544724539,0.19387836074934311,0.3656753533342825,0.8725324513601135,0.5651439205061581,0.3046312213361215,0.5512079794611296,0.10766337878158092,-0.40754383855138093,-0.116095742423207,0.40255596174772923,0.07527794798608525,-0.11760803970420076,0.26427533372385725,-0.6808149610472088,-0.44585212180070544,-0.3831992112901487,0.5817206751600703,-0.10639784210659171,0.621165543710677,0.026209280744719527,-0.4259538976169622,0.13551092581772162,-0.4194118718278931,0.46827637115390713,0.29583392587270685,-0.017520794668905833,-0.29374819738116825,0.79666363777476,-0.13563969157876146,0.22944637183233366,0.7846681468725625,0.9802935267172125,0.09223115359539086,0.43799982902892437,0.3644725254450771,-0.1172883111454062,-0.3412942741052276,0.09226272399512503,-0.21035428589962663,-0.5669604304555863,-0.0976546486361317,-0.19239042915961768,-0.3821268490904916,-0.2736798556138846,0.0046472436888193094,0.021878052387753432,0.24340932334041954,0.10148720536479039,0.10864119933207492,0.18879577837751152,-0.034440413566279506,0.2841754200176215,0.34995712218077335,-0.44062386200166864,1.247057704233704,0.11569143781497718,-1.0495539942709715,0.1767473648947804,-0.022230727741943925,-0.545750828396645,-0.14281184095005586,0.027100407131415573,-0.594938813698401,0.1683294989350033,-0.5442064627069644,-0.011710024777018728,-0.7639109647242044,0.42969082043898305,0.16100931485075026,0.5034669590521076,0.09279244227493365,-0.9691624904481416,0.014927866006315111,0.3692760193293063,0.026475946923613825,0.24913095270712654,0.1397658360534599,0.5326920492666765,-0.29923301233691635,-0.7748372193823043,0.44941122957249,-0.07818150618951666,0.2024104018923442,0.19686992629694922,0.21036648167196967,0.19909708383322047,0.24363092427607108,0.04081083688248892,0.036408088141057955,-0.7156325897022326,-0.4998073647205488,-0.6728528710589936,-0.2964602617324349,0.17127844552797006,-0.6668243750188697,0.4011045945530817,0.4799709746981044,0.12929951191408287,-0.8137954463551759,0.19416030318692573,-0.5766430200534919,0.5593471510657697,0.028779037552734088,0.23186006768278122,0.2581686945932827,0.06238401998690454,0.4133850509764065,-0.0034438052160591687,0.11236073136445816,-0.5321493965039655,-0.5596032635287816,0.014081807507128624,0.2374725085965201,-0.5544247007682839,-0.05271437020303017,-0.30907563500791724,0.007520915306385,0.436673792682407,-0.08363852983511638,-0.395180102913285,-0.07804395327800932,0.12753314128029214,0.1245330733331991,-0.5852377076159226,-0.09309511518343945,-0.06840555373803052,-0.018130734390159928,0.11257901264164417,-0.04567649644947175,0.031892910237878075,-0.1330280837583486,-0.7802088103107604,-0.10588905267715662,0.6977452455018471,-0.9817056825545638,0.5801611209279516,-0.31463680107315045,0.15512049150736631,0.3045291290136452,-0.010945861809247939,0.03012204318743732,-0.6101125742343947,0.13801919146457117,0.631384569175412,-0.5282578015049904,0.003787356281544333,0.5608830239974459,-0.2696687347646443,0.09403007225876116,0.49878378573135457,-0.5151660290959311,0.36692376743771227,-0.4697891180252453,0.3426807792826128,0.034292457243011054,0.22486843459601322,0.03258667443447265,-0.3073395553083966,-0.046272495564885045,0.22441746409772512,0.027669395313235708,0.11733754228446618,0.12097658014619692,-0.7241045436133513,0.44286972111787576,0.10543351246230351,0.12463550063757638,0.21031272439598742,-0.15927588510439447,0.2257281468938652,0.23978096299429977,0.38969347268562254,-0.20540572509325222,-0.0970076609404317,0.11259425444569289,-0.041564275534886036,-0.3717296082949632,0.08065344376999904,-0.36361093408495815,0.04289138210569982,0.6723825562941718,-0.04269798648163212,0.18320596880242201,0.6288421444936757,0.41959822037281763,-0.5059080880787171,0.24022701657177553,0.3606550268694494,0.4218561382838518,0.6475748664479029,0.21429529315261728,0.18420643744951987,-0.43539104602387196,-0.2217685172087265,0.3814833519389838,-0.05464717506977939,-0.05516416786549551,-0.47135305485623985,0.6483615632553325,-1.0859449509392491,-0.005522408615768449,-0.01300316786551229,0.21803400235170167,0.7576893782128085,0.1801741516098192,-0.11419886044425057,-0.36305319109992873,-0.19404508749537927,-0.3722088920184932,0.4617036590094595,-0.2841598772556103,0.05420476426769877,0.41994253978413687,-0.2636488846748146,-0.1873945620237635,-0.18324972369926404,-0.1353362843035206,-1.2158024725669963,-0.3853406771043196,-1.0794924019220662,-0.02882265647245208,-0.40582809002858616,1.0060054743506661,0.0021397592086591605,-0.5270492367126978,-0.48917755841734695,0.3042307419829142,0.5892987500848538,0.0037120438685093946,-0.12311570964108479,0.5300369723736458,0.18464195719489648,-0.0595470120512785,0.3544619131521107,0.20744493693369512,0.4307124934081318,-0.10415535613554174,-0.18777175027479265,-0.36259435433285525,-0.2907268826201435,0.13701915032662756,1.0938249958707231,0.553919331206944,-0.18187431197561119,0.6367009700878109,-0.22237828965603168,0.09571918136220095,0.3326747387217794,-0.46913280666980606,-0.3409231134591848,0.07866284565564258,0.26812013307848565,-0.26040416989286636,0.0904052554983914,-0.5269243661100158,0.793609266425567,0.07352007009445502,0.16531034816206755,-0.005730274556833743,0.24900205518599225,0.17673208007737096,-1.0712535988139176,-0.29099349734054264,0.3800030456278669,-0.5870901669375896,-0.05331951295697693,-0.051806830764856156,0.028146565037608973,0.16778131373475932,-0.07252283614101575,-0.3324471761253735,0.3485024304809598,0.8634327795648135,0.8775665653925567,-0.23834783163397372,-0.5840844040768399,0.0973930230869475,0.3122090398217962,0.5441698255099654,-0.4566359102226069,-0.49375877112167715,0.3925785598045127,0.08377363806064116,-0.2317413846167806,0.27738242499400434,-0.20574392506763084,0.027026223812339496,-0.18202514044193235,-0.214429663143597,0.049254854359684797,-0.6547777176838325,-0.1206033687099832,-0.14463500088825001,0.5277065810251867,-0.14801369089670308,-0.004144893303170435,0.2837243121852861,0.3904076497037946,0.4698045387934472,0.07430712071390426,0.05298943323308707,0.41079326702257624,-0.5010425498207854,-0.1271221342106322,0.04601687461836826,-0.5279644844509749,-0.13417966949175203,0.11863891853768813,0.47878089653362893,0.3468878715406001,-0.627334277436521,0.4912097357094242,0.36634795007860405,-0.16547527791958136,-0.03601865517674688,-0.42517745928200024,-0.024037496544036054,-0.08455118169003652,-0.07284616777004474,0.02399313422938057,-0.02452731212805813,-0.20129465392006632,-0.6072432334598945,0.042025644086053374,0.02851262418889288,0.09806938977783658,0.6626433821606885,-0.12152906439541998,0.7159598593291397,0.1281615420576684,-0.08945920649215154,-0.5005907890956869,0.34827087785060584,-0.5097359415435918,-0.7876974821876492,0.8010479598918183,0.7297339924671707,-0.09588292606851119,0.2536568433998967,-0.19820154287100608,-0.13172957286793407,0.2370527140292057,0.03159310422790365,-0.5561618159005715,0.41896324807719393,0.060839072945941916,0.24047267898305472,0.5915505125229212,-0.3959149980083963,-0.4288785415770039,0.16909157871429645,0.16392518264918296,0.5700439153897111,-0.7009183334923874,0.04176132511592416,-0.7072338718543201,-0.5354835369964612,0.4754524910173477,0.3517041311175463,0.5438063553800817,-0.07314837144519916,-0.32191973313559463,0.22130075946879912,0.07068109683379796,-0.7422774262228917,0.10606466854366021,0.0322162766922286,-0.2434971114647363,-0.5255542834101533,0.7314704542157057,-0.3644564960628641,0.4054745089311082,0.43734450309021244,-0.20144679380900052,0.11905093522731265,0.5948274061031212,-0.20394025566754578,-0.5034077191478182,0.13090636957889643,-0.006019767757568071,-0.4860698704112548,-0.6458462767925077,-0.2211477228936516,-0.8294253060589807,-0.1995887207652947,0.38064155976006914,-0.4994952358078801,-0.323186571187302,-0.1069257638928942,0.17808934723509218,-0.4071082754790886,-0.20723719342595331,-0.13520936216437188,0.8445433318782579,-0.050469867071063615,-0.97868382921077,0.016013598029489637,-0.04451813582061039,0.23743104709098387,0.039207564334157376,-0.28288621698377586,0.05034477916624245,0.28062496033839707,0.22802713157316304,0.7928603387254446,0.2690363342220467,-0.947973928895502,0.43610047113097383,0.5725004745336963,-0.3762247413708444,0.7382254396588281,0.23099179425022398,-0.43068064451809934,-0.3972601816067708,0.47274502366275595,-0.077056534730458,0.4737774353384939,-0.1285842568655197,0.2165717118024444,-0.47023656083299675,0.221594994062787,0.9032828581751406,-0.05580137174992332,0.2882750564312308,-0.18062120867965747,0.46793231699496873,-0.16192313560813235,0.31522463800589795,-0.8509177322325808,0.3044868126052481,0.04966851206125957,-0.2072610292800408,-0.012330342992806432,0.6381899636632443,0.3033173421461486,-0.36631325316337143,-0.13221462678032592,0.4811298275436821,0.9232684030624702,-0.560788202521165,-0.14577318702537986,0.8904515681589092,0.34246005528152546,0.0075611324973796235,-0.058471848133539436,-0.07708880630547142,-0.4516844767092235,-0.03821951367104899,0.3697612508919079,-0.3942310160436837,0.04399871975567216,-0.3107940641224212,0.22312498831570993,-0.06979557606195402,0.3018013401986107,0.7501261752856287,-0.020638751376354125,-0.5045315952791773,-0.4277695393010346,0.4021117815801973,0.2817371546801195,-0.3702135879308155,-0.31782750370450963,0.3410527221334823,-0.4522410732147975,-0.6133745740688245,1.4364888583779176,-0.3961074569971239,0.2259382628334148,0.27759277588925607,0.02864321062895341,0.13110742704430442,0.7176888997456147,-0.021904415104365898,0.3290930726074449,0.04461881306374354,-0.29985532692203115,-0.3625216467074525,-0.31955666268744864,-0.44463309615556607,0.22802916743245472,0.4500628385336485,-0.34676075319488703,-0.337077869751862,-0.5296193249807047,-0.24123040268668913,-0.11662263849470171,-0.48535433144130086,-0.1866991496581687,-0.12440312770013104,-0.3605438357997765,-0.03294720304739564,0.17876382474769048,0.9494719494005618,0.059769546972792666,-0.037841909558255796,0.6591674569764432,-1.7276250375190786e-33,0.22850508521864352,-0.627672198107178,-0.07277603759736757,0.12105265507261107,0.043111332209132144,0.5484526378581741,-0.13739446511118086,0.22519159699501543,-0.20481477528102085,-0.486896388339037,-0.3124275031663638,0.26987416545592674,-0.17014210736664198,-0.4716962763667042,0.15162655558826682,-0.19746544061178897,0.3128543018809636,-0.16972679243224018,-0.06236094942071787,-0.5458011953559162,0.8458816006339744,-0.14027826607208485,-0.4562746659346563,-0.16845946470759204,0.5582906407400898,-0.23049952246851652,-0.3646265802043363,-0.7646468333961087,0.16268484534971997,-0.5539175584429104,-0.02279682173125971,-0.07700856627338185,-0.036565154249415484,0.01441195310030566,-0.15847774331271988,-0.3993043746983737,-0.6519053227531975,-0.3340004555555101,-0.4805269359324326,1.1331049328797274,0.34866381316785355,0.018678509159977243,0.2860455743735559,0.7252159969442066,-0.40207241278500944,-0.14838848503700464,0.09679824112715482,-0.01888539577782536,0.022024010336736132,-0.1540684431142084,0.44454754185912215,-0.5278745219219566,0.025322789115035074,0.2072674645174388,0.19752595392769942,1.0730161047438553,0.16532278844174395,0.02920568667102833,-0.18588059912074703,-0.27514558225274977,-1.2584638527448464,0.5335837174573953,0.5997136081349648,-0.1462807335690691,-0.4445991819619787,-0.26062949724214596,-0.7349028317964139,0.6229831893008274,-0.37965634764199363,-0.0332579476337821,-0.4316712299118445,-0.3418727559609827,-0.0978722651142309,-0.07562624531612028,0.5648320009431521,-0.24991020892342056,0.25066173178069107,-0.29657273576649423,-0.5164498862535944,0.31881165116245114,-0.2201241659936937,0.38304435823756716,-0.5604069501638738,0.20234532972746688,-0.10537107840634183,-1.2701145682933097,-0.2566029705885719,-0.6731769056452352,0.7315865479855536,-0.3579944582362114,-0.052745392580317914,0.2820797256593281,-0.9566169650100274,-0.4153776287807004,-0.514178044261638,-1.0129997037958278,0.22782520836199904,-0.5814303535014058,0.2022835392005817,0.18099203536820033,0.6903635116761119,-0.11451290391051766,0.01854462005833227,0.41987630248467706,-0.31228859612729887,-0.571110411410131,0.14716351845334907,-0.045561038814810335,-0.6025586275049551,-0.2800147994794174,-0.06699243906935475,0.478194086693895,0.07394810287479729,0.1821375310457343,-0.3145359763382165,-0.15000731399641914,-0.05640547722968738,-0.27795273792655373,0.4510795317689823,-0.18514416305863277,-0.1620160921825845,0.0787085236018107,0.2846561611290666,-0.216278677976406,-0.2704317420227268,0.35131504929932716,-0.3818006578968144,-0.1771851157240066,-0.42250101220067293,-0.25691465873957825,-0.11116331987661192,-0.6263427138548189,-1.864647698787123e-07,-0.11849558024005868,-0.15813351029539138,-0.5156149815904034,-0.6848605404125406,-0.022579404388659643,0.27241395137417485,0.07640118173974082,-0.13304177070500264,-0.32519391163853595,-0.2065470965400955,-0.1909101186846743,0.5856236237696104,-0.11226635218004795,-0.23114731722461945,0.03826905661602763,0.8381968046816523,0.06609164177773441,0.18274560835115616,0.1678075635954716,-0.2486523558581797,-0.0722552636605738,0.22850844513944465,0.08171037433817888,0.12001590669732141,-0.03607748132553773,0.618516686137569,1.020538086342692,0.05732058603678043,-0.09950303345934748,0.6460936023851095,0.9897908592015429,-0.5185773488907278,0.010011473119806947,-0.19246335469910927,0.3178666917446241,0.4797378516036323,-0.039631330316109395,-0.12995112459028144,-0.4576274500292591,-0.5651554882898912,-0.48238423423307786,0.39964403595023,0.1991638292798291,0.3006241017531518,-0.751935322622287,-0.025152680037910748,0.17450883647184365,-0.28121333389073033,0.46907903879352336,-0.10733413509087299,-0.014530587370709004,0.043857527389677575,0.6947555010773127,-0.43348430609184985,0.08872295606788036,-0.18504893912803708,0.22915549077436942,-0.279034421283504,-0.05480814434408788,0.9168993741579288,0.053440069191444596,-0.5101134669308557,0.19085657798953365,0.23170907498985197,-0.14137961207688818,0.4989720747825018,-0.35165668183135573,-2.5077947865354966e-35,-0.7373418015047435,0.025516768944399883,0.07347235024120523,0.08159456713272976,-0.39334857505751974,0.333771117359116,0.5091335940963752,0.607899518577306,0.16535601183732243,-0.590721902709816,0.5825993882791436
