,0,1,2,3,4,5,6,7,8,9,10,11,12,13,14,15,16,17,18,19,20,21,22,23,24,25,26,27,28,29,30,31,32,33,34,35,36,37,38,39,40,41,42,43,44,45,46,47,48,49,50,51,52,53,54,55,56,57,58,59,60,61,62,63,64,65,66,67,68,69,70,71,72,73,74,75,76,77,78,79,80,81,82,83,84,85,86,87,88,89,90,91,92,93,94,95,96,97,98,99,100,101,102,103,104,105,106,107,108,109,110,111,112,113,114,115,116,117,118,119,120,121,122,123,124,125,126,127,128,129,130,131,132,133,134,135,136,137,138,139,140,141,142,143,144,145,146,147,148,149,150,151,152,153,154,155,156,157,158,159,160,161,162,163,164,165,166,167,168,169,170,171,172,173,174,175,176,177,178,179,180,181,182,183,184,185,186,187,188,189,190,191,192,193,194,195,196,197,198,199,200,201,202,203,204,205,206,207,208,209,210,211,212,213,214,215,216,217,218,219,220,221,222,223,224,225,226,227,228,229,230,231,232,233,234,235,236,237,238,239,240,241,242,243,244,245,246,247,248,249,250,251,252,253,254,255,256,257,258,259,260,261,262,263,264,265,266,267,268,269,270,271,272,273,274,275,276,277,278,279,280,281,282,283,284,285,286,287,288,289,290,291,292,293,294,295,296,297,298,299,300,301,302,303,304,305,306,307,308,309,310,311,312,313,314,315,316,317,318,319,320,321,322,323,324,325,326,327,328,329,330,331,332,333,334,335,336,337,338,339,340,341,342,343,344,345,346,347,348,349,350,351,352,353,354,355,356,357,358,359,360,361,362,363,364,365,366,367,368,369,370,371,372,373,374,375,376,377,378,379,380,381,382,383,384,385,386,387,388,389,390,391,392,393,394,395,396,397,398,399,400,401,402,403,404,405,406,407,408,409,410,411,412,413,414,415,416,417,418,419,420,421,422,423,424,425,426,427,428,429,430,431,432,433,434,435,436,437,438,439,440,441,442,443,444,445,446,447,448,449,450,451,452,453,454,455,456,457,458,459,460,461,462,463,464,465,466,467,468,469,470,471,472,473,474,475,476,477,478,479,480,481,482,483,484,485,486,487,488,489,490,491,492,493,494,495,496,497,498,499,500,501,502,503,504,505,506,507,508,509,510,511,512,513,514,515,516,517,518,519,520,521,522,523,524,525,526,527,528,529,530,531,532,533,534,535,536,537,538,539,540,541,542,543,544,545,546,547,548,549,550,551,552,553,554,555,556,557,558,559,560,561,562,563,564,565,566,567,568,569,570,571,572,573,574,575,576,577,578,579,580,581,582,583,584,585,586,587,588,589,590,591,592,593,594,595,596,597,598,599,600,601,602,603,604,605,606,607,608,609,610,611,612,613,614,615,616,617,618,619,620,621,622,623,624,625,626,627,628,629,630,631,632,633,634,635,636,637,638,639,640,641,642,643,644,645,646,647,648,649,650,651,652,653,654,655,656,657,658,659,660,661,662,663,664,665,666,667,668,669,670,671,672,673,674,675,676,677,678,679,680,681,682,683,684,685,686,687,688,689,690,691,692,693,694,695,696,697,698,699,700,701,702,703,704,705,706,707,708,709,710,711,712,713,714,715,716,717,718,719,720,721,722,723,724,725,726,727,728,729,730,731,732,733,734,735,736,737,738,739,740,741,742,743,744,745,746,747,748,749,750,751,752,753,754,755,756,757,758,759,760,761,762,763,764,765,766,767
factuality,-0.26015829283285796,0.5435674939499414,1.207676892850416,-0.30876056336282076,0.132222451618799,0.13373363920329184,-1.1241795633538398,0.1877439066894131,0.6572883210490109,-0.07459043552232378,0.2385775140600217,-1.377654906487737,0.4297343951154219,0.10535939306620533,0.030262499638148005,-0.32652300918141836,-0.3713319407590141,-0.22128610835010565,0.8166486895847057,0.14504210319436917,-0.7799680664888382,0.2993121529501393,0.284911709090675,-0.5155076727925846,0.5757506517465798,0.9685270127738793,0.37414202967022137,-0.13545699957964671,-0.5436111963838839,-0.051815387473207575,-0.6525872406591202,-0.8332769843177441,-0.03914668535483244,-0.11178298784926732,-4.394885475439476e-06,0.22441131742825077,0.1335056768661806,0.09115027527733413,-0.456892720314339,-0.37322419526705247,-1.935399024077507,-0.7607502833142313,-0.5540613000925533,1.4174411032943581,0.4186850445776011,0.7902664617991852,0.2808605014736964,-0.3754634930838727,1.205594196629572,-0.6636939806276012,-0.12327751559663316,0.8205099781299859,-0.20457719209877592,0.27015013737700894,0.447579248646216,-1.6073528673425304,0.4240757596075578,-0.3301827424548632,0.19629996541759323,-0.48497488059048804,-0.7277988106754509,-0.10718673799117062,-0.9196430070413751,1.0415812918737628,0.12047532482386075,0.17883663699337035,0.39073420126230785,0.6227569735184236,0.13330925477122396,-0.5621974700459478,0.03063356777601078,-0.08186570344334103,-0.33597990847593046,0.389938735621267,0.29585924504232813,-0.9465373844789654,-0.8955053810585673,0.5741617824976141,0.2391508859476893,-0.10088305447994393,-0.6163616205736954,-0.03290509605295565,-0.45988957036573136,-0.03529128676534607,0.4326467582599241,0.07212834922047179,-0.09285809958290561,-0.47185036701174987,-0.47986164910669693,0.4331270478144108,0.28576117586356203,0.39909462896290027,-0.4585841611184788,-0.020024471034168614,-0.31139262267474793,-0.19502026632681407,1.096523690169001,0.9557089285167519,0.20066150862782178,-0.2672076733722766,-0.9604246806120174,0.43423644186427374,0.3673047298909436,0.8471481294297577,0.48132518674418895,0.18429418650292592,-0.908248956402026,-0.674470433776288,-0.07438089880454629,-0.10103776165410072,-0.469596087844977,-0.5144730424554538,0.22798537727322518,0.11141171803761883,0.22740374123481355,0.47799932610458395,-0.49204188333361987,-0.679798727044221,1.0383983848436356,-0.40704045033353836,-0.9519469345053988,-0.30485967516937446,0.44479950308652766,0.6666831000956525,-1.1287904742319297,0.47609108995913985,-0.9180122325336165,-0.9566673579087832,-1.250885396762098,0.6599430546836565,-0.30132118684213777,0.38833346905911215,0.1475309071914763,-1.0198213327994847,0.2839846100943593,-0.6660125780952089,-0.4706814754440532,-0.04603218735316588,0.7595733337151356,-0.02479044814691288,0.2674783197586834,1.2718863798006401,-0.19505724976869038,0.3759702995326265,-0.10226256093445119,0.05028096505554214,0.6205963659676534,-0.7050742249605941,0.4542151181670694,-0.393615558942692,-0.5646216422300139,-0.23037715111725404,0.9921489288847131,-0.1463232476879726,1.1291296317329669,0.2148281786116765,-0.23841987289102268,0.6537253886236151,0.919112558862807,0.08243989600290477,-0.6074370078288135,-0.1947608071589192,2.0944080280717925,0.20756749715684925,-0.6683155356357279,0.6520945684452647,-0.5756135490107592,-0.41954767364262924,-0.33677688211293577,0.1648969364419487,0.542308738715294,0.6057057970014345,-0.10399766269045246,0.2866098788429825,-0.19192134028393054,0.6215047564498983,0.32479054546629965,-0.42546251766558624,-0.7133429661206887,0.6924906472198772,-0.3662800285991829,-1.499229448030422,-0.10131301508067936,0.2506409695513517,0.24883826315780372,-0.38605880103007245,-0.5329141929749758,0.3226823546281699,0.48744122152635694,-0.38894013492316465,1.329610456836197,-0.6763814594802411,-0.13000231413559868,-0.015331240093652247,0.40779870630793685,-0.8008500156119568,0.10018509794105178,-1.1503250128791676,-0.08398609506490294,0.1510478018412804,-0.7668354264097663,-1.336593882896551,0.6449369133572364,-0.7919830353964536,0.45831620433622755,0.27986096829160345,0.42888396145656627,-0.8741253400486179,-0.6749038720691042,0.729314381356928,0.743895766940971,0.9157918129215806,-0.9015757135603075,0.4222394886070632,0.4618589558570737,0.7698685300770717,-0.30099051924415704,-1.1347627268392546,0.49484279794005404,-0.46657617630154957,0.2090211032511499,-0.03237044599974818,0.9671183780073034,0.1962477694954623,-1.0581327594008056,0.49681257286695635,0.29585213304787494,1.1976144220905953,-0.2624752480902302,-0.12150506797510177,0.5245265237408278,0.20738098684574371,0.21113634811576873,0.14008529050204926,-0.2753763024068003,-0.35831308818658575,0.8924829659572402,-1.449991468701049,-1.1882671706586154,-1.2166762997644844,-0.26048892152963554,-0.2294797406476571,-1.0203779060287954,0.4125121289089026,-0.03233870528868684,0.39829603813245773,0.10661884151848329,0.1754647193799911,0.6133810789321392,-1.023690189001028,-1.4093417465981366,-0.4558468121743827,-0.549351461228752,-0.7669509634346567,-0.25365963054143487,0.24019315310240177,0.8407463711482537,-0.18317327522132948,0.5575215112855416,0.1868224058049141,-0.40230193135510345,-0.2770361889362572,0.160219469471899,0.561287496053904,0.33352602043230367,-0.08788090611801827,-0.24521786649138874,0.12598524987545484,-0.9423734544569169,-0.12281217846622115,0.558787446279912,-1.1223198788400264,0.6178454604766545,-0.5875812388162608,-0.8238688757149161,0.35760190879614484,0.29018721841088807,0.7071517533453018,0.0056525847831179026,-0.6360063300490019,1.4587481808673768,0.16511324435076496,-0.1101120491135284,-0.6527572161111618,-0.7320126971493242,-0.1192860736529493,-0.2602470107883466,-0.5915001144850768,0.46500364796821697,-0.2600144595613183,-0.23148560298229676,-0.8108583381854816,0.33448703961943727,-0.8535834158205631,0.3611974346541441,-0.46616902871895727,-0.007567140370820397,0.26202512286534513,0.33349569383766103,-0.29802943609248217,0.5389237173134066,-0.9654924524840545,1.5383698515741664,0.15289403048296682,0.7260319413474284,-0.5182889214169552,-0.4918180730293677,-0.22591572035186439,0.19322791117783003,1.0375298617535273,-0.10091629383987374,-0.5779698412836415,-0.3523525320067231,0.008188751960378802,1.190718635176254,-0.29417334081939983,0.5494729131026695,0.3883542339537261,-0.6297905087036783,0.5784341685292691,-0.6507335748190456,0.3081185971913139,0.5403206066891412,-0.14241413872259412,0.2547079406441459,0.442334684594784,-0.3381129883542217,-0.30956241029411485,-0.436612443509393,0.6459592253715915,0.31649171021253864,0.3934756893456359,-0.2327413824750862,-0.27779543145014945,0.3915185676080925,0.36154945501143165,-0.052435499840448985,-0.03503022815906872,-0.1917004876777219,-0.9872439568814891,0.8846948733486575,0.516196697729909,-0.23213446570343768,-0.14317587144738486,-0.4702388154051851,0.6898226234753175,0.6374111077512145,0.6118581353442444,-0.3209986929471175,0.3477569206791736,0.6027573986765037,0.03350921428154054,-0.13498291768847287,-0.22127500770514683,-0.9841207958764187,-0.9031636351685737,-0.8756658156961156,-0.1455890088225175,0.37890326086602233,-0.12579519865074276,-0.47572771620047233,-0.578598892831139,-0.18724150960464536,-0.6822963435800664,0.8074557281410479,-1.2667211522667332,0.5023630731412113,1.558500949982612,0.2983877615646716,0.07286357726171341,1.442166559456722,0.2806194892467052,0.47733384648546323,-0.11519494793197144,-0.44260889269036935,-0.2771302705609088,-0.2472919942399723,-0.5617195384453928,-0.38681799061078914,-0.2521538978136204,0.5305104795128633,0.16793654678588113,0.3899290673049876,1.0026833289278123,0.10719247249866964,-0.5213549336485299,0.5076644569156914,0.21917195455281568,0.13864899779980103,2.012629971473988,-0.951618401821245,-0.33454505721323174,0.7895192058722781,-0.46734065739024705,0.4315816894729201,-2.188242519572363,0.2801927780908135,-0.42516811162735446,-1.0641661208808304,-0.1663429302284488,-0.2984059705877132,-0.046734732061785154,-0.2808709056774963,-0.39922390831949833,-0.777335483156463,-0.8030007370476567,-0.6027557749274954,-0.25545314877946346,0.33072268322714354,-0.260632868217222,0.8909956401792718,-0.5434871765572822,0.3952777414534938,0.8137594077920711,0.9610379319785872,1.3675602464040881,-0.22354408306431778,-0.19348914899519007,-0.8410402497698836,1.6738695170109819,0.2313598507547492,0.06857992297273814,0.7909036169214745,0.12909775812873828,-0.13958088176245007,0.5897095594222965,0.46893734565377854,-0.3474193603114564,0.0594342043705542,-0.10693223277567368,-0.6527514647673555,0.018229527322442197,-0.7101706206250608,-0.8732537785895095,0.5124630627384589,-1.0837853467670702,0.15040715585803285,-0.6622386399656582,-0.15801594385400808,0.1549348984126702,-0.1398658545804923,0.38626978218942565,-1.5410727784150489,-0.09052818999135843,-0.14105803653824064,-0.37102288749280493,0.46388844245415045,-0.35673123888928465,-0.7927573836753611,0.35260170822798376,-0.8470008261492572,-0.2595376636174059,0.8113134591060038,-0.12656761030732108,0.3355934907096174,-0.35460071060203996,0.26737519426413936,0.604754708634754,-0.06301611419192621,0.8901864530102981,0.23868383752153344,-0.2810265268219458,0.4119047015360365,-0.730949874971432,-0.2595260421839113,0.9489905592238951,-0.1783413003275987,0.09124958548406703,1.1324129445774618,-0.05026548710970258,-1.037644606620322,0.9943255517736004,-1.0698885346316132,-0.16229282328230632,-0.31249403896832234,0.2266169925436713,0.9562179307620418,0.9883907293256029,1.3298418529899907,-0.0700142305747673,1.0193185576284416,-0.30197105500694443,-0.8510794703503206,1.3293047723566336,0.42188893195338045,-0.34302911295377586,0.09225423616039778,0.200226376740507,-0.9032737265585777,0.1636211880566934,0.22149800852347834,-0.680027408918083,0.6789098974667491,0.655917264404757,1.0605489222662317,-0.9340107738849296,0.23357712765225316,-0.30112886569974234,0.7251700474055448,1.1495268507002339,-0.5479357966737473,-0.4275778126578474,-0.49584315739942775,-0.060808496834467554,1.1958675555176665,-0.17632878584095732,0.14530830350911594,0.11751207437922752,-0.03647476097423752,0.1069938208866558,0.5669170328959481,-0.4089516046582267,1.0165742353805929,-0.20159737648047668,-0.23468020786233826,0.2592802190798399,-0.7535251558923107,0.6101099754573098,0.48986049375736535,0.1444930353258772,-0.5652815605364345,-0.23337888333182918,0.2354310078197795,-0.7132448881843796,-0.505659159780554,-0.6251555029883236,-0.37539964976403,-0.10483258202475536,-0.29912650126079726,-0.7042580928129535,-0.8943765756802146,0.08799132470858825,1.1638697339800033,0.8956609357592993,0.0426898779946526,0.4115915195572047,0.0569867376368427,1.1524037423148414,0.11934530418322041,0.20166690902169157,-0.5483898939038192,-0.47675837126488313,0.6901457325877285,-0.8347592008837078,0.06931014187061253,0.7415709806010401,0.037623133367966625,-0.9542994375499358,0.5362369989532851,-0.5065660854599215,-0.9882116833057969,-0.8131103269770038,-0.8154242479351737,0.4854127085771463,0.41050395633513215,-2.840140366126823e-32,0.2216344223643338,0.3161224275705687,-0.9570311055551087,0.025845741252536338,-0.16972443221908798,-0.17411363932693694,-0.5996774268009121,-0.7621985316856025,0.3552862463208906,-0.8437692767192716,0.2557797473964123,-0.7744482642793056,0.046807191246275595,0.8996149732721896,0.21969892599177973,-0.29486333559970657,0.881964628821423,0.05620613277227472,-0.4722640112153531,-0.5722121041097571,-0.6928927663106141,0.765250644049151,-0.0012577749265094366,0.27274944683924146,-1.1439622484944678,0.7934765708494083,0.10113747186618932,0.1711150370216341,-0.6476022316239368,0.25366782755923195,-0.3599998038558359,1.2216644333718105,0.15384878411388847,0.01000292911392078,0.8685731783412265,-0.25178326451814675,0.9663966266157494,-0.21615005945806598,-0.45204789429530845,-0.09607850411601707,-0.9461398827994176,1.7851662672712565,0.39503761763748396,0.8460039400379418,0.5088539907425762,0.6919783493445016,-0.4195515215731659,-0.8614536825280742,0.46235352697161614,0.1656728008406861,0.4774066373309428,-0.22985058604162892,1.0257125441513668,1.3682228927817202,0.9582851979030506,0.1937708227628252,-0.4463411051075692,-0.7968209292192528,0.04714572527115827,0.025138110873955066,1.520970810067344,0.1648133771019055,-0.5625135933733714,-0.4358209318142479,0.5106943383737423,0.6002165216888319,-0.5398155463248345,-0.27132893311931233,0.7033589626078763,-0.6249643717817952,0.9120925542733999,0.1971001957204832,0.32512380272274943,0.43158266229181924,-0.6419066329558718,-0.22995230281209414,-0.4189350592071679,0.39649207580323015,-0.45673851773976515,0.3988929283409917,0.6249342585733074,-0.3392296201307714,0.3651987878196214,0.7826569228837624,-0.4635507477733499,0.4913107362217753,0.04973305152683048,-0.2713101571022239,-1.3443598343135477,0.007229761064275456,0.41451780926069137,0.36523133032207616,0.9402841347146471,-0.4213862914029511,-0.17380221770739182,-0.16477742879040508,-0.6909164131106698,-0.1000291734257084,0.4364346103727296,-0.9621791375595851,1.5956046362676721,-0.26720047118853524,0.43665763355191856,-1.413726313500794,0.851561083354003,-0.13002412866641413,-0.3456287391671988,-1.2796415834490469,0.17652700916038144,0.45958719127304476,0.8969436167094024,-0.45077572546400546,-0.3415704781676463,0.1645047675985479,0.22158764484538088,-0.13479058595488802,0.017129382049481265,-0.089101055263952,-1.0538382461552314,-0.8031519036181715,-0.2867557132055199,0.5448095576448486,0.6951305116149106,0.45223176513205315,0.10908942910365066,-0.16761942039692102,0.30033566760852054,-0.7210813585512114,-1.1526480053635617,0.04239699822464052,-1.043477091236071,-1.1097297908818957,-4.145004363057728e-08,0.48548469097380165,0.4629770387205925,0.3571467990130596,-0.5404546953223386,-0.2986055478540703,0.4800038705686411,0.20152865253155122,-0.17898787511713996,0.9590473459805011,0.3533311178364631,-1.238517317667349,0.31839683861991963,-0.5071932795294697,-0.20003176606010103,0.15368082271940783,-0.7441580401183222,0.06128940208453881,-0.6390925013646919,0.613510295488223,0.048914605258307556,-1.6014805026960144,0.5581835055938968,0.5796576614108253,0.24322277791213323,0.6391302931241436,1.0127334439297166,-0.02400577857883023,-0.290156076109716,0.24810999879428572,0.7091338464127731,-1.191352427620615,0.38632762886627237,-1.1646026270886096,1.4559934440154272,-0.45313194080798624,-0.9030177767883587,0.08886135158915719,0.7087651231630697,0.8327565499209266,-1.1141501618617313,1.1191537942242273,1.6799864611684858,-0.3982028809172684,0.29533324878547224,-0.05456094080311456,-0.18975018540130778,-0.2747857672154369,0.19171189866549823,0.11410791898619572,-1.8737077428835867,0.4763113887651043,-0.25003792188214985,0.05070958815704576,0.7024576260526018,-1.1990293345800405,0.24474208759839658,0.7943748708540945,-0.8682363384282958,1.6336603231725595,0.012176433316575133,-0.4470297318551914,0.818152102441705,0.3101730168945334,-0.6416127887986243,0.3120386927645465,-0.680587736243709,0.27643771585911486,-2.2139972659514314e-33,-0.10949415704507678,1.0773361352424808,-0.5688523922714079,1.3968763556653154,0.7366663363661948,-0.2003139594844732,1.4303097855179885,0.37894892670902264,0.1767946391875381,-0.13375951741298453,-0.396363469630848
intensifier,-1.2037835807687858,0.31643671871954615,-0.14879447771169918,-0.029950140102804265,-0.049642785637711205,0.19877631655538602,0.6486236060606251,-0.5968891354657979,-0.08912450475867523,0.6460283287128848,0.6155473126128908,0.06158090530756299,-0.18406227930616717,0.39499032979339377,1.0467024488030436,0.15918428103841986,0.02972653391890182,-0.8391699119048923,0.7873080678810713,0.3112676163928406,0.29045650865984,-0.05788512816159839,0.016866853703141907,-0.34229736466847194,0.8025087574535573,0.4582952478795485,0.14540296251550297,-0.2916837044070264,-0.33674313782707255,-0.3063148340225596,0.14506330216637528,-0.12673484078322314,0.12899993251907266,-0.35196803278396077,9.10019626009014e-06,-0.7052410956925562,0.4293121644156057,0.13811623445905843,1.2487098410730901,-0.13529407339177413,0.6267001220116741,-0.4808592548019248,-0.005833172515653281,0.05575150755298114,0.22930305775867177,0.11564996780526916,-0.0666574799632066,-0.8856571864893077,-0.32669165543876183,-0.23681283295461555,0.03308145472707185,0.12220915313809882,-0.3665836804255214,-0.3484313081108837,-0.2564971414638915,-0.09759266311461484,-0.3707848791348477,0.6072533122624352,-0.6492886665115704,-0.8724304981807749,0.25887521228371607,-0.012930692604956126,-0.005935925910789357,0.5330825009365155,-0.9495501186041978,-0.7023873912282277,-0.0562685296699356,0.911959196053973,-0.6711152779731994,-0.3807739968440776,-0.1681479234950852,-0.047185665727294615,-0.6289699658748346,-1.1859523612826333,0.6002889655709789,-0.793412658840399,-0.4458410876866667,-0.8150032283379326,0.18515205125972578,-0.7548529718766736,-0.40657397589472277,-1.1581901819179703,-0.12741682768412146,-0.0627022511982521,-0.5308089138268712,0.2534458749478195,-0.3353812148968214,-0.5142679736322335,0.5952617622108061,-0.5440584952786612,0.7005917833149385,-0.00814381717072464,0.2709529164926312,-0.16490345632205697,0.45289224163277947,0.5656939589878649,-0.10807091511773496,0.2824875988505569,0.7477422491261139,0.8279442182928239,0.35919228952314225,0.22228224473013988,-0.7160750391718629,0.6815110198787387,-0.11462271253385782,0.2990374970142277,-0.01791281787291549,1.385209513608338,-0.1490135776152056,-0.4628925226454212,0.5835232634112666,-0.351650172029742,0.4454741161884651,-0.4644364210114982,-0.2259002761236536,-0.12114464752774988,0.6784964955547514,0.2334817169323514,-0.6170447593470081,-0.020621192201895552,0.7253128906238694,-0.6229875959814555,0.3459455877762197,-0.4003357354230248,-0.08729154481485919,0.5286992500822474,1.0631369987574297,-0.04885138514738936,0.2376220031148175,-1.111000821827383,-0.39278860507549984,0.15579258317184988,-0.4365625394191149,0.5337819272565728,0.42114991059326323,-0.6137158433430456,0.05823211334281076,0.2218215517820389,1.199926535366333,0.18117283944257787,0.08387515903510587,-0.18807606617670816,0.3835000353307656,-0.6967134492478969,0.2343619773230425,-0.16174411409124703,0.4656806110939109,-0.662982342723616,-0.3330972859617018,0.6651457353757894,-0.15224299000896363,0.4641456056651657,-0.21750973025094553,0.6008395418709814,0.5112726811453508,0.0331485335650619,-0.7050851934381103,-0.5161456783060502,-0.0355528499539352,-0.5066069369762616,0.2154892268283124,0.01141971788226193,-0.8628004364701297,-0.22997533336457307,0.47017642641697427,-0.019258709882286087,0.726857179894326,-0.1821985523121217,0.5253005482922296,-0.5521058943510578,-0.7470656973165464,-0.5810033961529489,-0.09128656488714758,0.4453403787434433,-0.10857283630781726,1.2525096263388364,-0.18335542059860188,0.27915276488043667,0.055563308559726,0.1171559936937023,0.6022594877898596,-0.937544873443887,-0.26059307632386725,0.7698492025619618,-0.21603101371616135,0.479844074388604,-0.7010597575443802,0.3114746754654749,-0.41187060953229965,0.426428642337341,0.31135246233590164,0.579760321274436,-0.2582239853793793,0.16768842661738353,-0.20276937192376507,-0.8097033861529557,0.00885518702059801,0.6285295928681691,-0.562816352590405,-0.19698308221972546,0.7578784528298089,-1.2287022314915648,-0.3570101226247825,1.2866808987803648,0.049911386059608306,0.09205241158123104,-0.4185756513901075,-0.4700698061278966,-0.42163718320104604,0.25321916251657905,-0.4718773621791025,-0.27943764188210646,0.7528969181356769,0.7556549841218757,-0.35115061112044405,0.08625597548304884,-0.11623330254101592,-0.6956437921830583,-0.5193991005918788,-0.31945252176749445,-0.35484909790163066,-0.47448092993574886,0.04131619521764417,0.44328609712497424,0.3160670165709313,-0.21965034503666644,-0.19552758162429743,0.6545638231132304,-0.10473878235152487,-0.08276522955974697,-0.19996721360751218,0.2939315802541741,0.13091241210754045,0.8763195006025549,1.095461806578573,0.04253167494011423,1.9006121132092826,0.5712602243920265,-0.09055420311773732,-1.0846140175556833,0.16343528191316728,-0.6479362154535524,0.04418186723771664,-0.2588554873211112,0.8141723928685058,-0.00939824920913827,-0.6910507909774528,0.005892566045981926,-0.3381487415005183,0.04982119388314842,0.18468393354014787,-0.17488367570310434,-0.24177213466491118,-0.02150693237676277,0.5255120835915317,0.6397558228430515,-0.5765092335143943,0.023633248227362194,1.0200399631840675,-0.7370963421656315,0.10084798725340553,-0.20950500955305557,0.02580303155412526,-0.9078285368205951,-0.7337781314822902,0.5653896427719375,-0.1544130367325131,0.10753581484724707,0.5825787683323115,0.14220293995560065,-0.08239145973773904,-0.15393522279211203,-1.6132390637834662,-0.13521294824865912,0.4404071748802547,-0.19731810286415355,0.024648874576121766,-0.044338502801649554,-0.44699866298091123,-0.04507936751396187,-0.2287340144127139,0.749610456117852,0.17873671041529324,-0.2349905534047844,0.8706682797454144,-0.6165458446928344,-0.43541649588651676,0.41639513816078677,-0.1452848621089233,0.07634896267898199,-1.281542455609795,-0.7728377806170759,-0.04082783992182601,0.005022588778602187,0.2785777225123658,0.23132356396725512,0.327014425002449,0.21555764699271723,0.6907982045245802,0.4141507916497268,-0.5038872484477869,-0.19106132075018906,-0.27286650657207434,-0.6668484447895255,-1.3622933240398385,0.5788673571694971,0.6738049062859194,-0.5639223606135407,0.011796434685241339,1.4515449267093679,0.04158473937671052,0.24858866432390964,0.8768858432567064,0.460742132984421,0.27670578246014327,-0.020540182096300385,-0.7188498517247153,-0.003884439103865195,0.12319455607121407,-0.5208473274508881,0.40391652300826486,0.39603267040470325,0.1477946255214423,0.03700840087470999,0.6062548466992027,-0.08795371315781762,0.6595588783584703,-0.5007296422286676,-0.5881953903793175,-0.055883759630337135,-0.669909575624958,-0.06379695228963672,-0.18204234870254488,0.3063899076037934,0.36031533965404755,-0.2956357009044405,0.12013979720825127,-0.02014795020841521,0.4384200422561829,0.24963907269399613,0.571297892220341,-0.37708725533846416,0.14911756024566664,1.257796799905687,0.9974330813686622,0.30921429833311986,-0.11358019813833668,0.20668078803308218,-0.224962389985455,0.40104221947112034,0.7372948902996975,-0.0074389094577743415,0.32901030951816257,-0.008357642557328734,0.18041417306104018,-0.23097973602183433,-0.1732355306031375,0.7643981681705735,1.0402299442822633,-0.6217837087900443,0.05849441561312249,0.47609866123916517,-0.0037674079648702414,0.3419167418513586,-0.7536107104154615,0.4979675713303473,0.16339245441651284,-0.7292192004546567,0.03096716384203462,-0.5388073839645349,-0.508297972637515,0.5963364052638604,-0.07405595697978085,-0.15791003325036085,0.06544211813276297,-0.5593696556066252,0.38044923277489673,-0.1914274033052823,1.8704985860014065,-0.11844410131237601,0.12272269116979351,-0.8853151116874051,-2.0235197111692313,-0.9720481600162834,0.8966339173952999,1.1185516878674255,-0.03016426367163047,-0.15126382824391485,-0.36424097616940854,-0.40239532179569065,-0.055179446826467,-0.35968623855489323,0.839992606452203,-0.19714156617920456,-0.03921416586168132,0.23960157911116686,0.37001923920702295,0.3788621625457139,0.9185364675811829,-0.4597298729078057,0.5813817536954818,-0.9354612803240417,0.9921175298242533,-0.25119968284654337,-0.48654968526384246,0.34644502088362333,1.1122532017214704,0.6994840125686488,0.49795493151719344,-0.2364688518074753,0.45873665234120337,0.33872796391470295,-0.3959237088524602,0.13894737612651012,0.385855510237371,0.1911288268684206,-0.08842096827333194,0.2246995262779968,0.800804963047722,0.4873994636663523,0.5928163655584174,0.4248117121952345,0.16935261364810208,0.629422800186722,-0.048400965161338745,0.25560925548963087,-1.0997632103857893,0.1806438098357013,0.3979505725446532,-0.5826344435682005,-0.15611229390020878,0.6643047800220502,0.1773584997142223,0.13024166429572118,-1.1820260858521299,0.928466514705906,-1.4038012200619316,-0.13840805213080798,-1.0777722653716044,-0.33271796345182675,-0.14113645028414676,0.8655770084930481,-0.7238509150983898,-0.20740097928637352,-0.35111022987182006,-0.7342536475010667,0.12438710085461208,-0.7936300349077526,-0.6734387167962542,-0.7254525458597733,0.5204889193440786,0.13790178182071328,-0.6307040588399654,-0.6364871479237824,0.4487818622839613,0.7104630353337273,-0.15438112277673188,0.9315802488417192,-0.41613277064075677,0.6868938072573448,-0.3390862785894232,-0.8436815025555636,0.674446496501932,-0.061771052527984364,-0.034483164751079154,-1.0451355307660026,-0.06715677507787315,-0.35859978213911037,-0.03713075621108901,0.055589691282933194,0.2850725788534993,-0.34998406880279664,-0.3830124625037922,-0.4121375185097543,-0.3980960838437778,-0.3784846989154318,0.2599991261115813,-0.16727034654203413,0.6634888028009046,-0.48368747883385094,-0.7633262262288446,-1.6034779715006136,-0.3282273334705729,-7.69312750209571e-05,0.25364764758219266,0.49732461334564826,-0.829589328729022,-0.30712516540745394,-0.28627381916662814,-0.1218393804177501,-0.24495993922055748,-0.6036733844386681,-0.2836441586955498,-0.5480630858560483,0.05197017681266001,0.21272039129051606,0.20893550301928504,-1.3139258264541167,-0.5259577116039956,-0.6180090563835041,-0.47216397030692253,-0.05259201697381334,-0.4076358095829437,-1.0145610771718987,0.5831715366550371,-0.5860879552486256,-0.4343768630588578,1.2056475802126652,0.0037321063596442365,0.2613240127027169,-0.6742032255256462,-0.05551712873964532,0.6074428109354174,-1.0182138088650536,-0.23246286702044264,-0.028674524046874046,-0.2095266173961983,-0.8197092883962064,-0.4752699114205984,0.13497520590039283,0.761585748694004,0.2858955686506219,-0.3038103129301165,0.43556026995535563,0.27148391761546786,-0.6511991682382462,0.8928405268838766,-0.40150073888912924,-0.3570200432663078,-0.2680936581947905,0.43214824010581293,-0.6254623789502711,1.7649537481823026,-0.3611215190242299,0.5085531144541561,0.1603430586047237,-0.26852853399328047,0.2497988733829298,-0.3215204637950369,0.4753084635860205,-0.5538775899720931,-0.18251865410101104,-0.49067867285070416,-0.2683345105539169,-0.23754673931371342,-0.13868945003863886,0.38175412731542563,0.04296921630989657,0.663085008573138,-0.8080367155374618,0.44992726740345823,-0.068471016134201,0.42332661905307234,0.48318329733013815,0.36113074188729466,-1.0407744949723853e-31,-0.6950737377767818,0.20506438605325003,0.6105227551489703,-0.10969561947814763,-0.2746118425659678,0.3856400841721091,-0.16768638442244674,0.8484465082010698,0.6599249489066884,0.4251492491248325,0.3956761421023924,0.12169010398926543,0.830784430404375,0.30881141971022785,-0.3819881808157153,-0.8101658135660715,0.2726461009281842,-0.05030130548345671,-0.3765810506636131,0.06634702502754075,-0.3891476386041233,-0.7300620476874452,0.6671609469591583,0.08054966365576693,0.5940075462168899,0.044256621476589736,0.11755652547956538,-0.8164516002113696,0.3085589764854383,0.12579515905799996,-0.47433835063616325,-0.23240590039793826,-0.9572988665413358,-0.10006550243907679,0.04659422576315721,-0.31303453309799406,-0.03244197873113038,1.0492872984967525,0.765502223166298,-0.6315235901705258,0.5055437573822555,0.056580215331242634,-0.15032908210355236,-0.14210456982580394,-0.38193066333314996,0.6184692703785009,0.15371928542723656,-0.17296194476857213,-0.7753907363474919,-0.5505787221914171,-0.09177347088085581,-0.0747036262606921,-0.2189244015889914,-0.31096834294493714,-0.15068134192902766,0.49760663169844466,0.49314048665558685,-0.22997883004626907,0.25966405449994184,-0.4133568069274162,-0.6593351033907916,0.17156554336470023,0.3864304729729538,0.6605107423564561,-0.016908090685304855,0.2832103327428223,-1.2260653466913196,-0.6477552124999554,0.3046042690470171,0.19449848628067232,0.36571833847050494,0.5823033260276046,0.9768160516156847,1.2700708245867032,-0.6824020240167522,-0.8225327353519862,-0.19376256455156382,-0.721311603797115,-0.623082747365869,-0.9299004482840495,0.08807741144203828,-0.022857094190362352,0.5850341359522226,-0.06071683931275917,-0.2311556502792944,-0.37976278152347653,0.32491308024148735,1.1579503468883166,0.5073873438961015,0.80805687128039,-0.25761206893811633,1.5271057180662775,0.1031463309511216,-0.4895950855763536,0.2445233076702459,0.8290792346779648,-0.22208242809132567,0.42113403593252463,-0.5748046970487529,-0.6056332050252634,0.12064717726645247,0.009470053136029886,1.4192754559724743,-0.5834612158841362,0.22236600441999121,-0.22749240266402715,-0.5450261853250078,0.007680403185121601,0.10241500303382825,0.09195216757168362,0.18753229233000338,0.3572011598723561,-0.38921749455911125,-0.2581137464043222,0.0495872877515219,0.6799858416520181,0.5033833145932601,0.043787523779557726,0.19649097804195345,-0.3256686860412063,0.16230203347330424,-0.06028978198202624,1.094529514665365,-0.28315918581930016,-0.073371835391891,0.0431120122583574,-0.3521648797508506,-0.11108354290300218,0.0958294505084171,-0.6393585897931413,-0.21289393939340703,0.7632263134846374,5.575492449921347e-07,0.08271243029899024,0.009904078868779656,-0.42764086560750725,0.30048964059144717,-0.1980644358989403,-0.2852862386951525,1.4224308318253815,-0.5703016446469265,0.7988239769749245,1.0807756992048252,-0.47787425259647043,0.36683742406806896,-0.49744877636122387,0.37595716841766563,-0.34955888250980394,0.27741811283354206,-0.5566085858286333,0.40212947341700134,-0.7248269765951254,-0.2500692574766296,1.5798766859330493,-0.07914880467218287,-0.39567811434665195,0.6650971737625765,0.2646434460601779,-0.2832541625683311,0.18229160627080007,0.33137099516708024,-0.27029491491892343,-0.0937058124632985,-1.2605768258927779,-0.8805004777274972,-0.691067892032654,0.25700691530762,-0.6225038885520893,0.4949929502211127,-0.7713066897778704,0.46212033631808597,0.12541151552898142,-0.6372319860217289,-0.7577358732523113,1.2112203581728167,-0.03132252541894,-0.09604514169316385,0.28053591007433554,-0.3196892497181268,0.27698347494520403,-0.9028560731572955,1.3569376303594511,-0.04444609438750308,-0.5634489618744345,0.09655841789493155,-0.9573755775363512,0.2751721769197607,-0.3173227817534567,0.2895054383015387,-0.19055829032034072,0.3008770777626808,-0.1396849113841153,0.8733853714985405,0.5262819429750254,-0.44957082122767594,-0.137575123732231,-0.8006166008309741,-0.2749488329608143,0.5960167189887458,-0.5560172557519261,-4.559377275858017e-33,0.31165591995438724,0.06289781331410214,-0.08505226974384197,-0.1518954413239751,0.06678516157776318,-0.10113801784164145,-0.7282868954354471,0.20783913881808333,-0.23578236439915104,0.0017928056459374441,-0.21338316968292045
definiteness,0.20123899974797224,0.5520164741644905,0.20222361036917066,0.08180638191618557,-0.0768186210901156,-0.18425173299488087,0.7286261943981139,0.11986517469221818,0.4367875581874332,0.24102957539725967,0.46062095610164566,0.26294596740681203,-0.4069478480273874,-0.3174127643259964,0.006026662878411754,0.013222228156640804,-0.26286632212858313,0.019274624595151127,-0.1350804750321541,0.8033807998591548,0.34121737942063735,-0.212238856984435,0.35242782082397,0.4929059768013209,-0.8180941468326849,-0.08918392582949237,-0.004654518246130357,0.3854036620619362,0.3915450413461111,0.1970873906411362,0.19480732797000677,-0.08416577179892196,-0.05186188643924617,0.2184819881478153,-2.8893708429604123e-06,0.21197548659332702,0.2185328092734266,-0.3376525352064477,0.17329193437792054,0.1136888512687318,-0.22262088599567934,0.06782779474057027,0.07175200341917294,0.1678539490876359,-0.16128502332561317,0.6928980073132268,-0.16002763283501545,-0.7677064397071879,-0.6095096509603348,-0.10207407693763693,0.2783239427682401,-0.18352156936663133,-0.11827404295224056,-0.048940711762051343,0.5307077217941523,0.3007036625619304,0.018576352486480496,0.2826558919591855,-0.36883431948923856,0.412810847030386,-0.2914543771807346,0.37827382407799254,0.5000682576424808,-0.20038029689892664,-0.13030339140663566,-0.04001053871468372,0.24837987435637096,0.7972226666604221,0.37883999796872114,-0.49895540129531507,-0.6520160472446341,0.0824618119518691,-0.09621537449967911,-0.46360694586547463,-0.09729892333207045,0.2740887430919269,0.5652831107328641,-0.234933876270817,-0.4209173594180451,0.22567424443850528,0.10547603906626493,0.1411878129654785,0.43426903853464804,0.06111421824847054,-0.38788166589335377,-0.051069270608214305,-0.21622316083383972,0.5434482983055035,-0.5790094300569537,-0.24206791431349808,0.3441823168763722,-0.18421438263852005,0.41602874567395903,0.16518077984792492,0.8792925662089383,-0.09777303945907308,0.06982036010971614,0.5451769344883978,0.11157175771866255,0.1894987559069214,0.289936432366783,0.36608062879152475,-0.12049311964708963,0.031870682737030524,0.20001850858732223,-1.030384251955243,-0.09433396037192755,-0.24190535283351644,-0.7385215953564366,-0.6114206084499708,-0.3837530794843824,0.10306600536883692,0.29221012720407913,-0.6260961626850063,0.41547381217813034,0.14483101102942555,-0.141080209474528,0.05395022848685969,0.24528982626293394,-0.018769603986475546,0.021727451909715485,0.1529068352206039,-0.1388344952655204,-0.5570444160676206,0.5459310471940532,-0.47659899155518753,0.3682100252927179,0.0928468845728188,0.2461421924960566,-0.6902482204284347,0.3889300727966914,-0.5943751086295007,0.4755098141128218,0.6558452789558086,0.07498773737153407,0.3384292199393172,0.5573743306207836,-0.23006398589098315,-0.15079407663871636,-0.017036857586308237,-0.25860275352512757,0.4271932287333741,0.8618753796711839,-0.3938598461561563,-0.6955787295829376,-0.09128214320158409,-0.07461192902211512,0.4215084987697859,-0.13218477325346126,0.24276616942244195,0.15817891466358786,0.187975890588615,0.08709934633000048,0.23065166012376048,-0.5809441593510234,-0.48269455417910245,0.09819062611479824,0.09248152405830838,0.09821090107174486,-0.3927994464156624,0.14433883975130057,-0.525495370108789,-0.5141753398448976,0.14817802495937013,-0.3365841605721059,-0.08706778177451636,0.24671293877811368,0.16269097136633823,-0.3824491996304406,0.5117010374273137,-0.4636604075954534,-0.030119754465996053,0.20859999986239025,0.06036448270410926,-0.41000324747072103,0.11126719746489754,-0.11405482245815846,-0.5439049439737393,0.9282955644496033,0.7043803901459671,-0.31214046926960903,1.1154895200159554,-0.2872938286856372,0.027206729708666437,0.5409788107064732,-0.1560049052407043,0.36753221706375827,-1.3259093920105574,0.24960410146942658,0.3329520894551145,-0.4374307987745927,-0.615241882689248,0.11072470821275882,0.2262277798082246,0.3249556329086374,0.7178056085085855,-0.38486616217138403,-0.48209128245450894,-0.24247801667191146,0.08456990168186501,0.1272959965324297,-0.35621527624851135,-0.538459359317334,-0.16383040088072898,-0.17844352986967715,-0.3847369085112619,0.22107991671668425,-0.15301445808709643,0.13283427645578452,-0.30937091199027583,1.4406807004098146,-0.5220574336717219,-0.34943516014834836,-0.7544440390103682,-0.3105879490871808,0.3966059027694961,-0.276097366223131,0.40975708725441795,-0.06881703137509651,-0.05053805645380502,0.0325353320728984,-0.29537752307596693,-0.5140339497933067,0.26720935255761236,0.1163715949958966,-0.01689975651926373,-0.17943717671820425,0.16011656511931727,-0.002263638123454643,0.008225598014512411,-0.061658093280834485,-0.2264188008647417,-0.3296794615596909,-0.4170154564777945,-0.3315925002538143,-0.5444301432946834,-0.5122766122752871,0.15168475452210115,-0.09651822994730365,0.8687746796155739,-0.48627394947825364,0.09834978740804798,0.3129318704121893,-0.05862180303681513,-0.6520621538902338,-0.3081588358287461,0.16476457154338187,-0.33490178916043567,-0.3149996709595014,-0.6663691756742159,0.296902081489978,0.15419137526608065,0.14351661654949738,0.6755594537511967,0.5219223149894272,0.17426573194133346,-0.999471982534511,0.9474388636699683,-0.35659143469294424,-0.4995299113301778,-1.1914435605575933,0.009386323066286718,0.6000221659044118,0.7834540629726929,0.8365483267289056,-0.5755155707353115,0.2326278579640269,-0.0628025892623607,0.032131249189174156,0.07475343803026505,-0.5780438219786562,0.5636939990805162,-0.1685784206981499,0.2364560032991452,0.39131766466285767,0.7629235373481341,0.3443674860095348,0.5108416459491398,0.5539959237000399,0.07396141046042809,-0.8729345026225004,-0.47914664177511923,-0.13959643036441463,0.4227021827192929,-0.3705892658450655,0.3571545781166035,0.424485010368157,0.27471333012254906,0.0009869556144148808,0.41842205507543845,-0.04373954109762581,-0.035870334042593925,-0.08214830168998195,0.5158953303006467,-0.1477189819663495,-0.45650418196646547,-0.5545493546611475,0.8507476634614974,0.22912740129164044,-0.1779568854762575,-0.6408614385768755,0.041126021464792425,-0.2861056428791137,-0.029678041070273147,-0.2598134042594102,-0.7305376357364264,-0.39146182951377173,0.7351846163128609,-1.069741612953359,-0.22680504143622365,-0.23606224149127175,-0.0477132598023295,-0.35728233271728277,-0.2351493929548405,-0.2444618235679427,-0.36347843298299626,-0.13104428441628266,-0.4960525855547296,0.18249585088546497,0.6294725295703459,0.6519994214854079,-0.11628350827037358,0.834818217602873,0.19031038080344545,-0.06388162885182025,1.240311219322722,-0.2716249712197853,0.005478244869636863,0.615770403660772,0.4529737199352261,-0.08980378987706604,-0.36051667632031903,0.16800590328942658,0.05272935018499022,-0.3399629939871885,-0.3952346591955482,-0.3205357175287294,-0.6351198220921804,-0.3667388850699335,-0.1838849537380985,0.3092798427024225,-0.34002836790656615,-0.020545850109279017,0.41022146245986685,-0.21777143210793043,-0.1470078677961504,-0.44966720135455057,-0.5536106655127195,-0.031641391668101926,0.8694835269075257,-0.6238353036755401,-0.5498542193837492,-0.030185639199810696,0.21892252543412302,0.342575363842078,0.4877284390686407,0.353863248170149,-0.818798957969464,-0.4850231415978029,-0.13793827136967093,0.03415363533800427,-0.16686800708285213,-0.41821453862811026,-0.5937237696585221,-0.252486182128229,-0.0014218005737237033,0.07015740645049325,0.05179602087586718,-0.34840115529493637,0.32088173009754134,-0.3959628356778185,-0.9969007833623548,-0.547908017744331,-0.06292133989888726,0.39797281755036473,-0.046597372010106324,0.09567251462051203,-0.40001887369930494,-0.4297833864676697,0.11800277485710801,-0.05880944959195776,0.26000054472579576,-0.3818101464398708,-0.059122393871199524,-0.33872992158979265,-0.16747280362199746,-0.10935576427144997,0.4740228725662934,-0.11812099068030105,0.15574595319046794,-0.1327582464499914,0.5550839188544443,-0.26874193043290345,0.7996787152852214,0.02300107708106007,0.2514714925169547,-0.08104048533508046,0.03972864870463957,0.11878814084097,-0.08379099063910214,0.02324613586835978,-0.04692041082327671,-1.1023200153753272,0.747951978605445,0.3211967580303027,-0.07274957312339642,-0.4329469924691407,0.07703375411320978,-0.5421377364412693,0.04479494658883192,-1.2745175847235655,-0.22415084849249528,0.2867097011033717,0.5220288296854524,0.35779646195796483,0.29277583375234534,-0.1353467126757054,0.0628204857204886,0.0633993488084144,-0.08391765649637176,-0.179192302348048,0.02620829851751619,0.27725084496347424,-0.0428877071540301,-0.16275755615867263,0.12418208701530192,-0.4470558768000217,-0.5368523940224557,-0.4593661449635174,-0.2684463901294777,-0.5866403135138325,0.12474839582591356,0.3850554126119779,0.22366078935669406,0.04522330612303704,-0.3390198492451515,-0.6017819398937712,0.13033503122496093,0.436918272469602,0.09258131919466528,-0.6394750348564678,-0.04320944351482085,0.5592489205420281,0.2626978004805772,-0.058299718177837,0.6273692238912347,-0.048865169792784935,0.5965987637852916,0.7336328101036658,-0.3278097427203852,0.6197806014950884,0.06863433896239567,0.1971333610240406,0.9365933988459253,-0.2522181006234069,0.019423085926234186,-0.0016245112049911353,0.07435742086629606,-0.2328081919129266,0.4893765707753024,-0.3201824802535493,0.19128909431800098,0.3305143616801,-0.05062434338222766,0.06860221226029582,0.20577525470914104,-0.3926105828996045,0.07154462895239368,-0.22533013061845605,-0.47064322761776356,0.8513731730389091,-0.12087726392482517,-0.004553990104983722,0.15388514202988263,0.0311327478000431,-0.3323648219373919,-0.14986653619351054,-0.1566949646196132,-0.17328191048123862,0.2509182217256471,-0.04268541143768821,-0.1545493074619344,0.5782385822269244,-0.02118522015638634,0.5189854618609736,0.14357430704643176,0.27281798880132124,0.12149445254537813,0.24437889317961003,0.07157480370019452,-0.4235146171562799,-0.1275971882034911,-0.58618490937514,-0.029241003447084912,-0.5526295307037075,-0.5203448472933411,-0.4401564523237589,0.7965141523059378,-0.6278272227294265,-0.7563635889390092,-0.2671927649408893,-0.44290707449847494,-0.42604436496529074,0.3077464945009656,-0.4808632542850433,0.4544744578962028,0.3428918946135593,-0.23370965374338784,-0.06870597241946785,0.11232233397407876,0.21406513466258487,-0.34149694466578595,-0.8593464143668572,-0.9742185495383323,0.11758319901793483,0.15491007194033726,0.25743748842251907,-0.1389482987011722,-0.1963360529699285,-0.16635619150715236,0.1671770419195728,0.006591689614624063,0.1239266621655598,0.517783323622464,-1.3025828292951227,0.013953252755470491,0.17888308374883533,-0.07626780428278403,-0.5930081190446906,-0.3317493737271691,0.5234734787947091,0.12150844546191368,-1.6856113997867215,0.1633590991581493,-0.17146076279919573,-0.6184167028743931,-0.042868392914256086,-0.4323816791756933,0.41658422142180973,-0.14884029718435465,0.15926875464074436,-0.1338926715225988,-0.12323075282859254,0.7430710444189486,0.24138629951308155,-0.006791470864052941,-0.4007681271091158,-0.04323631088350986,-0.5861418546948071,0.05934296727454475,-0.2534443865933807,-0.1102713450672448,0.35879900268029147,0.12148988785654785,-1.5529538377016927,3.2121808617890937e-32,0.3946662997976416,-0.6857392930696161,-0.3293554658526912,0.24319419923400531,0.4381918935059139,0.009030578057943247,-0.2630716616772444,-0.19471130924347915,0.15370561973106475,-0.03747182352784835,0.09379790598824089,-0.22744251122894318,-0.1797139329114989,0.17981228424821988,0.5422466029276869,0.5838297630281338,0.1941709267786682,0.0009032203378811672,0.18709069976444279,-0.23347425395043267,0.7889261658144883,0.2282483029424398,-0.17693039704608593,0.25287098427966476,-0.503150866023994,-0.3675301195015559,-0.07059148807115787,0.9424367958389595,-0.050790671851863506,-0.1630094471704651,0.48745721958511934,-0.12742565523925065,0.530714680598268,0.7948678094953063,0.17212541159966369,-0.4758150072458419,0.4127876940304536,0.5401382745746925,-0.20920356314246175,0.31287629343984047,0.6802294610750387,0.8242780567863798,0.08957511042116971,-0.152563365056847,-0.020531526445857925,0.2019659150205047,0.36814382780271304,-0.19961623535685277,0.2353495438570401,-0.40527273782928674,0.11029705803857333,0.0440804673319069,-0.06432895777302786,-0.7305013472989341,0.28035451123190475,0.26637614635307927,-0.03781325077078322,0.3611172924103327,-0.03708696037600138,0.3130714204047757,-0.280173328961034,0.4846909832547886,-0.33120593775508445,0.8143382669348712,-0.2566012752245053,-0.29846171883072176,-0.7876430710321961,-0.19187270891908528,-0.4317257248797665,0.19309637571079571,-0.14081041105350406,0.6314089910387163,0.7757953014307287,0.5157305127635154,0.14343567358998047,0.06432555345170365,-0.26442081357429115,0.42993167551586137,-0.12430346955705607,-0.10387995141565688,0.7355892469954882,0.004596582917395218,-0.039700041735455535,-0.27660935058725766,-0.13362095823945788,0.37272436537731163,-0.08918733393281349,0.48947065175886495,-0.048717522821650254,0.0310513276929246,0.35089093576993247,-0.5572950565971554,0.45389753029672464,0.17709818869138652,-0.24592039397971202,1.2802384062065129,-0.16551336255114288,0.14497820947782927,-0.03085790183654526,-0.10756074134907685,0.03146379344505779,-0.7521687992881423,0.38224311596823574,-0.20946977415006343,0.1456804768755728,0.17433106454863675,0.3506114803332018,-0.022245738696941166,-0.5195002683742872,0.27788659456688747,-0.49130382005676454,0.08152197881049877,-0.14946829019133628,-0.8628190023065416,0.8809444712564571,-0.2846640337658266,-0.36281935569329704,0.7383068520463199,0.047214111336315534,0.7099999828267244,-0.09766744354615194,0.2338011867083273,-0.5086659433372498,0.11553340466858673,-0.5928926294323462,-0.11081150580076758,0.31473059422038774,-0.2657099943620727,0.3709719984298882,0.7707916173117232,0.12181792315232085,0.2905223053766222,-2.696312301927488e-07,0.2330602774111095,-0.6668982970093476,0.01674088489020839,0.23045307317223804,-0.03341530435852449,1.1922683401728988,-0.4565039384600059,-0.21923329164435748,0.03837953236848994,-0.6017118958337316,0.6805915999872492,-0.3257234878117738,0.29951392382792014,0.34084797854806526,-0.11533523830728167,0.7363331909649956,-0.8798979513636159,0.35360238871763255,0.24349434523955343,0.3582672029837188,-0.23554987781782719,0.34097268958830185,-0.03768855138307615,-0.10853845583110788,-0.21613066260663946,0.14894562043275977,0.15272410575361026,-0.5353276740226862,0.1687247897479328,-0.26564706325307724,-0.41180611684190294,-0.4852130706830476,-0.2725145871381617,0.32139981901780273,-0.041526170201144526,0.32508291275115475,-0.4445064391536741,-0.4488170437518521,-0.44110619020947883,0.15109185634831676,0.4603998323637582,-0.6022916850619434,0.31415747527011706,0.18735623683200098,-0.3484784916610077,0.03653706630360804,0.1885160164951055,0.9868053679183934,-0.5912446068322703,0.7466863273367328,-0.31964969269603577,0.3055538978936682,0.19055258287743695,-0.01729136531832245,-0.22958384331180007,0.5066440666410719,-0.28779774086485543,0.13173199308821518,-0.11377915298430712,-0.23020069635022056,-0.15919375367331354,0.2066201315100691,0.008658714229441094,0.4484118107638026,-0.1849316009169445,-0.8279192223885723,-0.43528039581467615,8.857129313282319e-34,-0.3568006803035859,0.5249659950682555,0.23972326506818922,-0.5944678589898355,0.11099789365093479,0.35270932983662795,-0.46806538311920587,0.15835487712399643,0.10378550753567946,0.5548082558784365,-0.25930929432294364
quantity,0.8748313058526784,-0.851423584897161,-0.1660620167045641,0.3253041380467602,-0.44939613328707817,-0.29729507993814075,-0.33571371068703093,0.07512101901167666,0.07879818336903789,-0.2626345706902002,-0.4361389993605993,-0.5365382434557221,-0.6473357507859772,-0.08357421067240994,-0.9313796892477052,-0.05694200427905682,0.5392885658681776,0.3429691002430816,-0.3752136391349586,-0.7058955439540527,0.09710218917629278,-0.48500013530668185,-0.3136529025253978,-0.1494750449961816,-0.4521515676762029,-0.16738720792764075,-0.025874367970319025,0.5977933381054241,0.5852249418985533,0.3688285856175681,-0.19584800584232206,-0.279231492138056,-0.4736732708644959,0.7265113403641619,-9.45702438430472e-06,-0.5141726725314468,-0.4572781826780243,-0.12037138474165575,-0.6426549675795937,0.09596010818553231,1.173827324985653,-0.20009466655467475,-0.32897586655150196,-0.23161457309154346,-0.14390962589072848,-0.09754494576283065,0.8808409259547528,0.8153658248065391,-0.0311807580016165,0.6510579504373306,0.04321607944795645,-1.2542948971690489,0.31798277412599135,-0.1248437667912901,-0.1317617867430926,0.7286703653590832,0.24417945167278293,0.23527197314827128,0.3797662399767802,-0.39816292729701047,0.018401907889162312,-0.7217029029345899,0.5747791840635844,-0.1675124735898046,-0.7206419674846959,-0.03531712040207916,-0.012903305137348673,-0.576865531703631,-0.24461233632265894,0.9822836349660907,0.3013912180175342,0.1548205461323469,0.34767825926022694,-0.25341877928249484,-0.15788965274050568,-0.38086253501037,0.0638247459817308,-0.560893246027276,0.021525166694811134,-0.2477354236089201,1.399499146363177,-0.9000093564576881,-0.08491372283074376,-0.8650005900055658,-0.33756351314268823,-0.38364162962909215,-0.5415300670105456,0.13326469512100833,0.15983479910632703,-0.32979115988799756,0.3720880748697289,0.67380504213143,0.5308422128996081,-0.04604750657827248,-0.9136412457834013,-0.04635609694917268,-0.0653413193245653,-0.9386701098316677,0.3093750817317586,-0.7486154389471045,0.22574064260131912,0.26289218821697,-0.4355919478961616,0.14567199934586822,0.3645539224980801,0.7960778075755928,0.16974807077247656,-0.7027322969240882,0.5799636627823399,-0.40489431860491537,0.18882262455100218,0.3120023094976038,0.014009650662056628,-1.0557150656911582,0.9686799599685959,0.1971700574986829,-0.22720606282988876,-0.40870383482049516,1.0481173071487075,-0.3468404899278463,-0.5780882706794539,0.4896779715444867,-0.05691770744456385,-0.11810549831969079,1.1649988942289278,-0.4009385636533547,-0.2803160934473737,-0.2590439688575516,-0.7173882078576339,0.8985790149759753,0.2415149435065125,-0.11441237151819716,-0.49992903554142776,-0.3110665378060721,-0.2740648105146751,0.5645251968440592,-0.5834846968957667,0.629051599853021,1.0182869883101306,0.618981629915233,0.05323618138758131,0.6809872226767095,0.37891536835449774,0.6329888734232424,0.4757518578725727,-0.1480524478624568,-1.0513715406136301,0.28626237240836255,0.2905320540693783,-0.10682193693882222,0.5463083979475378,-0.22178839704953085,-1.0603369855621727,0.1352674258076011,-1.340362509287602,-0.08490181094579488,-0.5529456834233729,0.5827005039736127,-0.06702388037850657,0.0024268135994700603,-0.2771411837941105,0.8348672297634043,-0.09279857570686169,0.5704273127008728,0.5304930581442716,-0.42634455541548383,0.13122317986499513,1.229477113356389,0.1402777719137097,0.06501387733308438,1.37853026473522,0.5602011148703188,0.5932872091642186,-0.7663724066185097,0.15817909470810834,-1.4737563455788785,-0.01414196843128279,-0.0765651146213392,0.6476711191284878,0.5030687940218246,-0.7630918991697492,0.3065181455787276,0.09087724439691644,0.6924132280418014,-0.15071482049605947,-0.23034494866586772,-0.3836584686437356,-0.25703370712224044,0.73421097942432,-0.29387237865214033,-0.3381350330406341,0.09402971106264875,0.7027052024624101,0.2817145966490482,-0.5381535338029866,0.1323925183057013,0.5114217068624584,0.7818361650675544,0.37479799210475195,-0.17673194062522934,-0.4466619434657741,0.3671885387311066,-0.5446408868567707,-0.004987155799538335,-0.6949560312268475,-0.7453943141609333,-0.0159473601711659,0.5125012253487297,0.4210745701441167,0.1867968678171485,0.4069943917818395,0.22773887715514696,-0.08792410937572044,-0.058267647474115655,0.13452183730181622,-0.9766844670771317,0.046839143447753084,0.8004944614406907,-0.31314889823182324,0.37317941747343064,0.2904309808292423,-0.7657884868086583,0.24791431095268657,-0.9005455696306931,-0.6843439271592157,0.5592478246744317,0.038649604623220105,0.019553523489846323,-0.616584663200465,-0.12250842386427603,-0.5093486498718269,-0.4605397559720691,0.17948151399693776,-0.8775970923161119,0.7962676087219946,-0.22199488567035014,-1.5195696479310936,-0.16592287739002523,-0.23226049597323836,2.182623257821319,0.041350736899391366,0.8304746103535086,0.22341291131276883,0.6127495833511512,-0.9087313565760483,0.29438988505924674,-0.20599704408559297,0.6521487396480413,-0.15210506532586301,0.8511940946314289,0.6149490323366781,0.1806736460821002,-0.42206814281445626,0.5253166779377508,0.4268749001301332,0.3896532426952538,-0.9628443648044724,-0.9044842977943748,-0.3631789305792347,0.36110340843891575,-0.0668586444410417,-0.4815080867157279,0.42474821887691494,-0.6520281417240845,0.31728491409825255,0.17998800706496138,0.1176743019783742,0.39098054865467513,0.482567105695934,0.02901403269385399,0.22836809939664737,0.47955989306753793,-0.06395964350640622,0.22678114025757914,0.1282634392955245,0.043581458774272545,0.20528892599737694,-0.3783487614436152,-0.047485295779714935,-0.15692092885220443,-0.8481224115152678,-0.08066463543691076,-0.28052128564687845,0.3975318967915241,-0.8634513203799861,0.4525377623556869,1.1817066004534753,0.1251109341568646,-0.8627159295093975,0.42804140794475387,1.0452668011175228,0.22220933956282443,-0.47720918830485626,-0.3159603070232381,-0.6566352146017075,0.5343360232540613,-0.26438221281820773,-0.5968453688364008,-0.4577826486396397,0.20427215557351158,0.7785900277564219,-0.8281821162692606,-0.01392837314591584,0.06883028491008453,-0.3403400706859655,0.5231763759923257,-0.9840991322444848,-0.12262222611999754,-0.5655030454962864,-1.0636968706339973,0.538904116083068,0.06669690155516975,0.3424169405490437,-0.2807117996249209,-0.6591425715590251,0.07604597832839068,0.8014668328312043,-0.09041103396696237,0.534615987815065,-0.13797951251105606,0.40751868741967867,0.7002145097512902,-0.3544421995458583,-0.4485121954750619,-1.0109160429908566,-0.3442493435821204,-0.00031647866635985724,-0.7461154250149665,0.9170056864045736,-0.5567353962161095,0.4421757248018183,-0.6380850277319207,0.11092586477938028,-0.2897396153496141,-0.5893124157629492,-0.7689588507816864,0.3045395515509037,1.1507308532680596,-0.6236768359930227,-0.10611112176041963,-0.719463281435285,0.4542605399935048,-0.8144493772077037,-0.6262168562604062,-0.13695137405078248,0.5739479040267672,-0.38550739302661524,0.5925257372211951,0.30587026055833066,-0.37118439670619574,0.11570431139000537,-0.7843958858218756,-0.12361259383404527,0.8571129995338962,-0.06465783891364738,0.04651829645396101,-0.006901304571738415,-0.33813840212362517,-0.693069177003705,0.21078295748345985,0.45634198892293565,0.08983987139963931,0.132073844917893,0.7475422518710956,0.05473877689007638,0.5940961582377342,-1.2579243129338424,-0.4179752491779806,0.7596478983593564,-0.7773203192268862,0.4133450620837048,-0.5474985264348926,0.40552145035849957,0.27190362201507784,0.5874077464233598,-0.8087129485184908,-0.4777844311058,0.8765387981496301,-0.2590815843125645,-0.5035297295698988,0.06785771782326445,-0.9041087108155355,0.6979530699755364,-0.15441217069168056,-0.8087903537089836,-0.699048572960053,-0.39057718698359667,-0.6325867093155443,0.469699390277371,-0.8562262280050663,0.2289194370846759,0.8657777126109512,-0.05675564794781825,-0.43314578566849304,0.5712365969588942,0.27621995925927584,-0.17171044431296617,-0.0915171549474401,-0.22404004755181506,0.0641157243937232,-0.034572575246227505,-0.19595903464893025,0.09084403936872743,1.147131858560229,0.998344721986152,-0.6074644298723534,0.3303111677825449,-0.33138629211979215,-0.5020888776801093,1.1642829461349542,-0.3955144071619684,-0.15175494715032448,-0.3066226125632345,0.2590406138337923,-0.8109951401420745,-0.31630337590128094,-0.011914531749933547,0.3767382784736922,-0.23954214961062587,-0.20173985501580324,0.0991891360291436,0.4405423079460597,-0.6547261648377237,0.07735340623794285,0.24827763480354506,0.2872049175244372,0.6500387383993569,0.1320514107406752,-0.3053164866092567,0.4630979506027316,0.08843043272343858,1.5162496599068431,0.6071026252433145,0.06547070480606307,-0.594463023257022,-0.02392657048696542,-0.47576331760061435,0.6253375425967206,0.8271056989222919,0.4868274725607738,0.42296004742774224,-0.07716932177015999,-0.7616036857970452,0.0512188819656203,0.07636809869833273,0.6267627956611452,0.33305908195483935,0.6565288759338406,0.16224896780989168,0.1507089970907511,-0.12169038116396956,-0.5660365035085269,0.129469838941907,0.3865646959494617,0.117783733438012,-0.42569211378781124,-0.3600785284732236,-0.3386842213291962,0.4678191220739703,0.04509341020827905,-0.36773672200669827,-0.011498284535050996,-1.141653685881117,-0.17880454336566332,0.056302552850836025,-0.24035324278007114,1.1831997100002294,-0.49631744012155915,-0.2369536237468671,1.0264644937916323,0.8013958139255675,0.5376100515350792,-0.10832858567078944,0.19012822022889073,1.2169490269397967,-0.11527135541172434,0.1743430326145429,-0.5970528859299159,-2.157816196382318,0.37976961856871927,0.10860516120132,1.1372582314536968,0.25388099727249036,1.1817492732928168,0.2723215351649914,0.15547008484789382,0.07512723254969565,0.07154837828393255,-0.07121246883398402,-0.006955919130553135,-0.3762817647083993,0.4701007760237305,0.6990509508261333,0.11550855922851352,0.4228013707970444,-0.9662808056445802,0.012216277895661262,0.3032037214525336,-0.6462541276821671,-0.24622586472530414,0.42780157356461157,-0.06495926608520733,-0.690117979286404,0.46614935802685914,-0.2656528176006864,0.10256493655144253,-0.4367215769529441,-0.23891434090862987,0.11854324859483162,-0.31650673212855795,-0.5689063384639886,0.5796019634320555,-0.4503361273747924,-0.07366213698571233,-0.34173205312208216,0.38642995306760003,1.551434762994894,1.8144007173863985,-0.38687277459946556,0.1307276689364785,0.2932920141612783,0.3553320388062184,-0.3012428561682374,-0.8403363070325645,0.24414351192497494,-0.24103328015550576,0.21089492342102154,-0.10562244378976876,0.2447499474710047,-0.5791224778131822,-0.3692416935135274,0.37902204163182246,-0.6935451733062296,0.03642641443694698,0.44732255083945505,0.24161857656389385,-0.286152675053393,-0.9753158418243039,-0.7845077870264948,0.2862098470504139,0.8144760180116896,0.4249998001918655,0.2436751805655004,0.48299071506542784,-0.6332884221715995,-0.2895207833315829,-0.08186523942699159,0.6526286409564432,-0.27729892005101875,0.7930638750267115,0.36862584995610453,-0.9787175590359614,0.370230444148988,0.023687092705259406,-0.1079869874320219,6.166710218561021e-32,0.15343011380309857,0.6704056210815996,-0.03894125284579484,-0.22377681865889398,0.26336439725378014,-0.06807949850825772,0.4087033918650439,0.011817377128983219,-0.049443585453653655,-0.19331551428052324,0.5207690234269602,0.1589020773516756,-0.2513090298019147,-0.5574651703277391,-1.099045120918771,0.40250129373559984,-0.29196280086501036,-0.07345785332202498,0.4637842739463468,0.12524289477296338,-0.08264258545277639,0.09858441669249438,-0.03772421827877847,0.29572718579540663,0.2840276857160276,0.9101815928670569,-0.22783072857707792,0.6753205584023643,0.6426453409290842,0.1802135999406166,0.17001607331239843,-0.14112727173034584,0.20886670447363442,0.056874301169445175,0.11123192509624573,-0.48504875233240297,0.8433297007065494,-1.366762115971706,-0.8549519697820827,-0.1622410884369474,1.101734036378501,-0.6316520788201968,-0.750290306656707,0.10367851849020149,0.25372527034622494,-0.42420579022707944,-0.23301263034221442,0.050200607055626796,0.2597834175954095,-0.6459820273362676,0.6378727704458752,-0.43116709405240916,-0.5065603683795479,-0.11384426811915223,0.07645531467272032,-0.5359966577702566,-0.4951237305973481,-0.15829102553135896,0.3339904129049956,0.08951500312529173,0.4035126173164451,-0.44036565219269996,0.23295254200041868,-0.7913633073502313,0.17138680218049573,-0.27780181237447055,0.542311171645827,-0.9726182397201947,1.0513103245955522,0.19232528632399667,-0.3440064775581358,-1.023099027566726,-0.2215213537183509,0.8970957899154023,0.5090684454109073,0.4984639680436522,0.22572194601093143,-1.2044692241296329,0.5694697987684221,0.04100617527586429,0.4153589636625102,0.20494916873269087,-0.39145257107801357,-0.4092999451731493,0.36684100518240725,0.4159452688815408,-0.2170792394880216,-0.8528820118680625,0.63012301841886,-0.09853558419356191,0.26775063938906635,-0.2595822573199282,0.3914435363862974,0.49937091847533516,0.6544518228702783,0.38871420866769935,0.4323171299768818,-0.16233677860335635,0.09568936826177464,0.28233466634671317,0.020612361787800786,-0.2828309816986293,-1.2063417948824045,-1.032831096817452,-0.5821041631647271,0.3851514927248863,-0.17220827678382766,0.047066514572818546,0.4620195274873598,0.6169869664149145,-0.6796510562360357,-0.5873415983975138,-0.17959063669871847,0.3962301229434245,-0.8516612974167285,-1.180855805090285,-0.3949686660340372,0.15688121681990083,0.672649724107922,0.41464835565396907,-0.14332589593755246,-0.20290079958247298,0.08100092564142644,1.0420163505092785,-1.0951895765141588,0.5378726531894417,0.6699402238227042,0.07933149859326391,0.39906174079028356,0.37535540271015455,0.2835581445537682,-0.42204933334799316,-5.170788135564979e-07,0.21178065557736495,0.5199927759872707,-0.08729856990158921,0.1476289533858622,-0.06329238953120228,-0.45580039134124073,-0.8561333535019088,0.6307914800538145,-0.7143633668512427,0.282891584081165,0.7619847500255071,0.3804768539127276,0.6784865670848189,0.4132069896980267,-0.15741289109875112,-0.058381276585044745,-0.2536062236558569,0.2622993071453181,0.25349619324731903,0.34487956648876117,-0.22133677178167765,-0.22424482797259218,-0.1385099481384948,0.036626424031224486,-0.04813970613741884,-0.8787676690183454,-0.3338573604285849,0.09355739946365918,0.299777679912316,-0.4286171351760667,0.5350094016816611,0.37176250330954297,0.6984276137220784,-1.2502512466910671,0.5107024836297257,-0.6988503035440857,-0.5338954055624598,0.8170832795513339,-0.36478365041169136,0.3268966601295229,0.35725319044179626,-0.008667108527017423,-0.18640582825075688,-0.7753257757374928,-0.3029395884695042,-0.8216993259613155,0.20553519005192344,0.9432098582797412,0.7000455600543029,-0.4403955358993628,0.8522528571487958,-0.6456369776920347,-0.03383130631631518,-0.4052193782777739,0.3204728499153571,-0.3352690528559073,-0.29677931229601945,-0.3432820200793959,-0.4518529683694556,0.04986580273064771,0.08519203370873689,-0.25629092087956235,0.4178634723481464,-0.10687387496548374,0.021083617884070916,-0.06755051104765863,0.9876262709225225,1.3047489747212363e-33,0.36718751861106863,-0.7861375321622636,0.5756332635698431,-0.36615159723065627,-0.3569253161881136,-0.20090374938107425,0.48479586284675563,0.19366967498491178,-1.286039947407442,0.5428669778723381,0.17766344988346966
voice,0.10917491840147299,0.24967413623496468,-0.17932822391944386,-0.3261575632155358,-0.4252596087151901,0.2551998665541602,0.15045298104148366,-0.1621841822497409,-0.1427931490597851,-0.18028286679735286,-0.3232091423872322,0.30950713942393543,0.1641322382749686,-0.2720339443926033,-0.25108348849328027,-0.021345034951908443,-0.19516839681206163,0.6946231021911424,-0.1472239312062004,0.17837091721059103,0.5860363418455802,0.5476660722612856,-0.20347461491619437,0.3307616329705857,0.12534139851951978,-0.652085715438763,-0.26833180495392406,-0.6320998082649396,0.011538290477245163,0.2944719303261969,0.30175056596141864,0.38721882788178535,0.009102936376228532,0.18386511372652958,5.6593231124775124e-06,0.03764188237877164,0.195471716434279,0.3536606726922335,-0.2772074941435914,0.4516735822834177,0.16919773295703766,-0.24357408793732999,0.30066702385128097,-0.7132414934020689,0.4727533770630727,-0.40752193353564814,-1.0604858169516815,1.8940209155861978,0.07800338017794016,0.49035146380392003,-0.1464526967910548,0.25130523103189506,-0.03885543995282093,0.16376737687700102,0.2828485824933796,-0.062221548450669496,-0.5926018914081259,0.6672841591757469,0.01919277792019256,0.09330256916891255,-0.12160389506588136,-0.2963097278479671,-0.1729216851146529,-0.2524123532566486,-0.15337250884045908,0.7354805660879395,-0.2590197692657387,-0.5345777744830409,0.02495278696274775,-0.1288483180285938,0.007073190609701527,1.4161694257719493,-0.004159031952786794,0.6806812830072313,-0.5648841758189116,0.3333762295429913,-0.4108459284103732,0.5129633001508507,-0.4105932243799961,-0.35818845641920116,-0.16360494090577413,0.5069446574574838,0.12043170635280868,1.5272638071950038,0.49216187991200233,0.04566968315297694,0.5300381305313706,-0.20944683981874837,0.5447568130668672,-0.5029390053162086,-0.3313737142778544,-0.43242293738063897,-1.5270248090069973,-0.14511293033968278,-0.18205362873452266,0.06256383824935506,-0.2510671109303818,-0.5106982002071261,-0.98675395042662,0.07442507141065233,0.6502908299083832,-0.5411365088964621,0.8258732861831782,0.14542188074471513,-0.3274656198696637,-0.27685325809485983,1.2145050406077489,0.6700248794011656,0.05904091606577591,0.0025205003117480516,0.13019734680011932,-0.008948781636102975,-0.36434006615954934,-0.30791376209960575,0.47665506740893243,-0.32026583510759044,0.2586355825704145,0.7472963673792327,0.1766790447191258,0.17115115415547016,0.2538719852460907,-0.24370541140728436,-0.34396363818594106,-0.24907588090372912,-0.30628028342896263,0.0006264717811273475,-0.2283328676865208,0.9823254905955642,-0.07107129757295509,0.2006300932190683,-0.004556987415530027,0.2216322915580864,-0.1643621582352409,-0.7123805388571168,-0.4102307722623603,-1.0426856602823675,0.413537304474574,0.4453713214231795,-0.6928802965231824,0.49890306313957883,-0.5218829572531435,-0.9382086292179497,-0.6606067530564623,0.05652693712969364,-0.049762369849929426,-0.07325987805687181,-0.15187325932782397,0.4261054640242293,0.0726188435093629,0.18322718044333344,0.5015623508509931,-0.04628051592750869,-0.4062360918770086,-0.3113864383514063,-0.20932060755909349,0.5143157777295102,0.9389645534889741,-0.4636351765296954,-0.23240358178089934,0.07224740972776084,0.4198209926061979,0.39107178091757117,-0.7022993070739308,-0.2842346418952348,0.12001634464390633,-0.06458595795894691,-0.7456130079257878,-0.4303639645684191,0.1640462356362009,0.0244962901996468,0.05225799195428932,0.7320638032356641,-0.4651466043714948,0.7021159171329443,0.006711860197393868,-0.48770121251587667,-0.20460848827796077,0.09271708141569787,-0.7704759018972378,-0.8147658114437935,0.21932543703947915,1.0243892788067943,0.5125554730980063,0.04341936090558675,-0.3991863005355094,-0.05515529295359064,1.041887322314594,0.24707012462076086,-0.4176961048932566,0.924331546912215,0.11106674947965216,-0.16399287838182783,0.4535265439011866,-1.1875305016727482,0.1492779157098187,0.6673954374065656,-0.014733411466504427,-0.5325928654529066,-0.509040907398494,0.309015042286412,0.5864385767683749,0.11258600982220017,0.5203212092147046,-0.4527995783454829,-0.6201675177954316,0.5152594840478546,0.09163048884934578,-0.15057879253219403,0.1872254470731986,-0.08457927273298628,0.4694890881388637,-0.17684218296083112,0.13209845028908587,-0.9996159083979285,-0.6497912217114014,-0.04900238283970665,0.028886356153318218,0.21381361801594323,0.19300926832592574,0.40268089295980614,-0.20884793254318956,0.9888467291408957,-0.2988903896607083,-0.25969378624002065,-0.6160510864317377,-0.8553604941277676,-0.7255010342531386,-0.7995602842971092,-0.22768513848827138,-0.354743961959283,0.01967354724920549,0.3189439923448526,0.3055605443838439,-0.32492543677966684,0.08822581510495801,0.37527062701150155,-0.7141271596647513,-0.5305099317160745,0.18982279331045532,0.11935782151310637,-0.32430593238953537,0.36293141193322526,0.08308169900660611,-0.2904435652948842,0.34573637116171874,-0.22748687185302668,0.7098196256021156,0.28861088139495955,-0.3239476101238813,0.20701992664849006,0.788100213007115,-0.09477175768887108,-0.29971751284113324,0.2247811416587178,-0.06881134881829291,-0.23313449049553617,0.6411212194713733,0.6010790851696195,0.528243045901643,-0.21386206497103444,0.02848768281991298,0.3246792473425652,-0.8795414956326866,-0.19333375513405524,0.5336272885307406,0.0536120737849307,0.23994256353080423,-0.7767099263054641,-0.4331902674430386,-0.3970595981662492,-0.21396634280972626,-0.2271594561499288,0.6858041982166825,-0.2991670549848737,0.2637648529782778,0.004808702281586035,0.5297899658273603,0.3535874440580733,0.3042664713255312,0.4111393464941986,-0.3780828277949706,-0.13155058439146045,1.1898902703025127,-0.007873282762307072,-0.10523613179894903,-0.39727400881314967,0.2857970604711754,-0.08862608395991224,0.3821008964215516,-0.5996158946405012,-0.14529043976241465,-0.07308084219748268,-0.13077916385575397,0.18844494284825453,-0.032314007744533316,-0.7054335667151416,0.34087167563908516,-0.4880711387260958,0.022338677734143608,-0.6781239370384514,-0.6434558336000832,0.47974926207233154,-0.16403994997676927,0.04019802975626707,0.7948723056860444,-0.3120313632557771,0.3289393495382326,-0.023435712631076758,-0.6121729715998817,-0.518461064394166,0.30054448912816595,0.062261901832109334,-0.07090038444169207,0.10544024192616139,0.008424236191187404,-0.8976386557271055,-0.420282283906028,0.2554952517401218,-0.050020876426377356,0.017111754707812232,-0.17676868980024207,-0.15658206448201517,0.004001056148371674,0.28838607708284153,-0.23586989636037545,-0.6105805879037058,0.709755889074998,0.25640435848089577,0.2030734609970295,0.2603016117483025,-0.26291860606555,0.13354192588348787,0.1599368153681389,0.5283484282484008,0.3708624854176839,-0.14190998086299775,0.2985547938552249,0.754961371724823,0.8045309361893763,-0.0642696799473779,-0.07211463876622841,0.17856280228914018,0.25278075026831176,0.4763620577885671,-0.22452782169173374,-0.1428934301132854,-0.2526039890244401,-0.40050010280267173,-0.28380768268590034,-0.39007799061561604,0.8942046727733843,-0.4457690365620927,-0.44172989543749336,-0.5524253108563897,-0.5721560457666248,0.2622969456803464,0.46076318495334323,0.8990983629876614,0.22918448897625235,-0.6362516101192561,-0.5073506179036826,-0.8109190554829013,0.23731111573141347,0.008028167243091005,-0.34039529489933484,0.6722494302686954,-0.13926396567511204,0.08064374017864301,-0.04394651810279805,-1.1723998874944614,-0.13603363671073876,1.1258120984856053,0.10480959593177967,0.28816526607062726,0.016825517047345,1.0488632006263467,-0.5193991966546969,-0.2784999938159824,-0.2072615575037962,0.5256121594137433,0.31861299657077685,0.8731117512521648,-0.214267227769731,-0.3061784801069589,0.5455836456023376,0.10061008838569406,-0.3102900590253169,-0.16945889120194432,-0.08035763959851401,-0.16345270906665307,0.057945206943074645,-0.12716008386954267,-0.6498962489287815,-0.7491687311371789,-0.8805910759083955,0.059025074408542856,0.3448804247959666,0.46289773939703854,-0.20056772538552978,0.08860581878423154,0.01474053883815334,0.23620648663843657,-0.21513118557482477,-0.8405357179623555,-0.12606554636437267,0.397033448621738,0.08610143620009071,-0.0618789902504223,-0.48747505815148706,-0.26705613471693446,-0.19506920045132034,-0.29834629815179164,-0.8324513680701238,0.10825052769246846,0.6262046404039947,-0.7446161209169058,-0.44711586902676637,-0.7963617691077278,-0.7891280078380356,0.40503944306509165,-0.3565810845096816,-1.2511709963921422,0.23273620018792882,-0.17940654977336237,0.7265769536324646,-0.14237564915210194,0.6262279888492515,-0.6679435058832941,0.44248782199424624,-0.39105233276566753,0.1075589369537495,-0.5039126009795815,0.21380583018437938,-0.7003494199556247,0.371628924294262,0.6256090472338283,-0.026244223989560646,0.1190029415144274,0.28576396198481074,0.47074417177554034,-0.15254880512088925,-0.5492993343169128,0.6306957019466749,0.15214243422576862,0.07954029070561339,1.395404617370291,-0.18745316191035216,0.24513776729802877,0.17186439057067202,0.9331017013082317,-0.1371279755522584,-0.03850473997677939,0.66584383245479,0.455519454346856,0.23850247127470448,0.284514020681807,-1.351285715012514,-0.1527848541870672,0.6128349976409597,-0.9442085022353381,0.05501228858340527,0.10706074540522531,-0.5580486223019565,-0.673532269039615,0.24911831260902914,0.1463427982893057,-0.4129877010642936,0.8699169068608922,-0.8845621936713592,-0.27966074698628124,0.39911703845633484,0.3557540735718986,0.13602262683224647,0.24602837054320964,-0.386762805380439,0.45884975895210195,-0.33683883300726986,-0.644380735701116,0.899200922881823,-0.6188613434927343,0.12109566258125104,0.0018404585842241065,0.4471725180583391,-0.7029252676106433,-0.20121482198827892,-0.02865540560706718,0.5029944692630004,-0.6369470674496797,-0.21919716094824301,-0.5701191006263345,0.05040694979856325,0.0678296749707091,-0.5073977025383419,0.23393748399999664,-0.2324806258312586,0.2244802446989186,-0.5133013482646879,0.7218132838539159,0.7853298444118924,-0.3956225818887109,-0.5109643147270541,0.5042148520475289,0.1746626184417286,0.1952159735064306,0.5193285646798528,-0.1990571093780838,-0.32844860784713065,-0.2870316613515101,0.19462750483178773,-0.8499566105192511,0.21665544666781686,-0.28703168897408987,-0.22972081512055598,0.6618218473523545,0.11468472504336537,0.25999918799088684,-0.1897408912708074,-1.505701798804039,-0.20948438380572734,-0.6074677759745468,0.3869760153729637,-0.8893241675004003,0.23020775426543913,0.4672935509612561,-0.6687447148800761,0.9452496170017783,-0.20845662470069606,-0.3645963801874039,-0.12621930150133812,-0.0604772912263671,0.23928051836476275,-0.7453968614739809,-0.35309537453720363,-0.7396080199505618,0.05164065512036609,0.0604179359156177,0.9060544069986533,-0.8290016847247526,-0.40748001895258573,0.27627933699118185,-0.7345683868540674,0.03380630313994521,0.5879928832957975,-0.35222215773307514,0.46724287961420025,0.4976624608486914,0.25248455723992697,0.04910918348456209,-0.1068180686820675,-0.14514993084366537,-0.9465597465404849,0.08946391618202454,1.0709954374783872,0.3377422507020685,0.0026251557735331153,1.0282963895180047e-32,-1.1341451728838303,-0.1766339566368632,0.3652141865393121,-0.3578200706123021,-0.427371047923518,0.04814970808933667,0.4316606570585615,0.1736611042759195,0.5093107986463793,0.8987180135595692,-0.11985278894861086,-0.015088421754452463,-0.2339198539564021,0.3294618700022039,0.49596963862556054,-0.3297431557492702,-0.40197613921826386,0.37773591972452314,-0.43320400895990585,-0.19359667788001722,-0.1850712883059898,-0.2991050662342304,-0.30596740758616675,-0.3405929303924439,-0.33667396125675875,-0.24087926823982114,-0.09560541716517888,0.41748509132970113,-0.28324382598135994,0.37009660228504604,0.6105687552672602,-0.025335710684051646,-0.2529725084047324,-0.20314043566529627,-0.03440548727749669,0.06438295415381089,0.644410315755416,0.25482951118997965,0.9179197524458346,0.2257868421971327,-0.01606014315601111,-0.2358373378701858,-0.5894999045922906,0.01856870953620969,0.02623311443678097,-0.03874947283511236,0.048990738064850006,-0.12376616623645938,-0.016789210052170964,-0.4407040962799699,-0.781268287303904,0.8473999938612431,0.37880600338918186,0.13032845867749776,-0.39370898186216696,-0.24387117230243482,0.36818261442449257,-0.40885058563982074,-0.062101206131692406,0.10209268876951663,0.4720902809965749,-0.9010170106231687,0.16363068619776597,0.5711424470269498,-0.15626508110781048,-0.6535937488615036,0.08861889335181844,0.7426838927571812,0.14538430365009125,-0.17108504045320042,-0.6043836238854412,-0.21739808731049462,-0.017624375180003055,-0.1677082409491661,-0.09035358297011667,0.38424377229420564,0.08893093533165884,0.5040727703799802,0.3607329878465351,0.4856511783503425,-0.30886804380501837,-0.42015563596816646,-0.4408345090001881,0.07166615246719875,0.12089010451636123,0.01616057610809451,0.15332108629178384,0.6579317514617068,-0.4545237588880308,-0.2646237266329365,0.540270352338708,0.6257691250099281,0.1610286723406498,-0.046571277182143336,0.5027814393099542,0.26507958610088334,0.9093334264620636,0.13277952610423036,-0.17043864416801194,-0.06070569924590172,-0.5845668573137808,0.5015095365218245,0.18662628388272065,1.0815363038053931,0.41412435560820204,0.15356662111418734,0.5607289796832199,0.5960511135853516,0.4666635067191426,-0.387493554678192,0.46946737581481224,0.42669379804454727,0.2872006422479263,0.136539812379875,-0.1520232177623134,-0.2981889638445509,0.009357708981055854,0.2941303140093668,0.11583003174911131,-0.4545923482564672,0.6726338367951102,0.10866760042847229,0.10470774542773194,-0.6248021766888829,0.35017643352173977,-0.43114441441526097,-0.6113623067914102,-0.3332191491401965,-0.5328357013615741,-0.5908052822651684,0.596952483038762,-0.23351663512813012,7.019850821404492e-07,-0.5894843490641313,0.44724701397307753,-0.08670973398297849,-0.1757194054624518,0.24383312772623314,0.21079177960185375,-0.664312847635023,0.45338485771609927,-1.3727840163662268,-0.17374792375346423,0.5370561806070787,-0.3642657023559376,-0.22324445893013614,0.11407782500037637,0.42183920128020447,-0.24178022952839937,-0.15158113438543058,-0.19299437810224251,0.2525339328009508,0.05982118337372639,0.6535875845992415,-0.3577021568384649,0.263254553276439,-0.292155295399132,0.683564797149261,-0.7523353005132943,-0.7019643082416703,0.7711157718770963,-0.7516780032851083,0.04797799925665369,0.8508392266321202,0.6524064975217047,0.13407486236679278,0.486438363833739,0.05079970068211423,-0.628474638027801,0.42057551385059777,0.29026424151447267,0.13958015879737365,0.23136136193436854,-0.40227685203159824,-0.2475247847108253,-0.09243475747310197,0.15271578374490238,0.47334432149633404,0.7435302886650974,0.2519806771693845,0.7917856543616866,-0.1778736298496942,0.8753450534013352,0.4424198065658753,-0.24435929510834883,-0.8945021530401448,-0.13430906110145488,0.20055352435074023,-0.18847992549782958,-0.6178030217058854,0.2805841646159476,-0.3539873957926959,0.1847416035323781,-0.06268257993972264,-0.21268652486072576,-0.09467281494540278,-0.046429315030719454,0.5395510791167845,0.5138563543111765,-0.2202018849317881,1.6332969496444398e-33,0.8300641645279123,0.07332120171326621,0.037689555484883015,-0.5570382640374438,-1.009346159366999,-0.22624153352856397,-0.8326860876699683,-0.8072738072447112,0.11377318808883914,0.3136628353039331,-0.07175287731766669
negation,0.6700735760753359,0.44401347256918167,0.240925345905343,0.11707749923643214,0.5227765603458835,-0.45071083887905256,0.8188500219321508,-0.25207012285029784,-0.106199281511698,-0.3356539120964954,0.0644625854717408,-0.5891503593574754,0.977995996623257,-0.12418902697691708,0.3944590648786675,-0.5924759567668263,0.2783223278404679,0.5650326851905635,-0.15587377160624155,-0.3453523315123344,-0.3763691212181158,-0.2762103439938728,0.2534132531451005,0.15278079955443305,-0.29245613034370005,-0.11241380928850966,-0.2840930299908361,0.02548743855692853,-0.2955826157879555,0.12857574381068063,-0.9191594890767015,-0.18043982159156882,-0.05398701696833602,-0.07230037051657555,1.1537092834027127e-06,0.5471473815795332,0.5291932189777832,0.10799710915037691,0.3725973341922741,-0.44242541786104717,0.023445164370325202,0.7635593555951729,-0.4044610605784544,0.2724984721777518,-0.2034116268415009,-0.1622014245786985,-0.15783337040680417,-0.053505405603647326,0.12357358052461771,0.03743258200306132,-0.09588964009321466,0.38746229064176296,0.06521246030078887,-0.3500413197463565,0.19988474867498648,-0.0359553263495361,0.06749399679298598,-0.2808366224947134,0.2756409322914756,0.08598588718182545,0.9494239295499504,0.44310444059483306,0.14471971339033782,0.2685045559872428,0.052904257588114206,-0.28541578547797847,0.14902278798278298,-0.06167685353168174,0.36655620678495543,0.014642837353125805,0.29108998423569177,-0.1627527926439969,-0.6387143399885363,-0.5800674914674568,0.3913597373004611,-0.15219295274773934,0.8759685600230097,0.2899293812769683,-0.3294811411150033,-0.12906329338037764,-0.3660621408404112,0.7767470551907529,0.2586659580697139,-0.19461841274360767,-0.9835318980806667,0.6151036022085995,0.04176734077843683,0.1105035792920809,0.629883520030181,0.668659969059669,0.1628434411051675,0.34435036567789384,0.28263146042247245,-0.15489576497313806,-0.5703042127034922,0.11745577743713108,-0.250682526534644,-0.47518021429509044,0.3203191730009966,-0.019104659674335164,-0.6572548329301441,-0.2068380102468773,-0.28172600136530374,-0.045911658201133375,0.5050004091943022,-0.23959887437845373,-0.1088049567984593,0.16708672753600232,0.03932008630938163,0.5125786023615382,0.06213528163660776,-0.4946532326563828,0.8551332337894085,-0.09291973930260572,-0.9775374669485875,-0.07805679535481544,0.06430073198331566,-0.668009860346819,-0.09639089613301051,0.05828947590342391,-0.4926915722410951,0.15000884865133696,-0.3739643125814476,0.17812257009102278,-0.556637099712536,0.4475601620640728,0.17619798637207917,0.2597589648625059,-0.11710504256017051,-1.0885107613124936,0.2824719725647589,-0.04021434925321312,-0.15648959378773153,0.19218819352815203,-0.005245541855045453,0.3867487169254726,0.009993734043851333,-0.7626492077671666,0.08601440934900112,-0.3540234990040489,0.4492943960571544,-0.30712085731212224,0.34298482582143175,0.1169839051592064,0.3511559980067986,-0.2444802645689055,0.15490247447055308,-0.5862515760993442,-0.4670004434624734,-0.5794871807695848,-0.5053090454306033,0.4400561034640605,-0.5594371155494302,0.24353954631129762,0.2105453784145025,0.14649805476541333,-0.5719823281834128,0.1702969914715261,-0.8472831685143323,0.8102443485038171,-0.14302751463146496,0.06601087717691072,0.22631796145923597,0.022842857291892844,0.2979454457756661,0.2788972988519641,0.05359055780765835,-0.5630628857693049,-0.4016078469049344,0.21079576305651876,0.3083961969178419,-0.46904648675761895,-0.02708763231482277,-0.42889800204118217,-0.26604912941488806,0.15184025291442177,0.3083389555085182,-0.38794133807017733,-0.25120388127244303,0.35808133262878167,0.016760585814448264,-0.23387013785636276,0.04796881647258036,-0.24692456184102682,0.17055729275758558,0.17669547742413494,0.15602099409029702,-0.15049137331600876,-0.35293765237627356,-0.75533175835861,0.2009108437830764,0.7934405255912753,-0.7610610349909286,0.5948985088269737,-0.04393151276748219,-0.07406191681459222,-0.02523216136929572,-0.174418453403974,0.22942830052920285,-0.6944531506578451,0.13058341031799595,0.8545737568951584,-0.5052669581719397,0.23373039644005494,0.7268136345288989,-0.2518244201513297,-0.004828208611090987,0.3247774704370517,-0.19028805470212581,0.4170919172267936,-0.8433227743059264,0.5185441053634753,-0.008616816347103816,0.5072574909382955,0.23518192018894557,-0.18992228772150394,0.04002798618518547,0.4262577409749249,0.21734781458380972,-0.06707101001733924,0.014200973057387318,-0.5501263623817574,0.20147513222124583,-0.110876012403326,0.1129487665680292,0.35357062769992126,-0.08830606545000437,-0.10073955208671312,0.12110043643704096,0.18268995381379638,-0.2856906711155475,-0.02145539524499499,0.47122047433899034,0.12695112391737332,-0.4999287300198324,-0.06041850798740801,-0.28572551543518604,0.057536370141009444,0.9867977111996021,-0.02740353780837553,-0.01245789250734791,0.8924899796177435,0.38312359942013435,-0.5928551023730508,-0.03717221092280323,-0.025246831827705783,0.3562718587557118,0.6237712981965556,0.05480453213279764,0.273036701844249,-0.33313173679740027,0.058950313945907086,0.24710074744033586,0.002418568204200764,-0.37460737784643067,-0.4805534340399444,0.6906895910929202,-0.6287885541061259,-0.33227158155512737,-0.4011962993822754,0.5889308387097939,0.717405529390763,0.12050747234872865,-0.15565397201324502,-0.35028466254916957,-0.13948390671685806,-0.04817183733395718,0.3880947196941688,0.21579606295813042,0.3851470419479262,0.42230890329141935,-0.14054503540485488,-0.03595062746638936,0.029291313474438332,-0.0746170577496331,-0.862487556823291,-0.34134000875913356,-0.9435080711256449,0.1339051558750334,-0.16204060639470677,0.9089231607394266,0.1261276262428658,-0.5703125828948792,-0.3339963017021602,0.17612749004274278,0.21717940554515935,-0.06442794064360559,-0.28735546945755575,0.3016097984361175,0.18587199890483733,0.06491797826004221,0.42140873945155527,0.19999142572373244,0.3161282735893997,-0.1424269748359557,-0.39384519162733433,-0.3951314908163942,-0.1873645743894667,0.07689351566831343,1.0800264197541527,0.3939048997786178,0.21610437727378431,0.3564096617869722,-0.17474756565914637,0.32837832245862614,0.3422077067361249,-0.12984670319907768,-0.5129160382250999,-0.17059913384209574,0.259191819009773,-0.30094443131123444,0.008085497823134924,-0.6411185532920018,0.6159844550611325,0.15339880478971982,-0.0009004168010531072,-0.02784667345416468,0.23283692683161847,-0.050242713294803815,-1.1655913562896965,-0.16654067760155328,0.35856356193040545,-0.697998791165061,-0.15404192117586477,0.33067097687105723,0.04162506110997544,0.14194511360154097,0.10515990933130663,-0.19814854490466888,0.17025690147225353,0.7578723246469482,0.5980900732632807,-0.26975653280662626,-0.2550642135228633,0.39241798384578486,0.010958187773605996,0.4093662341225896,-0.5101786305591314,-0.120083428700234,0.2935930268985223,-0.10015364405332552,-0.14984985173286872,0.12119705253331578,-0.056690816915433845,-0.029128702154863247,-0.515074166423766,0.46760574784989656,0.029680960305367175,-0.5577235962710653,-0.45861816528348703,0.0031022106470542173,0.6332021344213757,-0.05093261826436592,-0.0391606117176337,0.5011655271342749,0.4695692302499307,0.46127446422051344,0.01261414964888477,0.2993137414939283,0.27323708522770207,-0.32795011030099314,0.030748945705129503,0.18913084110722772,-0.3950295511801738,-0.4092105867593061,0.2023387935229592,0.1800420756107161,-0.1396960593794132,-0.4858821970676791,0.6412009989249936,0.26007533531504995,-0.28077954206612354,0.07921941026158183,-0.4391852613227712,-0.019440306641812323,-0.07668299088424892,0.10076230535892836,-0.06624509607995821,-0.17632549259410588,-0.2097083347064533,-0.5226650354682343,-0.20539493518309862,-0.17157531624324973,0.19694257626815004,0.46169438423294,-0.3580976709517831,0.6351645443832087,0.053394837601425764,-0.25908135377224634,-0.5201156347729297,0.43634623500868636,-0.6324932746052172,-0.5381403574107431,0.505031563718305,0.6761975996887012,0.1770810381418657,0.442624917404815,0.25499103952379104,0.10584778426658722,0.21469953687333046,-0.01680297395095538,-0.6312800905303292,0.5735237065830663,0.13991542954517544,0.20060837066855883,0.285220854910466,-0.2951989499908811,-0.5033583462774206,0.1577674729451121,0.38433195787860697,0.9616241655229258,-0.46371851541864967,0.11545392384005045,-0.7001170075013058,-0.7316049158375814,0.18259799012570505,0.44643849349874637,0.4026427822956629,-0.183776996984089,-0.3734522884979922,-0.04418307053143958,0.31374015719924486,-0.7570748942692024,0.2866481978157799,-0.1635658412320815,-0.5043589588530006,-0.8190538030595838,0.5725913246947152,-0.494236973912133,0.471860375557902,0.4182438269852009,0.15149007634664927,0.18456510197592793,0.6987257237513758,0.014355007216499575,-0.3239143418348731,0.21179393921368583,0.046440297602747066,-0.4911115653347407,-0.5698830159504236,-0.4407470484149869,-0.5864933635906973,-0.270519389863555,-0.04849461479999276,-0.8438436387581505,-0.5564497480684568,-0.3854506427863227,0.3735448318520311,-0.45947545764552505,-0.2739105705945843,-0.01563996515891992,0.5511013313008832,0.13010894250548785,-0.947209853721178,0.2867015511759826,0.27199338422915265,-0.12260959329247721,-0.15150852759658995,-0.10326260954087371,0.0362469394141502,0.3113263256819032,0.2242327111795837,0.4240035147188149,0.5155072259164393,-0.7971150800656001,0.32373494932215363,0.3771404899132995,-0.409504508728901,0.5374117643474506,0.013712438892512616,-0.21220985648496282,-0.4414125488167873,0.2320807080674238,-0.22613887666484686,0.6363438351011952,-0.03245522596868793,0.5354744032320091,-0.24082645671801267,0.5698678146673402,0.9706044299297181,-0.0715009531222113,-0.34943397971966056,-0.0658927908023577,0.29530646908228936,0.08416570713011688,0.28303998516510553,-0.9822961411931923,0.21187881453952304,0.24954516335574442,-0.35337805198904265,-0.1679284910827659,0.2671148794753282,0.21449621681835393,-0.2683369464007817,-0.17234244547353766,0.42888533072827595,0.9254853826769188,-0.5430765351923449,0.08377271897099714,0.6659261209747828,0.6347731937566246,0.1300874401164768,-0.2082944850564618,-0.23482912298046588,-0.6180441190158847,-0.07387695081553085,0.36341053216551406,-0.36531262503790607,0.08466969755383842,-0.17438056921236333,0.18942235191532666,-0.12509771823891266,0.2872095517667982,0.8798110458721615,0.43590854374836757,-0.43185122544433063,-0.2533708506207953,0.0018813494842011118,0.22674418855469194,-0.17268419908520308,-0.19319658590796848,0.0901963455732125,-0.491974042215689,-0.6096290433454578,1.4046213653538153,-0.6573034908183691,0.21928141611977148,0.10691403215976744,0.39047515924773474,0.34245930508699024,0.44709403620681715,0.22100830337585392,0.22955997865429914,0.1891045250964944,-0.4521081200073308,-0.1942060052037236,-0.45123537185431223,0.05364045085988987,0.21347011249077652,0.49893632640174335,-0.46149922242988745,0.12424183729026173,-0.569541137637309,-0.06397944166146564,-0.3119528604410762,-0.37011520483547,-0.1262174878074877,-0.2620223868812955,-0.34634126528526527,-0.09931776879436992,0.2270892337159335,1.3098193546560526,-0.15137653482355304,-0.2506329935425377,0.7340057550893878,-9.96376686644024e-33,0.1952757847754888,-0.531073663375414,0.06339386620249653,0.1676496462787431,-0.17593579592923597,0.2167461605692192,0.0912367929738036,0.07528534776771706,-0.24846107101351214,-0.46222354442530766,-0.6964212044614123,0.360936809883861,0.001571298038007477,-0.3898844232118091,-0.07759669812201592,-0.0023595480595923514,0.3613433462233357,0.04935886355104158,-0.005477392448184425,-0.42861407239443106,0.6476361878134105,-0.385056691376328,-0.5947887517141757,0.22520080704962592,0.799405550624922,-0.01816124437541918,-0.04503283241070715,-1.0409273462361974,-0.00876355025680119,-0.40214576135113206,0.20327161336556646,0.07022010987983057,0.07854034707550454,-0.20273721496119243,-0.46824880167642813,-0.38065476336952486,-0.800942120585648,-0.23409293419452373,-0.7694241513857764,0.9462490586455503,0.2107362900451802,-0.08376348162563017,0.5449199970493408,0.7502512963714822,-0.36877846134668474,-0.3930133984148965,0.17740457695716091,0.3734648769178551,0.21658883054117456,0.16203471802822828,0.37103722397830363,-0.42249618308533937,0.024995907635354527,0.3301612639524272,-0.03593615642460151,0.8466919421055041,0.3378166849180543,0.14419429231289063,-0.7030832164299545,-0.18062173628324932,-1.0935254153943408,0.4774659532311186,0.7156137059849765,-0.41588118366708343,-0.39973885770070045,-0.18484317767658057,-0.5670306714970008,0.7055303427516447,-0.487417710875439,0.10087744813363161,-0.17251247997430652,-0.12897227325520794,-0.34086746574537186,-0.09677560575576294,0.5812066052605526,-0.41542212618231683,0.4152207160841813,-0.26085275592046436,-0.058589574299884616,0.5042556748558282,-0.1740624564772854,0.4711278660859453,0.1660206789576361,0.2794199840068418,-0.03257327668706517,-1.1885972341677289,0.0018710935473550826,-0.5066673315120732,0.7090213861508294,-0.6772244634307241,0.0672538846864627,-0.12009144996056972,-1.0666759438163662,-0.36669684346209735,-0.49223921459223313,-1.4036999828822077,0.1588504947160819,-0.23067422613982191,0.046011762181674264,0.478971786073951,0.4733159581001433,0.048485461139007154,0.1693899197097529,0.297571114230657,-0.10207647091219124,-0.33657950878268145,0.2047562790182345,-0.18339719235566124,-0.9147923501559678,-0.570001727600525,-0.32824135361427964,0.5799419706487315,-0.005344587443652143,0.166970421155112,-0.2579052293335297,-0.03227381987210676,0.1217970592684329,-0.5561651761154127,0.17359850492154774,-0.26817620313958984,-0.271814202285824,-0.07754583247532763,-0.08970491553688792,-0.06273735592893064,-0.19668383803937056,0.2372579478193645,-0.2845914768236704,0.020778569680876994,-0.3483523711752379,-0.05942337360468308,-0.16640021080963582,-0.48931958098624473,-1.461859575955586e-07,-0.41468348015446443,-0.31193553214764863,-0.35211484256019293,-0.5831112242958886,-0.08751311734729603,0.14258856192535435,0.1626929830920153,0.046407181195582715,-0.2942903456100504,-0.4120524862364761,-0.025552654726979217,0.5502672211664966,0.012825215351559564,-0.28750005518970917,0.08927778197912464,0.7192811067109446,0.16370425361978175,0.23144094562940995,-0.255068873762054,-0.09825793693472434,-0.009409936157487989,-0.25636466881723025,-0.04847423600677542,0.2041303992775562,-0.16822919255175567,0.9352579388825313,1.148148381702474,0.3988777425067713,0.30382146778044933,0.48634886412509376,0.8497111172445345,-0.5172774218813665,0.25215293597378385,-0.17755436650742099,0.34565854066478247,0.6191830122292856,-0.15624751674655799,-0.0806847458478055,-0.5437548757145476,-0.7839166505144589,-0.3068731771962929,0.2792297101872654,-0.12504124319620308,0.525612939461954,-0.6663303333880473,0.027239842962230545,0.2793805725739574,-0.3842401349483949,0.2581900656631513,-0.0998067385210959,0.1545391798107024,0.17115769698218644,0.47842653627853604,-0.43947991227698874,0.3433191370164052,-0.32217235868465455,0.17971847424920176,-0.2065170880587203,0.20662942274889415,0.8522373399720666,0.09770339760801745,-0.42831682429739926,0.10027426994925298,0.09162896039062313,-0.39931996511239454,0.08460284138043882,-0.27051514100741497,1.0234239703528787e-34,-0.5166318176416486,-0.036995203555840364,0.22169595669454045,0.1140580377553731,-0.10411446886599476,0.08476624343620177,-0.03920569167115202,0.40357659440311666,-0.022280688500825957,-0.5571475251156106,0.5681083367571957
