,0,1,2,3,4,5,6,7,8,9,10,11,12,13,14,15,16,17,18,19,20,21,22,23,24,25,26,27,28,29,30,31,32,33,34,35,36,37,38,39,40,41,42,43,44,45,46,47,48,49,50,51,52,53,54,55,56,57,58,59,60,61,62,63,64,65,66,67,68,69,70,71,72,73,74,75,76,77,78,79,80,81,82,83,84,85,86,87,88,89,90,91,92,93,94,95,96,97,98,99,100,101,102,103,104,105,106,107,108,109,110,111,112,113,114,115,116,117,118,119,120,121,122,123,124,125,126,127,128,129,130,131,132,133,134,135,136,137,138,139,140,141,142,143,144,145,146,147,148,149,150,151,152,153,154,155,156,157,158,159,160,161,162,163,164,165,166,167,168,169,170,171,172,173,174,175,176,177,178,179,180,181,182,183,184,185,186,187,188,189,190,191,192,193,194,195,196,197,198,199,200,201,202,203,204,205,206,207,208,209,210,211,212,213,214,215,216,217,218,219,220,221,222,223,224,225,226,227,228,229,230,231,232,233,234,235,236,237,238,239,240,241,242,243,244,245,246,247,248,249,250,251,252,253,254,255,256,257,258,259,260,261,262,263,264,265,266,267,268,269,270,271,272,273,274,275,276,277,278,279,280,281,282,283,284,285,286,287,288,289,290,291,292,293,294,295,296,297,298,299,300,301,302,303,304,305,306,307,308,309,310,311,312,313,314,315,316,317,318,319,320,321,322,323,324,325,326,327,328,329,330,331,332,333,334,335,336,337,338,339,340,341,342,343,344,345,346,347,348,349,350,351,352,353,354,355,356,357,358,359,360,361,362,363,364,365,366,367,368,369,370,371,372,373,374,375,376,377,378,379,380,381,382,383,384,385,386,387,388,389,390,391,392,393,394,395,396,397,398,399,400,401,402,403,404,405,406,407,408,409,410,411,412,413,414,415,416,417,418,419,420,421,422,423,424,425,426,427,428,429,430,431,432,433,434,435,436,437,438,439,440,441,442,443,444,445,446,447,448,449,450,451,452,453,454,455,456,457,458,459,460,461,462,463,464,465,466,467,468,469,470,471,472,473,474,475,476,477,478,479,480,481,482,483,484,485,486,487,488,489,490,491,492,493,494,495,496,497,498,499,500,501,502,503,504,505,506,507,508,509,510,511,512,513,514,515,516,517,518,519,520,521,522,523,524,525,526,527,528,529,530,531,532,533,534,535,536,537,538,539,540,541,542,543,544,545,546,547,548,549,550,551,552,553,554,555,556,557,558,559,560,561,562,563,564,565,566,567,568,569,570,571,572,573,574,575,576,577,578,579,580,581,582,583,584,585,586,587,588,589,590,591,592,593,594,595,596,597,598,599,600,601,602,603,604,605,606,607,608,609,610,611,612,613,614,615,616,617,618,619,620,621,622,623,624,625,626,627,628,629,630,631,632,633,634,635,636,637,638,639,640,641,642,643,644,645,646,647,648,649,650,651,652,653,654,655,656,657,658,659,660,661,662,663,664,665,666,667,668,669,670,671,672,673,674,675,676,677,678,679,680,681,682,683,684,685,686,687,688,689,690,691,692,693,694,695,696,697,698,699,700,701,702,703,704,705,706,707,708,709,710,711,712,713,714,715,716,717,718,719,720,721,722,723,724,725,726,727,728,729,730,731,732,733,734,735,736,737,738,739,740,741,742,743,744,745,746,747,748,749,750,751,752,753,754,755,756,757,758,759,760,761,762,763,764,765,766,767
intensifier,0.32551615423185054,0.2726258884839874,0.3935032662664013,-0.477349241388709,0.08594701787278884,-0.08040350237132829,0.553576845819958,-0.024250218773680082,0.4126570935755895,-0.312649127747079,-0.10474919340487637,-0.09957214851047169,0.17430074299298284,-0.23906638782474696,-0.03845368677902602,0.15323072069054566,0.10687432346806064,0.06378249513406854,0.30397526774360834,-0.0780355313883658,0.26067309068678246,0.24387936215122014,0.1331909451058299,-0.41608036663493275,0.26269034210567394,0.008489562313179341,-0.4167750579297281,-0.1971634055787143,-0.30657694112744466,0.18947170787162995,-0.049111736781380665,0.12463311639617158,0.26724029876837285,-0.09802981587233117,0.3113106244323169,-0.14253598582471796,-0.15967084805800405,-0.07052410209063463,0.179337194835149,-0.11289215552352484,0.06921379442743106,-0.14816033647030022,-0.18120702323435364,-0.24722120233109754,-0.06242988141748293,-0.1912830509151392,-0.48359862538185217,-0.15655369706323977,0.15585664024240886,0.02558820469598428,-0.27948027866847186,-0.1651940611601515,-0.13330815587304246,-0.21594470814033107,-0.1339959442187789,-0.10944841145758666,0.08146424599030151,-0.2108506214547753,0.04157078780982741,0.08178297384559308,0.03802241024741916,-0.09052850177069999,0.24466121927877996,-0.14395818068109012,0.16191080688685444,0.08200251092647941,-0.13131721989771472,0.00218376190056138,0.3537760225802835,-0.09890676666505098,0.09316845975738439,0.1004894059209987,-0.11151430376398035,-0.35536713928354097,-0.1315100300595974,0.19593683612528404,-0.37524763639240216,-0.025646691037864433,-0.19141150233057216,0.11137709614660284,0.18461118169823929,0.21814487021159357,-0.1313296380754797,0.18557522209362762,-0.10509166014610602,0.017087433409599763,-0.058494402418099355,-0.0696864267624491,-0.18901452387654558,-0.09827556319798951,0.2523009181098829,-0.04145428156803774,-0.02741863860745683,0.5139071803895158,-0.04603492794789651,-0.18197919738932833,-0.5307859268251738,-0.13828752881205764,-0.15781078846631852,-0.3343940083525028,0.5461269720096227,-0.3100923821643069,0.10465549995908437,-0.15405068630596722,-0.17165469462052305,0.11247256222940417,-0.09761063750502931,-0.251061274249192,-0.012321002444649735,0.06902686832272288,0.30812370620946,-0.16661246740591668,0.379058797196464,-0.23648619745488678,0.02213303016523618,0.11906335491932664,0.009046826431364723,0.04189274483336903,0.17610672951003642,-0.0840407934121624,-0.2586216682173578,-0.38686474590144093,0.13857222195048968,-0.04635968126400314,0.030277705929309676,-0.44492713661141764,-0.01528130647221744,0.25230506201916564,-0.1899627049693812,0.23842076234430357,0.5215716285730853,-0.020723782320048564,-0.24982054118657507,0.2568842038514538,0.16836767060935154,0.06919158476101278,0.05012357227282764,-0.13765882452472697,0.2281841621928113,0.03307020142440499,0.35830115497006854,0.25422816065905174,0.44621520521301766,-0.18873669684747096,0.43492898738484914,0.04133950393828337,0.2718365323449034,-0.042263126506130726,0.3219173834226505,0.10168880167668425,-0.18892151631756907,0.06045838156404785,-0.36366631892603934,-0.27113665227698036,-0.07921437514058632,-0.25147978197783566,0.05325748622615543,0.07811821095030404,0.13164280030643957,0.12393489650525691,0.19453207307042153,-0.3992646012584371,0.175464547808378,0.09376260251187005,0.07077829709350941,-0.3471508713330648,-0.06476159108146466,-0.31601010906833504,-0.2710497728143772,0.0009290756826547232,0.25660324063477763,0.12085127394119578,0.1861364753937653,0.2512640657081047,0.04142379212726611,0.09319013512119595,0.2716810722762386,0.010018611583873223,0.21428074146427753,0.17610345397393226,-0.4230246211600802,0.030316704401551167,-0.19241958885752158,-0.16724308488419634,-0.14127176038225037,0.059378233893072056,-0.1045759570099593,-0.13607381841414826,0.3125535841425906,0.025749601093008417,0.19703245803341232,-0.4089138778411363,0.3394076987905243,0.3217999967820625,-0.17059538059724394,0.11590004171647579,-0.12994180444875825,-0.1959246604793509,0.07280043855431581,-0.22983767399703492,-0.22247732493505545,-0.21692739793565868,0.24229263291860337,-0.20848457895799827,-0.2720827843984516,0.04037609617012174,0.31378369616805735,-0.2870505753110867,0.06183547969382347,-0.2772527844698796,-0.023976754569316125,0.14298381185728035,-0.1737671380909383,0.13998272050137978,0.04387887411611808,-0.07134870445579343,0.1435014247961473,-0.04853480951378778,-0.18422131832019167,0.0032026654600919822,0.20280611231216225,-0.04226765098524421,-0.2803627540819013,0.26004240700975,-0.16217970212918445,0.20814764594833265,0.08640302404059175,-0.11510986162134326,-0.18570487067019034,-0.18165808097008462,0.3970899950728081,0.026533158026911263,0.05651972869261486,-0.316286728885717,-0.16063381879256336,0.081635403014031,0.12888670281339357,-0.007779937853078022,0.4109690287066064,-0.07341388964307385,-0.30783450116721917,-0.14395711678532536,-0.19007866722654537,-0.5296265839107532,-0.2174996053011812,0.05302134280591352,0.3588859482469818,-0.038658530738685914,-0.15945093459797255,-0.04929434908529103,0.20669651586062515,0.1161242967200038,-0.10527150753256746,0.0131214837280145,-0.23828943210758244,-0.15548079891736857,-0.04093026470387408,0.28625214402838156,-0.2431353485898159,-0.21999948220474697,-0.29536967941160136,-0.5194702940313102,0.13033483517584143,0.555553734685306,-0.08092865924152598,-0.05964739766800125,0.05151746872698193,0.19506513201276468,0.20350172556175194,-0.03402367793855855,0.11593129115840456,-0.15207042103831697,0.28330016981072215,0.1372040389217636,-0.04287657155520223,0.1808169919824769,0.1701303846823438,-0.03061557259782953,-0.055080116360921395,-0.09120178223013606,-0.15876680292116943,-0.5001781508214186,0.06651728585132122,0.09893664007042907,0.3857168614776778,0.29606629275505053,0.06645786664492447,-0.5534632437024177,-0.20609014857864982,0.16405467727035458,-0.04119018882483455,-0.16221296941034014,0.016813299912842677,0.2119846508742016,-0.16885918056840438,-0.01983204758068771,0.13923430536944037,0.05207058848605866,0.05443539669269178,0.15834824095352476,-0.09981157292675401,-0.3517088353121226,0.3931610158104023,0.16524794929497383,0.14694437457825185,-0.15740188863244647,0.5252190934425719,-0.47067929652237556,0.5211386573039751,0.07758742981043439,-0.2587612690060729,0.07641545618711912,-0.4923572129926934,-0.11938278630209821,0.49806747189682027,-0.027965367677988406,-0.12707749578401575,0.017617254780792974,-0.03249584779540445,-0.17461900659068508,-0.22861925893705645,0.25349868763697725,-0.05066050296397537,-0.09100078115075994,0.12088558930425841,-0.43036281003026683,0.04374084471108422,0.10212185086990963,-0.31825449443504195,-0.3335515269465433,-0.053854520856648276,0.047661132315003976,0.0003105496847816639,0.02215969815266221,-0.12781917535303836,0.31848155968685615,-0.005267290754168699,-0.10901862447011655,-0.0894227482017015,-0.22812076614399363,-0.09540682771116946,-0.36645302532886376,-0.15101179517322288,-0.1713401930616326,0.11181374990322393,-0.457059267961993,-0.09635415464077712,-0.15886267272131507,0.004437922439877125,0.5111844079786657,-0.05848965823830362,-0.15881975151390323,-0.1793429543666947,-0.017700908139201006,0.060391143884033764,0.3121199820353847,0.4211064323854233,0.05144350314962356,-0.02819841544170261,-0.022278357971054194,0.28700696782838236,0.007612452158165881,-0.014633496656391437,-0.1371811323358046,-0.041282459208696685,-0.04272791303055307,0.2311628962595794,0.048053733001048426,-0.0492201878137572,-0.058121223793391914,0.3282048338614041,0.05671052899944768,-0.024085723044339244,0.02352226869022562,-0.005844747127434269,-0.10275207000247075,-0.18551843528659412,0.3652664256272379,-0.10379224932473481,0.17541913593807476,-0.02424179755778218,-0.5194686702208606,-0.07218910811399513,-0.231147318862012,0.01836229761973729,-0.12174273047939667,-0.33652640741969836,0.20675585112244926,0.18407750874335227,-0.12312183809185134,-0.25552283058687386,-0.06516789857826066,0.21497048899424634,-0.4459732254460769,0.09005685653542754,0.34251541309233324,0.012293005027920243,-0.18149915276358186,-0.3101387889754353,0.15068939545322177,0.5976315368481432,-0.165049316853923,0.052346924284796606,0.05262293521680162,0.22605371828429177,-0.13340001562725076,0.39536749060236576,-0.20858255759006877,0.20298306950999967,0.49439642732116934,0.1100184703532964,-0.1010364896621047,-0.24014671243827637,-0.019824787773665285,0.007945771881969002,0.008921620726036365,0.18056513207738412,-0.07846762976520404,-0.2637116975001694,-0.1154549148489473,0.13436910464770058,0.4401918562651561,-0.015574824643112972,-0.13978841852670384,0.06999817316475923,0.050678365638596554,-0.11019418457369613,-0.36178502356869574,-0.18337705225494816,-0.05323761418683147,-0.3699973998117468,0.12294223523011588,0.01860446483827409,-0.011569914200438819,0.09382179948291858,0.027109190848108925,-0.04245134925796785,0.005808252881151209,-0.08693544229695988,0.3304185337755588,0.19869116227631964,-0.37223191462624866,0.3155031267738772,-0.266003396525097,0.2759378780250136,0.3287753298162329,0.29632720654063743,0.32447034347977266,0.08103843394149496,-0.07756666659132966,-0.10231523329277362,-0.12705986951819467,-0.05075843493052299,0.23566321276790805,-0.273106539381506,0.13786962463728025,-0.26395591271999513,0.46682019766328964,0.49995661331245606,0.053101729139823126,-0.1647632900097402,0.15671750795958686,0.08662739365999991,-0.32328751571016057,-0.05320949212115182,-0.1378444396687425,-0.06216678662290489,-0.4139228698886713,-0.36481130048490695,0.07876714684749818,-0.16555790361292574,-0.2145758554265845,-0.38667383090909085,-0.0031842278632461265,0.1377081179339323,-0.17609579089412475,0.10685780879389667,0.12730366817970787,0.35515381806673874,-0.27627919765526204,0.5113688571728933,-0.044335672122268535,-0.38412291238259777,0.024818250891067654,-0.2653410629900729,-0.008720065023919393,-0.017072478684134335,-0.19435164607244768,-0.07316876146499197,0.03963395225126517,-0.18273248018832028,-4.6419335397022456e-06,0.11917550869718266,-0.22410041261564972,0.33131917389858123,-0.1342203447276146,0.018798857896191075,0.12570206433652328,0.19127844831773586,-0.03801244698884274,-0.08384205462687458,-0.06845592884879306,0.04201147870188118,-0.21096158705154944,0.14668153435827286,0.07331313317589572,-0.15003622653583878,-0.3881015015794142,-0.07372274768628848,0.16714161522362747,-0.43271041966301205,-0.051177623176519804,0.19541369785980012,0.002105644976636052,0.11953554740558058,0.3085379737249183,0.33297380648923497,0.13939011917946614,-0.055656579731836166,0.1647909753199789,0.011539222042612873,-0.1884641285507689,-0.023312462455274036,0.1748890412309796,-0.10079905448985928,-0.27045977811422767,-0.4309179838421087,0.09985421043774363,-0.09292562450064691,-0.05109926092974978,-0.3522259996543925,-0.3801676671607681,0.0012515484075757213,-0.17742130494550207,-0.3917618714382628,0.260926192083857,-0.48612859308517303,-0.1414699315531228,0.2848509129977761,0.06635044011103404,0.006093447500184096,-0.07628982539338158,0.18789933203881223,-0.11111736315147477,-0.4173810363820786,0.0093231974596084,0.15054374229596323,-0.2844017434541508,-0.05830704618448466,-0.05197148216141384,0.10705295913418834,-0.13828594773191918,-0.3161813629182597,0.4745931642515457,-0.2661117850605304,0.17416043664853323,-0.21803302913111622,-0.1815298746406283,-0.0706252388201888,0.1353832711981318,-0.10522482398983923,0.23015346144437185,0.168299373627159,0.20135095218523247,-0.07846776374246192,-0.20947338153271666,0.12934236499988935,-0.05784030394033463,0.1035869584976905,-0.0731352941855343,-0.14717953091861125,-0.2557763731091103,0.35933261686644097,-0.06208859452351945,-0.2138414500674357,0.2942297714178129,-0.08138733064086266,0.31682670639701205,0.00016939785043427677,-0.0013495155380068295,-0.127989535690065,0.09092401451647403,-0.31700673313031835,-0.01825622311959798,0.06480113225269221,-0.38050815020466194,0.011028309281165076,0.0037591062540886485,-0.014902703223410724,0.16540436092818706,-0.03283764584201783,-0.20080473837647103,0.16281994322350624,-0.21169336021768143,-0.01680620438270008,-0.10850856846767942,0.0726506066073799,0.00013306906540114434,-0.40932073788835327,0.05513275392244523,0.0827616369935044,0.5105285919807162,0.3008097724306441,0.4267891849531881,0.15732404820907678,-0.08271136030594407,-0.038193916967788,0.36213224581462267,0.2947601490204258,0.6358611088766677,-0.273089086771776,0.023149842572296315,-0.030816064059533816,0.3412774325768866,0.017460018363273495,-0.23787133988803089,-0.2197581334988634,0.4385979011710294,-0.31338595660686286,0.1314132872554411,-0.023549256568494305,0.056959689471190705,0.20696098474172767,-0.38925493099924774,0.09096906705026143,0.1649401516472181,-0.215750411242928,-0.07291316063530737,-0.003936159046379114,0.2212020986386153,0.00038411766045601866,0.2154970303119192,-0.23938869753898492,0.1372862847397832,-0.06060723874694313,0.23902332124047035,0.2524023415878219,0.027876839486360563,-0.20236071783180057,0.11614034566015602,0.41968139324216897,-0.2513309343455745,0.24362692701135794,0.12284600725905247,0.2809389001585237,0.27595624819304027,0.06724756782785353,0.0830462762808552,0.35600128603976955,0.22990013086053585,-0.4204022320946431,-0.15816791181708273,0.004293567329085878,-0.4759954946954338,-0.4380945957664129,0.3389168642548536,0.020832768435917564,0.08917020733135714,0.07629765671413011,0.013444244557166021,0.011478971899494116,-0.2153268719845709,0.41963909387158105,-0.47652410512924054,-0.09544675732991154,0.38818921982327476,-0.28008588272527885,0.1833683320729781,0.010679720470553277,0.3753610836807489,0.08004639509614896,0.14471669805471665,0.08756477955954013,-0.07211189855899904,-0.014930609616278762,-0.058776586815964635,-0.005799695363885997,-0.05978625032368108,0.16172014134815846,0.08329132925591877,-0.009550633870649299,0.42745102583899597,-0.13372525573481991,0.19478562291707197,-0.3723207620837534,-0.42003011387140177,-0.29044479621017244,0.2141721673446456,-0.36155434083496674,0.21309242261227504,-0.15667258555399854,-0.05633153377382705,0.07662770941669782,0.3321398593041056,-0.22281507368418105,-0.37406626366487944,-0.09347849397988538,-0.08928054704718377,-0.24673443526621472,0.16181049683194998,-0.22517155674012673,-0.2763090604783671,-0.054600152071728025,-0.031611231456655134,-0.10866559478176431,0.2959573771222117,-0.17076630112637672,0.2125911600264604,-0.3197043935117989,-0.18504172345902217,0.1185499967666286,-0.3658867160421443,0.21108562269053496,-0.07655315242916647,0.08484183354774462,-0.14368550949339937,0.06952329890132199,0.0958337190853126,0.4751379040596033,-0.11466008526724454,-0.06722460830729458,0.021948963262882364,0.32224875348998416,0.20607840956890358,0.14280610351765444,-0.03993558935733658,0.5211961929214713,0.11206379198825875,0.27668189478242117,-0.049555545478042244,-0.05543974482329318,0.05064517056591688,-0.2230286654678496,0.026939755791932418,0.06132637074215368,0.3830858460491383,0.22446084089667515,-0.12362821423700646,0.08317258010478519,0.043914294237448054,-0.13337203802745565,-0.2569475964611307,0.5904989776409494,-0.0330596317334177,-0.1515129333250298,0.12696573814073725,0.2350564991747318,0.04452737735344094,0.015355478900543167,0.16064249516584794,-0.043003707833966766,0.23884410479697038,-0.41505387317609915,-0.00977980383487302,-0.02900350745974872,0.3697942830808045,0.11502170559359738,0.2727654435522398,-0.1720578228005848,0.17034432779680203,-0.15595109266861715,-0.08310345614700922,0.3759697752358184,-0.0015102904847236745,0.319301334584795,0.1060956151978889,0.23847634684523913,-0.21382074356346983
tense,0.0704690421314889,-0.09812688317149501,0.040482444705413546,0.10022954318798155,0.011529302107427664,0.11859228910391474,0.11272535449979194,-0.15150586161531396,0.07749298073228121,0.2261639373221364,0.13962497704870394,-0.0202511712633322,-0.05946640090218423,0.003754523664754006,-0.24664667460068587,-0.2072880695649881,-0.3807104055529029,-0.10002004090421208,0.17336917208460165,0.020999021030091016,-0.07770379171562054,0.07859317010843359,0.004493354683338089,-0.04970298385197051,0.041422776714195295,0.03648690063660588,0.12802733281563541,0.0946299101110681,-0.11516415002787068,-0.006808199775334388,0.13978354275356955,0.08126655107974631,-0.007620147276058702,-0.21234277787218217,0.11594172748575765,0.15110268009878414,-0.03355380162988861,-0.18690385663998024,-0.16157357290309488,0.023869963211311858,-0.01880852119541234,0.06580647926225254,0.11721575940424549,0.38014899977212796,-0.11884087693468051,-0.049553506864766284,-0.13173693474180134,0.026937476303855068,-0.043438557237826865,0.012609966123109002,0.14208169109667654,0.016550616061433113,-0.03592212486513838,0.02721868091697951,0.3896894047094732,-0.05160727194841392,0.2743187699944666,-0.07201690006638897,0.07741962656781486,-0.07491133065348236,-0.45730862098235187,-0.053633983784296256,-0.15994276927723625,-0.21787868356778775,0.02858492582166391,-0.03955482211203191,0.11192800477497501,-0.018828798369619315,-0.1754872992948665,-0.16711401275402057,0.15050856192890597,0.31435390197522334,-0.1382149266050889,0.20980536245713682,0.020969983826980166,0.11050953633898927,0.1069449960432296,-0.07826326035476587,-0.17188137564052866,-0.12202170221761854,-0.0666253992280042,-0.06361294741970706,0.08643079576547125,-0.09088625954809869,0.15396833044684669,0.08500474169913813,0.07442505020810498,-0.06496509793301149,0.04615193267079596,0.02210248355540723,0.016212885013241602,-0.10142432328667593,0.0010535719912906317,-0.07102578319268475,-0.029990679774857257,0.07728787662276014,-0.024655832554405285,0.30504897275863335,-0.04571357191267029,0.17190180478900946,0.16484798897362435,-0.25927509089225026,-0.06766567804796514,0.10260521050680928,0.0351134645211251,-0.05917498363750283,-0.005296974483501948,-0.02177055078641358,-0.23875597871307522,-0.07443854277983351,-0.1716602426027799,0.2273970152841312,-0.07759426496362402,0.2302256368538467,0.02682177576632317,-0.10096387713758957,0.026873183278047243,0.13130821108887006,0.011858585559108237,0.08384925018824074,0.2574117842887535,-0.05157651718612526,0.10408343507868531,-0.13310797283046666,0.17494459177283003,-0.151267217472377,0.0314828371985526,0.023292907240232995,-0.024983752386009583,-0.06307281960615055,-0.14838376733909772,-0.20702275632088468,0.0015664541133502692,-0.1770290821242995,-0.044283983049399255,0.13845166643777435,-0.19461577583748363,0.2582607579986729,0.06011902957442446,-0.08538097312849557,-0.11729538897432992,0.029725502030269572,0.12397974944594874,-0.126826010634727,0.20997824865479583,0.1253883282678677,0.20558529136709058,0.18666121952542214,-0.24789370860249543,0.1636555012953326,0.05133496489718018,-0.09480139545177235,0.04410296696275562,0.03440977922498028,0.04776276107418969,0.11941788627646294,-0.07603154380994796,-0.15599433385076103,-0.049730000046871975,0.0297985484878902,0.028524971125680594,0.09916601971551763,-0.11870364094923361,-0.14905310121066254,0.21374485062813325,0.00762201950064689,-0.03898295158802605,-0.14687339829182802,-0.1258202783044565,0.2261456370839192,0.09976266375054636,0.052938293184615376,0.044967968941589755,-0.24759708568681235,0.0943888543277708,0.05034006195406928,0.18444557505156103,-0.057255714759986004,0.06870690788033734,0.22488962912845786,-0.043939819967193504,0.1450241717260205,-0.099644166271413,-0.09172870427615545,-0.2615439265199803,-0.07820248784736403,0.026979583180546572,-0.039166231453690734,-0.12130699733748697,-0.2709861722039515,0.01362655673538031,0.03124846460087628,-0.38976425845852736,-0.005060362053431516,-0.024715207742170522,-0.09373955445530242,0.09290065507996777,0.2547019629805697,-0.07252898728966327,0.2969196921291361,0.3398470519399142,-0.013870131821359518,-0.055221176439974415,-0.09300580021137207,-0.0933551744230658,0.13225404116596187,-0.029642534504291995,0.27054295053832633,0.3040149020720175,0.032152569355256205,0.3525073422413586,-0.17226619159270498,-0.039412770447792574,-0.18252264740840887,0.19519066305920516,0.11056906538218604,-0.1578591147228243,0.34617609364039376,0.030748648526022694,-0.11693693850465134,0.0632613408059098,0.3259281238814522,-0.02525490429566083,0.15417711686087646,0.2521834153768232,-0.022937987343718182,-0.04792091686028821,-0.14335584112185454,0.12244773840378034,0.16563389375884394,-0.0706866748186699,0.025397212537154892,-0.016258231691001657,-0.16793949634249017,-0.02243361007397525,0.08079410684680889,-0.16241961837334468,0.1180471324440525,-0.016226025434863314,-0.005325797719251861,-0.047816990699318516,0.08222392028019077,0.03373833815689063,0.28114110819579674,-0.10249275760724946,-0.16769742562378134,-0.08946540345904287,0.1773866373885724,-0.20338649509885648,0.014227103748926802,0.2066166355654343,0.17926435164081397,-0.11355116015000594,-0.2578472015798239,0.037489167028044924,-0.010655416964210424,-0.03845157750925385,-0.20336957234805333,-0.3074660312671075,-0.0064933648253963794,-0.021421845612700392,-0.08335895702725844,-0.19620579550966075,-0.08483673826886995,-0.17114441554917054,-0.13043881368863738,0.005774769945505618,-0.17103668136988173,0.039525171663152885,0.020979751506038126,-0.015232362417531611,0.040593825682993016,-0.18976005769222776,-0.15754305540388608,0.0475951704012934,-0.09928768228628145,0.1761641870359891,0.10766013070963924,-0.14216255215735418,-0.1044391578403307,-0.12640724396266662,-0.005832716928687675,0.2130170557708463,-0.12038088094651511,-0.027404429920599566,-0.18600802439229458,-0.12322288611462943,0.052868638430506355,0.00464711440810543,-0.07954510441883986,0.18184319034204646,-0.043277694547414244,0.3049760147537492,-0.01859001588276287,0.10398443716395936,-0.14496829087096236,0.12440012879845146,0.194030397537757,0.03309254144613828,0.07175294233470089,0.12442969287223268,0.3596561184121476,-0.06899300806734068,0.31595861007443643,0.1583508431394871,0.14832143122668645,-0.168567353899712,-0.12005746441567725,-0.08554862651541298,-0.0005340535022425612,-0.11743081456553435,-0.22860674239892648,-0.22145509021575005,0.024828699654900963,0.128440951114194,-0.06468752586253566,0.16694830250276663,-0.019169888503730304,0.18003035833630893,-0.02022159002525603,-0.1321915194454435,-0.0341307219891821,-0.021123995907994884,0.009584416003078997,0.013847234800519696,0.0384195082776241,0.1506042235282978,-0.23996755945220435,0.025415727691167095,0.08922385146499782,-0.23351864369770217,0.30392857388627403,-0.07595125041549114,-0.18586203692171316,0.050034696380379974,-0.20483771412806404,-0.04506345009262472,-0.18044669032562471,0.29655672135721556,0.11679007444672095,-0.025209343700110874,-0.009627625443784862,-0.06670022737244667,-0.020599607618647507,-0.18352074734073928,0.13582934013355635,-0.21494779363811908,-0.015482449872449202,-0.2947128020516476,0.1511008475241276,-0.07128780477656414,-0.023087130932728215,-0.253597064915555,0.03927498816699844,0.20132568478251522,0.045006068009916675,-0.08232652153694296,-0.06452338858826817,-0.08952753525157547,0.07380184966082817,0.15610488485710716,-0.0011062281597554414,-0.22218827776680897,0.08594581517585084,0.07447181572631431,-0.07147369187202125,0.04587807771607376,-0.03505952002826194,0.08889087282860329,-0.02691537589145199,-0.01724275511298757,-0.22995313379232787,-0.009185422001405963,-0.1020540336996481,0.04358537773665935,0.27753967913187544,0.29400158255796727,0.01887963095979319,-0.11701176813021186,0.20017447074748382,-0.10420896980513224,-0.04216050107975342,0.13351977481067245,0.11664739656081204,-0.11350964304258286,0.08456794662280664,-0.040123090379189846,0.4316606600880017,-0.16523218729594358,0.07264089893360437,-0.07337741835999441,-0.08237033263733592,0.18448019149193431,0.020696133694041913,-0.12122509279144114,0.07349230268983024,0.01041342228035471,-0.19872137536880993,-0.06532391850934326,-0.24430817743135236,-0.1960424907650544,0.037106878106280196,0.24363025070534666,0.24273764808942652,0.13195946278260898,-0.17863915512405876,-0.06489272470982434,-0.1470381438806229,-0.1774934534569474,-0.3198996785878739,-0.07570501420322179,-0.18428099183330857,-0.007395645208558128,-0.003396262272729287,0.07806806023066239,-0.23265491370597108,-0.0070315935347956575,-0.002946262128643383,0.30808991810999375,-0.0012590434662617638,-0.0937370843505101,-0.20820039217854489,-0.08257264019115382,-0.25276899658967905,-0.04276671413706625,0.04918383701313834,-0.03734510707169244,-0.12209511690570644,0.05802138577108113,0.07598124470893268,0.0557374685115437,-0.1727925513919813,0.09379411428344105,-0.09236502660816635,0.09583370332899228,0.03872594950999922,-0.2659619452548794,-0.059804086324303236,-0.15716720154330738,-0.1946948411596206,0.06687587170718316,0.2716782007946839,0.012430758139098342,0.012038452756257794,-0.039860263495200846,-0.24667920250660116,-0.11489202547778833,-0.15889624611024464,-0.3620163672349584,-0.1614505170566951,-0.008688364271638084,-0.041092980909095425,0.05312832051574442,-0.13667499034678604,-0.193466079874988,0.15963615751207427,0.203760627864725,-0.08964001606336225,-0.16160177668410403,0.12240143401691642,0.12396970246477712,-0.24143087436392147,-0.09743557663827335,-0.0801148720279914,0.2637945442838047,-0.06396031695028727,0.2620264843992524,0.07513030170152114,0.04334287432232207,0.09582151363224163,-0.19925024586588017,0.11276026653164258,0.07197962618397787,0.05636483997955359,0.07107706785437919,0.05944209380051372,0.20504690974263534,0.017330093592610358,-0.2044373036694204,-0.26047880180610244,0.09991174892616934,-0.0024250501477189076,0.08203347300003763,0.44735890785820415,0.07043341123167621,-0.08142392153840496,-0.04218055431573863,-0.13921300503796175,0.10321372489262469,-0.14022322815686672,0.056013367000845325,-0.07660570270364866,0.05106474375729077,0.20049213317398956,0.05505680076692448,0.008508862447209482,-0.022302298779858513,-0.23101079828025606,-0.1113531699049924,-0.03517709559775199,-0.15252999071906442,-0.04542900414076657,0.0569504063310661,0.07902256462117066,0.10742770007153392,0.16305636356765732,-0.05661877452435528,-0.09379907892239003,-0.056599481272250646,-0.28622371533270535,-0.1695759655534443,0.09613042505715358,0.16613035820114017,-0.1164657862370953,-0.07705998589320777,0.013048957017843333,0.0645012436225536,0.013031452086499988,0.0024236937257132163,0.10402777466595019,-0.2871281924370406,0.22458182665520768,0.32066844347728707,0.018754122786278544,-0.11385858802911404,-0.11076925184964356,-0.10700619531440334,0.0006680928344752677,0.28969682781846706,-0.1796799772694663,0.05119148673508156,0.11770127046984435,-0.015870487330473044,0.05286508997527636,-0.09342665204385221,-0.019876819466199885,0.09460034573780075,0.15243238051954391,-0.0015558005808164357,-0.32625003478767384,0.05282633418626245,0.27325826405848347,0.06761278965030526,-0.1705869329006187,0.2048551384275536,0.05525940104361082,-0.1321568094050523,-0.07511902694890309,0.2814372506834158,-0.03620448366061775,0.0009049588003984579,-0.1629993730145257,-0.11121722940505635,0.016159071532094907,-0.17659944616384662,0.11644364016922866,-0.15390338855567748,0.0179420925327391,0.1767406487695196,-0.07259797136695781,-0.18081336018751007,-0.1000269741213914,0.10256771414265592,0.37668221162018445,0.01054417375417659,0.19844942778869118,0.116795423575271,0.14341281637841213,-0.1577876148800159,0.16984432843429095,0.2500020594350036,-0.10855626980328166,-0.12730434286403378,0.0066098948555077894,0.245441894256152,-0.14224461673403643,-0.05346911792496734,-0.5089345813393051,0.1472054171010158,-0.13858400169740234,-0.028083843633494032,0.09695329682617386,0.03652737961536821,-0.08157370387759963,0.14660948088059764,-0.05789444912893561,0.2983552598651754,0.017777037358688175,0.09019587040040127,-0.013396746800916612,-0.0342422606470271,0.007553394698505778,-0.10780212832233287,0.051564853373630426,0.043953319073443665,-0.11377712805614396,0.032746952708571135,-0.2001273367204235,0.2689733029196904,0.10078286101016329,-0.1079812305990741,-0.07885972711054577,0.01962965932788716,-0.002675976064341908,0.12885420726140526,-0.10582654271251701,0.025140266892064243,-0.011336233293898603,0.23715968186153105,0.06807155850838982,-0.05367127762613706,-0.09025017230798692,-0.18986588203125665,-0.15477661962953038,-0.17920923958009205,-0.14468270792762086,0.1493416254479471,-0.18756437109183172,0.12782726885400894,0.020551143628950948,0.2608533065478153,-0.05551088171000086,0.03763053900712832,-0.007655417245236733,0.06345647338785716,0.03247693484288753,-0.03432536444205187,-0.2554023446074343,-0.22606685997009465,0.14539427564966917,0.1259507757047595,0.003036686522995492,0.3195772252869446,-0.26703183345855175,-0.08286914583131624,-0.11259453698649206,-0.24920629481749432,0.2607850743825396,-0.04652405489999872,-0.2029400764211462,0.1980904851277279,-0.11807775501594456,-0.14413641765105983,-0.07185074558939984,0.2481278413885632,0.11414474880123339,-0.08655113057974484,0.06101919478428368,0.07135102473013363,0.06961318045465818,0.20421524096044197,-0.2308101302499371,-0.20427285921156074,0.10680330915207359,-0.008078843879392936,-0.001411338281856514,-0.19152134206546237,0.23188251388802875,0.08007124527104421,-0.17695185152604842,-0.01854778008564435,0.084839414124355,0.03224568973324457,0.09507542498713495,-0.006989335096267717,0.014724731318935815,0.03445661761866828,0.15303362309573032,-0.13558579985172403,-0.19997917965934578,0.14590550109030742,-0.03735000304667804,-0.07649587543813234,-0.10458272712649822,-0.0780547662165358,0.22549792481947864,0.19598036496972357,-0.05835940485358736,0.06663674392968894,-0.17708903108370658,0.05233923820152928,0.010565518276690632,-0.023332910221251335,-0.10732307520373492,0.19594532423366234,0.19425396427576822,0.060014517009410434,-0.1954019603331357,0.020941677739232466,-0.05885417786107151,-0.18228376105487812,0.3142259269666049,-0.05856960448735186,-0.1456065515905683,0.011063102936508369,0.3390530534063483,0.1463425484543169,-0.054782699489090016,0.13420424540553424,-0.1261679388797091,0.07155736472370527,0.23618038776660588,-0.17998215630523734,-0.017688154135066945,0.17890475391003102,-0.01029570885388391,-0.21543826642968092,0.05151579641259083,-0.24603618594657173,0.09554709444179536,-0.02487982884409841,0.025497016395949337,0.08198738444276871,0.0642359459350488,0.18119243285785752,0.20207841547437055,0.135228084418006,0.17572275966644374,0.03192929544351511,0.03752663204731356,-0.12595207182660142,-0.1331513147080438,-0.04887306628148938,-0.060161003577963425,-0.18900375910952297,0.18697098430448003,0.10049315781471627,0.05665789212711753,0.02801538014011797,-0.033574712383841916,0.04205586970756648,-0.3237845078955911,0.17150966152413927,-0.15297982949022057,-0.0804942824799584,0.0035027648706536132,0.2315149729144537,0.09305802074498676,0.04669203400299462,-0.1514170088996274,0.01430327082696737,0.1417945198401422,-0.02408596696923802,-0.12388257896752762,0.2936903326247953,-0.3296612512747608,-0.010517521371202253,0.11583831874475775,0.18549813560605466,0.002437546485770192,0.16374276027891252,-0.08661556014284068,0.33953372467963583,-0.3193428009448717,-0.007726088234048112,-0.00741223536469672,-0.14585912235521833,0.24724853121677554,0.045456092482253296,-0.03570402586809016,0.19618362471929823,0.08352301720477433,-0.10191812977526987,-0.13920482373389043,-0.08960670063840413,-0.22561109168867732,-0.20722675062542908,-0.07478179836173439
polarity,-0.23846227695487765,0.29734401908241376,-0.025966894895525252,-0.15402891631919619,0.06776725932382699,0.03204538751702828,-0.11970614220638931,0.05419524288734609,0.05475636112937514,0.1489947003586454,0.0865847678122785,-0.2705537886126316,0.23771418617652995,0.22918842504069384,-0.02292233987473191,0.5480421192251501,-0.09810146677344571,-0.08386875754901561,0.03355848751264509,-0.15976217263445674,-0.03499579832289947,-0.3718753409770283,0.09717394957442008,0.28328590009880905,0.05906637207408756,-0.24238069540220275,0.25483516462384037,0.13118011233966534,0.33282311409356674,-0.008194953538332227,0.4170445283874451,-0.27315495354463215,0.20138234819975906,-0.12090220314141041,0.18143903253203,0.016240860617331973,-0.057152626460503626,-0.03172317573378916,-0.09427503147315727,-0.050670936934559006,0.002404319329068565,0.08678606038743192,0.54728001196962,0.022912805169816478,-0.02179697916172132,-0.24415803755218424,-0.043278157017170894,0.32260657292780437,0.23963740712904916,0.060512759492788254,0.24904043229764009,0.19902360030465088,-0.24484551440369193,-0.14233356526341284,-0.2511323393579413,-0.024012411059821808,0.011724813939704145,-0.09568461809379357,0.02212751277815029,0.053455150462707914,0.21887705484224249,-0.1216610097393947,-0.279798971075491,-0.36077348758806854,-0.0004958329641981706,0.09876993762717327,0.1755855038673566,-0.0155922808710194,0.017060487137901675,0.11641897693588867,0.3567824480587565,-0.03619175169926397,-0.04843865805330959,0.07478620308203532,-0.6366687029838989,0.04478034958629499,-0.02158102078317257,-0.08769020936094832,0.06047962991055017,-0.04817944100410364,-0.13492898016677932,0.10850379796982769,0.22006714110212572,-0.14004177101499868,-0.06690638972672229,0.42014492853445473,0.35209838578825753,0.13317136480190428,0.2708610781170157,0.0845758439435446,-0.22706361409641745,-0.3097928579097053,-0.1611976108088664,0.022423574999328514,0.024205037673915138,0.44926913061127155,-0.2291172181104137,-0.09698918820026164,0.03571481310644705,0.14889532434335262,-0.15942543628280959,-0.16770610469833522,0.11303785980762539,-0.13250849520504737,0.07475257407451104,0.30497522276401545,0.23437225249513985,-0.36566015056998785,-0.06961006354078662,-0.004134470154622943,-0.2664462121849245,0.01760114245163525,0.10713697379353684,-0.3093870332988529,-0.2854221792306702,-0.06194323235757505,0.24814504844513796,-0.13213047895987864,-0.06099594191262318,0.053651330900650836,-0.08453540749187405,-0.01619499606642713,-0.03211035447613744,0.04183824361933607,-0.0028991853705644033,-0.2983471620376207,0.07615742771120386,-0.03805052158498606,0.222481429683348,0.04651507335973752,0.05389274303195341,0.06202299666818815,0.237547150848866,0.25617770879523416,-0.27408026217508885,-0.2796097951149332,-0.04161699922892098,0.1675706105187531,0.08048040733133466,0.2651478234028066,0.005016268916366016,0.14104827013811683,0.02169705579668807,0.0004623531663155299,-0.35227598258866716,0.19264881403069006,-0.019704590636594764,0.21040471434740846,-0.10541053010037942,-0.07241394852608425,0.054929376156854684,-0.1602272142360698,-0.5231490748075647,-0.264201454148345,0.11262134832071792,-0.05716360536915122,0.25675156120512066,-0.30985040128302993,0.15176386368808467,-0.18029279147999036,-0.09803055824310877,-0.10352691725760901,-0.10785849332723799,0.46869364694683147,0.003766158610510143,0.3076436076088806,0.0916118092056593,0.39358738526023,-0.002045010567913191,0.2510468836605489,-0.19058394889709845,0.3074627065688066,-0.3823192789150123,-0.2779789376080427,-0.03976469792197397,0.08957353977696812,0.5104969910918016,0.2479009976951986,0.22093852554092439,-0.2067442725969576,0.5310175573384527,-0.1406037044160257,0.061727553369192674,-0.14395160816230793,-0.026778855881770064,0.0038039530679344364,0.007573847589865058,-0.061566466839318774,0.08585679817561262,-0.07753862217177455,0.05309093994845549,0.4166140573922952,0.13391253272715328,-0.07248345145544517,0.1667157312009924,0.06032793947430384,-0.05065598924832161,-0.032049819709759376,0.03221028624642585,-0.015284887929202384,-0.03594925878836522,0.24244364508257976,0.2721188999589868,-0.3348830487177317,-0.15974431216612026,-0.26173702653638925,0.13693388921911026,-0.006415365362720176,0.0407788718968717,-0.012406471862333474,-0.25768910000738776,-0.005397904387165854,-0.01107901584096933,-0.003776366301948679,-0.1563553083085144,-0.04469690788907443,-0.117422087877454,-0.44382542985487744,0.07644346057105114,-0.30518756931945756,-0.09079420376888593,-0.01739752663165457,0.018443264476733154,0.1997622722594113,0.04964229723816697,-0.24801622151680067,0.11054463463464836,-0.14521157972749998,0.03863990841375075,-0.213711672894169,0.02521522412557109,-0.29780382370614883,0.022109350827064375,-0.03584062790556899,-0.17125450059861003,0.02721275728639874,-0.37454961095018785,-0.23408678889825202,0.030695682527160196,0.03643994537236627,-0.08833677814691565,0.3322626673642778,0.16231604488899198,-0.11964870325751382,0.05767707130551421,0.15874186375085436,-0.14878186166117058,-0.15713912624584045,-0.07742253144416428,0.3179753705829002,0.042156282671157196,-0.3844990983085283,0.3619123312280199,0.02214126168731659,0.5378838414289724,0.028751287408658777,0.18082694876041752,-0.05774733324488289,-0.09386068204799804,-0.030989329491833452,-0.20844513417152372,-0.06822324388821534,0.077783173273188,-0.178865236732695,-0.2346734778701844,0.2662479907290142,-0.028475160832670033,-0.16352885160315558,-0.037119180557173635,0.627129915747915,-0.3273540441615596,0.20039805806843508,0.0999646291201955,0.10206121840195456,0.42416556986598336,-0.179779172884381,0.046588014787444815,-0.1624736361750179,0.05738052450531145,0.022364803321620292,0.014922635427237929,-0.1384548974930056,0.18464037706214478,-0.2924991737010693,-0.031629373406486506,0.1201440546409813,-0.24794260198613222,0.06509516207290984,-0.07085272622634439,-0.2936343308783774,-0.09594947364508916,-0.3583821996092513,0.036682456274131726,-0.07016318382180614,-0.012974236932467546,0.050189502541879066,-0.17807799069562869,0.02078607412052139,0.21536899352722833,-0.11544532112323698,0.08265902270910265,-0.027397169781687047,-0.07252178435807582,-0.12024981162548776,-0.26670818838411336,-0.10076115842852874,-0.41986572172860265,0.35565801186717144,-0.02155518159230192,-0.10573328357771539,-0.021832732684408208,0.11665189435414423,0.1942441323219127,-0.0037270026763909486,-0.07128253673856161,0.06357645474677724,0.0027798471522415408,-0.004522518923327588,0.17444325971876365,0.44129728012108455,-0.20684442269539574,-0.08814585564938583,0.1019333611625637,0.050491922546089744,-0.07309515608401164,0.20366383278425434,0.10211026907216021,0.2082351014742277,0.09003941445047053,-0.09792802744567754,-0.2833888101612369,0.06639752689984335,0.07158033225973719,-0.28730929120209237,-0.5564256591688095,-0.18069613110670163,0.05959120500757542,-0.07361449636623804,-0.12374136116011926,-0.14529722628829564,-0.36599226974399773,0.06177343433799443,0.21355348177486688,-0.27793624610598766,-0.03898595622277277,-0.17444046126068896,0.03853820680415843,-0.14066246094295215,0.16344851621223758,-0.24763743943766756,0.03306904436057717,-0.17024462175879682,0.24094426847538372,-0.34614087213537187,-0.03851559302949808,-0.2964387225775763,-0.14309839508343586,0.04542728496031384,0.15520670549019663,-0.0636591640295953,-0.11308906117102761,-0.05598950880751673,0.04700954192894968,0.2575901876976288,-0.028493604358922193,0.03983971590226313,0.2870615023090444,0.4102117440300546,0.17190012628929194,0.2165973467857461,-0.19333239872688252,-0.14514234207832694,0.4665270654830251,0.2124650366488289,-0.33213021134029447,-0.3028181019902572,-0.16982893536951205,0.2730485431125788,0.17720293150209016,-0.3098407031947121,0.10894800044614436,-0.29523178356573765,0.1632098744192904,-0.19790615763895486,-0.09238411895116566,0.09157697482083602,-0.054082505567231764,0.20341722479405955,0.05324504946446127,-0.011000047135603788,-0.05993807571537603,-0.17747271012717508,0.16533183355455552,0.2364321313976707,-0.42215997901194985,-0.10272357184677404,0.05679057904542761,-0.28282386745019955,0.3646535971250544,-0.15287437180053076,-0.18276321675023152,0.12713575831424342,-0.1489792509569651,0.2864964673445542,-0.03134432334940941,0.13979898097185856,0.051757053968130066,0.11844086670841,-0.004443739233098319,0.5030073786210351,-0.1940614431526553,0.2791452569741991,-0.3035636337961041,-0.10219320794266709,-0.09410482828795397,0.2191261585269476,0.0171122685187021,0.19624223032973442,0.1704212288879551,-0.022375935172115658,-0.34305282121732966,-0.4417637722777774,0.42873511856945606,0.2734343290369997,0.07258897192394999,0.06640836027714922,0.24698248347291288,-0.25860524141946983,-0.3028059014863836,0.1987125450969989,0.13234105710521826,0.3511286181453206,-0.24978378499681222,0.11539167232770496,-0.2537677749783526,-0.08231788651124018,0.08725872949661365,0.035223825502363144,-0.0925584352126201,-0.4246203700335504,-0.09504449872767089,0.42645702039786243,0.3811760425387223,0.3151116222409606,0.2791036022625181,-0.4545206793075936,-0.3391787174280623,0.15880938930907174,0.1563969457862747,0.25770420407665506,-0.02446809078503303,-0.38423967674143045,0.06959613643806123,0.1808338991621023,-0.02828873099980975,0.16219061785677905,-0.18342850563981444,-0.18703725525986828,-0.009623740501079468,-0.11593659906986044,-0.23706854269622304,-0.33478886427806376,-0.24315140581435632,0.40022894651449753,0.19580319080801709,-0.17436727931827928,0.157325296755297,0.25417114239531036,0.12410937711398204,0.04720341642318556,0.29785755446666884,0.025362927793015137,0.18030554946556335,0.21235290693449782,-0.0683474014437802,-0.19879893620677191,0.2924268984796555,0.2214071499855283,-0.050409023620447864,0.5136260935997478,-0.21608017799172166,-0.4431822216137497,0.16282281563128284,-0.2696396699666113,0.0772009780194991,0.0582791796130052,0.03231850820109571,0.16093157274556696,0.09116068346197584,0.09621924721527789,0.2404549018671146,0.08972071727510386,-0.26456698458889977,-0.01921371015940264,-0.21725511041600057,0.11360522420029849,-0.2557855977322783,-0.0006325545380072395,-0.3449948793150798,0.2059476035423777,0.1546898184850092,0.09487634499762544,0.11666984701398284,-0.346194176291423,-0.1088977704867235,-0.2767696974532164,-0.05709250462308082,-0.2162778397052353,-0.25558887262158925,0.035560080140087255,0.025058933888630487,-0.21542075050489115,-0.11196560056983987,-0.17509112321858503,0.17827496994958317,0.04126504392430142,0.005388745636304351,-0.09542221654941171,-0.12088501556843419,0.1689632476069087,0.19637343187276185,-0.44181632488144584,-0.14402332207330462,-0.227157717826987,-0.059719782065198845,-0.6176386606383081,-0.037901724584083134,-0.018658434809702334,-0.2629665214448224,0.10000709401906607,0.3267757697482511,-0.1815148358184214,0.3323179446415167,-0.07802893545589638,0.20418263721770016,-0.28936124633971466,-0.1491108271886195,0.016412994663679625,-0.4333537341827859,-0.0019363998059416668,0.02095299271715212,-0.09220629273620586,-0.2726938746901484,0.35567726348435375,-0.17704220102164808,0.01609463274807264,-0.05431421051252666,0.09016286640649677,-0.37179007145830684,0.1508816129595086,-0.15172328106722632,0.20560861828371635,-0.1184660799911149,0.06321001016807493,0.18111652095676056,-0.17929748340582788,-0.1541021187447183,-0.2873117399855902,-0.005671467744688422,0.10461575744063133,-0.08601986253460235,0.15194624453110137,0.21322907041076927,-0.3747140148010513,0.017895657041785806,-0.1485265505594387,0.07009313209062833,-0.09054228997013,-0.23217666358207403,-0.19691602206146988,-0.029750900438526153,-0.24965411385918557,-0.20553518350872568,-0.11783112001625866,0.17061082066083882,0.09669501649699286,-0.25618929076886815,-0.0735707659557625,0.16684373553639847,0.10427761391405493,0.45724820193945426,-0.5856041930893349,0.16348733067637408,0.07261552579110168,-0.008787550074026816,0.043160077554645515,-0.1377621271267577,0.07581075162848344,-0.10594625372215595,0.43090070276460235,-0.10391654698799502,-0.14684253059187713,0.21647156232889603,-0.10833005474685546,-0.24755234255620281,0.015846524248599135,0.1184341631262785,0.1162986779242791,-0.22572898857622722,-0.08239263762935048,-0.3394207286519509,0.08308779934890372,-0.439706057489056,-0.16946838749811052,0.12689225905724552,-0.20399970244513457,0.2792081364264523,0.2763853578388321,-0.2568353456020481,0.12860591781624167,0.217980849084205,-0.09315033584043349,-0.14006199647765405,-0.02330042042986709,0.4056545673371069,0.19252370074577016,-0.0622409404403711,0.026727303123629947,-0.308793932879,0.32541388699930635,0.08221803403159142,0.08401424512226989,0.023783495884058307,-0.172320164084881,0.13013068695608795,-0.0992360362810368,-0.04324863888967946,-0.005513719917626571,-0.0880247483537959,0.21745443664635,0.1647865018612551,-0.09419098891488115,-0.47424224038274737,0.14164194963184432,0.19411116619544114,-0.33991065137203375,0.08509710285766163,-0.04031376679231477,0.1843593940365655,-0.27601751916829265,-0.05093614605549817,-0.19288111323120594,0.02834222996694873,-0.1730326369205163,-0.2816625353388179,0.09289993709204523,0.16475549140861276,0.055822868385171,-0.09120337367500253,0.030984730377109013,0.09256428432635068,0.20504208280052527,0.14095985859261828,-0.2225087989720041,0.31864225611169333,0.3012675256615375,-0.11411941652063622,-0.15544213898179307,0.1928922416714066,0.08604898117806437,-0.12845512350653665,0.11723369317352658,0.1501583696683405,0.6546836412541033,-0.1309331224711827,-0.15388049608683327,0.1886114866435842,0.23390839818891607,0.35007665279386535,-0.27779333820356206,0.12456235580878072,0.014252274364661997,0.2011017239581379,-0.0295716053055633,0.06122368222365431,-0.10676634365658873,-0.2972724775462108,0.3278873330110188,-0.115359530464699,-0.4091861230980761,0.2504507132109752,-0.027615540567292787,0.016235097866060158,-0.007211619961783877,-0.34975854581572613,0.29040657297367023,0.23409895505765355,0.20410976603187844,-0.15924457639777215,-0.21747452708365242,0.3770321101636674,-0.09059970883851605,-0.20263776939963274,0.34383743903894237,0.36532926282422984,-0.20640944103152994,0.20517934554710587,-0.1407548474108556,0.1428048544626477,-0.23168826561328326,0.3871015361962911,0.02782023090524493,0.1652680999212384,-0.2175885209919748,-0.009104988118591667,0.025590474120917563,0.3730097065324921,-0.19635730408386814,-0.13623084692930754,0.2768762874494973,-0.13190948738251235,0.14128618313075444,-0.10875438179804105,0.20187770191193105,-0.1766131249911839,-0.11928359205514356,0.13561550057109178,-0.1462263378535615,-0.14230244273751538,0.1871663516204526,0.05683995678916079,-0.23731561489467035,-0.040746199054743665,-0.047640191800522314,-0.25785969468335457,-0.1798750506186002,0.02654264264424929,-0.3688756573481654,0.02450401925219353,0.23177112760281843,0.3639233669218189,0.09666012769431438,0.42522296077663024,0.06338157254860972,-0.2212724932963442,-0.1064836765286767,-0.48535199005541396,0.02172560055066432,0.1268700328744392,0.15937439097445644,0.3581794917306799,0.09807466421908974,-0.06276827470141637,0.19483131456387595,-0.012171914046049864,-0.13551710596946065,-0.09368731481729714,0.11615001909051542,-0.2521769196516977,0.09227096835490643,-0.28838023230764326,-0.010141520682972248,0.17993731407363,0.0598325569421294,-0.11439373601486634,0.2498151443253229,0.11731230025146486,-0.0009661655689671778,0.42779714331664564,-0.09916934930053518,0.17517834120355388,0.2113131559312213,-0.31516342427682176,0.13599666492031004,0.060315238598110034,-0.0912394030095002,0.2908582445589837,0.05108622466511442
voice,0.02273175269667813,0.034352979612861025,-0.004240761108278104,0.24554485720754832,-0.10592639024353541,-0.0245127367336667,-0.050493150606496486,0.05438168351423733,0.5873838092404959,0.11069018019194185,0.06811099061266981,-0.1828600058244757,0.038716304504352976,-0.015593793332084334,-0.110882559550757,-0.25209971019870075,0.2651055892750684,0.03211928878568554,0.002035319063436214,0.17259988688480069,-0.31928587337645564,0.3715342517644556,0.03574117619118733,-0.12067159420987682,0.08769546260449985,0.018311213589420096,-0.21707521920582942,-0.11514532030596045,-0.01758350098985638,-0.31693711243606815,-0.035747147270719065,0.08086330237417201,-0.07623203198757597,-0.14987421573905915,0.0881628066589045,0.2488482844580324,0.24611546126432873,0.19996918831468527,-0.021163539237288885,0.22382096974966506,-0.046157475862927434,-0.11957178528185297,-0.1292265344690173,-0.2244466920953318,0.12264302913324879,-0.34361689552972796,0.5200451506607616,-0.48410462255564635,0.2845067356201752,-0.023627475250640555,-0.10962328122364716,0.48445701005520386,0.22162115351883702,0.35502865025436525,0.06461851158199561,-0.03989550773638081,-0.15722990190351427,0.277941219958391,0.0034278035584022343,0.2835745334534422,0.045835998996295126,0.054646400801199445,0.15735405218549886,-0.14259921420189928,-0.30408702276783345,-0.39707985446114136,0.18180952467533085,0.07234453533906714,-0.004191662749271695,0.22654681167488083,0.026049986991532575,-0.19015319429373218,-0.15469136903731395,0.4283441090256797,0.40119158555778484,0.12032366337139762,-0.08261018923824222,-0.22859781369550075,0.25126849959889325,-0.4372897868109507,-0.1080395357182046,0.3046421569135962,-0.13058854121191435,0.28995033204648984,-0.036400629421591314,-0.28821960356190623,-0.5053443287263141,0.23631920857987726,0.10630347315480046,-0.2560233783982805,-0.3382100668382901,0.06299107777300757,0.020796448168247522,0.016555114182620824,0.09653360184443904,0.09157599671819973,0.2995603070026325,0.16877367614870786,-0.09463100081389528,-0.12839711030303036,-0.16431879872767927,0.4805091363331011,-0.43720443939371423,0.11384853827522225,0.29948441225364464,-0.477490702112663,0.24961501300952013,-0.04720723419869048,-0.04809823033986083,-0.1340399866968596,0.19789552210149675,-0.17831335715825167,0.1870739702906064,0.06341987645012309,0.06949140878502989,0.3866496424898746,-0.1865229144707505,-0.024235225435808704,-0.2610997647998157,-0.07404153824945718,-0.11365416540951713,-0.023648712516499387,0.48384660013736336,0.18722943270157089,0.14036847134022215,0.6259962925293299,-0.13427569910956738,0.3162707960863733,-0.04350194716317481,-0.2754498388437286,-0.17976193050663675,0.3187516349024375,-0.029749199958375286,0.07921265069507132,0.014784507145343562,0.12138726194675498,0.00041701323042644435,0.22121559906637886,0.05532877510988057,0.3736342559369027,0.12444081793874408,-0.0630977356900783,-0.14218024312043415,0.26048886170750996,0.22889143302365392,0.09244111752116323,0.1737022456313883,-0.32126376186462524,-0.3193766634113392,0.028317501564298016,-0.14548035988584046,0.17408180616422655,0.5231623848211826,0.05262276370133484,-0.014409815483058181,0.23733619398769884,0.007226645692317906,0.3545805536403256,0.41340165981348614,-0.14759509147395383,-0.3991122982509061,-0.10161397170633805,-0.2474355246260238,0.24088847127690152,0.04546065274139582,-0.2521249617383159,0.24924071995983785,-0.08590437204410056,-0.12171389551776962,-0.1425883707770018,0.08801798363830261,-0.46694653732859304,-0.14079455682008263,-0.3252790113745444,0.5367523146087606,0.2130559650360917,-0.6982326923469051,0.10043185994675728,-0.14713780249998468,0.4360865003012376,-0.3272346164732029,-0.0024417055446300847,-0.4902327200373016,0.09733934323679624,0.07055978705189202,0.14166113001476757,-0.273335210220893,0.1349202533316093,-0.2388099439849192,-0.3697103579210115,-0.08862615034495988,-0.14987797817597706,0.20647340251254687,-0.07083178507599598,-0.2176163375581727,-0.41472579041455226,0.1049268249410025,-0.36352665708385135,0.16770671066304677,0.006798595782281066,-0.023143938789841237,-0.17058022759499003,-0.2395733311677202,0.373639898446247,0.2403862876113003,0.12344916374369502,-0.04745379010521367,-0.14919273639780017,-0.044337654625565874,-0.13059557128172228,-0.08748458568106518,0.08360921584905766,-0.19633978287417483,-0.2932844756808945,0.04546692543751145,-0.09258436522875307,0.21668860054330655,-0.03640599995212378,-0.12231916465116975,-0.07119894016488026,-0.744560616638438,-0.14113121135105877,-0.09205882099523469,0.10318927795186858,-0.4737125625329389,-0.02265890837313118,-0.03198881025754805,-0.11920738623922607,0.0010524317302318571,0.4408485533986854,-0.10632050861560792,0.49156629282322545,-0.07996536980070462,0.24576650990265808,0.30042853563328853,-0.33699222138788065,0.20285919006096947,-0.14311647180702364,0.05868880535803639,0.15176626978320285,0.09003058168889386,-0.03264539580087333,0.03639398972466432,0.4039265126622324,0.2294816437085222,0.1321302067067688,-0.3493400565718914,-0.11505694458021659,-0.2729014920345808,0.10871862823134427,-0.08775147072771625,0.2677559922066725,0.11897632386256118,-0.013744779810194887,-0.42278821092816093,0.5795077920685772,0.03314385181803789,0.2508764583088333,-0.08337231457427166,0.13592732777416794,-0.048917295034083715,-0.27117769248230456,0.09895737451650949,-0.7586959116039592,-0.03676479960174374,-0.3034080141595255,-0.07320214852529199,-0.22876150551424462,0.06916566873247902,-0.16732924460792925,0.2624224003278839,-0.007383816525129873,-0.43814706786776014,0.02821711027246671,-0.187624720926863,-0.28637721135042216,0.08796445546203722,0.09332432934621565,-0.040164855008950694,-0.08035913530337871,-0.2912363949464038,0.5856650906237245,0.3216583244610428,0.13865589337645817,-0.09729143554961744,-0.041892153570349,0.2682739527643926,0.5129584639764745,-0.2553793875761149,-0.12440492183729439,-0.37754025002839053,-0.1724691241186803,-0.20316001946248577,-0.2694706270626252,0.06846496919182316,-0.11602267408354797,-0.11305929427892489,0.29421408361193946,0.5041878031856952,-0.11579457332792159,-0.05204836318731507,-0.25552078561946395,-0.1891525287030793,0.2985990296344485,-0.14049772982720413,0.2485383049306734,-0.07492204728973796,0.2831288959446741,-0.37831884494039214,-0.08062125786424856,-0.06185394438121844,-0.18434489323151376,0.09880236882405896,0.07883169930570838,0.26614070500474424,0.1694494118154771,0.2526989993031634,-0.20515528793482132,-0.05330434100548272,0.0926027361792383,0.38615117740358956,0.25955515344524505,-0.6942234429006465,0.025026491008064217,-0.08813557278177654,0.19583327279779184,-0.217618757899229,-0.13442500096047005,0.060433682677337154,0.5375257822899816,0.47621223152453446,-0.1900943560359806,0.025501036949694182,0.6068534877378794,-0.1280136720419603,0.115129213805231,0.15511883969538096,-0.29428583634122146,0.04880554067589881,0.05095213341785095,-0.0959822515133176,0.48981817283925627,-0.6629982588379278,0.12483038165130003,0.008911606360657121,0.15770114894461676,0.07968179363692264,0.06320105845997571,-0.07758514493487975,0.1414678384377636,-0.2973405961268873,0.03706689265130911,-0.009608004348995,0.27816664480043823,0.08690734699705002,0.07439927663330789,0.03767436403070266,-0.14263245770511818,-0.03669077045245431,-0.0383355351343859,-0.5352838111794307,-0.03574839001660561,0.16453028619636637,0.30541663611340164,-0.02934412929938806,0.4452772399897269,0.336782175629755,0.198313079441586,-0.5346630019588539,0.4669601514046617,-0.012479274199288386,0.1255529326077514,-0.1726758380592223,-0.14455774507093044,-0.03713906558270874,0.14273710575853238,0.04493662590604403,-0.3456768422977252,-0.5043030950091755,0.35119534320197926,0.2614828043493024,0.32880386217988183,0.04473769145589905,-0.18371906313170017,-0.1423619271601705,-0.11847937294467766,0.38924323861723253,-0.4073794892844913,-0.12228257693111604,0.5494826707246021,-0.22713193672184895,0.2937478763450598,-0.36018650365963956,-0.4591968163322377,0.1174683762217296,0.34553131757942823,0.5265767957023153,0.401727380656787,0.07070696533329693,0.2521230079042846,-0.038370766290193564,-0.27034147803561326,-0.2488183136556788,-0.10017720977558635,-0.4733615320969697,0.2524037287062558,-0.7298280161724402,-0.19247116697312783,0.08498622254195988,-0.34479925908221903,0.24138041539265365,-0.777308256704888,0.3821280394365715,-0.11584093817089659,-0.15736239301975072,-0.05809951039285308,-0.15075959261881225,-0.3556036293606415,-0.018341251852087556,-0.3810326263721672,-0.026321533879405747,-0.29770445290725345,-0.42064614618725155,0.08942764962231883,-0.14789279770417638,-0.07753673968321369,-0.0499305262768673,0.15864379406151907,0.14828921952932084,-0.22284750827026514,-0.3000132246873379,0.05870736681519279,-0.23799924815227988,-0.6852432377110002,0.19722976911718204,0.41144415283699765,0.46243224609158723,0.32040763997539257,0.22059925072149864,0.2598555752812838,-0.05048187985005757,0.07524612153181559,-0.24691111236083296,-0.05586048075177775,-0.06881554937532933,0.7402333770215027,-0.05441822401768995,0.21613888033660264,0.15733708771116453,-0.052908249691849624,0.09106433572705298,0.43158120501751146,-0.4629793862396042,-0.5384030338085268,0.08980563675140937,-0.4742455073938978,0.028260923123847884,0.2808253341036086,-0.3915872710800531,-0.07954113907299672,-0.06401644627097777,0.08647088531675697,0.26824453651787716,0.07633953256937141,-0.2014400814715779,0.3972005898949047,-0.027776245770147492,-0.05059625209180148,-0.46583885646798906,-0.37126981480618393,-0.052468169838209136,-0.3379692015479047,-0.05260115532599075,-0.679626518482767,0.23534438764246934,0.19445683800199173,-0.3606017376240448,-0.07890739535349686,0.0635406946671552,-0.1302004049008218,-0.1350812293557716,-0.07580752760569442,0.08565102523260135,-0.13511249447383095,0.05022640367968468,0.43630696525607104,0.0035276564304721515,0.3329605767123982,-0.18920050572230085,-0.222645635230839,0.03464883559044941,0.01638124712402139,-0.25811702519088,0.006059758908507948,-0.05128289273644766,-0.20931460565378013,0.043226715129054454,0.00033414214147093474,-0.3234511937181811,-0.33630949692638795,-0.16552780314661136,-0.07484874908370794,0.3182272960079383,0.1338476867100112,0.04174228028173166,-0.7660902974982251,0.31613409647587204,0.33358551260906777,-0.19867929048698865,-0.04187142350813498,0.11238080975204336,-0.36151919528228893,-0.23315272241948026,0.1490210293714421,-0.11570843876537007,-0.4062166666699119,-0.20979091459955176,-0.02506065006428631,-0.16295507205034815,0.026720797077906012,-0.20176005635830374,0.18541056441439083,-0.1022629120256638,0.10787695171012418,0.20699786497900735,0.52244372396512,0.16535161253377406,0.2845322299732399,0.18962626513611797,-0.032333475836505504,-0.1878072071405184,-0.3419077117775884,-0.44404690454709306,-0.10821517905593721,0.7090198660412884,-0.11085210148641096,0.3317588079470367,0.35203005939205606,-0.1809823763524946,0.20573268042278386,0.029701505028413067,0.10448742590368792,-0.0731082655523978,0.26863338855120356,0.6968315164244524,-0.04666121017849114,0.12604844135539436,0.21192123860718318,-0.09890846185587167,0.4300528239842823,0.17782024317901027,0.24145483623345082,0.19017376206022704,-0.10040983726598825,0.3008314275184873,0.09644603394809899,-0.4031341192311227,0.13957442104751477,0.09207651846573646,-0.430435576759377,-0.1590297222746738,-0.17499006267495665,-0.04357912160421899,0.18520255900551796,-0.11808192337936638,0.17955410974548133,-0.17165243226985055,-0.31219779409276927,-0.07993244712417638,0.20683538964275144,0.23829225884481933,0.15712095907602142,-0.195653671085882,0.1702321843351295,-0.17351268327152242,0.24581970412428275,-0.01001676030490692,-0.01609751545910393,-0.4491138809046004,0.20703682122870048,0.11999008687011918,-0.2884440406965847,0.28587331792886317,-0.042979403695454166,-0.08531000186415957,0.00487788948910561,-0.2596863847302694,-0.13841461732377464,0.08375371986467618,-0.0349866435371829,-0.2218747258985438,0.1738081276817814,-0.0789402395756815,0.10861050938497982,-0.05696606575747583,-0.07185611029238113,-0.5246465118247985,0.1920874590324919,0.18409501503807094,0.39850507383847233,0.3019129394191142,-0.20342140004342513,0.4816505705616382,-0.09308426972743297,-0.012750677445034147,0.31363466758822167,-0.2681003140429865,-0.37337303800984956,-0.24813267040985826,-0.21337770788792096,-0.426948276887142,-0.12197491815413047,0.18095808052533777,-0.13247525872918473,-0.250247806483369,-0.04183083535996953,0.11922317687048734,-0.22567556516761395,0.09345054830499168,-0.031542330962235965,-0.3039193770327947,-0.05118960786127866,-0.040818171117066815,0.38050278968048834,0.0742380164329525,-0.11360059948707109,-0.04336493707692458,0.2323911945011957,-0.03832959752734859,0.21059618286877474,0.18317144507352334,-0.2882251097109378,0.04209293444816737,-0.13256507331415593,0.2329092239175015,-0.0007628905616036893,-0.051180835136630194,-0.17344623861947905,-0.04953406314677408,-0.018194560204303118,-0.35118492750450003,0.3236996061387949,-0.2611789878850548,0.27122642815554693,0.08807796001056331,-0.5469640570639219,0.5216486098298037,0.26369469919734023,0.28753183178974856,0.17301564709436665,0.30470619676433525,-0.11773428898635908,-0.24721117050674718,0.06933837481021629,0.30042596481564426,-0.017747067994210323,0.4202836506353054,0.32225526807922966,-0.30354225592747386,-0.10237743528258951,0.24509152191014974,-0.4021351959833103,-0.07788728057062586,0.11105731401755223,0.4152513302721324,0.5106642898767556,0.6162881893172986,0.05565183038596834,0.1476745962521869,-0.162724855080642,-0.02235927076994371,-0.14500024657359076,0.12806356592091386,-0.12811952642727592,0.11528582640675263,-0.02697878490552979,0.2716623968157209,0.21642600681375374,0.11785678501707054,0.5406070854010215,-0.21355235709819412,-0.28890050274680784,0.5347469601154439,0.24331820079602015,0.28028209974459106,-0.1409315908844818,0.32331709250256546,0.22502858154357788,-0.2128343489581165,0.02306238036913631,-0.23435207602767322,0.1485893544508415,-0.3021860070672122,-0.30124569982645305,-0.2850013900586503,0.008730027112217455,0.17592366630736217,0.05314240630711965,0.05100400205035232,-0.06521679757907393,0.35827210151788297,-0.13682539996607143,-0.14454967304023011,0.29153047821990113,-0.085728151573152,-0.05966429784138417,-0.33852710073799713,0.017141355319871984,-0.10087468704556705,0.10643167445066992,-0.016155678151477844,-0.06741697924868273,-0.2402895307593799,-0.16508440822922468,-0.122692961957924,-0.06520196829213623,-0.26165013754353417,-0.5766643153567085,0.14978590725231705,0.24128362124540287,0.1280618993832994,0.34018258181895356,0.18790789192107865,0.6357565828760176,0.22719902231487915,-0.21164085846308245,-0.36604486102207795,-0.0880232025790913,-0.38425151859662016,0.03209119854560826,0.03446505854531197,0.10762291863491293,-0.006085475053034434,0.30985658485852824,0.22918596882519723,-0.4100770764266234,-0.22730315765243758,-0.36413257188715303,-0.33409096061379095,0.10026614196896638,0.2247449796706615,0.5233335604107079,-0.35826481013508,-0.12207214449766796,0.07570902890818086,0.299893103503547,-0.12095608600794751,-0.07882632697946562,0.05831036386091171,0.2548276404254053,0.02687594669246745,0.13238403493642206,-0.2692444067759381,0.20248330805356773,0.21459847719633487,-0.09515517429834673,-0.4425265825368059,0.11453885909755629,0.07978605003822344,-0.17778157641822848,-0.1893663895603935,-0.18492524065292132,0.09267358188232828,-0.04257919024120781,-0.40863594221601546,0.03988413098181738,0.15128908819127898,-0.12721602721483588
quantity,-0.2565752499792572,0.16477395335131367,-0.21787663070071708,0.09874930815880131,0.008916856786281804,-0.17313262485223305,-0.15630054380433137,-0.0006904250696141727,-0.2753166123345689,-0.37717330792704373,0.07360501751665853,0.23538952769910934,-0.37820564732086964,-0.09742074938214827,0.28422570145958126,0.1103558353569603,0.35034408369776815,0.15315652503872088,-0.5241262557194708,0.20212527844451292,0.23357553476267862,-0.6829241595382171,-0.10029595878153336,0.048285863679351,-0.23715840390559978,0.259584752482786,0.47888963363140696,0.2843342194428121,0.1887396612576423,0.12268895105657879,-0.5084896559289362,0.28448827530711596,0.12014461279151675,0.38019995500869486,-0.23256457696737026,-0.12764067078258265,-0.08336345581063362,-0.09634933833857212,0.40509183252521774,-0.05600261785814477,-0.3348543904610821,0.16569158359994443,-0.7268055243656011,0.0019180227541608398,0.02901449603405677,0.6529823144811467,0.3352139235267725,0.3190337454475104,-0.23762718882803063,-0.15206514973007398,0.12275437988890632,-0.33354324466861474,0.04959443724355593,-0.007978016791545372,0.13386087195584168,-0.20341951874942069,0.1928657850353494,-0.1211204443378022,0.141559663330752,-0.3415399252568776,0.24749054356950234,0.05870993718874587,-0.2438342961678915,0.4335064021709667,-0.290135369426237,-0.004679713984198976,5.0006190278790996e-05,0.11598418219186625,-0.16840353727997634,0.08930277079246347,-0.029887329631993302,0.11379063052890992,0.201199550293452,-0.2367734819344978,0.6702082297650839,-0.348688012430537,0.2640291692462596,0.4817471044088085,0.21145993373991825,0.13204819744388527,-0.046175062315452084,-0.4145414110919086,0.20400371040806148,-0.36847271392352365,-0.1787403982967575,-0.38964009644190895,0.04186059065966249,0.07359905926312241,-0.045931688593585235,-0.06443492362667058,0.018402573180441348,0.16169623051412854,0.2994379534412812,-0.09114656720724418,-0.2706646938871482,0.050131181315815745,0.25928879547742967,0.12151093779726084,0.13422967910064096,0.6371208782161095,0.16509306083899736,0.3140429311449289,0.40202531641504663,0.34978121097863135,0.11568641733895788,-0.18930083163139313,-0.16777448152497765,0.26024621194944075,0.10471225109579876,0.0082699340761745,-0.19247370599775146,0.23627373972759957,-0.4384784464425408,-0.28865686437578114,-0.38344224145190897,-0.44391064584878104,0.2587087021460656,-0.2465965822045642,0.03585848040955049,-0.24574983647260945,0.4772100862529756,-0.017541959835559607,-0.19416120454499655,-0.25213234761789305,-0.6866202497855696,0.07320265064845913,0.07343458724992524,-0.5548373047259032,0.03391658669766022,0.07087397827748666,0.10042499646574089,0.10712489968073681,0.16879473748838686,-0.1467627237529131,0.017260773992266172,-0.3627904731469143,0.2541828459239926,0.02310891238245767,0.17585494716958794,-0.22628935499209304,-0.044147833862723945,0.0591616267006779,-0.30241217462232006,0.08472884170427626,0.04724450290551943,-0.42829341862823833,-0.22736334100536615,-0.24451596557906063,0.3921211340652644,0.11003477367471744,-0.057862058447535294,-0.02021974651372655,-0.029753159563162542,0.14839896986164114,-0.32248591537743887,-0.39068726098300943,0.2175072134013948,-0.13696268992776953,-0.1843593629442453,-0.006426241744994025,0.4479723042605352,0.11302797839006667,-0.010641205575576053,-0.33294080591522607,-0.0821794931082357,0.2056061778265345,0.045003485040509536,0.068447504665368,0.2240709706127588,-0.2353055468684379,-0.0971220562382563,-0.3992448879904752,0.4676397777497238,-0.0919990219211671,-0.39300125841440564,-0.05578893895953731,-0.15287552304968646,0.062355872330273274,-0.11487908210331227,-0.012914754182920256,-0.014322332832675663,-0.2839890727388635,0.38471349032984903,0.39645366863603765,-0.0988150750641536,-0.11506938199474445,0.21271256346222153,-0.3050242993294775,-0.12534131057534403,-0.08073908498655273,-0.1701086822554985,-0.30482618884517537,0.1625526583920158,-0.11185619549209297,-0.28615507164748233,-0.17314166579003012,-0.35353241695987153,0.15216828329761078,-0.15266573583580068,-0.10210639046051666,0.04509584715266025,0.23614814631759667,-0.19004917843604902,0.18430310087424867,-0.20000097225306954,0.4459480246686801,-0.4553828369192606,0.16161299839904839,0.05954125562603467,0.0019805202841736715,0.048503530737845364,-0.232620192057831,0.018788295109757883,0.14941208398813394,-0.10438095918537962,-0.00045349605099537384,-0.016134606377731217,-0.09179289531597754,0.25331243714045715,0.4331616253515794,0.34619604826860145,0.044119891992148164,-0.15031198761929437,-0.3665238086947164,-0.1303733995648276,0.10603839254864206,0.0054214708432051804,0.5243677656860543,-0.17451663516458707,-0.36580494206073083,0.00950104760439266,0.03842921538548965,0.052169846334014974,0.12151939506634785,0.0916199880498848,-0.24816678204610407,-0.17748118338439037,0.2736171964720792,-0.15251596512114007,-0.02734920110929811,0.014684399649510915,0.03029353376320534,0.36972425897047595,-0.1845006623415199,-0.02213912755995657,-0.05399876305551398,0.1324500765339261,-0.07705645217986044,0.15023792262320607,-0.18760734575406313,0.09836229350952588,0.0340253226421939,-0.33841405719088813,-0.08559412522226667,0.3003990527317095,-0.3877573781336769,0.06009586610680079,0.2963126066128787,0.68662661113677,-0.2069274035872561,0.3311624370437892,0.5803127467460831,0.16481317416559746,0.6837110570812818,0.13008412320681037,0.1761353018576056,-0.3095600005709961,0.6014019508850718,-0.3465951870324887,-0.46839228747622563,0.10950916970913058,-0.0059669894386052665,0.11959888552274506,0.0030098606931432074,-0.37482803998933156,0.3349090308950335,-0.18324932214340584,-0.0872252798909604,0.26300352873433125,-0.0525732509652342,0.35079929903395796,-0.18421719861040944,-0.057326091957809876,0.3522487672564012,-0.1497278839003226,-0.2718811723697368,-0.08914667220114567,-0.11850031512219092,0.3036120906301868,-0.02264889401512228,0.21052230357832388,0.6087326020159602,-0.28698312068972925,0.32028133906062234,-0.151858051590218,-0.008553360187002666,0.04972393559308838,-0.5014069618975837,-0.26526031510213394,-0.007772525365779923,-0.03527035413084435,0.2162265205016522,-0.1598017813660616,-0.2890209446496188,-0.8608125046340329,-0.25062895256642953,0.005474309677156866,0.09007776118883372,0.38513648039955733,-0.18318254000870912,0.1052570632374858,0.14169911417632702,0.051201859707140335,-0.2453428582944881,-0.3625759505091645,-0.06506623039652662,0.11742092821942729,0.36127003389501944,-0.028706054287341916,-0.21213617342173396,-0.26615275112334225,-0.4396426005433041,0.08099483981761625,0.016330847208197448,0.1598985074770593,-0.183115740570503,-0.1049200678686637,0.2372719105812244,-0.28288254812038793,-0.16780174825198213,0.1900535573301332,-0.20982903041645512,-0.09863350945030151,-0.21851352589099907,0.3056824856229945,-0.35844315383140934,0.1211980215420848,-0.036872307252839846,-0.1791739693647649,0.11374312202977707,0.0181947497565573,-0.07640091000019157,0.0959252011564017,-0.01242235320020014,-0.34941270216059,0.03339832098629319,-0.023763492891248086,0.5082707050740553,-0.3404769412179866,-0.5867917500654477,0.14114701657990725,0.31498247805290014,0.21214688482172772,-0.09663150618950857,-0.24310681233511028,-0.26911645471189627,-0.26233707384037547,0.45424464223912814,0.09651389633268986,0.002088528861957064,0.35729430097284914,0.10158873197439344,0.00037421999824632443,-0.11005592744798331,0.1487545481645398,-0.2637233320187039,-0.5080869330645942,-0.06004588962775402,0.42831760567552685,-0.44423349890901526,-0.14969220904986136,0.22762810687524196,-0.22875897271471848,-0.35909949148101594,0.015295076349732671,0.02401002722041852,0.08388806249296069,0.02248190236131353,0.13054117551646646,-0.3523394580578324,0.051252564656736194,0.17021645100818886,-0.14420591816035672,0.08949002158820647,-0.11671849525764809,0.2511576442902317,-0.17331065151688657,-0.038621805690292284,-0.029236134184738343,-0.30362207580534817,0.040551368145022755,-0.40241843165634206,-0.1315058580222635,0.10388979554318237,-0.11894284118221411,0.03501595967383101,-0.17553167408033057,0.2819407263274371,0.26776233820832546,0.2314953729989178,-0.020119153244768463,-0.12660713259258993,-0.04874834475087055,0.11443583756372817,0.6279830445507975,-0.027450934281148257,0.2510523744895459,0.17419629966769018,-0.012183850084214281,-0.40862312299315057,-0.13272000704437215,-0.0464071495290153,-0.12679862593796928,-0.007136626163949928,-0.07621425642219021,0.07289922372212962,0.264023685560298,0.16980316571689402,0.0953965241345653,0.281410738184255,0.19889873774247394,0.049199159890162075,-0.05327633372417454,0.23024783637962154,-0.15223779103324225,0.14788672820180299,0.11331800128329737,0.15894798145200362,-0.04589745582382115,0.04255641974816755,0.5920699567697477,-0.44589186725866015,0.2156503360603196,0.27539498164935194,-0.1653647777468199,-0.5633661422580509,0.07624271361948107,-0.2391106755430971,-0.17928586841969815,-0.18578195103430714,-0.2935537482789457,-0.06282642174421338,-0.3659055669418164,0.18710447432680774,0.03447647887608005,0.036522475517477684,-0.0034880976512795545,-0.25490741897093794,0.3659276989884825,-0.11431322665719615,-0.07915494771353715,-0.02799212090694445,-0.06134367679401665,0.3151137238776991,0.28966032104491757,0.018103621450702188,-0.04453713399085288,0.026170386842505652,0.15561269150675533,-0.29419368628272324,0.6048844652306522,0.16651939286200107,-0.3244909719410049,0.2851072940944318,0.06714006967198252,-0.016661148214388483,-0.14069906885247133,-0.06799365590135868,0.3558917220190081,0.15539290645524717,-0.19756354599430476,-0.05158515082571433,0.13887824735248147,0.13742714651797172,-0.14375117011635344,-0.05354515005081547,-0.11838563650204371,0.09441513417110457,-0.1776756109017471,-0.10918625403788157,-0.23381435047550195,0.28285808921459615,0.05806398557414233,-0.14940172123001907,-0.07637110220104414,-0.13438027897527932,0.03330038073904699,0.27151238494480245,-0.12291163404453101,0.6518797672550853,-0.2065180864343969,0.11354180963058744,0.21109640679377736,-0.0849707581325056,0.2869472515677941,0.32511741343006645,-0.22238128884956207,0.06381743633817537,0.12452013113385078,-0.040284174877003365,0.8812099538392307,0.07994545519747187,-0.23498812953710474,0.2956405963210469,-0.05214814194956813,0.9692227554246419,-0.04627959127588312,0.1330344727142412,0.6360913460841283,-0.11419927566803058,-0.06548000519309406,0.40610007262163056,0.44951247431608077,-0.053513457069407716,-0.2808588800094794,0.17522278834866428,0.14900675666667493,-0.13852250503087749,0.07109710069140006,-0.16734716853423592,-0.12988493228812115,-0.0652158743773997,-0.12367974719972807,0.08684288694283969,-0.17708135598275862,-0.30535197816030124,0.08126186783269423,0.06508393885469707,-0.3051932298485591,0.06484221321146907,0.11303320016573162,0.694183275486106,0.211530921565928,0.2622763344908044,-0.47283128195274876,0.1542514870847002,0.22203632656075997,-0.14531233607063573,0.4030375818946589,-0.12113953906391435,-0.3398676936423431,-0.06291152490686329,-0.0012315153869680692,0.06396429159547982,-0.01308120741187033,0.18674992286696035,-0.14270352687111462,0.25896257564511804,-0.13204515609975012,-0.4741926325501882,-0.06752509421039347,-0.07000720814458275,0.19262024632547614,0.1408086835163684,0.15029213903065208,-0.5972896165551822,0.6394912509043513,-0.16874066644176808,-0.06310629527792666,0.19913215599446757,0.10091739188454038,-0.029534122275637127,-0.002830518408137457,0.11522485056245357,-0.2870788572199906,-0.36034978206071044,-0.18377348276684724,0.23078638331586035,0.0024271834822049056,0.07220968300413863,-0.06071391645392372,0.10737258403675018,0.05789846753155902,0.15999758987593274,0.2745352097778187,-0.21785486701729415,0.3611472587375395,0.24101235432289994,-0.23889246015554205,-0.31756050939458547,0.01396072811466596,0.35271920269875473,-0.3524907219783434,-0.30843145728628724,-0.05639743402873341,0.24519246015345894,-0.24191155062982855,0.19881242086985507,0.08611354157883655,-0.055557926149899385,0.3009826957033705,0.21748564983186025,0.6016370140548262,0.26869045011805365,0.25417434287205515,-0.01880737219564785,-0.15211855853311038,-0.09599076882936683,-0.08860907175039982,-0.24461606896136442,0.1911251033334237,-0.01622904935624768,-0.21089646313605162,0.02648964021170613,0.1352399425710449,-0.05863894944847104,-0.10906914371023146,-0.2990635908262278,-0.09706387744716924,-0.04532642843824585,0.22834639997483328,-0.1757802244472049,-0.2587369981268866,-0.25808079140576806,-0.04933016599054116,0.04214483918071881,-0.028383467219827697,-0.01670356230783881,0.09267980031995562,-0.4690146583830846,0.19172660109552292,0.13357775373741065,-0.3638289984795537,0.34713967604944584,-0.27803192143048844,-0.03067743415308442,-0.05723052921617268,-0.22849879579653007,-0.12923760681505359,-0.01670961624820977,-0.2653881113412953,0.29151553043487877,0.29026606503063307,0.4269643237686149,-0.23281611789813267,-0.3025858817636435,0.10885596363168168,0.0656737585811185,-0.08335483239938303,0.2734691170959512,0.10160976238481083,0.23641425472301253,0.06450512515781727,-0.06216457160430673,0.028856556413652992,-0.3023094795008527,-0.20947596358349074,-0.2184499324718428,-0.4123146131210134,0.06461396275465463,-0.34073089509771687,0.2112341685654719,0.19712401629662935,-0.22840888190836434,0.2349451268098918,-0.2300549694313939,0.32016378131285905,0.06739069926721565,-0.1683041116554746,-0.17672130630268434,-0.19752537483360588,0.24244734742098675,-0.5295150538221873,0.06373833436567826,-0.28344136256624725,-0.07446966083787789,-0.13559673547019302,-0.17361990876881675,-0.397237154166554,0.39326380842403924,-0.20452402725927396,-0.01722733473809409,-0.14304630922598907,-0.00818831843743927,-0.09790647830164129,-0.2041456265920037,-0.1938149670699944,-0.07253326686127844,-0.23271673604817195,-0.38043274886454603,-0.3223560380781211,0.0919324987971056,-0.2697628845090971,-0.13225740585452,-0.259384571156888,0.20350517745618055,-0.2645929630198427,-0.18969515449431013,0.23428840879388732,0.21252154957007222,0.19016286239878114,0.2442121736896779,0.10205476504060751,0.07724051463429203,0.026937628614663693,0.21080487568088108,-0.13956264920835043,0.33543630560877497,-0.38196304206857423,0.11421150021398424,-0.2108395538162265,0.3061160409532104,0.3614890924299718,-0.36463211619485114,0.19513588456020867,-0.5094469755731621,-0.05063891258443968,0.3754535646291636,0.7817177714382012,-0.08786400004749399,0.20370315271835535,0.35483228463839983,-0.30001932941373977,0.15509228549005089,0.19856025859789883,0.43189605907150275,-0.14808714728682768,0.4772582210869236,-0.07119277384203614,-0.27414586258180135,-0.03123045826106103,0.036672910571427686,-0.32872991620812103,-0.24370259602428598,-0.4709625543436889,0.23731022414187952,-0.016752626033375174,0.040880843374436655,-0.02178230773345421,-0.47594621427402883,-0.3299141957123292,0.07573204400877015,0.030526841382782784,-0.28690051198351335,0.15018726502638677,0.06417454572661785,0.44456078240899005,-0.15551637577021313,0.2025314670477357,-0.052241324596890966,-0.22674230004707763,-0.06512448383732444,0.0029106030388803533,-0.45552158640881985,0.04781195659400661,0.041709029297587435,0.026386456443792842,-0.09839675654591001,0.2572588543745684,-0.5186787971926592,-0.19940741524642025,0.17051786635039648,0.2803767658810435,0.02052390609540388,-0.11055764704517915,-0.025161052937838237,0.12915015304219513,0.0050048643436360245,-0.009581772129016062,0.07324539811472311,0.27106650291002565,0.19771447650319923,0.04943914277708078,0.24859048978012477,0.20972427165703586,-0.2085740438505442,0.2694812699576587,-0.04167973966124371
negation,0.1573124171699848,-0.1295577977615331,0.007198462813231747,0.07089480732966112,0.2954947836149851,-0.16293912965101004,-0.15843974699696725,0.2343386437050024,-0.21437974665483386,-0.00724798396793408,-0.19309705475166378,0.22978741248903672,0.030544055888365142,0.03743504303045433,0.14472250171074882,-0.15389129912553826,0.17973394213424568,0.14070285773758026,0.046998264366787924,0.2847607049924164,0.052982417434306074,0.18275598076444077,-0.41255404343457747,0.06464355863468953,0.20457366862614076,-0.03908412831362536,-0.42316303504557795,-0.32359298637017747,-0.21027414259675642,0.09608481236212754,-0.03985284999892416,-0.14108687198284361,-0.15539575270681358,0.4406926822320638,-0.07517464456290647,-0.18627154378404714,0.22486561131071572,0.16300354231870756,-0.19276254330920525,0.11812765213787434,0.2029849731223718,-0.006382019979317669,0.631931207753697,0.33442224881779437,-0.018937040223957386,-0.17906497975616562,-0.13514826422937826,0.08681040341100622,-0.1818978717774319,-0.30284991417061635,0.005496276315562875,0.12323434305829907,0.004544390420227389,0.08420766666982649,0.01883381180417815,0.10369107272838358,0.07711858426329402,-0.06781654815881775,-0.11883770727632918,-0.27230606772989946,-0.3517856270002728,0.10350369299545992,-0.011831736400128186,0.1632443093455042,0.10329356382139963,0.16611782863445015,-0.05024108072759412,-0.4479099393024477,-0.1509895514325588,0.018655077741663147,-0.012636606321694291,-0.19468119625865968,-0.046663155008314035,0.003339062749397189,-0.028101489367286514,0.21997873525505932,-0.013899579040119837,0.10559015267430046,-0.01072301139283815,0.0164452669375173,0.0915503415782897,0.10831600656533863,-0.35105871712224884,0.12484336302398313,0.2535664378371857,0.1126547974863537,0.2750852318882652,-1.8087824484341658e-05,-0.13341326320565555,-0.009932530415515672,0.17262329842240187,0.18339855240952682,-0.14507768294907894,-0.11180834328402306,0.2534177044149135,0.13007709820962363,0.17218372760223494,-0.30984226955648914,0.03174733709119987,-0.08172814657170747,-0.10797189875701103,-0.13209295263522408,-0.3222875608323592,-0.17736975373350528,0.054869074031544465,0.20580916720769657,-0.11770223654629718,0.2968958483707872,0.3252661501331813,0.22188152721604004,0.07963253241595013,0.39322792933318645,0.09162935806385376,0.03608116838631791,0.2860387577867122,-0.18531253360078942,0.003953804773896856,-0.09191435362883335,-0.24470791587282603,0.07784635966569195,0.06202051785070229,0.03842125142446529,-0.30300773053351016,0.19327445586759742,-0.00925349345457185,0.034073381523424755,-0.1834001511234977,-0.10536230894268399,0.09508733857714208,-0.1322911833385164,-0.04951157445026633,0.25659474240895214,0.014692376702777121,-0.3334884624534921,0.15126671174429832,0.2832008752709073,0.30472654591393394,-0.3751817562631579,-0.1474546598204967,0.08496445217763308,-0.30714337486694515,-0.02391025818138027,0.14977802185415157,0.03192997309069189,-0.06971973993379174,0.15998610872805924,-0.32668750003919533,0.03991204997875133,-0.17582174703711795,-0.04321524437248229,0.20808256685057053,0.22058841962536035,-0.08678366087314136,0.10615187590307654,0.15183072695101507,-0.12684622823648561,0.11420591846547201,-0.07096317595848843,-0.12457307169688814,0.3504519903154484,-0.2717874003871412,0.13995758287902516,0.3644461064087862,-0.5250602362686957,-0.07983948964212716,-0.26142205955025016,-0.02731910825779093,-0.07859013070325827,0.2105936856778997,-0.08733191428878043,-0.033731581792675255,0.30942011930194846,0.317072221875537,0.26410737443158316,0.012466817310065987,-0.025606375595090842,-0.2595389622050902,-0.32879608595377974,-0.01385253689509872,0.15289935807373242,0.16286444366988745,-0.09199544723886163,-0.06408946709171608,-0.04392510174209721,0.07079824847291616,-0.1214427557165428,-0.05706773743302576,0.04687837707061043,0.11566197106730722,-0.06970331171299105,-0.1101218115819716,0.19803897811770316,-0.5459225246059177,-0.15433178429224922,0.2778435607540954,0.16307613299045348,0.2059665458392026,0.2591414073624127,-0.14799495994436038,0.017408079047361077,0.20927438600028928,0.1614730614697742,-0.21535600322924398,0.056713111255477025,-0.07370749890039248,-0.02950001693903833,0.15954087987336113,0.06243633552704924,-0.40645028055293286,0.2682816517851682,0.01860054990412392,-0.1286627587630562,0.3076511251219119,-0.0015073753647832813,0.027138418623170027,0.04911995243356148,-0.14619069995925554,-0.10964735335011085,-0.08982204811410499,0.07039296903237587,-0.21584623475069614,-0.20457292612729785,0.03728359269930436,-0.08427842881545093,0.2660915892310737,0.08282098943978004,-0.0044942749807798405,-0.17515806191962235,0.015402083909701943,0.05962019997175379,0.09750363457392414,-0.29816740990140916,0.09713147829237796,0.29578605560447,-0.11942090002296257,-0.1676825606306874,0.1789888029556021,0.13502048686334095,-0.07060344923814532,-0.02936309953798537,0.160257028174412,-0.2199987616898641,-0.01760120580909795,0.22695482894725405,0.02074261422023018,-0.18791927084082807,0.07027828576265284,0.0327106916650689,0.2281662606516049,-0.2553047416113697,0.19624607920540996,-0.05137826287137006,0.2787950600414089,-0.07365670751953417,-0.24302827302386387,-0.19539247854162378,-0.010197542240604875,0.13190219636673992,0.1638266185551117,-0.3174731202538961,-0.23710118270452962,0.16387466890431593,-0.10992795814817909,-0.20784090119163431,-0.05688026765630325,0.01658328170569151,0.35300708437640876,0.03740401560211393,0.08783446121987484,-0.08839442714207882,-0.45000640285537363,-0.12620827259535797,-0.07337561547764422,-0.01925867619977637,-0.18162372164100082,0.3121748913313264,-0.1825851356934479,0.021607159464105078,0.04712223142913446,0.12798095759155095,-0.01672185113881363,0.12743196110589983,-0.2608071297492599,-0.12220759231106972,-0.2545076831510579,-0.3616955088272771,-0.1140981682388565,0.26035283577435747,-0.10050507251403977,0.030482185891257417,-0.10417755845677543,0.09782598283865494,0.04385142134477502,0.10963574614358404,0.20448762359732467,0.052137724872419904,0.21892346918904296,0.09263538683591581,-0.3896127501736353,-0.39952587103655485,-0.10321895519405526,0.008315567162469745,0.19845023971441106,-0.04645877807505918,0.4745888770270421,-0.002938424960488071,-0.07428900179896197,-0.12116820362230922,0.20265105734322478,0.11158176877425073,0.25167286479708945,-0.31990248055737636,0.46980897267025223,0.02834784287272068,-0.4522430062638339,-0.03936703397281179,-0.41414829560315636,-0.19641505582570856,0.06273820098961452,-0.027644745960086252,-0.05650073786615754,0.005321422564150106,0.19601281404957094,-0.044978216191537065,-0.027454181997450675,0.3048969301727986,-0.08562199851595442,0.17037429373599117,0.04667415989824296,0.0765286225168624,-0.006072361683498985,0.23458647146814776,0.04591820656117422,0.19579387847650642,-0.0019817283951282494,-0.24818651319703627,-0.039234612601573654,0.36552980297294374,0.22750225394010393,0.2984251184587862,0.38734167679837134,-0.3444020867995359,-0.10798765226145386,0.23159226807211883,-0.10954456094102852,0.01895217491174482,0.2213435152513376,-0.14944961841292478,0.1849001532557464,0.3010922491583009,0.2215594705525289,0.313373664179196,-0.03796574896480458,0.03027746074051203,-0.3624380722505855,0.23144235256238258,0.04815536324101494,-0.07000137794569165,0.19305486375650202,-0.19514163182285874,-0.054134430408843984,-0.26230252244683205,-0.10087515929469963,-0.09936043767600325,0.06124599261204453,0.0742918288921033,-0.12431105223539567,-0.3630040895504863,0.016735195698288644,0.10027079988093135,0.04049382007942429,0.0303714492250741,-0.04487086605016626,0.013033904016814507,0.12475435821302523,-0.2406897712672392,-0.02007099224274199,-0.23593597030754437,-0.17543484220981767,-0.09815359793573869,0.0941908266728037,0.10262486138722826,0.2718536901302921,0.12920978016186188,-0.01027600178945455,-0.24448174591140778,0.2687886029962302,-0.332072899802521,0.15816438119416512,0.056452027672884784,0.6422643906918873,-0.08722203367895118,-0.2172168120110376,0.07078562558425407,0.1834474960607195,-0.3651051067678624,-0.0793991370647629,-0.22512196434516896,-0.05516320680997564,-0.08261525064167864,-0.0980374144117963,-0.08423490430358008,0.38157516178470263,-0.11039903026120847,-0.2729608279396105,0.06231679779314713,0.00034596800488204116,0.2928786824227639,-0.020035133581595914,-0.23063762836845442,0.13434450755199306,0.3481529432654788,0.029398012603702877,-0.020753966845431477,0.07754149963238276,-0.17856581199627536,0.0538911871892589,0.1522388905287508,-0.04844402481136302,-0.013864750015648937,-0.031567334624776434,0.14440601972691816,-0.10992646536014425,-0.3016319109370728,0.37339418610186575,-0.28905931601954454,0.1694655553323927,-0.16654981251306913,0.10032425534300114,0.11793805463101813,-0.024865235243324027,0.1791861100511384,0.13517294337702238,-0.11083762454919635,0.08583438531993096,0.22360669597453411,0.0007067427544746288,-0.24932622073373228,0.42191549341613466,0.04634496359216942,0.19061322485382487,-0.039793449116120164,-0.03927446094465627,-0.006186569821500511,0.1677812242888211,0.14896932057650025,0.02018193565817247,0.10341487793692716,-0.19784373781587455,0.203046611652997,0.09469763360562433,0.1411277021311386,-0.03367279502942725,-0.196048108281262,-0.4406799885570605,0.3214933654930475,0.3052329149240031,-0.27528453399520725,0.08376601805112485,-0.009857616159716883,0.03005099730457085,0.01445092246627139,0.4975636233942377,-0.5634420052095068,0.02764160615195869,-0.08618184958885705,-0.053508076298507325,-0.1868691008331046,0.12462919204532559,-0.19016877826595902,-0.1246529482456763,0.07524513913792896,0.04550531472954936,0.021660663389750534,-0.2537501668355792,0.024537160931709198,-0.1589432169930711,-0.23123076184672267,-0.29950750674137594,0.21384830242309588,-0.1008446776679538,-0.00017536826167363357,0.09399083461132404,-0.0579905414762017,0.18433625270495654,0.2027096421442232,-0.09357629469341552,-0.11498765477853537,0.18541786408058183,-0.48657197909892874,0.143939829295682,-0.1684182979948082,-0.2145080048376585,0.03995966669720554,0.02299119994402269,0.005179012524336842,-0.08332314578218156,-0.13988374165777048,0.1249582649644669,-0.028029761412658352,-0.08464996587074894,0.018661174020362253,-0.09710188378700155,0.12550750707606287,0.09626831004959972,-0.41043767990531066,0.08429938802935937,0.00876314239912979,0.04490728936106349,-0.11913495637896486,0.2154314069136595,-0.08646809297977767,-0.2758358198215515,0.07143128226897968,-0.015603107637039822,-0.03500788225374149,-0.12274303918467934,0.024515201497271065,-0.19710802199931218,-0.16191315901761777,0.197885778064349,-0.14363026780850185,0.031201210767425772,-0.1126833675456726,0.10666839487746135,0.0904798526323497,0.23326700319657426,0.0439633088020385,0.10560662033093807,0.05889371287657004,0.05978840911338123,0.2186551017063908,0.25316445534632404,0.30300211149896816,-0.3353896470785041,-0.21703787565435503,0.3752851500608314,0.04539596804650761,-0.1839503559316459,-0.09790169994988575,-0.13572878536517505,-0.10104317659457154,-0.3630728086227092,0.012958907407973506,0.02574889805631145,-0.23389546132815894,0.13259996205045504,-0.17366894037496033,0.23913462476551153,-0.03953954355629327,-0.22970122994648348,-0.22853847306816946,-0.07258343981924321,-0.12431773570865298,-0.04888990485557684,-0.09473643307673536,-0.2568291012756516,0.33382505232891685,0.149353678873635,0.11090123649777059,0.13362857415025042,0.14823288789877767,-0.146047225652537,-0.14070618320215425,0.1691968092398764,0.03020979727179647,0.07516002269508147,0.10256795661680396,0.22199201850467745,-0.11732832389687022,-0.04792726493851396,0.12224306703531376,0.21344182798173267,-0.18679400377564515,-0.05083764172090777,0.07514192511338444,0.33419195562369236,-0.0221752598111671,0.03894939533266552,-0.08050145484312742,0.19399989697923845,-0.0019381789594624414,0.33800845541125774,-0.057138458608805835,0.03958240727874349,-0.23076941836542156,-0.006035899771405262,0.02102250405653497,0.28247834504318803,-0.08709277574825962,-0.02008830218093348,-0.2204664172469555,-0.022892690704774996,-0.05225864257667022,-0.2005889055602173,-0.08638233089663248,-0.021193516051916838,-0.060768433661407946,0.027784356509176964,-0.2755633182584305,0.06489043470880304,-0.26855268230145046,-0.08472587894933536,-0.18505686797230553,-0.16285116275711636,-0.12102985085834601,0.2526673513938176,-0.036526048250650214,-0.015449035573098197,-0.05392370540164898,0.1483974189943171,-0.10244922481661038,0.13300023632637753,-0.03165953317100859,0.04431124017723846,0.17699236458184542,0.2940357992964288,0.08623131224344642,0.038415602743567714,0.052907960086063216,0.034944056791620236,0.04210836682831818,0.4037363899595921,0.24580102576528182,-0.11557869239895485,-0.13740664759822224,0.31403578095064244,0.44078685695756253,0.055599965224845206,-0.4852273685597807,-0.10589891179420594,-0.10839029473198636,0.3484130139660099,0.01898444431044101,-0.06678662119423039,0.3973500026628595,0.2615007744792848,-0.1473541812072954,0.1745644127284686,-0.33548715918448874,-0.032411290374124505,0.05161850817009648,0.061918038947471346,-0.04479311501724875,-0.11419361551261241,0.07833168944355441,-0.33950487606362095,-0.3145490807927775,-0.05093855205218664,-0.6303004639654187,0.05464657996633609,0.019297142550223908,-0.09088103109150232,-0.13936625826971819,-0.15939289661634076,0.20539368822171367,-0.22876216913282418,-0.20858530567163347,0.07383674974273537,0.1013525437183739,-0.19011957274050792,-0.36896673021313053,0.19959133100197374,-0.3119455707394157,0.34769181315703557,-0.2352593304693962,-0.2026385336111831,-0.28299586037991714,0.2171733458908422,0.15282444537395423,-0.24602050509768691,0.23062815442226847,-0.06714306648249391,0.04858362002311673,0.20615580461426047,-0.14507286345826478,0.1758184260511102,-0.20829345817236417,0.15424518423098954,0.22406836304247388,0.21070682652257344,0.08044523040048866,0.20673171807381185,-0.07101864999415991,0.05060516113882876,0.24443368643838081,0.06764613459682867,0.2822734388431468,0.3164645244552855,-0.021787409587973088,-0.1715910346830248,-0.2950527125899992,0.21654167067743518,-0.14300765180875874,0.17931847018525082,-0.02245834738631156,-0.21780828388145201,0.19084939835413836,0.106882630959566,0.1255116394497332,0.013942553797415068,0.16354987662533815,-0.04556432130126896,-0.044336705215671256,-0.10188133723104728,0.2956390209667146,0.09090858171346816,-0.22386236378585342,-0.14352584643120253,0.1187717679445231,-0.060303447783783916,-0.1347502499689357,0.07950143210827063,-0.06382267606195255,0.01426128499992799,-0.2637003133835616,-0.0808539980856469,0.2594867825186714,-0.21728793037555555,-0.09939719749400741,-0.04496946379967052,0.17671102826575472,0.049092073987656776,-0.40560756103173645,0.2831258874454563,0.23413614035951896,-0.26340197560831713,-0.06179747047432191,0.04330225882456687,0.2542919748051388,0.4340840337617636,-0.11958701668706281,-0.3194873274457523,0.09197633832083997,-0.013454816586515038,0.5230952141800458,-0.05065187669847446,-0.027740408317367002,-0.4149302186210271,-0.05197631020215994,-0.19339096765165897,-0.13044623863737312,-0.02669393389751288,0.1451547291415181,-0.2260259738143026,-0.04766978590882736,-0.159569173982566,-0.2869809089234202,-0.17685863165792692,0.12072873595541346,-0.10654027463860799,-0.2662284698502132,-0.018715686357194027,-0.09440632149679479,-0.04932506190284154,-0.2819658516164882,0.06828917018703748,-0.036828507351421694,-0.01636300395042086,-0.017642672953016126,-0.26519499871589414,0.1387792399444308,-0.2631713369870204,-0.02688546957995497,0.246666217860502,-0.03594527254089989,-0.38770476681751265,-0.13197071018126932
